<?xml version="1.0" encoding="UTF-8"?>
<World>
    <x>800</x>
    <y>800</y>
    <age>1300427</age>
    <Entity type="Vegetal">
        <x>356.808</x>
        <y>347.418</y>
        <radius>50</radius>
        <quantity>1150</quantity>
        <maxQuantity>10000</maxQuantity>
    </Entity>
    <Entity type="Vegetal">
        <x>446.948</x>
        <y>424.413</y>
        <radius>50</radius>
        <quantity>565</quantity>
        <maxQuantity>10000</maxQuantity>
    </Entity>
    <Entity type="Vegetal">
        <x>238.498</x>
        <y>501.408</y>
        <radius>50</radius>
        <quantity>10000</quantity>
        <maxQuantity>10000</maxQuantity>
    </Entity>
    <Entity type="Vegetal">
        <x>531.455</x>
        <y>279.812</y>
        <radius>50</radius>
        <quantity>7505</quantity>
        <maxQuantity>10000</maxQuantity>
    </Entity>
    <Entity type="Water">
        <x>212.207</x>
        <y>343.662</y>
        <radius>50</radius>
        <quantity>10000</quantity>
        <maxQuantity>10000</maxQuantity>
    </Entity>
    <Entity type="Water">
        <x>272.3</x>
        <y>234.742</y>
        <radius>50</radius>
        <quantity>10000</quantity>
        <maxQuantity>10000</maxQuantity>
    </Entity>
    <Entity type="Water">
        <x>383.099</x>
        <y>185.915</y>
        <radius>50</radius>
        <quantity>0</quantity>
        <maxQuantity>10000</maxQuantity>
    </Entity>
    <Entity type="Water">
        <x>591.549</x>
        <y>456.338</y>
        <radius>50</radius>
        <quantity>1927</quantity>
        <maxQuantity>10000</maxQuantity>
    </Entity>
    <Entity type="Water">
        <x>497.653</x>
        <y>552.113</y>
        <radius>50</radius>
        <quantity>0</quantity>
        <maxQuantity>10000</maxQuantity>
    </Entity>
    <Entity type="Vegetal">
        <x>356.808</x>
        <y>546.479</y>
        <radius>50</radius>
        <quantity>0</quantity>
        <maxQuantity>10000</maxQuantity>
    </Entity>
    <Entity type="Vegetal">
        <x>548.357</x>
        <y>152.113</y>
        <radius>50</radius>
        <quantity>10000</quantity>
        <maxQuantity>10000</maxQuantity>
    </Entity>
    <Entity type="Herbivore">
        <x>440.78</x>
        <y>196.149</y>
        <radius>15.4552</radius>
        <angle>0.718646</angle>
        <maxSpeed>50</maxSpeed>
        <attack>20</attack>
        <energy>2</energy>
        <sex>false</sex>
        <mating>2500</mating>
        <age>28596</age>
        <hunger>788</hunger>
        <thirst>4</thirst>
        <health>5000</health>
        <NeuralNetwork>
            <NeuronLayer id="0">
                <inputsNum>17</inputsNum>
            </NeuronLayer>
            <NeuronLayer id="1">
                <Neuron id="0">
                    <weights>-1.06314 -0.421409 0.993665 -1.24039 0.830751 0.323998 -0.671847 0.52052 -1.09117 -0.248972 1.48374 -1.33621 -0.441631 -1.95596 -1.066 0.260328 -0.714072 0.780182 </weights>
                </Neuron>
                <Neuron id="1">
                    <weights>0.789252 0.985085 -2.04067 0.594348 0.0916965 1.07578 -1.40139 -0.705454 -1.5889 0.140606 0.562211 -0.423197 -1.73305 0.762886 0.439774 -0.187138 0.24282 -0.589699 </weights>
                </Neuron>
                <Neuron id="2">
                    <weights>-0.00101672 0.341142 -0.130932 -0.289791 -0.993752 -2.37285 -1.43391 0.61041 -1.09586 0.0630173 0.837063 0.0350344 2.1267 -0.382352 -0.933618 2.48427 -0.0445875 -1.87215 </weights>
                </Neuron>
                <Neuron id="3">
                    <weights>0.231082 -0.659451 -0.221204 -1.69658 -0.656998 -0.565997 0.18497 1.37008 0.0901133 -1.01636 0.219137 0.440319 -0.505667 0.319461 -1.0153 -0.357814 0.426762 0.822859 </weights>
                </Neuron>
                <Neuron id="4">
                    <weights>0.249487 -0.00138005 -0.634005 0.687738 -1.18846 -0.180717 1.12565 -1.01497 0.430669 -0.760381 -1.63141 1.54368 0.368748 0.414056 1.48631 -0.495079 0.65248 -0.0526205 </weights>
                </Neuron>
                <Neuron id="5">
                    <weights>-0.258684 0.379713 0.231366 -0.364087 -2.04935 -1.14263 0.235712 0.928567 -1.67154 -1.10031 -0.750731 0.111534 -0.890527 1.13764 0.50805 -0.285919 0.317881 0.91227 </weights>
                </Neuron>
                <Neuron id="6">
                    <weights>-0.813351 2.34113 0.34216 0.721524 -0.312644 0.988811 -0.899857 -1.28297 -0.625163 -0.139312 -0.239873 1.04479 -0.626193 -0.0404016 -1.12605 0.367209 0.748015 -1.12558 </weights>
                </Neuron>
            </NeuronLayer>
            <NeuronLayer id="2">
                <Neuron id="0">
                    <weights>1.40626 -1.81645 -0.0942751 -0.560623 -0.0159759 0.802073 1.96284 0.353615 </weights>
                </Neuron>
                <Neuron id="1">
                    <weights>-1.81322 -0.610535 0.0873846 1.02559 1.26127 -0.184723 -0.270943 0.398398 </weights>
                </Neuron>
                <Neuron id="2">
                    <weights>0.564951 1.35112 0.709314 -0.592862 -1.25474 1.2196 0.70132 -1.55743 </weights>
                </Neuron>
            </NeuronLayer>
        </NeuralNetwork>
    </Entity>
    <Entity type="Herbivore">
        <x>353.659</x>
        <y>558.466</y>
        <radius>15.4552</radius>
        <angle>-0.787739</angle>
        <maxSpeed>50</maxSpeed>
        <attack>20</attack>
        <energy>0</energy>
        <sex>true</sex>
        <mating>2500</mating>
        <age>28596</age>
        <hunger>537</hunger>
        <thirst>1979</thirst>
        <health>2076</health>
        <NeuralNetwork>
            <NeuronLayer id="0">
                <inputsNum>17</inputsNum>
            </NeuronLayer>
            <NeuronLayer id="1">
                <Neuron id="0">
                    <weights>-1.06314 -0.421409 0.993665 -1.24039 0.830751 0.323998 -0.671847 0.52052 -1.09117 -0.248972 1.48374 -1.33621 -0.441631 -1.95596 -1.066 0.260328 -0.714072 0.780182 </weights>
                </Neuron>
                <Neuron id="1">
                    <weights>0.789252 0.985085 -2.04067 0.594348 0.0916965 1.07578 -1.40139 -0.705454 -1.5889 0.140606 0.562211 -0.423197 -1.73305 0.762886 0.439774 -0.187138 0.24282 -0.589699 </weights>
                </Neuron>
                <Neuron id="2">
                    <weights>-0.00101672 0.341142 -0.130932 -0.289791 -0.993752 -2.37285 -1.43391 0.61041 -1.09586 0.0630173 0.837063 0.0350344 2.1267 -0.382352 -0.933618 2.48427 -0.0445875 -1.87215 </weights>
                </Neuron>
                <Neuron id="3">
                    <weights>0.231082 -0.659451 -0.221204 -1.69658 -0.656998 -0.565997 0.18497 1.37008 0.0901133 -1.01636 0.219137 0.440319 -0.505667 0.319461 -1.0153 -0.357814 0.426762 0.822859 </weights>
                </Neuron>
                <Neuron id="4">
                    <weights>0.249487 -0.00138005 -0.634005 0.687738 -1.18846 -0.180717 1.12565 -1.01497 0.430669 -0.760381 -1.63141 1.54368 0.368748 0.414056 1.48631 -0.495079 0.65248 -0.0526205 </weights>
                </Neuron>
                <Neuron id="5">
                    <weights>-0.258684 0.379713 0.231366 -0.364087 -2.04935 -1.14263 0.235712 0.928567 -1.67154 -1.10031 -0.750731 0.111534 -0.890527 1.13764 0.50805 -0.285919 0.317881 0.91227 </weights>
                </Neuron>
                <Neuron id="6">
                    <weights>-0.813351 2.34113 0.34216 0.721524 -0.312644 0.988811 -0.899857 -1.28297 -0.625163 -0.139312 -0.239873 1.04479 -0.626193 -0.0404016 -1.12605 0.367209 0.748015 -1.12558 </weights>
                </Neuron>
            </NeuronLayer>
            <NeuronLayer id="2">
                <Neuron id="0">
                    <weights>1.40626 -1.81645 -0.0942751 -0.560623 -0.0159759 0.802073 1.96284 0.353615 </weights>
                </Neuron>
                <Neuron id="1">
                    <weights>-1.81322 -0.610535 0.0873846 1.02559 1.26127 -0.184723 -0.270943 0.398398 </weights>
                </Neuron>
                <Neuron id="2">
                    <weights>0.564951 1.35112 0.709314 -0.592862 -1.25474 1.2196 0.70132 -1.55743 </weights>
                </Neuron>
            </NeuronLayer>
        </NeuralNetwork>
    </Entity>
    <Entity type="Herbivore">
        <x>595.028</x>
        <y>527.087</y>
        <radius>14.0975</radius>
        <angle>1.65284</angle>
        <maxSpeed>50</maxSpeed>
        <attack>20</attack>
        <energy>2</energy>
        <sex>true</sex>
        <mating>2135</mating>
        <age>20150</age>
        <hunger>788</hunger>
        <thirst>75</thirst>
        <health>5000</health>
        <NeuralNetwork>
            <NeuronLayer id="0">
                <inputsNum>17</inputsNum>
            </NeuronLayer>
            <NeuronLayer id="1">
                <Neuron id="0">
                    <weights>-1.06314 -0.421409 0.993665 -1.24039 0.830751 0.323998 -0.671847 0.52052 -1.09117 -0.248972 1.48374 -1.33621 -0.441631 -1.95596 -1.066 0.260328 -0.714072 0.780182 </weights>
                </Neuron>
                <Neuron id="1">
                    <weights>0.789252 0.985085 -2.04067 0.594348 0.0916965 1.07578 -1.40139 -0.705454 -1.5889 0.140606 0.562211 -0.423197 -1.73305 0.762886 0.439774 -0.187138 0.24282 -0.589699 </weights>
                </Neuron>
                <Neuron id="2">
                    <weights>-0.00101672 0.341142 -0.130932 -0.289791 -0.993752 -2.37285 -1.43391 0.61041 -1.09586 0.0630173 0.837063 0.0350344 2.1267 -0.382352 -0.933618 2.48427 -0.0445875 -1.87215 </weights>
                </Neuron>
                <Neuron id="3">
                    <weights>0.231082 -0.659451 -0.221204 -1.69658 -0.656998 -0.565997 0.18497 1.37008 0.0901133 -1.01636 0.219137 0.440319 -0.505667 0.319461 -1.0153 -0.357814 0.426762 0.822859 </weights>
                </Neuron>
                <Neuron id="4">
                    <weights>0.249487 -0.00138005 -0.634005 0.687738 -1.18846 -0.180717 1.12565 -1.01497 0.430669 -0.760381 -1.63141 1.54368 0.368748 0.414056 1.48631 -0.495079 0.65248 -0.0526205 </weights>
                </Neuron>
                <Neuron id="5">
                    <weights>-0.258684 0.379713 0.231366 -0.364087 -2.04935 -1.14263 0.235712 0.928567 -1.67154 -1.10031 -0.750731 0.111534 -0.890527 1.13764 0.50805 -0.285919 0.317881 0.91227 </weights>
                </Neuron>
                <Neuron id="6">
                    <weights>-0.813351 2.34113 0.34216 0.721524 -0.312644 0.988811 -0.899857 -1.28297 -0.625163 -0.139312 -0.239873 1.04479 -0.626193 -0.0404016 -1.12605 0.367209 0.748015 -1.12558 </weights>
                </Neuron>
            </NeuronLayer>
            <NeuronLayer id="2">
                <Neuron id="0">
                    <weights>1.40626 -1.81645 -0.0942751 -0.560623 -0.0159759 0.802073 1.96284 0.353615 </weights>
                </Neuron>
                <Neuron id="1">
                    <weights>-1.81322 -0.610535 0.0873846 1.02559 1.26127 -0.184723 -0.270943 0.398398 </weights>
                </Neuron>
                <Neuron id="2">
                    <weights>0.564951 1.35112 0.709314 -0.592862 -1.25474 1.2196 0.70132 -1.55743 </weights>
                </Neuron>
            </NeuronLayer>
        </NeuralNetwork>
    </Entity>
    <Entity type="Herbivore">
        <x>430.843</x>
        <y>190.053</y>
        <radius>14.0666</radius>
        <angle>-0.0908725</angle>
        <maxSpeed>50</maxSpeed>
        <attack>20</attack>
        <energy>2</energy>
        <sex>false</sex>
        <mating>2500</mating>
        <age>19975</age>
        <hunger>503</hunger>
        <thirst>302</thirst>
        <health>5000</health>
        <NeuralNetwork>
            <NeuronLayer id="0">
                <inputsNum>17</inputsNum>
            </NeuronLayer>
            <NeuronLayer id="1">
                <Neuron id="0">
                    <weights>-1.06314 -0.421409 0.993665 -1.24039 0.830751 0.323998 -0.671847 0.52052 -1.09117 -0.248972 1.48374 -1.33621 -0.441631 -1.95596 -1.066 0.260328 -0.714072 0.780182 </weights>
                </Neuron>
                <Neuron id="1">
                    <weights>0.789252 0.985085 -2.04067 0.594348 0.0916965 1.07578 -1.40139 -0.705454 -1.5889 0.140606 0.562211 -0.423197 -1.73305 0.762886 0.439774 -0.187138 0.24282 -0.589699 </weights>
                </Neuron>
                <Neuron id="2">
                    <weights>-0.00101672 0.341142 -0.130932 -0.289791 -0.993752 -2.37285 -1.43391 0.61041 -1.09586 0.0630173 0.837063 0.0350344 2.1267 -0.382352 -0.933618 2.48427 -0.0445875 -1.87215 </weights>
                </Neuron>
                <Neuron id="3">
                    <weights>0.231082 -0.659451 -0.221204 -1.69658 -0.656998 -0.565997 0.18497 1.37008 0.0901133 -1.01636 0.219137 0.440319 -0.505667 0.319461 -1.0153 -0.357814 0.426762 0.822859 </weights>
                </Neuron>
                <Neuron id="4">
                    <weights>0.249487 -0.00138005 -0.634005 0.687738 -1.18846 -0.180717 1.12565 -1.01497 0.430669 -0.760381 -1.63141 1.54368 0.368748 0.414056 1.48631 -0.495079 0.65248 -0.0526205 </weights>
                </Neuron>
                <Neuron id="5">
                    <weights>-0.258684 0.379713 0.231366 -0.364087 -2.04935 -1.14263 0.235712 0.928567 -1.67154 -1.10031 -0.750731 0.111534 -0.890527 1.13764 0.50805 -0.285919 0.317881 0.91227 </weights>
                </Neuron>
                <Neuron id="6">
                    <weights>-0.813351 2.34113 0.34216 0.721524 -0.312644 0.988811 -0.899857 -1.28297 -0.625163 -0.139312 -0.239873 1.04479 -0.626193 -0.0404016 -1.12605 0.367209 0.748015 -1.12558 </weights>
                </Neuron>
            </NeuronLayer>
            <NeuronLayer id="2">
                <Neuron id="0">
                    <weights>1.40626 -1.81645 -0.0942751 -0.560623 -0.0159759 0.802073 1.96284 0.353615 </weights>
                </Neuron>
                <Neuron id="1">
                    <weights>-1.81322 -0.610535 0.0873846 1.02559 1.26127 -0.184723 -0.270943 0.398398 </weights>
                </Neuron>
                <Neuron id="2">
                    <weights>0.564951 1.35112 0.709314 -0.592862 -1.25474 1.2196 0.70132 -1.55743 </weights>
                </Neuron>
            </NeuronLayer>
        </NeuralNetwork>
    </Entity>
    <Entity type="Herbivore">
        <x>408.627</x>
        <y>231.088</y>
        <radius>13.6933</radius>
        <angle>-2.09813</angle>
        <maxSpeed>50</maxSpeed>
        <attack>20</attack>
        <energy>2</energy>
        <sex>false</sex>
        <mating>2500</mating>
        <age>17920</age>
        <hunger>650</hunger>
        <thirst>106</thirst>
        <health>5000</health>
        <NeuralNetwork>
            <NeuronLayer id="0">
                <inputsNum>17</inputsNum>
            </NeuronLayer>
            <NeuronLayer id="1">
                <Neuron id="0">
                    <weights>-1.06314 -0.421409 0.993665 -1.24039 0.830751 0.323998 -0.671847 0.52052 -1.09117 -0.248972 1.48374 -1.33621 -0.441631 -1.95596 -1.066 0.260328 -0.714072 0.780182 </weights>
                </Neuron>
                <Neuron id="1">
                    <weights>0.789252 0.985085 -2.04067 0.594348 0.0916965 1.07578 -1.40139 -0.705454 -1.5889 0.140606 0.562211 -0.423197 -1.73305 0.762886 0.439774 -0.187138 0.24282 -0.589699 </weights>
                </Neuron>
                <Neuron id="2">
                    <weights>-0.00101672 0.341142 -0.130932 -0.289791 -0.993752 -2.37285 -1.43391 0.61041 -1.09586 0.0630173 0.837063 0.0350344 2.1267 -0.382352 -0.933618 2.48427 -0.0445875 -1.87215 </weights>
                </Neuron>
                <Neuron id="3">
                    <weights>0.231082 -0.659451 -0.221204 -1.69658 -0.656998 -0.565997 0.18497 1.37008 0.0901133 -1.01636 0.219137 0.440319 -0.505667 0.319461 -1.0153 -0.357814 0.426762 0.822859 </weights>
                </Neuron>
                <Neuron id="4">
                    <weights>0.249487 -0.00138005 -0.634005 0.687738 -1.18846 -0.180717 1.12565 -1.01497 0.430669 -0.760381 -1.63141 1.54368 0.368748 0.414056 1.48631 -0.495079 0.65248 -0.0526205 </weights>
                </Neuron>
                <Neuron id="5">
                    <weights>-0.258684 0.379713 0.231366 -0.364087 -2.04935 -1.14263 0.235712 0.928567 -1.67154 -1.10031 -0.750731 0.111534 -0.890527 1.13764 0.50805 -0.285919 0.317881 0.91227 </weights>
                </Neuron>
                <Neuron id="6">
                    <weights>-0.813351 2.34113 0.34216 0.721524 -0.312644 0.988811 -0.899857 -1.28297 -0.625163 -0.139312 -0.239873 1.04479 -0.626193 -0.0404016 -1.12605 0.367209 0.748015 -1.12558 </weights>
                </Neuron>
            </NeuronLayer>
            <NeuronLayer id="2">
                <Neuron id="0">
                    <weights>1.40626 -1.81645 -0.0942751 -0.560623 -0.0159759 0.802073 1.96284 0.353615 </weights>
                </Neuron>
                <Neuron id="1">
                    <weights>-1.81322 -0.610535 0.0873846 1.02559 1.26127 -0.184723 -0.270943 0.398398 </weights>
                </Neuron>
                <Neuron id="2">
                    <weights>0.564951 1.35112 0.709314 -0.592862 -1.25474 1.2196 0.70132 -1.55743 </weights>
                </Neuron>
            </NeuronLayer>
        </NeuralNetwork>
    </Entity>
    <Entity type="Herbivore">
        <x>551.752</x>
        <y>513.234</y>
        <radius>12.592</radius>
        <angle>-1.781</angle>
        <maxSpeed>50</maxSpeed>
        <attack>20</attack>
        <energy>2</energy>
        <sex>true</sex>
        <mating>1494</mating>
        <age>12508</age>
        <hunger>781</hunger>
        <thirst>162</thirst>
        <health>5000</health>
        <NeuralNetwork>
            <NeuronLayer id="0">
                <inputsNum>17</inputsNum>
            </NeuronLayer>
            <NeuronLayer id="1">
                <Neuron id="0">
                    <weights>-1.06314 -0.421409 0.993665 -1.24039 0.830751 0.323998 -0.671847 0.52052 -1.09117 -0.248972 1.48374 -1.33621 -0.441631 -1.95596 -1.066 0.260328 -0.714072 0.780182 </weights>
                </Neuron>
                <Neuron id="1">
                    <weights>0.789252 0.985085 -2.04067 0.594348 0.0916965 1.07578 -1.40139 -0.705454 -1.5889 0.140606 0.562211 -0.423197 -1.73305 0.762886 0.439774 -0.187138 0.24282 -0.589699 </weights>
                </Neuron>
                <Neuron id="2">
                    <weights>-0.00101672 0.341142 -0.130932 -0.289791 -0.993752 -2.37285 -1.43391 0.61041 -1.09586 0.0630173 0.837063 0.0350344 2.1267 -0.382352 -0.933618 2.48427 -0.0445875 -1.87215 </weights>
                </Neuron>
                <Neuron id="3">
                    <weights>0.231082 -0.659451 -0.221204 -1.69658 -0.656998 -0.565997 0.18497 1.37008 0.0901133 -1.01636 0.219137 0.440319 -0.505667 0.319461 -1.0153 -0.357814 0.426762 0.822859 </weights>
                </Neuron>
                <Neuron id="4">
                    <weights>0.249487 -0.00138005 -0.634005 0.687738 -1.18846 -0.180717 1.12565 -1.01497 0.430669 -0.760381 -1.63141 1.54368 0.368748 0.414056 1.48631 -0.495079 0.65248 -0.0526205 </weights>
                </Neuron>
                <Neuron id="5">
                    <weights>-0.258684 0.379713 0.231366 -0.364087 -2.04935 -1.14263 0.235712 0.928567 -1.67154 -1.10031 -0.750731 0.111534 -0.890527 1.13764 0.50805 -0.285919 0.317881 0.91227 </weights>
                </Neuron>
                <Neuron id="6">
                    <weights>-0.813351 2.34113 0.34216 0.721524 -0.312644 0.988811 -0.899857 -1.28297 -0.625163 -0.139312 -0.239873 1.04479 -0.626193 -0.0404016 -1.12605 0.367209 0.748015 -1.12558 </weights>
                </Neuron>
            </NeuronLayer>
            <NeuronLayer id="2">
                <Neuron id="0">
                    <weights>1.40626 -1.81645 -0.0942751 -0.560623 -0.0159759 0.802073 1.96284 0.353615 </weights>
                </Neuron>
                <Neuron id="1">
                    <weights>-1.81322 -0.610535 0.0873846 1.02559 1.26127 -0.184723 -0.270943 0.398398 </weights>
                </Neuron>
                <Neuron id="2">
                    <weights>0.564951 1.35112 0.709314 -0.592862 -1.25474 1.2196 0.70132 -1.55743 </weights>
                </Neuron>
            </NeuronLayer>
        </NeuralNetwork>
    </Entity>
    <Entity type="Herbivore">
        <x>383.842</x>
        <y>234.164</y>
        <radius>12.5009</radius>
        <angle>-1.52848</angle>
        <maxSpeed>50</maxSpeed>
        <attack>20</attack>
        <energy>4</energy>
        <sex>false</sex>
        <mating>1618</mating>
        <age>12104</age>
        <hunger>792</hunger>
        <thirst>470</thirst>
        <health>5000</health>
        <NeuralNetwork>
            <NeuronLayer id="0">
                <inputsNum>17</inputsNum>
            </NeuronLayer>
            <NeuronLayer id="1">
                <Neuron id="0">
                    <weights>-1.06314 -0.421409 0.993665 -1.24039 0.830751 0.323998 -0.671847 0.52052 -1.09117 -0.248972 1.48374 -1.33621 -0.441631 -1.95596 -1.066 0.260328 -0.714072 0.780182 </weights>
                </Neuron>
                <Neuron id="1">
                    <weights>0.789252 0.985085 -2.04067 0.594348 0.0916965 1.07578 -1.40139 -0.705454 -1.5889 0.140606 0.562211 -0.423197 -1.73305 0.762886 0.439774 -0.187138 0.24282 -0.589699 </weights>
                </Neuron>
                <Neuron id="2">
                    <weights>-0.00101672 0.341142 -0.130932 -0.289791 -0.993752 -2.37285 -1.43391 0.61041 -1.09586 0.0630173 0.837063 0.0350344 2.1267 -0.382352 -0.933618 2.48427 -0.0445875 -1.87215 </weights>
                </Neuron>
                <Neuron id="3">
                    <weights>0.231082 -0.659451 -0.221204 -1.69658 -0.656998 -0.565997 0.18497 1.37008 0.0901133 -1.01636 0.219137 0.440319 -0.505667 0.319461 -1.0153 -0.357814 0.426762 0.822859 </weights>
                </Neuron>
                <Neuron id="4">
                    <weights>0.249487 -0.00138005 -0.634005 0.687738 -1.18846 -0.180717 1.12565 -1.01497 0.430669 -0.760381 -1.63141 1.54368 0.368748 0.414056 1.48631 -0.495079 0.65248 -0.0526205 </weights>
                </Neuron>
                <Neuron id="5">
                    <weights>-0.258684 0.379713 0.231366 -0.364087 -2.04935 -1.14263 0.235712 0.928567 -1.67154 -1.10031 -0.750731 0.111534 -0.890527 1.13764 0.50805 -0.285919 0.317881 0.91227 </weights>
                </Neuron>
                <Neuron id="6">
                    <weights>-0.813351 2.34113 0.34216 0.721524 -0.312644 0.988811 -0.899857 -1.28297 -0.625163 -0.139312 -0.239873 1.04479 -0.626193 -0.0404016 -1.12605 0.367209 0.748015 -1.12558 </weights>
                </Neuron>
            </NeuronLayer>
            <NeuronLayer id="2">
                <Neuron id="0">
                    <weights>1.40626 -1.81645 -0.0942751 -0.560623 -0.0159759 0.802073 1.96284 0.353615 </weights>
                </Neuron>
                <Neuron id="1">
                    <weights>-1.81322 -0.610535 0.0873846 1.02559 1.26127 -0.184723 -0.270943 0.398398 </weights>
                </Neuron>
                <Neuron id="2">
                    <weights>0.564951 1.35112 0.709314 -0.592862 -1.25474 1.2196 0.70132 -1.55743 </weights>
                </Neuron>
            </NeuronLayer>
        </NeuralNetwork>
    </Entity>
    <Entity type="Herbivore">
        <x>426.678</x>
        <y>185.517</y>
        <radius>12.4176</radius>
        <angle>0.0434064</angle>
        <maxSpeed>50</maxSpeed>
        <attack>20</attack>
        <energy>0</energy>
        <sex>true</sex>
        <mating>1618</mating>
        <age>11740</age>
        <hunger>283</hunger>
        <thirst>1849</thirst>
        <health>4622</health>
        <NeuralNetwork>
            <NeuronLayer id="0">
                <inputsNum>17</inputsNum>
            </NeuronLayer>
            <NeuronLayer id="1">
                <Neuron id="0">
                    <weights>-1.06314 -0.421409 0.993665 -1.24039 0.830751 0.323998 -0.671847 0.52052 -1.09117 -0.248972 1.48374 -1.33621 -0.441631 -1.95596 -1.066 0.260328 -0.714072 0.780182 </weights>
                </Neuron>
                <Neuron id="1">
                    <weights>0.789252 0.985085 -2.04067 0.594348 0.0916965 1.07578 -1.40139 -0.705454 -1.5889 0.140606 0.562211 -0.423197 -1.73305 0.762886 0.439774 -0.187138 0.24282 -0.589699 </weights>
                </Neuron>
                <Neuron id="2">
                    <weights>-0.00101672 0.341142 -0.130932 -0.289791 -0.993752 -2.37285 -1.43391 0.61041 -1.09586 0.0630173 0.837063 0.0350344 2.1267 -0.382352 -0.933618 2.48427 -0.0445875 -1.87215 </weights>
                </Neuron>
                <Neuron id="3">
                    <weights>0.231082 -0.659451 -0.221204 -1.69658 -0.656998 -0.565997 0.18497 1.37008 0.0901133 -1.01636 0.219137 0.440319 -0.505667 0.319461 -1.0153 -0.357814 0.426762 0.822859 </weights>
                </Neuron>
                <Neuron id="4">
                    <weights>0.249487 -0.00138005 -0.634005 0.687738 -1.18846 -0.180717 1.12565 -1.01497 0.430669 -0.760381 -1.63141 1.54368 0.368748 0.414056 1.48631 -0.495079 0.65248 -0.0526205 </weights>
                </Neuron>
                <Neuron id="5">
                    <weights>-0.258684 0.379713 0.231366 -0.364087 -2.04935 -1.14263 0.235712 0.928567 -1.67154 -1.10031 -0.750731 0.111534 -0.890527 1.13764 0.50805 -0.285919 0.317881 0.91227 </weights>
                </Neuron>
                <Neuron id="6">
                    <weights>-0.813351 2.34113 0.34216 0.721524 -0.312644 0.988811 -0.899857 -1.28297 -0.625163 -0.139312 -0.239873 1.04479 -0.626193 -0.0404016 -1.12605 0.367209 0.748015 -1.12558 </weights>
                </Neuron>
            </NeuronLayer>
            <NeuronLayer id="2">
                <Neuron id="0">
                    <weights>1.40626 -1.81645 -0.0942751 -0.560623 -0.0159759 0.802073 1.96284 0.353615 </weights>
                </Neuron>
                <Neuron id="1">
                    <weights>-1.81322 -0.610535 0.0873846 1.02559 1.26127 -0.184723 -0.270943 0.398398 </weights>
                </Neuron>
                <Neuron id="2">
                    <weights>0.564951 1.35112 0.709314 -0.592862 -1.25474 1.2196 0.70132 -1.55743 </weights>
                </Neuron>
            </NeuronLayer>
        </NeuralNetwork>
    </Entity>
    <Entity type="Herbivore">
        <x>359.085</x>
        <y>546.577</y>
        <radius>11.1018</radius>
        <angle>-2.0385</angle>
        <maxSpeed>50</maxSpeed>
        <attack>20</attack>
        <energy>2</energy>
        <sex>true</sex>
        <mating>1464</mating>
        <age>6730</age>
        <hunger>0</hunger>
        <thirst>1879</thirst>
        <health>4621</health>
        <NeuralNetwork>
            <NeuronLayer id="0">
                <inputsNum>17</inputsNum>
            </NeuronLayer>
            <NeuronLayer id="1">
                <Neuron id="0">
                    <weights>-1.06314 -0.421409 0.993665 -1.24039 0.830751 0.323998 -0.671847 0.52052 -1.09117 -0.248972 1.48374 -1.33621 -0.441631 -1.95596 -1.066 0.260328 -0.714072 0.780182 </weights>
                </Neuron>
                <Neuron id="1">
                    <weights>0.789252 0.985085 -2.04067 0.594348 0.0916965 1.07578 -1.40139 -0.705454 -1.5889 0.140606 0.562211 -0.423197 -1.73305 0.762886 0.439774 -0.187138 0.24282 -0.589699 </weights>
                </Neuron>
                <Neuron id="2">
                    <weights>-0.00101672 0.341142 -0.130932 -0.289791 -0.993752 -2.37285 -1.43391 0.61041 -1.09586 0.0630173 0.837063 0.0350344 2.1267 -0.382352 -0.933618 2.48427 -0.0445875 -1.87215 </weights>
                </Neuron>
                <Neuron id="3">
                    <weights>0.231082 -0.659451 -0.221204 -1.69658 -0.656998 -0.565997 0.18497 1.37008 0.0901133 -1.01636 0.219137 0.440319 -0.505667 0.319461 -1.0153 -0.357814 0.426762 0.822859 </weights>
                </Neuron>
                <Neuron id="4">
                    <weights>0.249487 -0.00138005 -0.634005 0.687738 -1.18846 -0.180717 1.12565 -1.01497 0.430669 -0.760381 -1.63141 1.54368 0.368748 0.414056 1.48631 -0.495079 0.65248 -0.0526205 </weights>
                </Neuron>
                <Neuron id="5">
                    <weights>-0.258684 0.379713 0.231366 -0.364087 -2.04935 -1.14263 0.235712 0.928567 -1.67154 -1.10031 -0.750731 0.111534 -0.890527 1.13764 0.50805 -0.285919 0.317881 0.91227 </weights>
                </Neuron>
                <Neuron id="6">
                    <weights>-0.813351 2.34113 0.34216 0.721524 -0.312644 0.988811 -0.899857 -1.28297 -0.625163 -0.139312 -0.239873 1.04479 -0.626193 -0.0404016 -1.12605 0.367209 0.748015 -1.12558 </weights>
                </Neuron>
            </NeuronLayer>
            <NeuronLayer id="2">
                <Neuron id="0">
                    <weights>1.40626 -1.81645 -0.0942751 -0.560623 -0.0159759 0.802073 1.96284 0.353615 </weights>
                </Neuron>
                <Neuron id="1">
                    <weights>-1.81322 -0.610535 0.0873846 1.02559 1.26127 -0.184723 -0.270943 0.398398 </weights>
                </Neuron>
                <Neuron id="2">
                    <weights>0.564951 1.35112 0.709314 -0.592862 -1.25474 1.2196 0.70132 -1.55743 </weights>
                </Neuron>
            </NeuronLayer>
        </NeuralNetwork>
    </Entity>
    <Entity type="Herbivore">
        <x>497.051</x>
        <y>210.199</y>
        <radius>11.0299</radius>
        <angle>0.851802</angle>
        <maxSpeed>50</maxSpeed>
        <attack>20</attack>
        <energy>1</energy>
        <sex>false</sex>
        <mating>2500</mating>
        <age>6496</age>
        <hunger>1443</hunger>
        <thirst>488</thirst>
        <health>5000</health>
        <NeuralNetwork>
            <NeuronLayer id="0">
                <inputsNum>17</inputsNum>
            </NeuronLayer>
            <NeuronLayer id="1">
                <Neuron id="0">
                    <weights>-1.06314 -0.421409 0.993665 -1.24039 0.830751 0.323998 -0.671847 0.52052 -1.09117 -0.248972 1.48374 -1.33621 -0.441631 -1.95596 -1.066 0.260328 -0.714072 0.780182 </weights>
                </Neuron>
                <Neuron id="1">
                    <weights>0.789252 0.985085 -2.04067 0.594348 0.0916965 1.07578 -1.40139 -0.705454 -1.5889 0.140606 0.562211 -0.423197 -1.73305 0.762886 0.439774 -0.187138 0.24282 -0.589699 </weights>
                </Neuron>
                <Neuron id="2">
                    <weights>-0.00101672 0.341142 -0.130932 -0.289791 -0.993752 -2.37285 -1.43391 0.61041 -1.09586 0.0630173 0.837063 0.0350344 2.1267 -0.382352 -0.933618 2.48427 -0.0445875 -1.87215 </weights>
                </Neuron>
                <Neuron id="3">
                    <weights>0.231082 -0.659451 -0.221204 -1.69658 -0.656998 -0.565997 0.18497 1.37008 0.0901133 -1.01636 0.219137 0.440319 -0.505667 0.319461 -1.0153 -0.357814 0.426762 0.822859 </weights>
                </Neuron>
                <Neuron id="4">
                    <weights>0.249487 -0.00138005 -0.634005 0.687738 -1.18846 -0.180717 1.12565 -1.01497 0.430669 -0.760381 -1.63141 1.54368 0.368748 0.414056 1.48631 -0.495079 0.65248 -0.0526205 </weights>
                </Neuron>
                <Neuron id="5">
                    <weights>-0.258684 0.379713 0.231366 -0.364087 -2.04935 -1.14263 0.235712 0.928567 -1.67154 -1.10031 -0.750731 0.111534 -0.890527 1.13764 0.50805 -0.285919 0.317881 0.91227 </weights>
                </Neuron>
                <Neuron id="6">
                    <weights>-0.813351 2.34113 0.34216 0.721524 -0.312644 0.988811 -0.899857 -1.28297 -0.625163 -0.139312 -0.239873 1.04479 -0.626193 -0.0404016 -1.12605 0.367209 0.748015 -1.12558 </weights>
                </Neuron>
            </NeuronLayer>
            <NeuronLayer id="2">
                <Neuron id="0">
                    <weights>1.40626 -1.81645 -0.0942751 -0.560623 -0.0159759 0.802073 1.96284 0.353615 </weights>
                </Neuron>
                <Neuron id="1">
                    <weights>-1.81322 -0.610535 0.0873846 1.02559 1.26127 -0.184723 -0.270943 0.398398 </weights>
                </Neuron>
                <Neuron id="2">
                    <weights>0.564951 1.35112 0.709314 -0.592862 -1.25474 1.2196 0.70132 -1.55743 </weights>
                </Neuron>
            </NeuronLayer>
        </NeuralNetwork>
    </Entity>
    <Entity type="Herbivore">
        <x>415.901</x>
        <y>607.323</y>
        <radius>10.2943</radius>
        <angle>-2.91131</angle>
        <maxSpeed>50</maxSpeed>
        <attack>20</attack>
        <energy>2</energy>
        <sex>false</sex>
        <mating>2500</mating>
        <age>4341</age>
        <hunger>2000</hunger>
        <thirst>1187</thirst>
        <health>2116</health>
        <NeuralNetwork>
            <NeuronLayer id="0">
                <inputsNum>17</inputsNum>
            </NeuronLayer>
            <NeuronLayer id="1">
                <Neuron id="0">
                    <weights>-1.06314 -0.421409 0.993665 -1.24039 0.830751 0.323998 -0.671847 0.52052 -1.09117 -0.248972 1.48374 -1.33621 -0.441631 -1.95596 -1.066 0.260328 -0.714072 0.780182 </weights>
                </Neuron>
                <Neuron id="1">
                    <weights>0.789252 0.985085 -2.04067 0.594348 0.0916965 1.07578 -1.40139 -0.705454 -1.5889 0.140606 0.562211 -0.423197 -1.73305 0.762886 0.439774 -0.187138 0.24282 -0.589699 </weights>
                </Neuron>
                <Neuron id="2">
                    <weights>-0.00101672 0.341142 -0.130932 -0.289791 -0.993752 -2.37285 -1.43391 0.61041 -1.09586 0.0630173 0.837063 0.0350344 2.1267 -0.382352 -0.933618 2.48427 -0.0445875 -1.87215 </weights>
                </Neuron>
                <Neuron id="3">
                    <weights>0.231082 -0.659451 -0.221204 -1.69658 -0.656998 -0.565997 0.18497 1.37008 0.0901133 -1.01636 0.219137 0.440319 -0.505667 0.319461 -1.0153 -0.357814 0.426762 0.822859 </weights>
                </Neuron>
                <Neuron id="4">
                    <weights>0.249487 -0.00138005 -0.634005 0.687738 -1.18846 -0.180717 1.12565 -1.01497 0.430669 -0.760381 -1.63141 1.54368 0.368748 0.414056 1.48631 -0.495079 0.65248 -0.0526205 </weights>
                </Neuron>
                <Neuron id="5">
                    <weights>-0.258684 0.379713 0.231366 -0.364087 -2.04935 -1.14263 0.235712 0.928567 -1.67154 -1.10031 -0.750731 0.111534 -0.890527 1.13764 0.50805 -0.285919 0.317881 0.91227 </weights>
                </Neuron>
                <Neuron id="6">
                    <weights>-0.813351 2.34113 0.34216 0.721524 -0.312644 0.988811 -0.899857 -1.28297 -0.625163 -0.139312 -0.239873 1.04479 -0.626193 -0.0404016 -1.12605 0.367209 0.748015 -1.12558 </weights>
                </Neuron>
            </NeuronLayer>
            <NeuronLayer id="2">
                <Neuron id="0">
                    <weights>1.40626 -1.81645 -0.0942751 -0.560623 -0.0159759 0.802073 1.96284 0.353615 </weights>
                </Neuron>
                <Neuron id="1">
                    <weights>-1.81322 -0.610535 0.0873846 1.02559 1.26127 -0.184723 -0.270943 0.398398 </weights>
                </Neuron>
                <Neuron id="2">
                    <weights>0.564951 1.35112 0.709314 -0.592862 -1.25474 1.2196 0.70132 -1.55743 </weights>
                </Neuron>
            </NeuronLayer>
        </NeuralNetwork>
    </Entity>
    <Entity type="Herbivore">
        <x>356.401</x>
        <y>547.927</y>
        <radius>10.2086</radius>
        <angle>-1.90545</angle>
        <maxSpeed>50</maxSpeed>
        <attack>20</attack>
        <energy>2</energy>
        <sex>false</sex>
        <mating>2500</mating>
        <age>4118</age>
        <hunger>932</hunger>
        <thirst>1374</thirst>
        <health>5000</health>
        <NeuralNetwork>
            <NeuronLayer id="0">
                <inputsNum>17</inputsNum>
            </NeuronLayer>
            <NeuronLayer id="1">
                <Neuron id="0">
                    <weights>-1.06314 -0.421409 0.993665 -1.24039 0.830751 0.323998 -0.671847 0.52052 -1.09117 -0.248972 1.48374 -1.33621 -0.441631 -1.95596 -1.066 0.260328 -0.714072 0.780182 </weights>
                </Neuron>
                <Neuron id="1">
                    <weights>0.789252 0.985085 -2.04067 0.594348 0.0916965 1.07578 -1.40139 -0.705454 -1.5889 0.140606 0.562211 -0.423197 -1.73305 0.762886 0.439774 -0.187138 0.24282 -0.589699 </weights>
                </Neuron>
                <Neuron id="2">
                    <weights>-0.00101672 0.341142 -0.130932 -0.289791 -0.993752 -2.37285 -1.43391 0.61041 -1.09586 0.0630173 0.837063 0.0350344 2.1267 -0.382352 -0.933618 2.48427 -0.0445875 -1.87215 </weights>
                </Neuron>
                <Neuron id="3">
                    <weights>0.231082 -0.659451 -0.221204 -1.69658 -0.656998 -0.565997 0.18497 1.37008 0.0901133 -1.01636 0.219137 0.440319 -0.505667 0.319461 -1.0153 -0.357814 0.426762 0.822859 </weights>
                </Neuron>
                <Neuron id="4">
                    <weights>0.249487 -0.00138005 -0.634005 0.687738 -1.18846 -0.180717 1.12565 -1.01497 0.430669 -0.760381 -1.63141 1.54368 0.368748 0.414056 1.48631 -0.495079 0.65248 -0.0526205 </weights>
                </Neuron>
                <Neuron id="5">
                    <weights>-0.258684 0.379713 0.231366 -0.364087 -2.04935 -1.14263 0.235712 0.928567 -1.67154 -1.10031 -0.750731 0.111534 -0.890527 1.13764 0.50805 -0.285919 0.317881 0.91227 </weights>
                </Neuron>
                <Neuron id="6">
                    <weights>-0.813351 2.34113 0.34216 0.721524 -0.312644 0.988811 -0.899857 -1.28297 -0.625163 -0.139312 -0.239873 1.04479 -0.626193 -0.0404016 -1.12605 0.367209 0.748015 -1.12558 </weights>
                </Neuron>
            </NeuronLayer>
            <NeuronLayer id="2">
                <Neuron id="0">
                    <weights>1.40626 -1.81645 -0.0942751 -0.560623 -0.0159759 0.802073 1.96284 0.353615 </weights>
                </Neuron>
                <Neuron id="1">
                    <weights>-1.81322 -0.610535 0.0873846 1.02559 1.26127 -0.184723 -0.270943 0.398398 </weights>
                </Neuron>
                <Neuron id="2">
                    <weights>0.564951 1.35112 0.709314 -0.592862 -1.25474 1.2196 0.70132 -1.55743 </weights>
                </Neuron>
            </NeuronLayer>
        </NeuralNetwork>
    </Entity>
    <Entity type="Herbivore">
        <x>531.317</x>
        <y>576.146</y>
        <radius>10.1603</radius>
        <angle>0.515954</angle>
        <maxSpeed>50</maxSpeed>
        <attack>20</attack>
        <energy>1</energy>
        <sex>false</sex>
        <mating>1494</mating>
        <age>3995</age>
        <hunger>1154</hunger>
        <thirst>1215</thirst>
        <health>3394</health>
        <NeuralNetwork>
            <NeuronLayer id="0">
                <inputsNum>17</inputsNum>
            </NeuronLayer>
            <NeuronLayer id="1">
                <Neuron id="0">
                    <weights>-1.06314 -0.421409 0.993665 -1.24039 0.830751 0.323998 -0.671847 0.52052 -1.09117 -0.248972 1.48374 -1.33621 -0.441631 -1.95596 -1.066 0.260328 -0.714072 0.780182 </weights>
                </Neuron>
                <Neuron id="1">
                    <weights>0.789252 0.985085 -2.04067 0.594348 0.0916965 1.07578 -1.40139 -0.705454 -1.5889 0.140606 0.562211 -0.423197 -1.73305 0.762886 0.439774 -0.187138 0.24282 -0.589699 </weights>
                </Neuron>
                <Neuron id="2">
                    <weights>-0.00101672 0.341142 -0.130932 -0.289791 -0.993752 -2.37285 -1.43391 0.61041 -1.09586 0.0630173 0.837063 0.0350344 2.1267 -0.382352 -0.933618 2.48427 -0.0445875 -1.87215 </weights>
                </Neuron>
                <Neuron id="3">
                    <weights>0.231082 -0.659451 -0.221204 -1.69658 -0.656998 -0.565997 0.18497 1.37008 0.0901133 -1.01636 0.219137 0.440319 -0.505667 0.319461 -1.0153 -0.357814 0.426762 0.822859 </weights>
                </Neuron>
                <Neuron id="4">
                    <weights>0.249487 -0.00138005 -0.634005 0.687738 -1.18846 -0.180717 1.12565 -1.01497 0.430669 -0.760381 -1.63141 1.54368 0.368748 0.414056 1.48631 -0.495079 0.65248 -0.0526205 </weights>
                </Neuron>
                <Neuron id="5">
                    <weights>-0.258684 0.379713 0.231366 -0.364087 -2.04935 -1.14263 0.235712 0.928567 -1.67154 -1.10031 -0.750731 0.111534 -0.890527 1.13764 0.50805 -0.285919 0.317881 0.91227 </weights>
                </Neuron>
                <Neuron id="6">
                    <weights>-0.813351 2.34113 0.34216 0.721524 -0.312644 0.988811 -0.899857 -1.28297 -0.625163 -0.139312 -0.239873 1.04479 -0.626193 -0.0404016 -1.12605 0.367209 0.748015 -1.12558 </weights>
                </Neuron>
            </NeuronLayer>
            <NeuronLayer id="2">
                <Neuron id="0">
                    <weights>1.40626 -1.81645 -0.0942751 -0.560623 -0.0159759 0.802073 1.96284 0.353615 </weights>
                </Neuron>
                <Neuron id="1">
                    <weights>-1.81322 -0.610535 0.0873846 1.02559 1.26127 -0.184723 -0.270943 0.398398 </weights>
                </Neuron>
                <Neuron id="2">
                    <weights>0.564951 1.35112 0.709314 -0.592862 -1.25474 1.2196 0.70132 -1.55743 </weights>
                </Neuron>
            </NeuronLayer>
        </NeuralNetwork>
    </Entity>
    <Entity type="Herbivore">
        <x>359.803</x>
        <y>545.726</y>
        <radius>9.3103</radius>
        <angle>-0.737425</angle>
        <maxSpeed>50</maxSpeed>
        <attack>20</attack>
        <energy>2</energy>
        <sex>false</sex>
        <mating>2135</mating>
        <age>2135</age>
        <hunger>387</hunger>
        <thirst>960</thirst>
        <health>5000</health>
        <NeuralNetwork>
            <NeuronLayer id="0">
                <inputsNum>17</inputsNum>
            </NeuronLayer>
            <NeuronLayer id="1">
                <Neuron id="0">
                    <weights>-1.06314 -0.421409 0.993665 -1.24039 0.830751 0.323998 -0.671847 0.52052 -1.09117 -0.248972 1.48374 -1.33621 -0.441631 -1.95596 -1.066 0.260328 -0.714072 0.780182 </weights>
                </Neuron>
                <Neuron id="1">
                    <weights>0.789252 0.985085 -2.04067 0.594348 0.0916965 1.07578 -1.40139 -0.705454 -1.5889 0.140606 0.562211 -0.423197 -1.73305 0.762886 0.439774 -0.187138 0.24282 -0.589699 </weights>
                </Neuron>
                <Neuron id="2">
                    <weights>-0.00101672 0.341142 -0.130932 -0.289791 -0.993752 -2.37285 -1.43391 0.61041 -1.09586 0.0630173 0.837063 0.0350344 2.1267 -0.382352 -0.933618 2.48427 -0.0445875 -1.87215 </weights>
                </Neuron>
                <Neuron id="3">
                    <weights>0.231082 -0.659451 -0.221204 -1.69658 -0.656998 -0.565997 0.18497 1.37008 0.0901133 -1.01636 0.219137 0.440319 -0.505667 0.319461 -1.0153 -0.357814 0.426762 0.822859 </weights>
                </Neuron>
                <Neuron id="4">
                    <weights>0.249487 -0.00138005 -0.634005 0.687738 -1.18846 -0.180717 1.12565 -1.01497 0.430669 -0.760381 -1.63141 1.54368 0.368748 0.414056 1.48631 -0.495079 0.65248 -0.0526205 </weights>
                </Neuron>
                <Neuron id="5">
                    <weights>-0.258684 0.379713 0.231366 -0.364087 -2.04935 -1.14263 0.235712 0.928567 -1.67154 -1.10031 -0.750731 0.111534 -0.890527 1.13764 0.50805 -0.285919 0.317881 0.91227 </weights>
                </Neuron>
                <Neuron id="6">
                    <weights>-0.813351 2.34113 0.34216 0.721524 -0.312644 0.988811 -0.899857 -1.28297 -0.625163 -0.139312 -0.239873 1.04479 -0.626193 -0.0404016 -1.12605 0.367209 0.748015 -1.12558 </weights>
                </Neuron>
            </NeuronLayer>
            <NeuronLayer id="2">
                <Neuron id="0">
                    <weights>1.40626 -1.81645 -0.0942751 -0.560623 -0.0159759 0.802073 1.96284 0.353615 </weights>
                </Neuron>
                <Neuron id="1">
                    <weights>-1.81322 -0.610535 0.0873846 1.02559 1.26127 -0.184723 -0.270943 0.398398 </weights>
                </Neuron>
                <Neuron id="2">
                    <weights>0.564951 1.35112 0.709314 -0.592862 -1.25474 1.2196 0.70132 -1.55743 </weights>
                </Neuron>
            </NeuronLayer>
        </NeuralNetwork>
    </Entity>
    <Entity type="Herbivore">
        <x>444.204</x>
        <y>546.9</y>
        <radius>9.3103</radius>
        <angle>-1.90051</angle>
        <maxSpeed>50</maxSpeed>
        <attack>20</attack>
        <energy>2</energy>
        <sex>true</sex>
        <mating>2135</mating>
        <age>2135</age>
        <hunger>1240</hunger>
        <thirst>130</thirst>
        <health>5000</health>
        <NeuralNetwork>
            <NeuronLayer id="0">
                <inputsNum>17</inputsNum>
            </NeuronLayer>
            <NeuronLayer id="1">
                <Neuron id="0">
                    <weights>-1.06314 -0.421409 0.993665 -1.24039 0.830751 0.323998 -0.671847 0.52052 -1.09117 -0.248972 1.48374 -1.33621 -0.441631 -1.95596 -1.066 0.260328 -0.714072 0.780182 </weights>
                </Neuron>
                <Neuron id="1">
                    <weights>0.789252 0.985085 -2.04067 0.594348 0.0916965 1.07578 -1.40139 -0.705454 -1.5889 0.140606 0.562211 -0.423197 -1.73305 0.762886 0.439774 -0.187138 0.24282 -0.589699 </weights>
                </Neuron>
                <Neuron id="2">
                    <weights>-0.00101672 0.341142 -0.130932 -0.289791 -0.993752 -2.37285 -1.43391 0.61041 -1.09586 0.0630173 0.837063 0.0350344 2.1267 -0.382352 -0.933618 2.48427 -0.0445875 -1.87215 </weights>
                </Neuron>
                <Neuron id="3">
                    <weights>0.231082 -0.659451 -0.221204 -1.69658 -0.656998 -0.565997 0.18497 1.37008 0.0901133 -1.01636 0.219137 0.440319 -0.505667 0.319461 -1.0153 -0.357814 0.426762 0.822859 </weights>
                </Neuron>
                <Neuron id="4">
                    <weights>0.249487 -0.00138005 -0.634005 0.687738 -1.18846 -0.180717 1.12565 -1.01497 0.430669 -0.760381 -1.63141 1.54368 0.368748 0.414056 1.48631 -0.495079 0.65248 -0.0526205 </weights>
                </Neuron>
                <Neuron id="5">
                    <weights>-0.258684 0.379713 0.231366 -0.364087 -2.04935 -1.14263 0.235712 0.928567 -1.67154 -1.10031 -0.750731 0.111534 -0.890527 1.13764 0.50805 -0.285919 0.317881 0.91227 </weights>
                </Neuron>
                <Neuron id="6">
                    <weights>-0.813351 2.34113 0.34216 0.721524 -0.312644 0.988811 -0.899857 -1.28297 -0.625163 -0.139312 -0.239873 1.04479 -0.626193 -0.0404016 -1.12605 0.367209 0.748015 -1.12558 </weights>
                </Neuron>
            </NeuronLayer>
            <NeuronLayer id="2">
                <Neuron id="0">
                    <weights>1.40626 -1.81645 -0.0942751 -0.560623 -0.0159759 0.802073 1.96284 0.353615 </weights>
                </Neuron>
                <Neuron id="1">
                    <weights>-1.81322 -0.610535 0.0873846 1.02559 1.26127 -0.184723 -0.270943 0.398398 </weights>
                </Neuron>
                <Neuron id="2">
                    <weights>0.564951 1.35112 0.709314 -0.592862 -1.25474 1.2196 0.70132 -1.55743 </weights>
                </Neuron>
            </NeuronLayer>
        </NeuralNetwork>
    </Entity>
    <Entity type="Herbivore">
        <x>361.263</x>
        <y>556.643</y>
        <radius>9.3103</radius>
        <angle>-1.69046</angle>
        <maxSpeed>50</maxSpeed>
        <attack>20</attack>
        <energy>1</energy>
        <sex>false</sex>
        <mating>2135</mating>
        <age>2135</age>
        <hunger>287</hunger>
        <thirst>953</thirst>
        <health>5000</health>
        <NeuralNetwork>
            <NeuronLayer id="0">
                <inputsNum>17</inputsNum>
            </NeuronLayer>
            <NeuronLayer id="1">
                <Neuron id="0">
                    <weights>-1.06314 -0.421409 0.993665 -1.24039 0.830751 0.323998 -0.671847 0.52052 -1.09117 -0.248972 1.48374 -1.33621 -0.441631 -1.95596 -1.066 0.260328 -0.714072 0.780182 </weights>
                </Neuron>
                <Neuron id="1">
                    <weights>0.789252 0.985085 -2.04067 0.594348 0.0916965 1.07578 -1.40139 -0.705454 -1.5889 0.140606 0.562211 -0.423197 -1.73305 0.762886 0.439774 -0.187138 0.24282 -0.589699 </weights>
                </Neuron>
                <Neuron id="2">
                    <weights>-0.00101672 0.341142 -0.130932 -0.289791 -0.993752 -2.37285 -1.43391 0.61041 -1.09586 0.0630173 0.837063 0.0350344 2.1267 -0.382352 -0.933618 2.48427 -0.0445875 -1.87215 </weights>
                </Neuron>
                <Neuron id="3">
                    <weights>0.231082 -0.659451 -0.221204 -1.69658 -0.656998 -0.565997 0.18497 1.37008 0.0901133 -1.01636 0.219137 0.440319 -0.505667 0.319461 -1.0153 -0.357814 0.426762 0.822859 </weights>
                </Neuron>
                <Neuron id="4">
                    <weights>0.249487 -0.00138005 -0.634005 0.687738 -1.18846 -0.180717 1.12565 -1.01497 0.430669 -0.760381 -1.63141 1.54368 0.368748 0.414056 1.48631 -0.495079 0.65248 -0.0526205 </weights>
                </Neuron>
                <Neuron id="5">
                    <weights>-0.258684 0.379713 0.231366 -0.364087 -2.04935 -1.14263 0.235712 0.928567 -1.67154 -1.10031 -0.750731 0.111534 -0.890527 1.13764 0.50805 -0.285919 0.317881 0.91227 </weights>
                </Neuron>
                <Neuron id="6">
                    <weights>-0.813351 2.34113 0.34216 0.721524 -0.312644 0.988811 -0.899857 -1.28297 -0.625163 -0.139312 -0.239873 1.04479 -0.626193 -0.0404016 -1.12605 0.367209 0.748015 -1.12558 </weights>
                </Neuron>
            </NeuronLayer>
            <NeuronLayer id="2">
                <Neuron id="0">
                    <weights>1.40626 -1.81645 -0.0942751 -0.560623 -0.0159759 0.802073 1.96284 0.353615 </weights>
                </Neuron>
                <Neuron id="1">
                    <weights>-1.81322 -0.610535 0.0873846 1.02559 1.26127 -0.184723 -0.270943 0.398398 </weights>
                </Neuron>
                <Neuron id="2">
                    <weights>0.564951 1.35112 0.709314 -0.592862 -1.25474 1.2196 0.70132 -1.55743 </weights>
                </Neuron>
            </NeuronLayer>
        </NeuralNetwork>
    </Entity>
    <Entity type="Herbivore">
        <x>407.327</x>
        <y>182.884</y>
        <radius>9.01122</radius>
        <angle>-0.24995</angle>
        <maxSpeed>50</maxSpeed>
        <attack>20</attack>
        <energy>1</energy>
        <sex>false</sex>
        <mating>1618</mating>
        <age>1618</age>
        <hunger>541</hunger>
        <thirst>1556</thirst>
        <health>4944</health>
        <NeuralNetwork>
            <NeuronLayer id="0">
                <inputsNum>17</inputsNum>
            </NeuronLayer>
            <NeuronLayer id="1">
                <Neuron id="0">
                    <weights>-1.06314 -0.421409 0.993665 -1.24039 0.830751 0.323998 -0.671847 0.52052 -1.09117 -0.248972 1.48374 -1.33621 -0.441631 -1.95596 -1.066 0.260328 -0.714072 0.780182 </weights>
                </Neuron>
                <Neuron id="1">
                    <weights>0.789252 0.985085 -2.04067 0.594348 0.0916965 1.07578 -1.40139 -0.705454 -1.5889 0.140606 0.562211 -0.423197 -1.73305 0.762886 0.439774 -0.187138 0.24282 -0.589699 </weights>
                </Neuron>
                <Neuron id="2">
                    <weights>-0.00101672 0.341142 -0.130932 -0.289791 -0.993752 -2.37285 -1.43391 0.61041 -1.09586 0.0630173 0.837063 0.0350344 2.1267 -0.382352 -0.933618 2.48427 -0.0445875 -1.87215 </weights>
                </Neuron>
                <Neuron id="3">
                    <weights>0.231082 -0.659451 -0.221204 -1.69658 -0.656998 -0.565997 0.18497 1.37008 0.0901133 -1.01636 0.219137 0.440319 -0.505667 0.319461 -1.0153 -0.357814 0.426762 0.822859 </weights>
                </Neuron>
                <Neuron id="4">
                    <weights>0.249487 -0.00138005 -0.634005 0.687738 -1.18846 -0.180717 1.12565 -1.01497 0.430669 -0.760381 -1.63141 1.54368 0.368748 0.414056 1.48631 -0.495079 0.65248 -0.0526205 </weights>
                </Neuron>
                <Neuron id="5">
                    <weights>-0.258684 0.379713 0.231366 -0.364087 -2.04935 -1.14263 0.235712 0.928567 -1.67154 -1.10031 -0.750731 0.111534 -0.890527 1.13764 0.50805 -0.285919 0.317881 0.91227 </weights>
                </Neuron>
                <Neuron id="6">
                    <weights>-0.813351 2.34113 0.34216 0.721524 -0.312644 0.988811 -0.899857 -1.28297 -0.625163 -0.139312 -0.239873 1.04479 -0.626193 -0.0404016 -1.12605 0.367209 0.748015 -1.12558 </weights>
                </Neuron>
            </NeuronLayer>
            <NeuronLayer id="2">
                <Neuron id="0">
                    <weights>1.40626 -1.81645 -0.0942751 -0.560623 -0.0159759 0.802073 1.96284 0.353615 </weights>
                </Neuron>
                <Neuron id="1">
                    <weights>-1.81322 -0.610535 0.0873846 1.02559 1.26127 -0.184723 -0.270943 0.398398 </weights>
                </Neuron>
                <Neuron id="2">
                    <weights>0.564951 1.35112 0.709314 -0.592862 -1.25474 1.2196 0.70132 -1.55743 </weights>
                </Neuron>
            </NeuronLayer>
        </NeuralNetwork>
    </Entity>
    <Entity type="Herbivore">
        <x>400.046</x>
        <y>556.432</y>
        <radius>9.01122</radius>
        <angle>-1.39944</angle>
        <maxSpeed>50</maxSpeed>
        <attack>20</attack>
        <energy>2</energy>
        <sex>false</sex>
        <mating>1618</mating>
        <age>1618</age>
        <hunger>664</hunger>
        <thirst>73</thirst>
        <health>5000</health>
        <NeuralNetwork>
            <NeuronLayer id="0">
                <inputsNum>17</inputsNum>
            </NeuronLayer>
            <NeuronLayer id="1">
                <Neuron id="0">
                    <weights>-1.06314 -0.421409 0.993665 -1.24039 0.830751 0.323998 -0.671847 0.52052 -1.09117 -0.248972 1.48374 -1.33621 -0.441631 -1.95596 -1.066 0.260328 -0.714072 0.780182 </weights>
                </Neuron>
                <Neuron id="1">
                    <weights>0.789252 0.985085 -2.04067 0.594348 0.0916965 1.07578 -1.40139 -0.705454 -1.5889 0.140606 0.562211 -0.423197 -1.73305 0.762886 0.439774 -0.187138 0.24282 -0.589699 </weights>
                </Neuron>
                <Neuron id="2">
                    <weights>-0.00101672 0.341142 -0.130932 -0.289791 -0.993752 -2.37285 -1.43391 0.61041 -1.09586 0.0630173 0.837063 0.0350344 2.1267 -0.382352 -0.933618 2.48427 -0.0445875 -1.87215 </weights>
                </Neuron>
                <Neuron id="3">
                    <weights>0.231082 -0.659451 -0.221204 -1.69658 -0.656998 -0.565997 0.18497 1.37008 0.0901133 -1.01636 0.219137 0.440319 -0.505667 0.319461 -1.0153 -0.357814 0.426762 0.822859 </weights>
                </Neuron>
                <Neuron id="4">
                    <weights>0.249487 -0.00138005 -0.634005 0.687738 -1.18846 -0.180717 1.12565 -1.01497 0.430669 -0.760381 -1.63141 1.54368 0.368748 0.414056 1.48631 -0.495079 0.65248 -0.0526205 </weights>
                </Neuron>
                <Neuron id="5">
                    <weights>-0.258684 0.379713 0.231366 -0.364087 -2.04935 -1.14263 0.235712 0.928567 -1.67154 -1.10031 -0.750731 0.111534 -0.890527 1.13764 0.50805 -0.285919 0.317881 0.91227 </weights>
                </Neuron>
                <Neuron id="6">
                    <weights>-0.813351 2.34113 0.34216 0.721524 -0.312644 0.988811 -0.899857 -1.28297 -0.625163 -0.139312 -0.239873 1.04479 -0.626193 -0.0404016 -1.12605 0.367209 0.748015 -1.12558 </weights>
                </Neuron>
            </NeuronLayer>
            <NeuronLayer id="2">
                <Neuron id="0">
                    <weights>1.40626 -1.81645 -0.0942751 -0.560623 -0.0159759 0.802073 1.96284 0.353615 </weights>
                </Neuron>
                <Neuron id="1">
                    <weights>-1.81322 -0.610535 0.0873846 1.02559 1.26127 -0.184723 -0.270943 0.398398 </weights>
                </Neuron>
                <Neuron id="2">
                    <weights>0.564951 1.35112 0.709314 -0.592862 -1.25474 1.2196 0.70132 -1.55743 </weights>
                </Neuron>
            </NeuronLayer>
        </NeuralNetwork>
    </Entity>
    <Entity type="Herbivore">
        <x>584.886</x>
        <y>478.083</y>
        <radius>8.93261</radius>
        <angle>1.8689</angle>
        <maxSpeed>50</maxSpeed>
        <attack>20</attack>
        <energy>1</energy>
        <sex>true</sex>
        <mating>1494</mating>
        <age>1494</age>
        <hunger>696</hunger>
        <thirst>1</thirst>
        <health>5000</health>
        <NeuralNetwork>
            <NeuronLayer id="0">
                <inputsNum>17</inputsNum>
            </NeuronLayer>
            <NeuronLayer id="1">
                <Neuron id="0">
                    <weights>-1.06314 -0.421409 0.993665 -1.24039 0.830751 0.323998 -0.671847 0.52052 -1.09117 -0.248972 1.48374 -1.33621 -0.441631 -1.95596 -1.066 0.260328 -0.714072 0.780182 </weights>
                </Neuron>
                <Neuron id="1">
                    <weights>0.789252 0.985085 -2.04067 0.594348 0.0916965 1.07578 -1.40139 -0.705454 -1.5889 0.140606 0.562211 -0.423197 -1.73305 0.762886 0.439774 -0.187138 0.24282 -0.589699 </weights>
                </Neuron>
                <Neuron id="2">
                    <weights>-0.00101672 0.341142 -0.130932 -0.289791 -0.993752 -2.37285 -1.43391 0.61041 -1.09586 0.0630173 0.837063 0.0350344 2.1267 -0.382352 -0.933618 2.48427 -0.0445875 -1.87215 </weights>
                </Neuron>
                <Neuron id="3">
                    <weights>0.231082 -0.659451 -0.221204 -1.69658 -0.656998 -0.565997 0.18497 1.37008 0.0901133 -1.01636 0.219137 0.440319 -0.505667 0.319461 -1.0153 -0.357814 0.426762 0.822859 </weights>
                </Neuron>
                <Neuron id="4">
                    <weights>0.249487 -0.00138005 -0.634005 0.687738 -1.18846 -0.180717 1.12565 -1.01497 0.430669 -0.760381 -1.63141 1.54368 0.368748 0.414056 1.48631 -0.495079 0.65248 -0.0526205 </weights>
                </Neuron>
                <Neuron id="5">
                    <weights>-0.258684 0.379713 0.231366 -0.364087 -2.04935 -1.14263 0.235712 0.928567 -1.67154 -1.10031 -0.750731 0.111534 -0.890527 1.13764 0.50805 -0.285919 0.317881 0.91227 </weights>
                </Neuron>
                <Neuron id="6">
                    <weights>-0.813351 2.34113 0.34216 0.721524 -0.312644 0.988811 -0.899857 -1.28297 -0.625163 -0.139312 -0.239873 1.04479 -0.626193 -0.0404016 -1.12605 0.367209 0.748015 -1.12558 </weights>
                </Neuron>
            </NeuronLayer>
            <NeuronLayer id="2">
                <Neuron id="0">
                    <weights>1.40626 -1.81645 -0.0942751 -0.560623 -0.0159759 0.802073 1.96284 0.353615 </weights>
                </Neuron>
                <Neuron id="1">
                    <weights>-1.81322 -0.610535 0.0873846 1.02559 1.26127 -0.184723 -0.270943 0.398398 </weights>
                </Neuron>
                <Neuron id="2">
                    <weights>0.564951 1.35112 0.709314 -0.592862 -1.25474 1.2196 0.70132 -1.55743 </weights>
                </Neuron>
            </NeuronLayer>
        </NeuralNetwork>
    </Entity>
    <Entity type="Herbivore">
        <x>552.129</x>
        <y>512.67</y>
        <radius>8.93261</radius>
        <angle>1.33708</angle>
        <maxSpeed>50</maxSpeed>
        <attack>20</attack>
        <energy>2</energy>
        <sex>false</sex>
        <mating>1494</mating>
        <age>1494</age>
        <hunger>914</hunger>
        <thirst>338</thirst>
        <health>5000</health>
        <NeuralNetwork>
            <NeuronLayer id="0">
                <inputsNum>17</inputsNum>
            </NeuronLayer>
            <NeuronLayer id="1">
                <Neuron id="0">
                    <weights>-1.06314 -0.421409 0.993665 -1.24039 0.830751 0.323998 -0.671847 0.52052 -1.09117 -0.248972 1.48374 -1.33621 -0.441631 -1.95596 -1.066 0.260328 -0.714072 0.780182 </weights>
                </Neuron>
                <Neuron id="1">
                    <weights>0.789252 0.985085 -2.04067 0.594348 0.0916965 1.07578 -1.40139 -0.705454 -1.5889 0.140606 0.562211 -0.423197 -1.73305 0.762886 0.439774 -0.187138 0.24282 -0.589699 </weights>
                </Neuron>
                <Neuron id="2">
                    <weights>-0.00101672 0.341142 -0.130932 -0.289791 -0.993752 -2.37285 -1.43391 0.61041 -1.09586 0.0630173 0.837063 0.0350344 2.1267 -0.382352 -0.933618 2.48427 -0.0445875 -1.87215 </weights>
                </Neuron>
                <Neuron id="3">
                    <weights>0.231082 -0.659451 -0.221204 -1.69658 -0.656998 -0.565997 0.18497 1.37008 0.0901133 -1.01636 0.219137 0.440319 -0.505667 0.319461 -1.0153 -0.357814 0.426762 0.822859 </weights>
                </Neuron>
                <Neuron id="4">
                    <weights>0.249487 -0.00138005 -0.634005 0.687738 -1.18846 -0.180717 1.12565 -1.01497 0.430669 -0.760381 -1.63141 1.54368 0.368748 0.414056 1.48631 -0.495079 0.65248 -0.0526205 </weights>
                </Neuron>
                <Neuron id="5">
                    <weights>-0.258684 0.379713 0.231366 -0.364087 -2.04935 -1.14263 0.235712 0.928567 -1.67154 -1.10031 -0.750731 0.111534 -0.890527 1.13764 0.50805 -0.285919 0.317881 0.91227 </weights>
                </Neuron>
                <Neuron id="6">
                    <weights>-0.813351 2.34113 0.34216 0.721524 -0.312644 0.988811 -0.899857 -1.28297 -0.625163 -0.139312 -0.239873 1.04479 -0.626193 -0.0404016 -1.12605 0.367209 0.748015 -1.12558 </weights>
                </Neuron>
            </NeuronLayer>
            <NeuronLayer id="2">
                <Neuron id="0">
                    <weights>1.40626 -1.81645 -0.0942751 -0.560623 -0.0159759 0.802073 1.96284 0.353615 </weights>
                </Neuron>
                <Neuron id="1">
                    <weights>-1.81322 -0.610535 0.0873846 1.02559 1.26127 -0.184723 -0.270943 0.398398 </weights>
                </Neuron>
                <Neuron id="2">
                    <weights>0.564951 1.35112 0.709314 -0.592862 -1.25474 1.2196 0.70132 -1.55743 </weights>
                </Neuron>
            </NeuronLayer>
        </NeuralNetwork>
    </Entity>
    <Entity type="Herbivore">
        <x>396.65</x>
        <y>255.957</y>
        <radius>8.91311</radius>
        <angle>-2.49354</angle>
        <maxSpeed>50</maxSpeed>
        <attack>20</attack>
        <energy>2</energy>
        <sex>false</sex>
        <mating>1464</mating>
        <age>1464</age>
        <hunger>704</hunger>
        <thirst>1033</thirst>
        <health>5000</health>
        <NeuralNetwork>
            <NeuronLayer id="0">
                <inputsNum>17</inputsNum>
            </NeuronLayer>
            <NeuronLayer id="1">
                <Neuron id="0">
                    <weights>-1.06314 -0.421409 0.993665 -1.24039 0.830751 0.323998 -0.671847 0.52052 -1.09117 -0.248972 1.48374 -1.33621 -0.441631 -1.95596 -1.066 0.260328 -0.714072 0.780182 </weights>
                </Neuron>
                <Neuron id="1">
                    <weights>0.789252 0.985085 -2.04067 0.594348 0.0916965 1.07578 -1.40139 -0.705454 -1.5889 0.140606 0.562211 -0.423197 -1.73305 0.762886 0.439774 -0.187138 0.24282 -0.589699 </weights>
                </Neuron>
                <Neuron id="2">
                    <weights>-0.00101672 0.341142 -0.130932 -0.289791 -0.993752 -2.37285 -1.43391 0.61041 -1.09586 0.0630173 0.837063 0.0350344 2.1267 -0.382352 -0.933618 2.48427 -0.0445875 -1.87215 </weights>
                </Neuron>
                <Neuron id="3">
                    <weights>0.231082 -0.659451 -0.221204 -1.69658 -0.656998 -0.565997 0.18497 1.37008 0.0901133 -1.01636 0.219137 0.440319 -0.505667 0.319461 -1.0153 -0.357814 0.426762 0.822859 </weights>
                </Neuron>
                <Neuron id="4">
                    <weights>0.249487 -0.00138005 -0.634005 0.687738 -1.18846 -0.180717 1.12565 -1.01497 0.430669 -0.760381 -1.63141 1.54368 0.368748 0.414056 1.48631 -0.495079 0.65248 -0.0526205 </weights>
                </Neuron>
                <Neuron id="5">
                    <weights>-0.258684 0.379713 0.231366 -0.364087 -2.04935 -1.14263 0.235712 0.928567 -1.67154 -1.10031 -0.750731 0.111534 -0.890527 1.13764 0.50805 -0.285919 0.317881 0.91227 </weights>
                </Neuron>
                <Neuron id="6">
                    <weights>-0.813351 2.34113 0.34216 0.721524 -0.312644 0.988811 -0.899857 -1.28297 -0.625163 -0.139312 -0.239873 1.04479 -0.626193 -0.0404016 -1.12605 0.367209 0.748015 -1.12558 </weights>
                </Neuron>
            </NeuronLayer>
            <NeuronLayer id="2">
                <Neuron id="0">
                    <weights>1.40626 -1.81645 -0.0942751 -0.560623 -0.0159759 0.802073 1.96284 0.353615 </weights>
                </Neuron>
                <Neuron id="1">
                    <weights>-1.81322 -0.610535 0.0873846 1.02559 1.26127 -0.184723 -0.270943 0.398398 </weights>
                </Neuron>
                <Neuron id="2">
                    <weights>0.564951 1.35112 0.709314 -0.592862 -1.25474 1.2196 0.70132 -1.55743 </weights>
                </Neuron>
            </NeuronLayer>
        </NeuralNetwork>
    </Entity>
    <Entity type="Meat">
        <x>506.173</x>
        <y>544.373</y>
        <radius>9</radius>
        <quantity>1441</quantity>
        <maxQuantity>1946</maxQuantity>
    </Entity>
</World>
