<?xml version="1.0" encoding="UTF-8"?>
<World>
    <x>500</x>
    <y>500</y>
    <age>204695</age>
    <Entity type="Vegetal">
        <x>350</x>
        <y>400</y>
        <radius>50</radius>
        <quantity>0</quantity>
        <maxQuantity>5000</maxQuantity>
    </Entity>
    <Entity type="Vegetal">
        <x>400</x>
        <y>100</y>
        <radius>50</radius>
        <quantity>0</quantity>
        <maxQuantity>5000</maxQuantity>
    </Entity>
    <Entity type="Vegetal">
        <x>200</x>
        <y>10</y>
        <radius>50</radius>
        <quantity>10</quantity>
        <maxQuantity>5000</maxQuantity>
    </Entity>
    <Entity type="Vegetal">
        <x>380</x>
        <y>460</y>
        <radius>50</radius>
        <quantity>0</quantity>
        <maxQuantity>5000</maxQuantity>
    </Entity>
    <Entity type="Vegetal">
        <x>100</x>
        <y>200</y>
        <radius>50</radius>
        <quantity>0</quantity>
        <maxQuantity>5000</maxQuantity>
    </Entity>
    <Entity type="Vegetal">
        <x>220</x>
        <y>280</y>
        <radius>50</radius>
        <quantity>0</quantity>
        <maxQuantity>5000</maxQuantity>
    </Entity>
    <Entity type="Vegetal">
        <x>250</x>
        <y>180</y>
        <radius>50</radius>
        <quantity>1570</quantity>
        <maxQuantity>5000</maxQuantity>
    </Entity>
    <Entity type="Water">
        <x>100</x>
        <y>300</y>
        <radius>20</radius>
        <quantity>10000</quantity>
        <maxQuantity>10000</maxQuantity>
    </Entity>
    <Entity type="Water">
        <x>400</x>
        <y>250</y>
        <radius>50</radius>
        <quantity>4475</quantity>
        <maxQuantity>10000</maxQuantity>
    </Entity>
    <Entity type="Water">
        <x>450</x>
        <y>25</y>
        <radius>20</radius>
        <quantity>9961</quantity>
        <maxQuantity>10000</maxQuantity>
    </Entity>
    <Entity type="Water">
        <x>100</x>
        <y>420</y>
        <radius>50</radius>
        <quantity>60</quantity>
        <maxQuantity>10000</maxQuantity>
    </Entity>
    <Entity type="Water">
        <x>70</x>
        <y>70</y>
        <radius>50</radius>
        <quantity>412</quantity>
        <maxQuantity>10000</maxQuantity>
    </Entity>
    <Entity type="Water">
        <x>25</x>
        <y>370</y>
        <radius>20</radius>
        <quantity>9521</quantity>
        <maxQuantity>10000</maxQuantity>
    </Entity>
    <Entity type="Water">
        <x>300</x>
        <y>70</y>
        <radius>30</radius>
        <quantity>10000</quantity>
        <maxQuantity>10000</maxQuantity>
    </Entity>
    <Entity type="Water">
        <x>200</x>
        <y>400</y>
        <radius>40</radius>
        <quantity>10000</quantity>
        <maxQuantity>10000</maxQuantity>
    </Entity>
    <Entity type="Herbivore">
        <x>173.334</x>
        <y>429.216</y>
        <radius>11.9654</radius>
        <angle>1.31204</angle>
        <maxSpeed>50</maxSpeed>
        <attack>2</attack>
        <energy>0</energy>
        <sex>false</sex>
        <mating>1928</mating>
        <age>15021</age>
        <hunger>1803</hunger>
        <thirst>98</thirst>
        <health>4690</health>
        <NeuralNetwork>
            <NeuronLayer id="0">
                <inputsNum>16</inputsNum>
            </NeuronLayer>
            <NeuronLayer id="1">
                <Neuron id="0">
                    <weights>0.287273 0.282169 0.213032 0.394643 0.793602 0.618497 -2.55262 0.893505 -0.758486 0.160186 -0.00290698 1.36593 -2.34857 -2.05325 -1.63785 -2.02095 -0.145095 </weights>
                </Neuron>
                <Neuron id="1">
                    <weights>0.525157 0.783181 -0.199935 0.133058 1.3752 -0.336446 0.366843 -0.199855 -0.194041 -0.143604 0.600211 -0.969973 -0.309407 -0.750087 1.42516 -0.0710015 -0.558258 </weights>
                </Neuron>
                <Neuron id="2">
                    <weights>0.622796 -0.82239 -0.842187 0.279795 -2.19882 0.624968 -0.523226 -0.898862 -0.761761 0.713839 0.0529043 -0.315546 0.415315 -0.535144 -0.0623682 0.127293 1.04313 </weights>
                </Neuron>
                <Neuron id="3">
                    <weights>1.44905 0.709344 -0.55134 -0.367065 -1.50873 0.0559181 -0.436055 -0.282933 0.224305 0.979326 1.09946 -1.4076 -2.12439 -0.697452 -1.04698 -0.233415 -0.697562 </weights>
                </Neuron>
                <Neuron id="4">
                    <weights>0.147538 -0.986878 -0.659661 0.304114 0.847215 1.04095 0.414949 -0.286651 -0.184552 -0.08709 0.0887127 0.0982454 -0.227467 -0.632361 0.0805538 -0.369366 -1.16928 </weights>
                </Neuron>
                <Neuron id="5">
                    <weights>0.11288 -0.358489 -1.30304 -0.60852 0.54426 1.08893 -0.632276 -0.471243 0.885377 -0.493886 0.698338 0.0466192 -0.313995 0.180586 -0.411462 1.4438 0.702716 </weights>
                </Neuron>
                <Neuron id="6">
                    <weights>-0.0207041 -0.809259 -0.525295 -0.285172 -1.84435 -0.103576 -1.26291 0.0670633 -0.723051 -0.837195 0.603425 1.03744 0.291274 0.143777 -1.94633 1.27104 0.0751385 </weights>
                </Neuron>
                <Neuron id="7">
                    <weights>1.14503 -0.976926 0.239179 -0.0058511 -1.25421 -0.824351 0.904559 0.685404 -0.877194 -1.90713 -0.516457 1.77163 -1.29403 1.41797 0.178582 -0.365108 0.354428 </weights>
                </Neuron>
                <Neuron id="8">
                    <weights>-1.44689 -0.352533 -1.08589 1.25979 0.582235 1.07917 -1.16421 -0.406282 -0.363541 0.0334271 -1.52877 -1.10664 -0.18368 1.33521 -2.65897 0.861709 -1.202 </weights>
                </Neuron>
                <Neuron id="9">
                    <weights>-1.5577 -1.15251 -0.808068 1.49251 -0.945476 1.02844 -0.00405803 0.450942 0.49014 0.149446 -1.61919 1.53986 0.884917 -0.418594 -0.284999 0.729883 -2.17625 </weights>
                </Neuron>
                <Neuron id="10">
                    <weights>-0.574883 0.263198 1.47736 -0.299634 0.295722 -1.85249 0.87121 0.303964 0.970244 -2.00984 -0.214423 0.759559 -0.0326649 1.04929 0.209395 2.1414 1.0445 </weights>
                </Neuron>
                <Neuron id="11">
                    <weights>0.366891 1.08607 -0.00115007 -0.678842 -1.39662 -0.0375953 1.65676 1.07748 0.123951 1.19819 -0.89456 -0.686046 -0.999962 -2.12956 0.149722 1.23952 0.593239 </weights>
                </Neuron>
            </NeuronLayer>
            <NeuronLayer id="2">
                <Neuron id="0">
                    <weights>-0.984648 0.78631 -2.96233 -0.234037 0.390646 1.52586 0.214833 0.417761 0.289547 0.788731 1.1665 -1.4917 0.625107 </weights>
                </Neuron>
                <Neuron id="1">
                    <weights>1.07893 -2.23828 -0.534636 0.865009 0.119948 0.922765 -0.0248626 -0.651617 0.123867 0.107943 0.887107 2.09337 -1.76176 </weights>
                </Neuron>
                <Neuron id="2">
                    <weights>1.01927 -0.0239199 1.52734 -0.0293556 0.573023 -2.2769 1.96042 -0.287905 0.410788 0.639197 -0.532999 0.459826 0.0942152 </weights>
                </Neuron>
            </NeuronLayer>
        </NeuralNetwork>
    </Entity>
    <Entity type="Herbivore">
        <x>457.178</x>
        <y>385.919</y>
        <radius>11.6231</radius>
        <angle>1.14173</angle>
        <maxSpeed>50</maxSpeed>
        <attack>2</attack>
        <energy>0</energy>
        <sex>true</sex>
        <mating>2500</mating>
        <age>12308</age>
        <hunger>98</hunger>
        <thirst>586</thirst>
        <health>2035</health>
        <NeuralNetwork>
            <NeuronLayer id="0">
                <inputsNum>16</inputsNum>
            </NeuronLayer>
            <NeuronLayer id="1">
                <Neuron id="0">
                    <weights>0.287273 0.282169 0.213032 0.394643 0.793602 0.618497 -2.55262 0.893505 -0.758486 0.160186 -0.00290698 1.36593 -2.34857 -2.05325 -1.63785 -2.02095 -0.145095 </weights>
                </Neuron>
                <Neuron id="1">
                    <weights>0.525157 0.783181 -0.199935 0.133058 1.3752 -0.336446 0.366843 -0.199855 -0.194041 -0.143604 0.600211 -0.969973 -0.309407 -0.750087 1.42516 -0.0710015 -0.558258 </weights>
                </Neuron>
                <Neuron id="2">
                    <weights>0.622796 -0.82239 -0.842187 0.279795 -2.19882 0.624968 -0.523226 -0.898862 -0.761761 0.713839 0.0529043 -0.315546 0.415315 -0.535144 -0.0623682 0.127293 1.04313 </weights>
                </Neuron>
                <Neuron id="3">
                    <weights>1.44905 0.709344 -0.55134 -0.367065 -1.50873 0.0559181 -0.436055 -0.282933 0.224305 0.979326 1.09946 -1.4076 -2.12439 -0.697452 -1.04698 -0.233415 -0.697562 </weights>
                </Neuron>
                <Neuron id="4">
                    <weights>0.147538 -0.986878 -0.659661 0.304114 0.847215 1.04095 0.414949 -0.286651 -0.184552 -0.08709 0.0887127 0.0982454 -0.227467 -0.632361 0.0805538 -0.369366 -1.16928 </weights>
                </Neuron>
                <Neuron id="5">
                    <weights>0.11288 -0.358489 -1.30304 -0.60852 0.54426 1.08893 -0.632276 -0.471243 0.885377 -0.493886 0.698338 0.0466192 -0.313995 0.180586 -0.411462 1.4438 0.702716 </weights>
                </Neuron>
                <Neuron id="6">
                    <weights>-0.0207041 -0.809259 -0.525295 -0.285172 -1.84435 -0.103576 -1.26291 0.0670633 -0.723051 -0.837195 0.603425 1.03744 0.291274 0.143777 -1.94633 1.27104 0.0751385 </weights>
                </Neuron>
                <Neuron id="7">
                    <weights>0.0922316 -1.0279 -0.471486 1.01668 0.14508 0.0731249 -0.673604 -0.975461 -0.885563 -0.253417 -0.180985 1.61588 -1.22138 -1.15708 1.04344 -0.0197444 0.99744 </weights>
                </Neuron>
                <Neuron id="8">
                    <weights>-0.839793 0.269511 -1.93411 0.430707 -0.295295 1.22323 -0.425933 -1.01827 0.0801016 0.00273791 0.597678 -1.02806 0.462238 0.646738 -1.17475 -1.76481 -1.29762 </weights>
                </Neuron>
                <Neuron id="9">
                    <weights>-1.5577 -1.15251 -0.808068 1.49251 -0.945476 1.02844 -0.00405803 0.450942 0.49014 0.149446 -1.61919 1.53986 0.884917 -0.418594 -0.284999 0.729883 -2.17625 </weights>
                </Neuron>
                <Neuron id="10">
                    <weights>-0.574883 0.263198 1.47736 -0.299634 0.295722 -1.85249 0.87121 0.303964 0.970244 -2.00984 -0.214423 0.759559 -0.0326649 1.04929 0.209395 2.1414 1.0445 </weights>
                </Neuron>
                <Neuron id="11">
                    <weights>0.366891 1.08607 -0.00115007 -0.678842 -1.39662 -0.0375953 1.65676 1.07748 0.123951 1.19819 -0.89456 -0.686046 -0.999962 -2.12956 0.149722 1.23952 0.593239 </weights>
                </Neuron>
            </NeuronLayer>
            <NeuronLayer id="2">
                <Neuron id="0">
                    <weights>-0.984648 0.78631 -2.96233 -0.234037 0.390646 1.52586 0.214833 0.417761 0.289547 0.788731 1.1665 -1.4917 0.625107 </weights>
                </Neuron>
                <Neuron id="1">
                    <weights>1.07893 -2.23828 -0.534636 0.865009 0.119948 0.922765 -0.0248626 -0.651617 0.123867 0.107943 0.887107 2.09337 -1.76176 </weights>
                </Neuron>
                <Neuron id="2">
                    <weights>1.01927 -0.0239199 1.52734 -0.0293556 0.573023 -2.2769 1.96042 -0.287905 0.410788 0.639197 -0.532999 0.459826 0.0942152 </weights>
                </Neuron>
            </NeuronLayer>
        </NeuralNetwork>
    </Entity>
    <Entity type="Herbivore">
        <x>175.119</x>
        <y>487.001</y>
        <radius>11.0819</radius>
        <angle>1.77698</angle>
        <maxSpeed>50</maxSpeed>
        <attack>2</attack>
        <energy>1</energy>
        <sex>true</sex>
        <mating>1927</mating>
        <age>11843</age>
        <hunger>1327</hunger>
        <thirst>95</thirst>
        <health>3606</health>
        <NeuralNetwork>
            <NeuronLayer id="0">
                <inputsNum>16</inputsNum>
            </NeuronLayer>
            <NeuronLayer id="1">
                <Neuron id="0">
                    <weights>0.287273 0.282169 0.213032 0.394643 0.793602 0.618497 -2.55262 0.893505 -0.758486 0.160186 -0.00290698 1.36593 -2.34857 -2.05325 -1.63785 -2.02095 -0.145095 </weights>
                </Neuron>
                <Neuron id="1">
                    <weights>0.525157 0.783181 -0.199935 0.133058 1.3752 -0.336446 0.366843 -0.199855 -0.194041 -0.143604 0.600211 -0.969973 -0.309407 -0.750087 1.42516 -0.0710015 -0.558258 </weights>
                </Neuron>
                <Neuron id="2">
                    <weights>0.622796 -0.82239 -0.842187 0.279795 -2.19882 0.624968 -0.523226 -0.898862 -0.761761 0.713839 0.0529043 -0.315546 0.415315 -0.535144 -0.0623682 0.127293 1.04313 </weights>
                </Neuron>
                <Neuron id="3">
                    <weights>1.44905 0.709344 -0.55134 -0.367065 -1.50873 0.0559181 -0.436055 -0.282933 0.224305 0.979326 1.09946 -1.4076 -2.12439 -0.697452 -1.04698 -0.233415 -0.697562 </weights>
                </Neuron>
                <Neuron id="4">
                    <weights>0.147538 -0.986878 -0.659661 0.304114 0.847215 1.04095 0.414949 -0.286651 -0.184552 -0.08709 0.0887127 0.0982454 -0.227467 -0.632361 0.0805538 -0.369366 -1.16928 </weights>
                </Neuron>
                <Neuron id="5">
                    <weights>0.11288 -0.358489 -1.30304 -0.60852 0.54426 1.08893 -0.632276 -0.471243 0.885377 -0.493886 0.698338 0.0466192 -0.313995 0.180586 -0.411462 1.4438 0.702716 </weights>
                </Neuron>
                <Neuron id="6">
                    <weights>-0.0207041 -0.809259 -0.525295 -0.285172 -1.84435 -0.103576 -1.26291 0.0670633 -0.723051 -0.837195 0.603425 1.03744 0.291274 0.143777 -1.94633 1.27104 0.0751385 </weights>
                </Neuron>
                <Neuron id="7">
                    <weights>0.0922316 -1.0279 -0.471486 1.01668 0.14508 0.0731249 -0.673604 -0.975461 -0.885563 -0.253417 -0.180985 1.61588 -1.22138 -1.15708 1.04344 -0.0197444 0.99744 </weights>
                </Neuron>
                <Neuron id="8">
                    <weights>-0.839793 0.269511 -1.93411 0.430707 -0.295295 1.22323 -0.425933 -1.01827 0.0801016 0.00273791 0.597678 -1.02806 0.462238 0.646738 -1.17475 -1.76481 -1.29762 </weights>
                </Neuron>
                <Neuron id="9">
                    <weights>-1.5577 -1.15251 -0.808068 1.49251 -0.945476 1.02844 -0.00405803 0.450942 0.49014 0.149446 -1.61919 1.53986 0.884917 -0.418594 -0.284999 0.729883 -2.17625 </weights>
                </Neuron>
                <Neuron id="10">
                    <weights>-0.574883 0.263198 1.47736 -0.299634 0.295722 -1.85249 0.87121 0.303964 0.970244 -2.00984 -0.214423 0.759559 -0.0326649 1.04929 0.209395 2.1414 1.0445 </weights>
                </Neuron>
                <Neuron id="11">
                    <weights>0.366891 1.08607 -0.00115007 -0.678842 -1.39662 -0.0375953 1.65676 1.07748 0.123951 1.19819 -0.89456 -0.686046 -0.999962 -2.12956 0.149722 1.23952 0.593239 </weights>
                </Neuron>
            </NeuronLayer>
            <NeuronLayer id="2">
                <Neuron id="0">
                    <weights>-0.984648 0.78631 -2.96233 -0.234037 0.390646 1.52586 0.214833 0.417761 0.289547 0.788731 1.1665 -1.4917 0.625107 </weights>
                </Neuron>
                <Neuron id="1">
                    <weights>1.07893 -2.23828 -0.534636 0.865009 0.119948 0.922765 -0.0248626 -0.651617 0.123867 0.107943 0.887107 2.09337 -1.76176 </weights>
                </Neuron>
                <Neuron id="2">
                    <weights>1.01927 -0.0239199 1.52734 -0.0293556 0.573023 -2.2769 1.96042 -0.287905 0.410788 0.639197 -0.532999 0.459826 0.0942152 </weights>
                </Neuron>
            </NeuronLayer>
        </NeuralNetwork>
    </Entity>
    <Entity type="Herbivore">
        <x>447.428</x>
        <y>5.55959</y>
        <radius>10.8365</radius>
        <angle>-1.38254</angle>
        <maxSpeed>50</maxSpeed>
        <attack>2</attack>
        <energy>0</energy>
        <sex>false</sex>
        <mating>1537</mating>
        <age>10962</age>
        <hunger>1507</hunger>
        <thirst>17</thirst>
        <health>2393</health>
        <NeuralNetwork>
            <NeuronLayer id="0">
                <inputsNum>16</inputsNum>
            </NeuronLayer>
            <NeuronLayer id="1">
                <Neuron id="0">
                    <weights>0.287273 0.282169 0.213032 0.394643 0.793602 0.618497 -2.55262 0.893505 -0.758486 0.160186 -0.00290698 1.36593 -2.34857 -2.05325 -1.63785 -2.02095 -0.145095 </weights>
                </Neuron>
                <Neuron id="1">
                    <weights>0.525157 0.783181 -0.199935 0.133058 1.3752 -0.336446 0.366843 -0.199855 -0.194041 -0.143604 0.600211 -0.969973 -0.309407 -0.750087 1.42516 -0.0710015 -0.558258 </weights>
                </Neuron>
                <Neuron id="2">
                    <weights>0.622796 -0.82239 -0.842187 0.279795 -2.19882 0.624968 -0.523226 -0.898862 -0.761761 0.713839 0.0529043 -0.315546 0.415315 -0.535144 -0.0623682 0.127293 1.04313 </weights>
                </Neuron>
                <Neuron id="3">
                    <weights>1.44905 0.709344 -0.55134 -0.367065 -1.50873 0.0559181 -0.436055 -0.282933 0.224305 0.979326 1.09946 -1.4076 -2.12439 -0.697452 -1.04698 -0.233415 -0.697562 </weights>
                </Neuron>
                <Neuron id="4">
                    <weights>0.147538 -0.986878 -0.659661 0.304114 0.847215 1.04095 0.414949 -0.286651 -0.184552 -0.08709 0.0887127 0.0982454 -0.227467 -0.632361 0.0805538 -0.369366 -1.16928 </weights>
                </Neuron>
                <Neuron id="5">
                    <weights>0.11288 -0.358489 -1.30304 -0.60852 0.54426 1.08893 -0.632276 -0.471243 0.885377 -0.493886 0.698338 0.0466192 -0.313995 0.180586 -0.411462 1.4438 0.702716 </weights>
                </Neuron>
                <Neuron id="6">
                    <weights>-0.0207041 -0.809259 -0.525295 -0.285172 -1.84435 -0.103576 -1.26291 0.0670633 -0.723051 -0.837195 0.603425 1.03744 0.291274 0.143777 -1.94633 1.27104 0.0751385 </weights>
                </Neuron>
                <Neuron id="7">
                    <weights>0.0922316 -1.0279 -0.471486 1.01668 0.14508 0.0731249 -0.673604 -0.975461 -0.885563 -0.253417 -0.180985 1.61588 -1.22138 -1.15708 1.04344 -0.0197444 0.99744 </weights>
                </Neuron>
                <Neuron id="8">
                    <weights>-1.44689 -0.352533 -1.08589 1.25979 0.582235 1.07917 -1.16421 -0.406282 -0.363541 0.0334271 -1.52877 -1.10664 -0.18368 1.33521 -2.65897 0.861709 -1.202 </weights>
                </Neuron>
                <Neuron id="9">
                    <weights>-1.5577 -1.15251 -0.808068 1.49251 -0.945476 1.02844 -0.00405803 0.450942 0.49014 0.149446 -1.61919 1.53986 0.884917 -0.418594 -0.284999 0.729883 -2.17625 </weights>
                </Neuron>
                <Neuron id="10">
                    <weights>-0.574883 0.263198 1.47736 -0.299634 0.295722 -1.85249 0.87121 0.303964 0.970244 -2.00984 -0.214423 0.759559 -0.0326649 1.04929 0.209395 2.1414 1.0445 </weights>
                </Neuron>
                <Neuron id="11">
                    <weights>-1.21137 0.488047 0.465538 -0.0729898 1.09389 0.448305 0.065874 0.645296 -0.709376 0.215723 -0.0744154 0.747168 -1.25627 0.246147 -0.0325389 0.904586 -0.80667 </weights>
                </Neuron>
            </NeuronLayer>
            <NeuronLayer id="2">
                <Neuron id="0">
                    <weights>-0.984648 0.78631 -2.96233 -0.234037 0.390646 1.52586 0.214833 0.417761 0.289547 0.788731 1.1665 -1.4917 0.625107 </weights>
                </Neuron>
                <Neuron id="1">
                    <weights>1.07893 -2.23828 -0.534636 0.865009 0.119948 0.922765 -0.0248626 -0.651617 0.123867 0.107943 0.887107 2.09337 -1.76176 </weights>
                </Neuron>
                <Neuron id="2">
                    <weights>1.94686 0.139879 -0.475186 -0.217833 -0.978576 0.214272 0.0525946 -0.185505 -1.27003 -0.392036 0.710276 0.611299 -0.135219 </weights>
                </Neuron>
            </NeuronLayer>
        </NeuralNetwork>
    </Entity>
    <Entity type="Herbivore">
        <x>486.713</x>
        <y>465.904</y>
        <radius>9.5258</radius>
        <angle>-1.90794</angle>
        <maxSpeed>50</maxSpeed>
        <attack>2</attack>
        <energy>0</energy>
        <sex>true</sex>
        <mating>2500</mating>
        <age>7383</age>
        <hunger>2000</hunger>
        <thirst>442</thirst>
        <health>78</health>
        <NeuralNetwork>
            <NeuronLayer id="0">
                <inputsNum>16</inputsNum>
            </NeuronLayer>
            <NeuronLayer id="1">
                <Neuron id="0">
                    <weights>0.287273 0.282169 0.213032 0.394643 0.793602 0.618497 -2.55262 0.893505 -0.758486 0.160186 -0.00290698 1.36593 -2.34857 -2.05325 -1.63785 -2.02095 -0.145095 </weights>
                </Neuron>
                <Neuron id="1">
                    <weights>0.525157 0.783181 -0.199935 0.133058 1.3752 -0.336446 0.366843 -0.199855 -0.194041 -0.143604 0.600211 -0.969973 -0.309407 -0.750087 1.42516 -0.0710015 -0.558258 </weights>
                </Neuron>
                <Neuron id="2">
                    <weights>0.622796 -0.82239 -0.842187 0.279795 -2.19882 0.624968 -0.523226 -0.898862 -0.761761 0.713839 0.0529043 -0.315546 0.415315 -0.535144 -0.0623682 0.127293 1.04313 </weights>
                </Neuron>
                <Neuron id="3">
                    <weights>1.44905 0.709344 -0.55134 -0.367065 -1.50873 0.0559181 -0.436055 -0.282933 0.224305 0.979326 1.09946 -1.4076 -2.12439 -0.697452 -1.04698 -0.233415 -0.697562 </weights>
                </Neuron>
                <Neuron id="4">
                    <weights>0.147538 -0.986878 -0.659661 0.304114 0.847215 1.04095 0.414949 -0.286651 -0.184552 -0.08709 0.0887127 0.0982454 -0.227467 -0.632361 0.0805538 -0.369366 -1.16928 </weights>
                </Neuron>
                <Neuron id="5">
                    <weights>0.11288 -0.358489 -1.30304 -0.60852 0.54426 1.08893 -0.632276 -0.471243 0.885377 -0.493886 0.698338 0.0466192 -0.313995 0.180586 -0.411462 1.4438 0.702716 </weights>
                </Neuron>
                <Neuron id="6">
                    <weights>-0.0207041 -0.809259 -0.525295 -0.285172 -1.84435 -0.103576 -1.26291 0.0670633 -0.723051 -0.837195 0.603425 1.03744 0.291274 0.143777 -1.94633 1.27104 0.0751385 </weights>
                </Neuron>
                <Neuron id="7">
                    <weights>1.14503 -0.976926 0.239179 -0.0058511 -1.25421 -0.824351 0.904559 0.685404 -0.877194 -1.90713 -0.516457 1.77163 -1.29403 1.41797 0.178582 -0.365108 0.354428 </weights>
                </Neuron>
                <Neuron id="8">
                    <weights>-1.44689 -0.352533 -1.08589 1.25979 0.582235 1.07917 -1.16421 -0.406282 -0.363541 0.0334271 -1.52877 -1.10664 -0.18368 1.33521 -2.65897 0.861709 -1.202 </weights>
                </Neuron>
                <Neuron id="9">
                    <weights>-1.5577 -1.15251 -0.808068 1.49251 -0.945476 1.02844 -0.00405803 0.450942 0.49014 0.149446 -1.61919 1.53986 0.884917 -0.418594 -0.284999 0.729883 -2.17625 </weights>
                </Neuron>
                <Neuron id="10">
                    <weights>-0.574883 0.263198 1.47736 -0.299634 0.295722 -1.85249 0.87121 0.303964 0.970244 -2.00984 -0.214423 0.759559 -0.0326649 1.04929 0.209395 2.1414 1.0445 </weights>
                </Neuron>
                <Neuron id="11">
                    <weights>0.366891 1.08607 -0.00115007 -0.678842 -1.39662 -0.0375953 1.65676 1.07748 0.123951 1.19819 -0.89456 -0.686046 -0.999962 -2.12956 0.149722 1.23952 0.593239 </weights>
                </Neuron>
            </NeuronLayer>
            <NeuronLayer id="2">
                <Neuron id="0">
                    <weights>-0.984648 0.78631 -2.96233 -0.234037 0.390646 1.52586 0.214833 0.417761 0.289547 0.788731 1.1665 -1.4917 0.625107 </weights>
                </Neuron>
                <Neuron id="1">
                    <weights>1.07893 -2.23828 -0.534636 0.865009 0.119948 0.922765 -0.0248626 -0.651617 0.123867 0.107943 0.887107 2.09337 -1.76176 </weights>
                </Neuron>
                <Neuron id="2">
                    <weights>1.94686 0.139879 -0.475186 -0.217833 -0.978576 0.214272 0.0525946 -0.185505 -1.27003 -0.392036 0.710276 0.611299 -0.135219 </weights>
                </Neuron>
            </NeuronLayer>
        </NeuralNetwork>
    </Entity>
    <Entity type="Herbivore">
        <x>113.693</x>
        <y>12.8388</y>
        <radius>9.6023</radius>
        <angle>1.82757</angle>
        <maxSpeed>50</maxSpeed>
        <attack>2</attack>
        <energy>23</energy>
        <sex>true</sex>
        <mating>1926</mating>
        <age>7383</age>
        <hunger>1602</hunger>
        <thirst>2000</thirst>
        <health>2468</health>
        <NeuralNetwork>
            <NeuronLayer id="0">
                <inputsNum>16</inputsNum>
            </NeuronLayer>
            <NeuronLayer id="1">
                <Neuron id="0">
                    <weights>0.287273 0.282169 0.213032 0.394643 0.793602 0.618497 -2.55262 0.893505 -0.758486 0.160186 -0.00290698 1.36593 -2.34857 -2.05325 -1.63785 -2.02095 -0.145095 </weights>
                </Neuron>
                <Neuron id="1">
                    <weights>0.525157 0.783181 -0.199935 0.133058 1.3752 -0.336446 0.366843 -0.199855 -0.194041 -0.143604 0.600211 -0.969973 -0.309407 -0.750087 1.42516 -0.0710015 -0.558258 </weights>
                </Neuron>
                <Neuron id="2">
                    <weights>0.622796 -0.82239 -0.842187 0.279795 -2.19882 0.624968 -0.523226 -0.898862 -0.761761 0.713839 0.0529043 -0.315546 0.415315 -0.535144 -0.0623682 0.127293 1.04313 </weights>
                </Neuron>
                <Neuron id="3">
                    <weights>1.44905 0.709344 -0.55134 -0.367065 -1.50873 0.0559181 -0.436055 -0.282933 0.224305 0.979326 1.09946 -1.4076 -2.12439 -0.697452 -1.04698 -0.233415 -0.697562 </weights>
                </Neuron>
                <Neuron id="4">
                    <weights>0.147538 -0.986878 -0.659661 0.304114 0.847215 1.04095 0.414949 -0.286651 -0.184552 -0.08709 0.0887127 0.0982454 -0.227467 -0.632361 0.0805538 -0.369366 -1.16928 </weights>
                </Neuron>
                <Neuron id="5">
                    <weights>0.11288 -0.358489 -1.30304 -0.60852 0.54426 1.08893 -0.632276 -0.471243 0.885377 -0.493886 0.698338 0.0466192 -0.313995 0.180586 -0.411462 1.4438 0.702716 </weights>
                </Neuron>
                <Neuron id="6">
                    <weights>-0.0207041 -0.809259 -0.525295 -0.285172 -1.84435 -0.103576 -1.26291 0.0670633 -0.723051 -0.837195 0.603425 1.03744 0.291274 0.143777 -1.94633 1.27104 0.0751385 </weights>
                </Neuron>
                <Neuron id="7">
                    <weights>1.14503 -0.976926 0.239179 -0.0058511 -1.25421 -0.824351 0.904559 0.685404 -0.877194 -1.90713 -0.516457 1.77163 -1.29403 1.41797 0.178582 -0.365108 0.354428 </weights>
                </Neuron>
                <Neuron id="8">
                    <weights>-1.44689 -0.352533 -1.08589 1.25979 0.582235 1.07917 -1.16421 -0.406282 -0.363541 0.0334271 -1.52877 -1.10664 -0.18368 1.33521 -2.65897 0.861709 -1.202 </weights>
                </Neuron>
                <Neuron id="9">
                    <weights>-1.5577 -1.15251 -0.808068 1.49251 -0.945476 1.02844 -0.00405803 0.450942 0.49014 0.149446 -1.61919 1.53986 0.884917 -0.418594 -0.284999 0.729883 -2.17625 </weights>
                </Neuron>
                <Neuron id="10">
                    <weights>-0.574883 0.263198 1.47736 -0.299634 0.295722 -1.85249 0.87121 0.303964 0.970244 -2.00984 -0.214423 0.759559 -0.0326649 1.04929 0.209395 2.1414 1.0445 </weights>
                </Neuron>
                <Neuron id="11">
                    <weights>0.366891 1.08607 -0.00115007 -0.678842 -1.39662 -0.0375953 1.65676 1.07748 0.123951 1.19819 -0.89456 -0.686046 -0.999962 -2.12956 0.149722 1.23952 0.593239 </weights>
                </Neuron>
            </NeuronLayer>
            <NeuronLayer id="2">
                <Neuron id="0">
                    <weights>-0.984648 0.78631 -2.96233 -0.234037 0.390646 1.52586 0.214833 0.417761 0.289547 0.788731 1.1665 -1.4917 0.625107 </weights>
                </Neuron>
                <Neuron id="1">
                    <weights>1.07893 -2.23828 -0.534636 0.865009 0.119948 0.922765 -0.0248626 -0.651617 0.123867 0.107943 0.887107 2.09337 -1.76176 </weights>
                </Neuron>
                <Neuron id="2">
                    <weights>1.94686 0.139879 -0.475186 -0.217833 -0.978576 0.214272 0.0525946 -0.185505 -1.27003 -0.392036 0.710276 0.611299 -0.135219 </weights>
                </Neuron>
            </NeuronLayer>
        </NeuralNetwork>
    </Entity>
    <Entity type="Herbivore">
        <x>441.106</x>
        <y>50.3448</y>
        <radius>10.0154</radius>
        <angle>-0.234407</angle>
        <maxSpeed>50</maxSpeed>
        <attack>2</attack>
        <energy>0</energy>
        <sex>true</sex>
        <mating>1743</mating>
        <age>7302</age>
        <hunger>584</hunger>
        <thirst>280</thirst>
        <health>2775</health>
        <NeuralNetwork>
            <NeuronLayer id="0">
                <inputsNum>16</inputsNum>
            </NeuronLayer>
            <NeuronLayer id="1">
                <Neuron id="0">
                    <weights>0.287273 0.282169 0.213032 0.394643 0.793602 0.618497 -2.55262 0.893505 -0.758486 0.160186 -0.00290698 1.36593 -2.34857 -2.05325 -1.63785 -2.02095 -0.145095 </weights>
                </Neuron>
                <Neuron id="1">
                    <weights>0.525157 0.783181 -0.199935 0.133058 1.3752 -0.336446 0.366843 -0.199855 -0.194041 -0.143604 0.600211 -0.969973 -0.309407 -0.750087 1.42516 -0.0710015 -0.558258 </weights>
                </Neuron>
                <Neuron id="2">
                    <weights>0.622796 -0.82239 -0.842187 0.279795 -2.19882 0.624968 -0.523226 -0.898862 -0.761761 0.713839 0.0529043 -0.315546 0.415315 -0.535144 -0.0623682 0.127293 1.04313 </weights>
                </Neuron>
                <Neuron id="3">
                    <weights>1.44905 0.709344 -0.55134 -0.367065 -1.50873 0.0559181 -0.436055 -0.282933 0.224305 0.979326 1.09946 -1.4076 -2.12439 -0.697452 -1.04698 -0.233415 -0.697562 </weights>
                </Neuron>
                <Neuron id="4">
                    <weights>0.147538 -0.986878 -0.659661 0.304114 0.847215 1.04095 0.414949 -0.286651 -0.184552 -0.08709 0.0887127 0.0982454 -0.227467 -0.632361 0.0805538 -0.369366 -1.16928 </weights>
                </Neuron>
                <Neuron id="5">
                    <weights>0.11288 -0.358489 -1.30304 -0.60852 0.54426 1.08893 -0.632276 -0.471243 0.885377 -0.493886 0.698338 0.0466192 -0.313995 0.180586 -0.411462 1.4438 0.702716 </weights>
                </Neuron>
                <Neuron id="6">
                    <weights>0.123395 -0.938397 0.00769957 0.296845 -1.43188 0.200775 1.20047 0.786582 -0.459499 -0.683255 -0.939778 -0.985037 -0.646544 -1.29541 0.750257 -1.01781 1.87009 </weights>
                </Neuron>
                <Neuron id="7">
                    <weights>0.0922316 -1.0279 -0.471486 1.01668 0.14508 0.0731249 -0.673604 -0.975461 -0.885563 -0.253417 -0.180985 1.61588 -1.22138 -1.15708 1.04344 -0.0197444 0.99744 </weights>
                </Neuron>
                <Neuron id="8">
                    <weights>-0.839793 0.269511 -1.93411 0.430707 -0.295295 1.22323 -0.425933 -1.01827 0.0801016 0.00273791 0.597678 -1.02806 0.462238 0.646738 -1.17475 -1.76481 -1.29762 </weights>
                </Neuron>
                <Neuron id="9">
                    <weights>-1.5577 -1.15251 -0.808068 1.49251 -0.945476 1.02844 -0.00405803 0.450942 0.49014 0.149446 -1.61919 1.53986 0.884917 -0.418594 -0.284999 0.729883 -2.17625 </weights>
                </Neuron>
                <Neuron id="10">
                    <weights>-0.574883 0.263198 1.47736 -0.299634 0.295722 -1.85249 0.87121 0.303964 0.970244 -2.00984 -0.214423 0.759559 -0.0326649 1.04929 0.209395 2.1414 1.0445 </weights>
                </Neuron>
                <Neuron id="11">
                    <weights>0.366891 1.08607 -0.00115007 -0.678842 -1.39662 -0.0375953 1.65676 1.07748 0.123951 1.19819 -0.89456 -0.686046 -0.999962 -2.12956 0.149722 1.23952 0.593239 </weights>
                </Neuron>
            </NeuronLayer>
            <NeuronLayer id="2">
                <Neuron id="0">
                    <weights>-0.984648 0.78631 -2.96233 -0.234037 0.390646 1.52586 0.214833 0.417761 0.289547 0.788731 1.1665 -1.4917 0.625107 </weights>
                </Neuron>
                <Neuron id="1">
                    <weights>1.07893 -2.23828 -0.534636 0.865009 0.119948 0.922765 -0.0248626 -0.651617 0.123867 0.107943 0.887107 2.09337 -1.76176 </weights>
                </Neuron>
                <Neuron id="2">
                    <weights>1.94686 0.139879 -0.475186 -0.217833 -0.978576 0.214272 0.0525946 -0.185505 -1.27003 -0.392036 0.710276 0.611299 -0.135219 </weights>
                </Neuron>
            </NeuronLayer>
        </NeuralNetwork>
    </Entity>
    <Entity type="Herbivore">
        <x>301.939</x>
        <y>476.435</y>
        <radius>9.8816</radius>
        <angle>0.835411</angle>
        <maxSpeed>50</maxSpeed>
        <attack>2</attack>
        <energy>0</energy>
        <sex>false</sex>
        <mating>1928</mating>
        <age>7302</age>
        <hunger>1030</hunger>
        <thirst>792</thirst>
        <health>2650</health>
        <NeuralNetwork>
            <NeuronLayer id="0">
                <inputsNum>16</inputsNum>
            </NeuronLayer>
            <NeuronLayer id="1">
                <Neuron id="0">
                    <weights>0.287273 0.282169 0.213032 0.394643 0.793602 0.618497 -2.55262 0.893505 -0.758486 0.160186 -0.00290698 1.36593 -2.34857 -2.05325 -1.63785 -2.02095 -0.145095 </weights>
                </Neuron>
                <Neuron id="1">
                    <weights>0.525157 0.783181 -0.199935 0.133058 1.3752 -0.336446 0.366843 -0.199855 -0.194041 -0.143604 0.600211 -0.969973 -0.309407 -0.750087 1.42516 -0.0710015 -0.558258 </weights>
                </Neuron>
                <Neuron id="2">
                    <weights>0.622796 -0.82239 -0.842187 0.279795 -2.19882 0.624968 -0.523226 -0.898862 -0.761761 0.713839 0.0529043 -0.315546 0.415315 -0.535144 -0.0623682 0.127293 1.04313 </weights>
                </Neuron>
                <Neuron id="3">
                    <weights>1.44905 0.709344 -0.55134 -0.367065 -1.50873 0.0559181 -0.436055 -0.282933 0.224305 0.979326 1.09946 -1.4076 -2.12439 -0.697452 -1.04698 -0.233415 -0.697562 </weights>
                </Neuron>
                <Neuron id="4">
                    <weights>0.147538 -0.986878 -0.659661 0.304114 0.847215 1.04095 0.414949 -0.286651 -0.184552 -0.08709 0.0887127 0.0982454 -0.227467 -0.632361 0.0805538 -0.369366 -1.16928 </weights>
                </Neuron>
                <Neuron id="5">
                    <weights>0.11288 -0.358489 -1.30304 -0.60852 0.54426 1.08893 -0.632276 -0.471243 0.885377 -0.493886 0.698338 0.0466192 -0.313995 0.180586 -0.411462 1.4438 0.702716 </weights>
                </Neuron>
                <Neuron id="6">
                    <weights>-0.0207041 -0.809259 -0.525295 -0.285172 -1.84435 -0.103576 -1.26291 0.0670633 -0.723051 -0.837195 0.603425 1.03744 0.291274 0.143777 -1.94633 1.27104 0.0751385 </weights>
                </Neuron>
                <Neuron id="7">
                    <weights>0.0922316 -1.0279 -0.471486 1.01668 0.14508 0.0731249 -0.673604 -0.975461 -0.885563 -0.253417 -0.180985 1.61588 -1.22138 -1.15708 1.04344 -0.0197444 0.99744 </weights>
                </Neuron>
                <Neuron id="8">
                    <weights>-1.44689 -0.352533 -1.08589 1.25979 0.582235 1.07917 -1.16421 -0.406282 -0.363541 0.0334271 -1.52877 -1.10664 -0.18368 1.33521 -2.65897 0.861709 -1.202 </weights>
                </Neuron>
                <Neuron id="9">
                    <weights>-1.5577 -1.15251 -0.808068 1.49251 -0.945476 1.02844 -0.00405803 0.450942 0.49014 0.149446 -1.61919 1.53986 0.884917 -0.418594 -0.284999 0.729883 -2.17625 </weights>
                </Neuron>
                <Neuron id="10">
                    <weights>-0.574883 0.263198 1.47736 -0.299634 0.295722 -1.85249 0.87121 0.303964 0.970244 -2.00984 -0.214423 0.759559 -0.0326649 1.04929 0.209395 2.1414 1.0445 </weights>
                </Neuron>
                <Neuron id="11">
                    <weights>0.366891 1.08607 -0.00115007 -0.678842 -1.39662 -0.0375953 1.65676 1.07748 0.123951 1.19819 -0.89456 -0.686046 -0.999962 -2.12956 0.149722 1.23952 0.593239 </weights>
                </Neuron>
            </NeuronLayer>
            <NeuronLayer id="2">
                <Neuron id="0">
                    <weights>-0.984648 0.78631 -2.96233 -0.234037 0.390646 1.52586 0.214833 0.417761 0.289547 0.788731 1.1665 -1.4917 0.625107 </weights>
                </Neuron>
                <Neuron id="1">
                    <weights>1.07893 -2.23828 -0.534636 0.865009 0.119948 0.922765 -0.0248626 -0.651617 0.123867 0.107943 0.887107 2.09337 -1.76176 </weights>
                </Neuron>
                <Neuron id="2">
                    <weights>1.94686 0.139879 -0.475186 -0.217833 -0.978576 0.214272 0.0525946 -0.185505 -1.27003 -0.392036 0.710276 0.611299 -0.135219 </weights>
                </Neuron>
            </NeuronLayer>
        </NeuralNetwork>
    </Entity>
    <Entity type="Herbivore">
        <x>73.003</x>
        <y>102.971</y>
        <radius>9.4808</radius>
        <angle>2.72913</angle>
        <maxSpeed>50</maxSpeed>
        <attack>2</attack>
        <energy>0</energy>
        <sex>false</sex>
        <mating>2073</mating>
        <age>6916</age>
        <hunger>1704</hunger>
        <thirst>183</thirst>
        <health>563</health>
        <NeuralNetwork>
            <NeuronLayer id="0">
                <inputsNum>16</inputsNum>
            </NeuronLayer>
            <NeuronLayer id="1">
                <Neuron id="0">
                    <weights>0.287273 0.282169 0.213032 0.394643 0.793602 0.618497 -2.55262 0.893505 -0.758486 0.160186 -0.00290698 1.36593 -2.34857 -2.05325 -1.63785 -2.02095 -0.145095 </weights>
                </Neuron>
                <Neuron id="1">
                    <weights>0.525157 0.783181 -0.199935 0.133058 1.3752 -0.336446 0.366843 -0.199855 -0.194041 -0.143604 0.600211 -0.969973 -0.309407 -0.750087 1.42516 -0.0710015 -0.558258 </weights>
                </Neuron>
                <Neuron id="2">
                    <weights>0.622796 -0.82239 -0.842187 0.279795 -2.19882 0.624968 -0.523226 -0.898862 -0.761761 0.713839 0.0529043 -0.315546 0.415315 -0.535144 -0.0623682 0.127293 1.04313 </weights>
                </Neuron>
                <Neuron id="3">
                    <weights>1.44905 0.709344 -0.55134 -0.367065 -1.50873 0.0559181 -0.436055 -0.282933 0.224305 0.979326 1.09946 -1.4076 -2.12439 -0.697452 -1.04698 -0.233415 -0.697562 </weights>
                </Neuron>
                <Neuron id="4">
                    <weights>0.147538 -0.986878 -0.659661 0.304114 0.847215 1.04095 0.414949 -0.286651 -0.184552 -0.08709 0.0887127 0.0982454 -0.227467 -0.632361 0.0805538 -0.369366 -1.16928 </weights>
                </Neuron>
                <Neuron id="5">
                    <weights>0.11288 -0.358489 -1.30304 -0.60852 0.54426 1.08893 -0.632276 -0.471243 0.885377 -0.493886 0.698338 0.0466192 -0.313995 0.180586 -0.411462 1.4438 0.702716 </weights>
                </Neuron>
                <Neuron id="6">
                    <weights>0.123395 -0.938397 0.00769957 0.296845 -1.43188 0.200775 1.20047 0.786582 -0.459499 -0.683255 -0.939778 -0.985037 -0.646544 -1.29541 0.750257 -1.01781 1.87009 </weights>
                </Neuron>
                <Neuron id="7">
                    <weights>1.14503 -0.976926 0.239179 -0.0058511 -1.25421 -0.824351 0.904559 0.685404 -0.877194 -1.90713 -0.516457 1.77163 -1.29403 1.41797 0.178582 -0.365108 0.354428 </weights>
                </Neuron>
                <Neuron id="8">
                    <weights>-1.44689 -0.352533 -1.08589 1.25979 0.582235 1.07917 -1.16421 -0.406282 -0.363541 0.0334271 -1.52877 -1.10664 -0.18368 1.33521 -2.65897 0.861709 -1.202 </weights>
                </Neuron>
                <Neuron id="9">
                    <weights>-1.5577 -1.15251 -0.808068 1.49251 -0.945476 1.02844 -0.00405803 0.450942 0.49014 0.149446 -1.61919 1.53986 0.884917 -0.418594 -0.284999 0.729883 -2.17625 </weights>
                </Neuron>
                <Neuron id="10">
                    <weights>-0.574883 0.263198 1.47736 -0.299634 0.295722 -1.85249 0.87121 0.303964 0.970244 -2.00984 -0.214423 0.759559 -0.0326649 1.04929 0.209395 2.1414 1.0445 </weights>
                </Neuron>
                <Neuron id="11">
                    <weights>0.366891 1.08607 -0.00115007 -0.678842 -1.39662 -0.0375953 1.65676 1.07748 0.123951 1.19819 -0.89456 -0.686046 -0.999962 -2.12956 0.149722 1.23952 0.593239 </weights>
                </Neuron>
            </NeuronLayer>
            <NeuronLayer id="2">
                <Neuron id="0">
                    <weights>-0.984648 0.78631 -2.96233 -0.234037 0.390646 1.52586 0.214833 0.417761 0.289547 0.788731 1.1665 -1.4917 0.625107 </weights>
                </Neuron>
                <Neuron id="1">
                    <weights>1.07893 -2.23828 -0.534636 0.865009 0.119948 0.922765 -0.0248626 -0.651617 0.123867 0.107943 0.887107 2.09337 -1.76176 </weights>
                </Neuron>
                <Neuron id="2">
                    <weights>1.94686 0.139879 -0.475186 -0.217833 -0.978576 0.214272 0.0525946 -0.185505 -1.27003 -0.392036 0.710276 0.611299 -0.135219 </weights>
                </Neuron>
            </NeuronLayer>
        </NeuralNetwork>
    </Entity>
    <Entity type="Herbivore">
        <x>202.077</x>
        <y>498.875</y>
        <radius>9.7049</radius>
        <angle>1.57693</angle>
        <maxSpeed>50</maxSpeed>
        <attack>2</attack>
        <energy>0</energy>
        <sex>false</sex>
        <mating>2500</mating>
        <age>6895</age>
        <hunger>1212</hunger>
        <thirst>1495</thirst>
        <health>5000</health>
        <NeuralNetwork>
            <NeuronLayer id="0">
                <inputsNum>16</inputsNum>
            </NeuronLayer>
            <NeuronLayer id="1">
                <Neuron id="0">
                    <weights>0.287273 0.282169 0.213032 0.394643 0.793602 0.618497 -2.55262 0.893505 -0.758486 0.160186 -0.00290698 1.36593 -2.34857 -2.05325 -1.63785 -2.02095 -0.145095 </weights>
                </Neuron>
                <Neuron id="1">
                    <weights>0.525157 0.783181 -0.199935 0.133058 1.3752 -0.336446 0.366843 -0.199855 -0.194041 -0.143604 0.600211 -0.969973 -0.309407 -0.750087 1.42516 -0.0710015 -0.558258 </weights>
                </Neuron>
                <Neuron id="2">
                    <weights>0.622796 -0.82239 -0.842187 0.279795 -2.19882 0.624968 -0.523226 -0.898862 -0.761761 0.713839 0.0529043 -0.315546 0.415315 -0.535144 -0.0623682 0.127293 1.04313 </weights>
                </Neuron>
                <Neuron id="3">
                    <weights>1.44905 0.709344 -0.55134 -0.367065 -1.50873 0.0559181 -0.436055 -0.282933 0.224305 0.979326 1.09946 -1.4076 -2.12439 -0.697452 -1.04698 -0.233415 -0.697562 </weights>
                </Neuron>
                <Neuron id="4">
                    <weights>0.147538 -0.986878 -0.659661 0.304114 0.847215 1.04095 0.414949 -0.286651 -0.184552 -0.08709 0.0887127 0.0982454 -0.227467 -0.632361 0.0805538 -0.369366 -1.16928 </weights>
                </Neuron>
                <Neuron id="5">
                    <weights>0.11288 -0.358489 -1.30304 -0.60852 0.54426 1.08893 -0.632276 -0.471243 0.885377 -0.493886 0.698338 0.0466192 -0.313995 0.180586 -0.411462 1.4438 0.702716 </weights>
                </Neuron>
                <Neuron id="6">
                    <weights>-0.0207041 -0.809259 -0.525295 -0.285172 -1.84435 -0.103576 -1.26291 0.0670633 -0.723051 -0.837195 0.603425 1.03744 0.291274 0.143777 -1.94633 1.27104 0.0751385 </weights>
                </Neuron>
                <Neuron id="7">
                    <weights>0.0922316 -1.0279 -0.471486 1.01668 0.14508 0.0731249 -0.673604 -0.975461 -0.885563 -0.253417 -0.180985 1.61588 -1.22138 -1.15708 1.04344 -0.0197444 0.99744 </weights>
                </Neuron>
                <Neuron id="8">
                    <weights>-1.44689 -0.352533 -1.08589 1.25979 0.582235 1.07917 -1.16421 -0.406282 -0.363541 0.0334271 -1.52877 -1.10664 -0.18368 1.33521 -2.65897 0.861709 -1.202 </weights>
                </Neuron>
                <Neuron id="9">
                    <weights>-1.5577 -1.15251 -0.808068 1.49251 -0.945476 1.02844 -0.00405803 0.450942 0.49014 0.149446 -1.61919 1.53986 0.884917 -0.418594 -0.284999 0.729883 -2.17625 </weights>
                </Neuron>
                <Neuron id="10">
                    <weights>-0.574883 0.263198 1.47736 -0.299634 0.295722 -1.85249 0.87121 0.303964 0.970244 -2.00984 -0.214423 0.759559 -0.0326649 1.04929 0.209395 2.1414 1.0445 </weights>
                </Neuron>
                <Neuron id="11">
                    <weights>0.366891 1.08607 -0.00115007 -0.678842 -1.39662 -0.0375953 1.65676 1.07748 0.123951 1.19819 -0.89456 -0.686046 -0.999962 -2.12956 0.149722 1.23952 0.593239 </weights>
                </Neuron>
            </NeuronLayer>
            <NeuronLayer id="2">
                <Neuron id="0">
                    <weights>-0.984648 0.78631 -2.96233 -0.234037 0.390646 1.52586 0.214833 0.417761 0.289547 0.788731 1.1665 -1.4917 0.625107 </weights>
                </Neuron>
                <Neuron id="1">
                    <weights>1.07893 -2.23828 -0.534636 0.865009 0.119948 0.922765 -0.0248626 -0.651617 0.123867 0.107943 0.887107 2.09337 -1.76176 </weights>
                </Neuron>
                <Neuron id="2">
                    <weights>1.01927 -0.0239199 1.52734 -0.0293556 0.573023 -2.2769 1.96042 -0.287905 0.410788 0.639197 -0.532999 0.459826 0.0942152 </weights>
                </Neuron>
            </NeuronLayer>
        </NeuralNetwork>
    </Entity>
    <Entity type="Herbivore">
        <x>147.746</x>
        <y>463.603</y>
        <radius>9.4655</radius>
        <angle>1.41361</angle>
        <maxSpeed>50</maxSpeed>
        <attack>2</attack>
        <energy>1</energy>
        <sex>true</sex>
        <mating>438</mating>
        <age>6448</age>
        <hunger>1563</hunger>
        <thirst>108</thirst>
        <health>2837</health>
        <NeuralNetwork>
            <NeuronLayer id="0">
                <inputsNum>16</inputsNum>
            </NeuronLayer>
            <NeuronLayer id="1">
                <Neuron id="0">
                    <weights>0.287273 0.282169 0.213032 0.394643 0.793602 0.618497 -2.55262 0.893505 -0.758486 0.160186 -0.00290698 1.36593 -2.34857 -2.05325 -1.63785 -2.02095 -0.145095 </weights>
                </Neuron>
                <Neuron id="1">
                    <weights>0.525157 0.783181 -0.199935 0.133058 1.3752 -0.336446 0.366843 -0.199855 -0.194041 -0.143604 0.600211 -0.969973 -0.309407 -0.750087 1.42516 -0.0710015 -0.558258 </weights>
                </Neuron>
                <Neuron id="2">
                    <weights>0.622796 -0.82239 -0.842187 0.279795 -2.19882 0.624968 -0.523226 -0.898862 -0.761761 0.713839 0.0529043 -0.315546 0.415315 -0.535144 -0.0623682 0.127293 1.04313 </weights>
                </Neuron>
                <Neuron id="3">
                    <weights>1.44905 0.709344 -0.55134 -0.367065 -1.50873 0.0559181 -0.436055 -0.282933 0.224305 0.979326 1.09946 -1.4076 -2.12439 -0.697452 -1.04698 -0.233415 -0.697562 </weights>
                </Neuron>
                <Neuron id="4">
                    <weights>0.147538 -0.986878 -0.659661 0.304114 0.847215 1.04095 0.414949 -0.286651 -0.184552 -0.08709 0.0887127 0.0982454 -0.227467 -0.632361 0.0805538 -0.369366 -1.16928 </weights>
                </Neuron>
                <Neuron id="5">
                    <weights>0.11288 -0.358489 -1.30304 -0.60852 0.54426 1.08893 -0.632276 -0.471243 0.885377 -0.493886 0.698338 0.0466192 -0.313995 0.180586 -0.411462 1.4438 0.702716 </weights>
                </Neuron>
                <Neuron id="6">
                    <weights>-0.0207041 -0.809259 -0.525295 -0.285172 -1.84435 -0.103576 -1.26291 0.0670633 -0.723051 -0.837195 0.603425 1.03744 0.291274 0.143777 -1.94633 1.27104 0.0751385 </weights>
                </Neuron>
                <Neuron id="7">
                    <weights>1.14503 -0.976926 0.239179 -0.0058511 -1.25421 -0.824351 0.904559 0.685404 -0.877194 -1.90713 -0.516457 1.77163 -1.29403 1.41797 0.178582 -0.365108 0.354428 </weights>
                </Neuron>
                <Neuron id="8">
                    <weights>-0.839793 0.269511 -1.93411 0.430707 -0.295295 1.22323 -0.425933 -1.01827 0.0801016 0.00273791 0.597678 -1.02806 0.462238 0.646738 -1.17475 -1.76481 -1.29762 </weights>
                </Neuron>
                <Neuron id="9">
                    <weights>-1.5577 -1.15251 -0.808068 1.49251 -0.945476 1.02844 -0.00405803 0.450942 0.49014 0.149446 -1.61919 1.53986 0.884917 -0.418594 -0.284999 0.729883 -2.17625 </weights>
                </Neuron>
                <Neuron id="10">
                    <weights>-0.574883 0.263198 1.47736 -0.299634 0.295722 -1.85249 0.87121 0.303964 0.970244 -2.00984 -0.214423 0.759559 -0.0326649 1.04929 0.209395 2.1414 1.0445 </weights>
                </Neuron>
                <Neuron id="11">
                    <weights>0.366891 1.08607 -0.00115007 -0.678842 -1.39662 -0.0375953 1.65676 1.07748 0.123951 1.19819 -0.89456 -0.686046 -0.999962 -2.12956 0.149722 1.23952 0.593239 </weights>
                </Neuron>
            </NeuronLayer>
            <NeuronLayer id="2">
                <Neuron id="0">
                    <weights>-0.984648 0.78631 -2.96233 -0.234037 0.390646 1.52586 0.214833 0.417761 0.289547 0.788731 1.1665 -1.4917 0.625107 </weights>
                </Neuron>
                <Neuron id="1">
                    <weights>1.07893 -2.23828 -0.534636 0.865009 0.119948 0.922765 -0.0248626 -0.651617 0.123867 0.107943 0.887107 2.09337 -1.76176 </weights>
                </Neuron>
                <Neuron id="2">
                    <weights>1.01927 -0.0239199 1.52734 -0.0293556 0.573023 -2.2769 1.96042 -0.287905 0.410788 0.639197 -0.532999 0.459826 0.0942152 </weights>
                </Neuron>
            </NeuronLayer>
        </NeuralNetwork>
    </Entity>
    <Entity type="Herbivore">
        <x>425.758</x>
        <y>126.785</y>
        <radius>9.4085</radius>
        <angle>-2.60205</angle>
        <maxSpeed>50</maxSpeed>
        <attack>2</attack>
        <energy>0</energy>
        <sex>true</sex>
        <mating>2198</mating>
        <age>5330</age>
        <hunger>635</hunger>
        <thirst>79</thirst>
        <health>2534</health>
        <NeuralNetwork>
            <NeuronLayer id="0">
                <inputsNum>16</inputsNum>
            </NeuronLayer>
            <NeuronLayer id="1">
                <Neuron id="0">
                    <weights>0.287273 0.282169 0.213032 0.394643 0.793602 0.618497 -2.55262 0.893505 -0.758486 0.160186 -0.00290698 1.36593 -2.34857 -2.05325 -1.63785 -2.02095 -0.145095 </weights>
                </Neuron>
                <Neuron id="1">
                    <weights>0.525157 0.783181 -0.199935 0.133058 1.3752 -0.336446 0.366843 -0.199855 -0.194041 -0.143604 0.600211 -0.969973 -0.309407 -0.750087 1.42516 -0.0710015 -0.558258 </weights>
                </Neuron>
                <Neuron id="2">
                    <weights>0.622796 -0.82239 -0.842187 0.279795 -2.19882 0.624968 -0.523226 -0.898862 -0.761761 0.713839 0.0529043 -0.315546 0.415315 -0.535144 -0.0623682 0.127293 1.04313 </weights>
                </Neuron>
                <Neuron id="3">
                    <weights>1.44905 0.709344 -0.55134 -0.367065 -1.50873 0.0559181 -0.436055 -0.282933 0.224305 0.979326 1.09946 -1.4076 -2.12439 -0.697452 -1.04698 -0.233415 -0.697562 </weights>
                </Neuron>
                <Neuron id="4">
                    <weights>0.147538 -0.986878 -0.659661 0.304114 0.847215 1.04095 0.414949 -0.286651 -0.184552 -0.08709 0.0887127 0.0982454 -0.227467 -0.632361 0.0805538 -0.369366 -1.16928 </weights>
                </Neuron>
                <Neuron id="5">
                    <weights>0.11288 -0.358489 -1.30304 -0.60852 0.54426 1.08893 -0.632276 -0.471243 0.885377 -0.493886 0.698338 0.0466192 -0.313995 0.180586 -0.411462 1.4438 0.702716 </weights>
                </Neuron>
                <Neuron id="6">
                    <weights>-0.0207041 -0.809259 -0.525295 -0.285172 -1.84435 -0.103576 -1.26291 0.0670633 -0.723051 -0.837195 0.603425 1.03744 0.291274 0.143777 -1.94633 1.27104 0.0751385 </weights>
                </Neuron>
                <Neuron id="7">
                    <weights>0.0922316 -1.0279 -0.471486 1.01668 0.14508 0.0731249 -0.673604 -0.975461 -0.885563 -0.253417 -0.180985 1.61588 -1.22138 -1.15708 1.04344 -0.0197444 0.99744 </weights>
                </Neuron>
                <Neuron id="8">
                    <weights>-1.44689 -0.352533 -1.08589 1.25979 0.582235 1.07917 -1.16421 -0.406282 -0.363541 0.0334271 -1.52877 -1.10664 -0.18368 1.33521 -2.65897 0.861709 -1.202 </weights>
                </Neuron>
                <Neuron id="9">
                    <weights>-1.5577 -1.15251 -0.808068 1.49251 -0.945476 1.02844 -0.00405803 0.450942 0.49014 0.149446 -1.61919 1.53986 0.884917 -0.418594 -0.284999 0.729883 -2.17625 </weights>
                </Neuron>
                <Neuron id="10">
                    <weights>-0.574883 0.263198 1.47736 -0.299634 0.295722 -1.85249 0.87121 0.303964 0.970244 -2.00984 -0.214423 0.759559 -0.0326649 1.04929 0.209395 2.1414 1.0445 </weights>
                </Neuron>
                <Neuron id="11">
                    <weights>-1.21137 0.488047 0.465538 -0.0729898 1.09389 0.448305 0.065874 0.645296 -0.709376 0.215723 -0.0744154 0.747168 -1.25627 0.246147 -0.0325389 0.904586 -0.80667 </weights>
                </Neuron>
            </NeuronLayer>
            <NeuronLayer id="2">
                <Neuron id="0">
                    <weights>-0.984648 0.78631 -2.96233 -0.234037 0.390646 1.52586 0.214833 0.417761 0.289547 0.788731 1.1665 -1.4917 0.625107 </weights>
                </Neuron>
                <Neuron id="1">
                    <weights>1.07893 -2.23828 -0.534636 0.865009 0.119948 0.922765 -0.0248626 -0.651617 0.123867 0.107943 0.887107 2.09337 -1.76176 </weights>
                </Neuron>
                <Neuron id="2">
                    <weights>1.94686 0.139879 -0.475186 -0.217833 -0.978576 0.214272 0.0525946 -0.185505 -1.27003 -0.392036 0.710276 0.611299 -0.135219 </weights>
                </Neuron>
            </NeuronLayer>
        </NeuralNetwork>
    </Entity>
    <Entity type="Herbivore">
        <x>95.762</x>
        <y>102.564</y>
        <radius>9.0038</radius>
        <angle>2.34651</angle>
        <maxSpeed>50</maxSpeed>
        <attack>2</attack>
        <energy>0</energy>
        <sex>false</sex>
        <mating>439</mating>
        <age>5330</age>
        <hunger>1984</hunger>
        <thirst>357</thirst>
        <health>3391</health>
        <NeuralNetwork>
            <NeuronLayer id="0">
                <inputsNum>16</inputsNum>
            </NeuronLayer>
            <NeuronLayer id="1">
                <Neuron id="0">
                    <weights>0.287273 0.282169 0.213032 0.394643 0.793602 0.618497 -2.55262 0.893505 -0.758486 0.160186 -0.00290698 1.36593 -2.34857 -2.05325 -1.63785 -2.02095 -0.145095 </weights>
                </Neuron>
                <Neuron id="1">
                    <weights>0.525157 0.783181 -0.199935 0.133058 1.3752 -0.336446 0.366843 -0.199855 -0.194041 -0.143604 0.600211 -0.969973 -0.309407 -0.750087 1.42516 -0.0710015 -0.558258 </weights>
                </Neuron>
                <Neuron id="2">
                    <weights>0.622796 -0.82239 -0.842187 0.279795 -2.19882 0.624968 -0.523226 -0.898862 -0.761761 0.713839 0.0529043 -0.315546 0.415315 -0.535144 -0.0623682 0.127293 1.04313 </weights>
                </Neuron>
                <Neuron id="3">
                    <weights>1.44905 0.709344 -0.55134 -0.367065 -1.50873 0.0559181 -0.436055 -0.282933 0.224305 0.979326 1.09946 -1.4076 -2.12439 -0.697452 -1.04698 -0.233415 -0.697562 </weights>
                </Neuron>
                <Neuron id="4">
                    <weights>0.147538 -0.986878 -0.659661 0.304114 0.847215 1.04095 0.414949 -0.286651 -0.184552 -0.08709 0.0887127 0.0982454 -0.227467 -0.632361 0.0805538 -0.369366 -1.16928 </weights>
                </Neuron>
                <Neuron id="5">
                    <weights>0.11288 -0.358489 -1.30304 -0.60852 0.54426 1.08893 -0.632276 -0.471243 0.885377 -0.493886 0.698338 0.0466192 -0.313995 0.180586 -0.411462 1.4438 0.702716 </weights>
                </Neuron>
                <Neuron id="6">
                    <weights>-0.0207041 -0.809259 -0.525295 -0.285172 -1.84435 -0.103576 -1.26291 0.0670633 -0.723051 -0.837195 0.603425 1.03744 0.291274 0.143777 -1.94633 1.27104 0.0751385 </weights>
                </Neuron>
                <Neuron id="7">
                    <weights>0.0922316 -1.0279 -0.471486 1.01668 0.14508 0.0731249 -0.673604 -0.975461 -0.885563 -0.253417 -0.180985 1.61588 -1.22138 -1.15708 1.04344 -0.0197444 0.99744 </weights>
                </Neuron>
                <Neuron id="8">
                    <weights>-1.44689 -0.352533 -1.08589 1.25979 0.582235 1.07917 -1.16421 -0.406282 -0.363541 0.0334271 -1.52877 -1.10664 -0.18368 1.33521 -2.65897 0.861709 -1.202 </weights>
                </Neuron>
                <Neuron id="9">
                    <weights>-1.5577 -1.15251 -0.808068 1.49251 -0.945476 1.02844 -0.00405803 0.450942 0.49014 0.149446 -1.61919 1.53986 0.884917 -0.418594 -0.284999 0.729883 -2.17625 </weights>
                </Neuron>
                <Neuron id="10">
                    <weights>-0.574883 0.263198 1.47736 -0.299634 0.295722 -1.85249 0.87121 0.303964 0.970244 -2.00984 -0.214423 0.759559 -0.0326649 1.04929 0.209395 2.1414 1.0445 </weights>
                </Neuron>
                <Neuron id="11">
                    <weights>-1.21137 0.488047 0.465538 -0.0729898 1.09389 0.448305 0.065874 0.645296 -0.709376 0.215723 -0.0744154 0.747168 -1.25627 0.246147 -0.0325389 0.904586 -0.80667 </weights>
                </Neuron>
            </NeuronLayer>
            <NeuronLayer id="2">
                <Neuron id="0">
                    <weights>-0.984648 0.78631 -2.96233 -0.234037 0.390646 1.52586 0.214833 0.417761 0.289547 0.788731 1.1665 -1.4917 0.625107 </weights>
                </Neuron>
                <Neuron id="1">
                    <weights>1.07893 -2.23828 -0.534636 0.865009 0.119948 0.922765 -0.0248626 -0.651617 0.123867 0.107943 0.887107 2.09337 -1.76176 </weights>
                </Neuron>
                <Neuron id="2">
                    <weights>1.94686 0.139879 -0.475186 -0.217833 -0.978576 0.214272 0.0525946 -0.185505 -1.27003 -0.392036 0.710276 0.611299 -0.135219 </weights>
                </Neuron>
            </NeuronLayer>
        </NeuralNetwork>
    </Entity>
    <Entity type="Herbivore">
        <x>411.311</x>
        <y>35.507</y>
        <radius>8.7785</radius>
        <angle>-2.03474</angle>
        <maxSpeed>50</maxSpeed>
        <attack>2</attack>
        <energy>1</energy>
        <sex>true</sex>
        <mating>1939</mating>
        <age>4745</age>
        <hunger>1896</hunger>
        <thirst>189</thirst>
        <health>1590</health>
        <NeuralNetwork>
            <NeuronLayer id="0">
                <inputsNum>16</inputsNum>
            </NeuronLayer>
            <NeuronLayer id="1">
                <Neuron id="0">
                    <weights>0.287273 0.282169 0.213032 0.394643 0.793602 0.618497 -2.55262 0.893505 -0.758486 0.160186 -0.00290698 1.36593 -2.34857 -2.05325 -1.63785 -2.02095 -0.145095 </weights>
                </Neuron>
                <Neuron id="1">
                    <weights>0.525157 0.783181 -0.199935 0.133058 1.3752 -0.336446 0.366843 -0.199855 -0.194041 -0.143604 0.600211 -0.969973 -0.309407 -0.750087 1.42516 -0.0710015 -0.558258 </weights>
                </Neuron>
                <Neuron id="2">
                    <weights>0.622796 -0.82239 -0.842187 0.279795 -2.19882 0.624968 -0.523226 -0.898862 -0.761761 0.713839 0.0529043 -0.315546 0.415315 -0.535144 -0.0623682 0.127293 1.04313 </weights>
                </Neuron>
                <Neuron id="3">
                    <weights>1.44905 0.709344 -0.55134 -0.367065 -1.50873 0.0559181 -0.436055 -0.282933 0.224305 0.979326 1.09946 -1.4076 -2.12439 -0.697452 -1.04698 -0.233415 -0.697562 </weights>
                </Neuron>
                <Neuron id="4">
                    <weights>0.147538 -0.986878 -0.659661 0.304114 0.847215 1.04095 0.414949 -0.286651 -0.184552 -0.08709 0.0887127 0.0982454 -0.227467 -0.632361 0.0805538 -0.369366 -1.16928 </weights>
                </Neuron>
                <Neuron id="5">
                    <weights>0.11288 -0.358489 -1.30304 -0.60852 0.54426 1.08893 -0.632276 -0.471243 0.885377 -0.493886 0.698338 0.0466192 -0.313995 0.180586 -0.411462 1.4438 0.702716 </weights>
                </Neuron>
                <Neuron id="6">
                    <weights>-0.0207041 -0.809259 -0.525295 -0.285172 -1.84435 -0.103576 -1.26291 0.0670633 -0.723051 -0.837195 0.603425 1.03744 0.291274 0.143777 -1.94633 1.27104 0.0751385 </weights>
                </Neuron>
                <Neuron id="7">
                    <weights>0.0922316 -1.0279 -0.471486 1.01668 0.14508 0.0731249 -0.673604 -0.975461 -0.885563 -0.253417 -0.180985 1.61588 -1.22138 -1.15708 1.04344 -0.0197444 0.99744 </weights>
                </Neuron>
                <Neuron id="8">
                    <weights>-1.44689 -0.352533 -1.08589 1.25979 0.582235 1.07917 -1.16421 -0.406282 -0.363541 0.0334271 -1.52877 -1.10664 -0.18368 1.33521 -2.65897 0.861709 -1.202 </weights>
                </Neuron>
                <Neuron id="9">
                    <weights>-1.5577 -1.15251 -0.808068 1.49251 -0.945476 1.02844 -0.00405803 0.450942 0.49014 0.149446 -1.61919 1.53986 0.884917 -0.418594 -0.284999 0.729883 -2.17625 </weights>
                </Neuron>
                <Neuron id="10">
                    <weights>-0.574883 0.263198 1.47736 -0.299634 0.295722 -1.85249 0.87121 0.303964 0.970244 -2.00984 -0.214423 0.759559 -0.0326649 1.04929 0.209395 2.1414 1.0445 </weights>
                </Neuron>
                <Neuron id="11">
                    <weights>0.366891 1.08607 -0.00115007 -0.678842 -1.39662 -0.0375953 1.65676 1.07748 0.123951 1.19819 -0.89456 -0.686046 -0.999962 -2.12956 0.149722 1.23952 0.593239 </weights>
                </Neuron>
            </NeuronLayer>
            <NeuronLayer id="2">
                <Neuron id="0">
                    <weights>-0.984648 0.78631 -2.96233 -0.234037 0.390646 1.52586 0.214833 0.417761 0.289547 0.788731 1.1665 -1.4917 0.625107 </weights>
                </Neuron>
                <Neuron id="1">
                    <weights>1.07893 -2.23828 -0.534636 0.865009 0.119948 0.922765 -0.0248626 -0.651617 0.123867 0.107943 0.887107 2.09337 -1.76176 </weights>
                </Neuron>
                <Neuron id="2">
                    <weights>1.94686 0.139879 -0.475186 -0.217833 -0.978576 0.214272 0.0525946 -0.185505 -1.27003 -0.392036 0.710276 0.611299 -0.135219 </weights>
                </Neuron>
            </NeuronLayer>
        </NeuralNetwork>
    </Entity>
    <Entity type="Herbivore">
        <x>150.051</x>
        <y>61.7181</y>
        <radius>8.9033</radius>
        <angle>2.20436</angle>
        <maxSpeed>50</maxSpeed>
        <attack>2</attack>
        <energy>0</energy>
        <sex>true</sex>
        <mating>2073</mating>
        <age>4726</age>
        <hunger>1690</hunger>
        <thirst>621</thirst>
        <health>4841</health>
        <NeuralNetwork>
            <NeuronLayer id="0">
                <inputsNum>16</inputsNum>
            </NeuronLayer>
            <NeuronLayer id="1">
                <Neuron id="0">
                    <weights>0.287273 0.282169 0.213032 0.394643 0.793602 0.618497 -2.55262 0.893505 -0.758486 0.160186 -0.00290698 1.36593 -2.34857 -2.05325 -1.63785 -2.02095 -0.145095 </weights>
                </Neuron>
                <Neuron id="1">
                    <weights>0.525157 0.783181 -0.199935 0.133058 1.3752 -0.336446 0.366843 -0.199855 -0.194041 -0.143604 0.600211 -0.969973 -0.309407 -0.750087 1.42516 -0.0710015 -0.558258 </weights>
                </Neuron>
                <Neuron id="2">
                    <weights>0.622796 -0.82239 -0.842187 0.279795 -2.19882 0.624968 -0.523226 -0.898862 -0.761761 0.713839 0.0529043 -0.315546 0.415315 -0.535144 -0.0623682 0.127293 1.04313 </weights>
                </Neuron>
                <Neuron id="3">
                    <weights>1.44905 0.709344 -0.55134 -0.367065 -1.50873 0.0559181 -0.436055 -0.282933 0.224305 0.979326 1.09946 -1.4076 -2.12439 -0.697452 -1.04698 -0.233415 -0.697562 </weights>
                </Neuron>
                <Neuron id="4">
                    <weights>0.147538 -0.986878 -0.659661 0.304114 0.847215 1.04095 0.414949 -0.286651 -0.184552 -0.08709 0.0887127 0.0982454 -0.227467 -0.632361 0.0805538 -0.369366 -1.16928 </weights>
                </Neuron>
                <Neuron id="5">
                    <weights>0.11288 -0.358489 -1.30304 -0.60852 0.54426 1.08893 -0.632276 -0.471243 0.885377 -0.493886 0.698338 0.0466192 -0.313995 0.180586 -0.411462 1.4438 0.702716 </weights>
                </Neuron>
                <Neuron id="6">
                    <weights>-0.0207041 -0.809259 -0.525295 -0.285172 -1.84435 -0.103576 -1.26291 0.0670633 -0.723051 -0.837195 0.603425 1.03744 0.291274 0.143777 -1.94633 1.27104 0.0751385 </weights>
                </Neuron>
                <Neuron id="7">
                    <weights>0.0922316 -1.0279 -0.471486 1.01668 0.14508 0.0731249 -0.673604 -0.975461 -0.885563 -0.253417 -0.180985 1.61588 -1.22138 -1.15708 1.04344 -0.0197444 0.99744 </weights>
                </Neuron>
                <Neuron id="8">
                    <weights>-1.44689 -0.352533 -1.08589 1.25979 0.582235 1.07917 -1.16421 -0.406282 -0.363541 0.0334271 -1.52877 -1.10664 -0.18368 1.33521 -2.65897 0.861709 -1.202 </weights>
                </Neuron>
                <Neuron id="9">
                    <weights>-1.5577 -1.15251 -0.808068 1.49251 -0.945476 1.02844 -0.00405803 0.450942 0.49014 0.149446 -1.61919 1.53986 0.884917 -0.418594 -0.284999 0.729883 -2.17625 </weights>
                </Neuron>
                <Neuron id="10">
                    <weights>-0.574883 0.263198 1.47736 -0.299634 0.295722 -1.85249 0.87121 0.303964 0.970244 -2.00984 -0.214423 0.759559 -0.0326649 1.04929 0.209395 2.1414 1.0445 </weights>
                </Neuron>
                <Neuron id="11">
                    <weights>0.366891 1.08607 -0.00115007 -0.678842 -1.39662 -0.0375953 1.65676 1.07748 0.123951 1.19819 -0.89456 -0.686046 -0.999962 -2.12956 0.149722 1.23952 0.593239 </weights>
                </Neuron>
            </NeuronLayer>
            <NeuronLayer id="2">
                <Neuron id="0">
                    <weights>-0.984648 0.78631 -2.96233 -0.234037 0.390646 1.52586 0.214833 0.417761 0.289547 0.788731 1.1665 -1.4917 0.625107 </weights>
                </Neuron>
                <Neuron id="1">
                    <weights>1.07893 -2.23828 -0.534636 0.865009 0.119948 0.922765 -0.0248626 -0.651617 0.123867 0.107943 0.887107 2.09337 -1.76176 </weights>
                </Neuron>
                <Neuron id="2">
                    <weights>1.94686 0.139879 -0.475186 -0.217833 -0.978576 0.214272 0.0525946 -0.185505 -1.27003 -0.392036 0.710276 0.611299 -0.135219 </weights>
                </Neuron>
            </NeuronLayer>
        </NeuralNetwork>
    </Entity>
    <Entity type="Herbivore">
        <x>357.907</x>
        <y>111.879</y>
        <radius>8.9792</radius>
        <angle>-2.33534</angle>
        <maxSpeed>50</maxSpeed>
        <attack>2</attack>
        <energy>2</energy>
        <sex>false</sex>
        <mating>1862</mating>
        <age>4497</age>
        <hunger>1233</hunger>
        <thirst>1939</thirst>
        <health>4561</health>
        <NeuralNetwork>
            <NeuronLayer id="0">
                <inputsNum>16</inputsNum>
            </NeuronLayer>
            <NeuronLayer id="1">
                <Neuron id="0">
                    <weights>0.287273 0.282169 0.213032 0.394643 0.793602 0.618497 -2.55262 0.893505 -0.758486 0.160186 -0.00290698 1.36593 -2.34857 -2.05325 -1.63785 -2.02095 -0.145095 </weights>
                </Neuron>
                <Neuron id="1">
                    <weights>0.525157 0.783181 -0.199935 0.133058 1.3752 -0.336446 0.366843 -0.199855 -0.194041 -0.143604 0.600211 -0.969973 -0.309407 -0.750087 1.42516 -0.0710015 -0.558258 </weights>
                </Neuron>
                <Neuron id="2">
                    <weights>0.622796 -0.82239 -0.842187 0.279795 -2.19882 0.624968 -0.523226 -0.898862 -0.761761 0.713839 0.0529043 -0.315546 0.415315 -0.535144 -0.0623682 0.127293 1.04313 </weights>
                </Neuron>
                <Neuron id="3">
                    <weights>1.44905 0.709344 -0.55134 -0.367065 -1.50873 0.0559181 -0.436055 -0.282933 0.224305 0.979326 1.09946 -1.4076 -2.12439 -0.697452 -1.04698 -0.233415 -0.697562 </weights>
                </Neuron>
                <Neuron id="4">
                    <weights>0.147538 -0.986878 -0.659661 0.304114 0.847215 1.04095 0.414949 -0.286651 -0.184552 -0.08709 0.0887127 0.0982454 -0.227467 -0.632361 0.0805538 -0.369366 -1.16928 </weights>
                </Neuron>
                <Neuron id="5">
                    <weights>0.11288 -0.358489 -1.30304 -0.60852 0.54426 1.08893 -0.632276 -0.471243 0.885377 -0.493886 0.698338 0.0466192 -0.313995 0.180586 -0.411462 1.4438 0.702716 </weights>
                </Neuron>
                <Neuron id="6">
                    <weights>-0.0207041 -0.809259 -0.525295 -0.285172 -1.84435 -0.103576 -1.26291 0.0670633 -0.723051 -0.837195 0.603425 1.03744 0.291274 0.143777 -1.94633 1.27104 0.0751385 </weights>
                </Neuron>
                <Neuron id="7">
                    <weights>0.0922316 -1.0279 -0.471486 1.01668 0.14508 0.0731249 -0.673604 -0.975461 -0.885563 -0.253417 -0.180985 1.61588 -1.22138 -1.15708 1.04344 -0.0197444 0.99744 </weights>
                </Neuron>
                <Neuron id="8">
                    <weights>-1.44689 -0.352533 -1.08589 1.25979 0.582235 1.07917 -1.16421 -0.406282 -0.363541 0.0334271 -1.52877 -1.10664 -0.18368 1.33521 -2.65897 0.861709 -1.202 </weights>
                </Neuron>
                <Neuron id="9">
                    <weights>-1.5577 -1.15251 -0.808068 1.49251 -0.945476 1.02844 -0.00405803 0.450942 0.49014 0.149446 -1.61919 1.53986 0.884917 -0.418594 -0.284999 0.729883 -2.17625 </weights>
                </Neuron>
                <Neuron id="10">
                    <weights>-0.574883 0.263198 1.47736 -0.299634 0.295722 -1.85249 0.87121 0.303964 0.970244 -2.00984 -0.214423 0.759559 -0.0326649 1.04929 0.209395 2.1414 1.0445 </weights>
                </Neuron>
                <Neuron id="11">
                    <weights>0.366891 1.08607 -0.00115007 -0.678842 -1.39662 -0.0375953 1.65676 1.07748 0.123951 1.19819 -0.89456 -0.686046 -0.999962 -2.12956 0.149722 1.23952 0.593239 </weights>
                </Neuron>
            </NeuronLayer>
            <NeuronLayer id="2">
                <Neuron id="0">
                    <weights>-0.984648 0.78631 -2.96233 -0.234037 0.390646 1.52586 0.214833 0.417761 0.289547 0.788731 1.1665 -1.4917 0.625107 </weights>
                </Neuron>
                <Neuron id="1">
                    <weights>1.07893 -2.23828 -0.534636 0.865009 0.119948 0.922765 -0.0248626 -0.651617 0.123867 0.107943 0.887107 2.09337 -1.76176 </weights>
                </Neuron>
                <Neuron id="2">
                    <weights>1.94686 0.139879 -0.475186 -0.217833 -0.978576 0.214272 0.0525946 -0.185505 -1.27003 -0.392036 0.710276 0.611299 -0.135219 </weights>
                </Neuron>
            </NeuronLayer>
        </NeuralNetwork>
    </Entity>
    <Entity type="Herbivore">
        <x>87.1441</x>
        <y>140.872</y>
        <radius>9.0572</radius>
        <angle>2.51722</angle>
        <maxSpeed>50</maxSpeed>
        <attack>2</attack>
        <energy>0</energy>
        <sex>true</sex>
        <mating>1928</mating>
        <age>4497</age>
        <hunger>973</hunger>
        <thirst>368</thirst>
        <health>4974</health>
        <NeuralNetwork>
            <NeuronLayer id="0">
                <inputsNum>16</inputsNum>
            </NeuronLayer>
            <NeuronLayer id="1">
                <Neuron id="0">
                    <weights>0.287273 0.282169 0.213032 0.394643 0.793602 0.618497 -2.55262 0.893505 -0.758486 0.160186 -0.00290698 1.36593 -2.34857 -2.05325 -1.63785 -2.02095 -0.145095 </weights>
                </Neuron>
                <Neuron id="1">
                    <weights>0.525157 0.783181 -0.199935 0.133058 1.3752 -0.336446 0.366843 -0.199855 -0.194041 -0.143604 0.600211 -0.969973 -0.309407 -0.750087 1.42516 -0.0710015 -0.558258 </weights>
                </Neuron>
                <Neuron id="2">
                    <weights>0.622796 -0.82239 -0.842187 0.279795 -2.19882 0.624968 -0.523226 -0.898862 -0.761761 0.713839 0.0529043 -0.315546 0.415315 -0.535144 -0.0623682 0.127293 1.04313 </weights>
                </Neuron>
                <Neuron id="3">
                    <weights>1.44905 0.709344 -0.55134 -0.367065 -1.50873 0.0559181 -0.436055 -0.282933 0.224305 0.979326 1.09946 -1.4076 -2.12439 -0.697452 -1.04698 -0.233415 -0.697562 </weights>
                </Neuron>
                <Neuron id="4">
                    <weights>0.147538 -0.986878 -0.659661 0.304114 0.847215 1.04095 0.414949 -0.286651 -0.184552 -0.08709 0.0887127 0.0982454 -0.227467 -0.632361 0.0805538 -0.369366 -1.16928 </weights>
                </Neuron>
                <Neuron id="5">
                    <weights>0.11288 -0.358489 -1.30304 -0.60852 0.54426 1.08893 -0.632276 -0.471243 0.885377 -0.493886 0.698338 0.0466192 -0.313995 0.180586 -0.411462 1.4438 0.702716 </weights>
                </Neuron>
                <Neuron id="6">
                    <weights>-0.0207041 -0.809259 -0.525295 -0.285172 -1.84435 -0.103576 -1.26291 0.0670633 -0.723051 -0.837195 0.603425 1.03744 0.291274 0.143777 -1.94633 1.27104 0.0751385 </weights>
                </Neuron>
                <Neuron id="7">
                    <weights>0.0922316 -1.0279 -0.471486 1.01668 0.14508 0.0731249 -0.673604 -0.975461 -0.885563 -0.253417 -0.180985 1.61588 -1.22138 -1.15708 1.04344 -0.0197444 0.99744 </weights>
                </Neuron>
                <Neuron id="8">
                    <weights>-1.44689 -0.352533 -1.08589 1.25979 0.582235 1.07917 -1.16421 -0.406282 -0.363541 0.0334271 -1.52877 -1.10664 -0.18368 1.33521 -2.65897 0.861709 -1.202 </weights>
                </Neuron>
                <Neuron id="9">
                    <weights>-1.5577 -1.15251 -0.808068 1.49251 -0.945476 1.02844 -0.00405803 0.450942 0.49014 0.149446 -1.61919 1.53986 0.884917 -0.418594 -0.284999 0.729883 -2.17625 </weights>
                </Neuron>
                <Neuron id="10">
                    <weights>-0.574883 0.263198 1.47736 -0.299634 0.295722 -1.85249 0.87121 0.303964 0.970244 -2.00984 -0.214423 0.759559 -0.0326649 1.04929 0.209395 2.1414 1.0445 </weights>
                </Neuron>
                <Neuron id="11">
                    <weights>0.366891 1.08607 -0.00115007 -0.678842 -1.39662 -0.0375953 1.65676 1.07748 0.123951 1.19819 -0.89456 -0.686046 -0.999962 -2.12956 0.149722 1.23952 0.593239 </weights>
                </Neuron>
            </NeuronLayer>
            <NeuronLayer id="2">
                <Neuron id="0">
                    <weights>-0.984648 0.78631 -2.96233 -0.234037 0.390646 1.52586 0.214833 0.417761 0.289547 0.788731 1.1665 -1.4917 0.625107 </weights>
                </Neuron>
                <Neuron id="1">
                    <weights>1.07893 -2.23828 -0.534636 0.865009 0.119948 0.922765 -0.0248626 -0.651617 0.123867 0.107943 0.887107 2.09337 -1.76176 </weights>
                </Neuron>
                <Neuron id="2">
                    <weights>1.94686 0.139879 -0.475186 -0.217833 -0.978576 0.214272 0.0525946 -0.185505 -1.27003 -0.392036 0.710276 0.611299 -0.135219 </weights>
                </Neuron>
            </NeuronLayer>
        </NeuralNetwork>
    </Entity>
    <Entity type="Herbivore">
        <x>494.155</x>
        <y>178.513</y>
        <radius>9.2954</radius>
        <angle>2.65306</angle>
        <maxSpeed>50</maxSpeed>
        <attack>2</attack>
        <energy>0</energy>
        <sex>true</sex>
        <mating>1813</mating>
        <age>4432</age>
        <hunger>114</hunger>
        <thirst>262</thirst>
        <health>5000</health>
        <NeuralNetwork>
            <NeuronLayer id="0">
                <inputsNum>16</inputsNum>
            </NeuronLayer>
            <NeuronLayer id="1">
                <Neuron id="0">
                    <weights>0.287273 0.282169 0.213032 0.394643 0.793602 0.618497 -2.55262 0.893505 -0.758486 0.160186 -0.00290698 1.36593 -2.34857 -2.05325 -1.63785 -2.02095 -0.145095 </weights>
                </Neuron>
                <Neuron id="1">
                    <weights>0.525157 0.783181 -0.199935 0.133058 1.3752 -0.336446 0.366843 -0.199855 -0.194041 -0.143604 0.600211 -0.969973 -0.309407 -0.750087 1.42516 -0.0710015 -0.558258 </weights>
                </Neuron>
                <Neuron id="2">
                    <weights>0.622796 -0.82239 -0.842187 0.279795 -2.19882 0.624968 -0.523226 -0.898862 -0.761761 0.713839 0.0529043 -0.315546 0.415315 -0.535144 -0.0623682 0.127293 1.04313 </weights>
                </Neuron>
                <Neuron id="3">
                    <weights>1.44905 0.709344 -0.55134 -0.367065 -1.50873 0.0559181 -0.436055 -0.282933 0.224305 0.979326 1.09946 -1.4076 -2.12439 -0.697452 -1.04698 -0.233415 -0.697562 </weights>
                </Neuron>
                <Neuron id="4">
                    <weights>0.147538 -0.986878 -0.659661 0.304114 0.847215 1.04095 0.414949 -0.286651 -0.184552 -0.08709 0.0887127 0.0982454 -0.227467 -0.632361 0.0805538 -0.369366 -1.16928 </weights>
                </Neuron>
                <Neuron id="5">
                    <weights>0.11288 -0.358489 -1.30304 -0.60852 0.54426 1.08893 -0.632276 -0.471243 0.885377 -0.493886 0.698338 0.0466192 -0.313995 0.180586 -0.411462 1.4438 0.702716 </weights>
                </Neuron>
                <Neuron id="6">
                    <weights>-0.0207041 -0.809259 -0.525295 -0.285172 -1.84435 -0.103576 -1.26291 0.0670633 -0.723051 -0.837195 0.603425 1.03744 0.291274 0.143777 -1.94633 1.27104 0.0751385 </weights>
                </Neuron>
                <Neuron id="7">
                    <weights>1.14503 -0.976926 0.239179 -0.0058511 -1.25421 -0.824351 0.904559 0.685404 -0.877194 -1.90713 -0.516457 1.77163 -1.29403 1.41797 0.178582 -0.365108 0.354428 </weights>
                </Neuron>
                <Neuron id="8">
                    <weights>-1.44689 -0.352533 -1.08589 1.25979 0.582235 1.07917 -1.16421 -0.406282 -0.363541 0.0334271 -1.52877 -1.10664 -0.18368 1.33521 -2.65897 0.861709 -1.202 </weights>
                </Neuron>
                <Neuron id="9">
                    <weights>-1.5577 -1.15251 -0.808068 1.49251 -0.945476 1.02844 -0.00405803 0.450942 0.49014 0.149446 -1.61919 1.53986 0.884917 -0.418594 -0.284999 0.729883 -2.17625 </weights>
                </Neuron>
                <Neuron id="10">
                    <weights>-0.574883 0.263198 1.47736 -0.299634 0.295722 -1.85249 0.87121 0.303964 0.970244 -2.00984 -0.214423 0.759559 -0.0326649 1.04929 0.209395 2.1414 1.0445 </weights>
                </Neuron>
                <Neuron id="11">
                    <weights>0.366891 1.08607 -0.00115007 -0.678842 -1.39662 -0.0375953 1.65676 1.07748 0.123951 1.19819 -0.89456 -0.686046 -0.999962 -2.12956 0.149722 1.23952 0.593239 </weights>
                </Neuron>
            </NeuronLayer>
            <NeuronLayer id="2">
                <Neuron id="0">
                    <weights>-0.984648 0.78631 -2.96233 -0.234037 0.390646 1.52586 0.214833 0.417761 0.289547 0.788731 1.1665 -1.4917 0.625107 </weights>
                </Neuron>
                <Neuron id="1">
                    <weights>1.07893 -2.23828 -0.534636 0.865009 0.119948 0.922765 -0.0248626 -0.651617 0.123867 0.107943 0.887107 2.09337 -1.76176 </weights>
                </Neuron>
                <Neuron id="2">
                    <weights>1.94686 0.139879 -0.475186 -0.217833 -0.978576 0.214272 0.0525946 -0.185505 -1.27003 -0.392036 0.710276 0.611299 -0.135219 </weights>
                </Neuron>
            </NeuronLayer>
        </NeuralNetwork>
    </Entity>
    <Entity type="Herbivore">
        <x>15.7541</x>
        <y>169.092</y>
        <radius>8.6324</radius>
        <angle>-3.10958</angle>
        <maxSpeed>50</maxSpeed>
        <attack>2</attack>
        <energy>0</energy>
        <sex>true</sex>
        <mating>1862</mating>
        <age>4432</age>
        <hunger>2000</hunger>
        <thirst>802</thirst>
        <health>466</health>
        <NeuralNetwork>
            <NeuronLayer id="0">
                <inputsNum>16</inputsNum>
            </NeuronLayer>
            <NeuronLayer id="1">
                <Neuron id="0">
                    <weights>0.287273 0.282169 0.213032 0.394643 0.793602 0.618497 -2.55262 0.893505 -0.758486 0.160186 -0.00290698 1.36593 -2.34857 -2.05325 -1.63785 -2.02095 -0.145095 </weights>
                </Neuron>
                <Neuron id="1">
                    <weights>0.525157 0.783181 -0.199935 0.133058 1.3752 -0.336446 0.366843 -0.199855 -0.194041 -0.143604 0.600211 -0.969973 -0.309407 -0.750087 1.42516 -0.0710015 -0.558258 </weights>
                </Neuron>
                <Neuron id="2">
                    <weights>0.622796 -0.82239 -0.842187 0.279795 -2.19882 0.624968 -0.523226 -0.898862 -0.761761 0.713839 0.0529043 -0.315546 0.415315 -0.535144 -0.0623682 0.127293 1.04313 </weights>
                </Neuron>
                <Neuron id="3">
                    <weights>1.44905 0.709344 -0.55134 -0.367065 -1.50873 0.0559181 -0.436055 -0.282933 0.224305 0.979326 1.09946 -1.4076 -2.12439 -0.697452 -1.04698 -0.233415 -0.697562 </weights>
                </Neuron>
                <Neuron id="4">
                    <weights>0.147538 -0.986878 -0.659661 0.304114 0.847215 1.04095 0.414949 -0.286651 -0.184552 -0.08709 0.0887127 0.0982454 -0.227467 -0.632361 0.0805538 -0.369366 -1.16928 </weights>
                </Neuron>
                <Neuron id="5">
                    <weights>0.11288 -0.358489 -1.30304 -0.60852 0.54426 1.08893 -0.632276 -0.471243 0.885377 -0.493886 0.698338 0.0466192 -0.313995 0.180586 -0.411462 1.4438 0.702716 </weights>
                </Neuron>
                <Neuron id="6">
                    <weights>-0.0207041 -0.809259 -0.525295 -0.285172 -1.84435 -0.103576 -1.26291 0.0670633 -0.723051 -0.837195 0.603425 1.03744 0.291274 0.143777 -1.94633 1.27104 0.0751385 </weights>
                </Neuron>
                <Neuron id="7">
                    <weights>1.14503 -0.976926 0.239179 -0.0058511 -1.25421 -0.824351 0.904559 0.685404 -0.877194 -1.90713 -0.516457 1.77163 -1.29403 1.41797 0.178582 -0.365108 0.354428 </weights>
                </Neuron>
                <Neuron id="8">
                    <weights>-1.44689 -0.352533 -1.08589 1.25979 0.582235 1.07917 -1.16421 -0.406282 -0.363541 0.0334271 -1.52877 -1.10664 -0.18368 1.33521 -2.65897 0.861709 -1.202 </weights>
                </Neuron>
                <Neuron id="9">
                    <weights>-1.5577 -1.15251 -0.808068 1.49251 -0.945476 1.02844 -0.00405803 0.450942 0.49014 0.149446 -1.61919 1.53986 0.884917 -0.418594 -0.284999 0.729883 -2.17625 </weights>
                </Neuron>
                <Neuron id="10">
                    <weights>-0.574883 0.263198 1.47736 -0.299634 0.295722 -1.85249 0.87121 0.303964 0.970244 -2.00984 -0.214423 0.759559 -0.0326649 1.04929 0.209395 2.1414 1.0445 </weights>
                </Neuron>
                <Neuron id="11">
                    <weights>0.366891 1.08607 -0.00115007 -0.678842 -1.39662 -0.0375953 1.65676 1.07748 0.123951 1.19819 -0.89456 -0.686046 -0.999962 -2.12956 0.149722 1.23952 0.593239 </weights>
                </Neuron>
            </NeuronLayer>
            <NeuronLayer id="2">
                <Neuron id="0">
                    <weights>-0.984648 0.78631 -2.96233 -0.234037 0.390646 1.52586 0.214833 0.417761 0.289547 0.788731 1.1665 -1.4917 0.625107 </weights>
                </Neuron>
                <Neuron id="1">
                    <weights>1.07893 -2.23828 -0.534636 0.865009 0.119948 0.922765 -0.0248626 -0.651617 0.123867 0.107943 0.887107 2.09337 -1.76176 </weights>
                </Neuron>
                <Neuron id="2">
                    <weights>1.94686 0.139879 -0.475186 -0.217833 -0.978576 0.214272 0.0525946 -0.185505 -1.27003 -0.392036 0.710276 0.611299 -0.135219 </weights>
                </Neuron>
            </NeuronLayer>
        </NeuralNetwork>
    </Entity>
    <Entity type="Herbivore">
        <x>211.38</x>
        <y>462.147</y>
        <radius>9.1778</radius>
        <angle>1.46997</angle>
        <maxSpeed>50</maxSpeed>
        <attack>2</attack>
        <energy>1</energy>
        <sex>false</sex>
        <mating>1744</mating>
        <age>4393</age>
        <hunger>467</hunger>
        <thirst>765</thirst>
        <health>4800</health>
        <NeuralNetwork>
            <NeuronLayer id="0">
                <inputsNum>16</inputsNum>
            </NeuronLayer>
            <NeuronLayer id="1">
                <Neuron id="0">
                    <weights>0.287273 0.282169 0.213032 0.394643 0.793602 0.618497 -2.55262 0.893505 -0.758486 0.160186 -0.00290698 1.36593 -2.34857 -2.05325 -1.63785 -2.02095 -0.145095 </weights>
                </Neuron>
                <Neuron id="1">
                    <weights>0.525157 0.783181 -0.199935 0.133058 1.3752 -0.336446 0.366843 -0.199855 -0.194041 -0.143604 0.600211 -0.969973 -0.309407 -0.750087 1.42516 -0.0710015 -0.558258 </weights>
                </Neuron>
                <Neuron id="2">
                    <weights>0.622796 -0.82239 -0.842187 0.279795 -2.19882 0.624968 -0.523226 -0.898862 -0.761761 0.713839 0.0529043 -0.315546 0.415315 -0.535144 -0.0623682 0.127293 1.04313 </weights>
                </Neuron>
                <Neuron id="3">
                    <weights>1.44905 0.709344 -0.55134 -0.367065 -1.50873 0.0559181 -0.436055 -0.282933 0.224305 0.979326 1.09946 -1.4076 -2.12439 -0.697452 -1.04698 -0.233415 -0.697562 </weights>
                </Neuron>
                <Neuron id="4">
                    <weights>0.147538 -0.986878 -0.659661 0.304114 0.847215 1.04095 0.414949 -0.286651 -0.184552 -0.08709 0.0887127 0.0982454 -0.227467 -0.632361 0.0805538 -0.369366 -1.16928 </weights>
                </Neuron>
                <Neuron id="5">
                    <weights>0.11288 -0.358489 -1.30304 -0.60852 0.54426 1.08893 -0.632276 -0.471243 0.885377 -0.493886 0.698338 0.0466192 -0.313995 0.180586 -0.411462 1.4438 0.702716 </weights>
                </Neuron>
                <Neuron id="6">
                    <weights>-0.0207041 -0.809259 -0.525295 -0.285172 -1.84435 -0.103576 -1.26291 0.0670633 -0.723051 -0.837195 0.603425 1.03744 0.291274 0.143777 -1.94633 1.27104 0.0751385 </weights>
                </Neuron>
                <Neuron id="7">
                    <weights>1.14503 -0.976926 0.239179 -0.0058511 -1.25421 -0.824351 0.904559 0.685404 -0.877194 -1.90713 -0.516457 1.77163 -1.29403 1.41797 0.178582 -0.365108 0.354428 </weights>
                </Neuron>
                <Neuron id="8">
                    <weights>-1.44689 -0.352533 -1.08589 1.25979 0.582235 1.07917 -1.16421 -0.406282 -0.363541 0.0334271 -1.52877 -1.10664 -0.18368 1.33521 -2.65897 0.861709 -1.202 </weights>
                </Neuron>
                <Neuron id="9">
                    <weights>-1.5577 -1.15251 -0.808068 1.49251 -0.945476 1.02844 -0.00405803 0.450942 0.49014 0.149446 -1.61919 1.53986 0.884917 -0.418594 -0.284999 0.729883 -2.17625 </weights>
                </Neuron>
                <Neuron id="10">
                    <weights>-0.574883 0.263198 1.47736 -0.299634 0.295722 -1.85249 0.87121 0.303964 0.970244 -2.00984 -0.214423 0.759559 -0.0326649 1.04929 0.209395 2.1414 1.0445 </weights>
                </Neuron>
                <Neuron id="11">
                    <weights>0.366891 1.08607 -0.00115007 -0.678842 -1.39662 -0.0375953 1.65676 1.07748 0.123951 1.19819 -0.89456 -0.686046 -0.999962 -2.12956 0.149722 1.23952 0.593239 </weights>
                </Neuron>
            </NeuronLayer>
            <NeuronLayer id="2">
                <Neuron id="0">
                    <weights>-0.984648 0.78631 -2.96233 -0.234037 0.390646 1.52586 0.214833 0.417761 0.289547 0.788731 1.1665 -1.4917 0.625107 </weights>
                </Neuron>
                <Neuron id="1">
                    <weights>1.07893 -2.23828 -0.534636 0.865009 0.119948 0.922765 -0.0248626 -0.651617 0.123867 0.107943 0.887107 2.09337 -1.76176 </weights>
                </Neuron>
                <Neuron id="2">
                    <weights>1.94686 0.139879 -0.475186 -0.217833 -0.978576 0.214272 0.0525946 -0.185505 -1.27003 -0.392036 0.710276 0.611299 -0.135219 </weights>
                </Neuron>
            </NeuronLayer>
        </NeuralNetwork>
    </Entity>
    <Entity type="Herbivore">
        <x>401.731</x>
        <y>43.4551</y>
        <radius>8.8268</radius>
        <angle>-2.29535</angle>
        <maxSpeed>50</maxSpeed>
        <attack>2</attack>
        <energy>1</energy>
        <sex>true</sex>
        <mating>1892</mating>
        <age>4393</age>
        <hunger>1637</hunger>
        <thirst>180</thirst>
        <health>3203</health>
        <NeuralNetwork>
            <NeuronLayer id="0">
                <inputsNum>16</inputsNum>
            </NeuronLayer>
            <NeuronLayer id="1">
                <Neuron id="0">
                    <weights>0.287273 0.282169 0.213032 0.394643 0.793602 0.618497 -2.55262 0.893505 -0.758486 0.160186 -0.00290698 1.36593 -2.34857 -2.05325 -1.63785 -2.02095 -0.145095 </weights>
                </Neuron>
                <Neuron id="1">
                    <weights>0.525157 0.783181 -0.199935 0.133058 1.3752 -0.336446 0.366843 -0.199855 -0.194041 -0.143604 0.600211 -0.969973 -0.309407 -0.750087 1.42516 -0.0710015 -0.558258 </weights>
                </Neuron>
                <Neuron id="2">
                    <weights>0.622796 -0.82239 -0.842187 0.279795 -2.19882 0.624968 -0.523226 -0.898862 -0.761761 0.713839 0.0529043 -0.315546 0.415315 -0.535144 -0.0623682 0.127293 1.04313 </weights>
                </Neuron>
                <Neuron id="3">
                    <weights>1.44905 0.709344 -0.55134 -0.367065 -1.50873 0.0559181 -0.436055 -0.282933 0.224305 0.979326 1.09946 -1.4076 -2.12439 -0.697452 -1.04698 -0.233415 -0.697562 </weights>
                </Neuron>
                <Neuron id="4">
                    <weights>0.147538 -0.986878 -0.659661 0.304114 0.847215 1.04095 0.414949 -0.286651 -0.184552 -0.08709 0.0887127 0.0982454 -0.227467 -0.632361 0.0805538 -0.369366 -1.16928 </weights>
                </Neuron>
                <Neuron id="5">
                    <weights>0.11288 -0.358489 -1.30304 -0.60852 0.54426 1.08893 -0.632276 -0.471243 0.885377 -0.493886 0.698338 0.0466192 -0.313995 0.180586 -0.411462 1.4438 0.702716 </weights>
                </Neuron>
                <Neuron id="6">
                    <weights>0.123395 -0.938397 0.00769957 0.296845 -1.43188 0.200775 1.20047 0.786582 -0.459499 -0.683255 -0.939778 -0.985037 -0.646544 -1.29541 0.750257 -1.01781 1.87009 </weights>
                </Neuron>
                <Neuron id="7">
                    <weights>0.0922316 -1.0279 -0.471486 1.01668 0.14508 0.0731249 -0.673604 -0.975461 -0.885563 -0.253417 -0.180985 1.61588 -1.22138 -1.15708 1.04344 -0.0197444 0.99744 </weights>
                </Neuron>
                <Neuron id="8">
                    <weights>-1.44689 -0.352533 -1.08589 1.25979 0.582235 1.07917 -1.16421 -0.406282 -0.363541 0.0334271 -1.52877 -1.10664 -0.18368 1.33521 -2.65897 0.861709 -1.202 </weights>
                </Neuron>
                <Neuron id="9">
                    <weights>-1.5577 -1.15251 -0.808068 1.49251 -0.945476 1.02844 -0.00405803 0.450942 0.49014 0.149446 -1.61919 1.53986 0.884917 -0.418594 -0.284999 0.729883 -2.17625 </weights>
                </Neuron>
                <Neuron id="10">
                    <weights>-0.574883 0.263198 1.47736 -0.299634 0.295722 -1.85249 0.87121 0.303964 0.970244 -2.00984 -0.214423 0.759559 -0.0326649 1.04929 0.209395 2.1414 1.0445 </weights>
                </Neuron>
                <Neuron id="11">
                    <weights>0.366891 1.08607 -0.00115007 -0.678842 -1.39662 -0.0375953 1.65676 1.07748 0.123951 1.19819 -0.89456 -0.686046 -0.999962 -2.12956 0.149722 1.23952 0.593239 </weights>
                </Neuron>
            </NeuronLayer>
            <NeuronLayer id="2">
                <Neuron id="0">
                    <weights>-0.984648 0.78631 -2.96233 -0.234037 0.390646 1.52586 0.214833 0.417761 0.289547 0.788731 1.1665 -1.4917 0.625107 </weights>
                </Neuron>
                <Neuron id="1">
                    <weights>1.07893 -2.23828 -0.534636 0.865009 0.119948 0.922765 -0.0248626 -0.651617 0.123867 0.107943 0.887107 2.09337 -1.76176 </weights>
                </Neuron>
                <Neuron id="2">
                    <weights>1.01927 -0.0239199 1.52734 -0.0293556 0.573023 -2.2769 1.96042 -0.287905 0.410788 0.639197 -0.532999 0.459826 0.0942152 </weights>
                </Neuron>
            </NeuronLayer>
        </NeuralNetwork>
    </Entity>
    <Entity type="Herbivore">
        <x>55.5963</x>
        <y>5.66571</y>
        <radius>8.8199</radius>
        <angle>3.02936</angle>
        <maxSpeed>50</maxSpeed>
        <attack>2</attack>
        <energy>1</energy>
        <sex>false</sex>
        <mating>724</mating>
        <age>3949</age>
        <hunger>1216</hunger>
        <thirst>1154</thirst>
        <health>2616</health>
        <NeuralNetwork>
            <NeuronLayer id="0">
                <inputsNum>16</inputsNum>
            </NeuronLayer>
            <NeuronLayer id="1">
                <Neuron id="0">
                    <weights>0.287273 0.282169 0.213032 0.394643 0.793602 0.618497 -2.55262 0.893505 -0.758486 0.160186 -0.00290698 1.36593 -2.34857 -2.05325 -1.63785 -2.02095 -0.145095 </weights>
                </Neuron>
                <Neuron id="1">
                    <weights>0.525157 0.783181 -0.199935 0.133058 1.3752 -0.336446 0.366843 -0.199855 -0.194041 -0.143604 0.600211 -0.969973 -0.309407 -0.750087 1.42516 -0.0710015 -0.558258 </weights>
                </Neuron>
                <Neuron id="2">
                    <weights>0.622796 -0.82239 -0.842187 0.279795 -2.19882 0.624968 -0.523226 -0.898862 -0.761761 0.713839 0.0529043 -0.315546 0.415315 -0.535144 -0.0623682 0.127293 1.04313 </weights>
                </Neuron>
                <Neuron id="3">
                    <weights>1.44905 0.709344 -0.55134 -0.367065 -1.50873 0.0559181 -0.436055 -0.282933 0.224305 0.979326 1.09946 -1.4076 -2.12439 -0.697452 -1.04698 -0.233415 -0.697562 </weights>
                </Neuron>
                <Neuron id="4">
                    <weights>0.147538 -0.986878 -0.659661 0.304114 0.847215 1.04095 0.414949 -0.286651 -0.184552 -0.08709 0.0887127 0.0982454 -0.227467 -0.632361 0.0805538 -0.369366 -1.16928 </weights>
                </Neuron>
                <Neuron id="5">
                    <weights>0.11288 -0.358489 -1.30304 -0.60852 0.54426 1.08893 -0.632276 -0.471243 0.885377 -0.493886 0.698338 0.0466192 -0.313995 0.180586 -0.411462 1.4438 0.702716 </weights>
                </Neuron>
                <Neuron id="6">
                    <weights>-0.0207041 -0.809259 -0.525295 -0.285172 -1.84435 -0.103576 -1.26291 0.0670633 -0.723051 -0.837195 0.603425 1.03744 0.291274 0.143777 -1.94633 1.27104 0.0751385 </weights>
                </Neuron>
                <Neuron id="7">
                    <weights>1.14503 -0.976926 0.239179 -0.0058511 -1.25421 -0.824351 0.904559 0.685404 -0.877194 -1.90713 -0.516457 1.77163 -1.29403 1.41797 0.178582 -0.365108 0.354428 </weights>
                </Neuron>
                <Neuron id="8">
                    <weights>-0.839793 0.269511 -1.93411 0.430707 -0.295295 1.22323 -0.425933 -1.01827 0.0801016 0.00273791 0.597678 -1.02806 0.462238 0.646738 -1.17475 -1.76481 -1.29762 </weights>
                </Neuron>
                <Neuron id="9">
                    <weights>-1.5577 -1.15251 -0.808068 1.49251 -0.945476 1.02844 -0.00405803 0.450942 0.49014 0.149446 -1.61919 1.53986 0.884917 -0.418594 -0.284999 0.729883 -2.17625 </weights>
                </Neuron>
                <Neuron id="10">
                    <weights>-0.574883 0.263198 1.47736 -0.299634 0.295722 -1.85249 0.87121 0.303964 0.970244 -2.00984 -0.214423 0.759559 -0.0326649 1.04929 0.209395 2.1414 1.0445 </weights>
                </Neuron>
                <Neuron id="11">
                    <weights>0.366891 1.08607 -0.00115007 -0.678842 -1.39662 -0.0375953 1.65676 1.07748 0.123951 1.19819 -0.89456 -0.686046 -0.999962 -2.12956 0.149722 1.23952 0.593239 </weights>
                </Neuron>
            </NeuronLayer>
            <NeuronLayer id="2">
                <Neuron id="0">
                    <weights>-0.984648 0.78631 -2.96233 -0.234037 0.390646 1.52586 0.214833 0.417761 0.289547 0.788731 1.1665 -1.4917 0.625107 </weights>
                </Neuron>
                <Neuron id="1">
                    <weights>1.07893 -2.23828 -0.534636 0.865009 0.119948 0.922765 -0.0248626 -0.651617 0.123867 0.107943 0.887107 2.09337 -1.76176 </weights>
                </Neuron>
                <Neuron id="2">
                    <weights>1.01927 -0.0239199 1.52734 -0.0293556 0.573023 -2.2769 1.96042 -0.287905 0.410788 0.639197 -0.532999 0.459826 0.0942152 </weights>
                </Neuron>
            </NeuronLayer>
        </NeuralNetwork>
    </Entity>
    <Entity type="Herbivore">
        <x>25.3995</x>
        <y>458.505</y>
        <radius>9.0038</radius>
        <angle>-0.849161</angle>
        <maxSpeed>50</maxSpeed>
        <attack>2</attack>
        <energy>1</energy>
        <sex>false</sex>
        <mating>2500</mating>
        <age>3741</age>
        <hunger>395</hunger>
        <thirst>1527</thirst>
        <health>3763</health>
        <NeuralNetwork>
            <NeuronLayer id="0">
                <inputsNum>16</inputsNum>
            </NeuronLayer>
            <NeuronLayer id="1">
                <Neuron id="0">
