<?xml version="1.0" encoding="UTF-8"?>
<World>
    <x>500</x>
    <y>500</y>
    <age>135499</age>
    <Entity type="Vegetal">
        <x>350</x>
        <y>400</y>
        <radius>50</radius>
        <quantity>2954</quantity>
        <maxQuantity>5000</maxQuantity>
    </Entity>
    <Entity type="Vegetal">
        <x>400</x>
        <y>100</y>
        <radius>50</radius>
        <quantity>45</quantity>
        <maxQuantity>5000</maxQuantity>
    </Entity>
    <Entity type="Vegetal">
        <x>200</x>
        <y>10</y>
        <radius>50</radius>
        <quantity>95</quantity>
        <maxQuantity>5000</maxQuantity>
    </Entity>
    <Entity type="Vegetal">
        <x>380</x>
        <y>460</y>
        <radius>50</radius>
        <quantity>4935</quantity>
        <maxQuantity>5000</maxQuantity>
    </Entity>
    <Entity type="Vegetal">
        <x>100</x>
        <y>200</y>
        <radius>50</radius>
        <quantity>65</quantity>
        <maxQuantity>5000</maxQuantity>
    </Entity>
    <Entity type="Vegetal">
        <x>220</x>
        <y>280</y>
        <radius>50</radius>
        <quantity>29</quantity>
        <maxQuantity>5000</maxQuantity>
    </Entity>
    <Entity type="Vegetal">
        <x>250</x>
        <y>180</y>
        <radius>50</radius>
        <quantity>425</quantity>
        <maxQuantity>5000</maxQuantity>
    </Entity>
    <Entity type="Water">
        <x>100</x>
        <y>300</y>
        <radius>20</radius>
        <quantity>5000</quantity>
        <maxQuantity>10000</maxQuantity>
    </Entity>
    <Entity type="Water">
        <x>400</x>
        <y>250</y>
        <radius>50</radius>
        <quantity>0</quantity>
        <maxQuantity>10000</maxQuantity>
    </Entity>
    <Entity type="Water">
        <x>450</x>
        <y>25</y>
        <radius>20</radius>
        <quantity>5000</quantity>
        <maxQuantity>10000</maxQuantity>
    </Entity>
    <Entity type="Water">
        <x>100</x>
        <y>420</y>
        <radius>50</radius>
        <quantity>2400</quantity>
        <maxQuantity>10000</maxQuantity>
    </Entity>
    <Entity type="Water">
        <x>70</x>
        <y>70</y>
        <radius>50</radius>
        <quantity>605</quantity>
        <maxQuantity>10000</maxQuantity>
    </Entity>
    <Entity type="Water">
        <x>25</x>
        <y>370</y>
        <radius>20</radius>
        <quantity>4697</quantity>
        <maxQuantity>10000</maxQuantity>
    </Entity>
    <Entity type="Water">
        <x>300</x>
        <y>70</y>
        <radius>30</radius>
        <quantity>1458</quantity>
        <maxQuantity>10000</maxQuantity>
    </Entity>
    <Entity type="Water">
        <x>200</x>
        <y>400</y>
        <radius>40</radius>
        <quantity>5000</quantity>
        <maxQuantity>10000</maxQuantity>
    </Entity>
    <Entity type="Herbivore">
        <x>141.198</x>
        <y>327.688</y>
        <radius>15.8318</radius>
        <angle>2.76935</angle>
        <maxSpeed>50</maxSpeed>
        <attack>2</attack>
        <energy>1</energy>
        <sex>true</sex>
        <mating>739</mating>
        <age>27212</age>
        <hunger>1106</hunger>
        <thirst>958</thirst>
        <health>5000</health>
        <NeuralNetwork>
            <NeuronLayer id="0">
                <inputsNum>16</inputsNum>
            </NeuronLayer>
            <NeuronLayer id="1">
                <Neuron id="0">
                    <weights>0.287273 0.282169 0.213032 0.394643 0.793602 0.618497 -2.55262 0.893505 -0.758486 0.160186 -0.00290698 1.36593 -2.34857 -2.05325 -1.63785 -2.02095 -0.145095 </weights>
                </Neuron>
                <Neuron id="1">
                    <weights>0.525157 0.783181 -0.199935 0.133058 1.3752 -0.336446 0.366843 -0.199855 -0.194041 -0.143604 0.600211 -0.969973 -0.309407 -0.750087 1.42516 -0.0710015 -0.558258 </weights>
                </Neuron>
                <Neuron id="2">
                    <weights>0.622796 -0.82239 -0.842187 0.279795 -2.19882 0.624968 -0.523226 -0.898862 -0.761761 0.713839 0.0529043 -0.315546 0.415315 -0.535144 -0.0623682 0.127293 1.04313 </weights>
                </Neuron>
                <Neuron id="3">
                    <weights>1.44905 0.709344 -0.55134 -0.367065 -1.50873 0.0559181 -0.436055 -0.282933 0.224305 0.979326 1.09946 -1.4076 -2.12439 -0.697452 -1.04698 -0.233415 -0.697562 </weights>
                </Neuron>
                <Neuron id="4">
                    <weights>0.147538 -0.986878 -0.659661 0.304114 0.847215 1.04095 0.414949 -0.286651 -0.184552 -0.08709 0.0887127 0.0982454 -0.227467 -0.632361 0.0805538 -0.369366 -1.16928 </weights>
                </Neuron>
                <Neuron id="5">
                    <weights>0.11288 -0.358489 -1.30304 -0.60852 0.54426 1.08893 -0.632276 -0.471243 0.885377 -0.493886 0.698338 0.0466192 -0.313995 0.180586 -0.411462 1.4438 0.702716 </weights>
                </Neuron>
                <Neuron id="6">
                    <weights>-0.0207041 -0.809259 -0.525295 -0.285172 -1.84435 -0.103576 -1.26291 0.0670633 -0.723051 -0.837195 0.603425 1.03744 0.291274 0.143777 -1.94633 1.27104 0.0751385 </weights>
                </Neuron>
                <Neuron id="7">
                    <weights>1.14503 -0.976926 0.239179 -0.0058511 -1.25421 -0.824351 0.904559 0.685404 -0.877194 -1.90713 -0.516457 1.77163 -1.29403 1.41797 0.178582 -0.365108 0.354428 </weights>
                </Neuron>
                <Neuron id="8">
                    <weights>-0.839793 0.269511 -1.93411 0.430707 -0.295295 1.22323 -0.425933 -1.01827 0.0801016 0.00273791 0.597678 -1.02806 0.462238 0.646738 -1.17475 -1.76481 -1.29762 </weights>
                </Neuron>
                <Neuron id="9">
                    <weights>-1.5577 -1.15251 -0.808068 1.49251 -0.945476 1.02844 -0.00405803 0.450942 0.49014 0.149446 -1.61919 1.53986 0.884917 -0.418594 -0.284999 0.729883 -2.17625 </weights>
                </Neuron>
                <Neuron id="10">
                    <weights>-0.574883 0.263198 1.47736 -0.299634 0.295722 -1.85249 0.87121 0.303964 0.970244 -2.00984 -0.214423 0.759559 -0.0326649 1.04929 0.209395 2.1414 1.0445 </weights>
                </Neuron>
                <Neuron id="11">
                    <weights>0.366891 1.08607 -0.00115007 -0.678842 -1.39662 -0.0375953 1.65676 1.07748 0.123951 1.19819 -0.89456 -0.686046 -0.999962 -2.12956 0.149722 1.23952 0.593239 </weights>
                </Neuron>
            </NeuronLayer>
            <NeuronLayer id="2">
                <Neuron id="0">
                    <weights>-0.984648 0.78631 -2.96233 -0.234037 0.390646 1.52586 0.214833 0.417761 0.289547 0.788731 1.1665 -1.4917 0.625107 </weights>
                </Neuron>
                <Neuron id="1">
                    <weights>1.07893 -2.23828 -0.534636 0.865009 0.119948 0.922765 -0.0248626 -0.651617 0.123867 0.107943 0.887107 2.09337 -1.76176 </weights>
                </Neuron>
                <Neuron id="2">
                    <weights>1.94686 0.139879 -0.475186 -0.217833 -0.978576 0.214272 0.0525946 -0.185505 -1.27003 -0.392036 0.710276 0.611299 -0.135219 </weights>
                </Neuron>
            </NeuronLayer>
        </NeuralNetwork>
    </Entity>
    <Entity type="Herbivore">
        <x>270.702</x>
        <y>49.5305</y>
        <radius>10.4936</radius>
        <angle>-0.321538</angle>
        <maxSpeed>50</maxSpeed>
        <attack>2</attack>
        <energy>0</energy>
        <sex>true</sex>
        <mating>1243</mating>
        <age>10208</age>
        <hunger>1896</hunger>
        <thirst>1486</thirst>
        <health>4604</health>
        <NeuralNetwork>
            <NeuronLayer id="0">
                <inputsNum>16</inputsNum>
            </NeuronLayer>
            <NeuronLayer id="1">
                <Neuron id="0">
                    <weights>0.287273 0.282169 0.213032 0.394643 0.793602 0.618497 -2.55262 0.893505 -0.758486 0.160186 -0.00290698 1.36593 -2.34857 -2.05325 -1.63785 -2.02095 -0.145095 </weights>
                </Neuron>
                <Neuron id="1">
                    <weights>0.525157 0.783181 -0.199935 0.133058 1.3752 -0.336446 0.366843 -0.199855 -0.194041 -0.143604 0.600211 -0.969973 -0.309407 -0.750087 1.42516 -0.0710015 -0.558258 </weights>
                </Neuron>
                <Neuron id="2">
                    <weights>0.622796 -0.82239 -0.842187 0.279795 -2.19882 0.624968 -0.523226 -0.898862 -0.761761 0.713839 0.0529043 -0.315546 0.415315 -0.535144 -0.0623682 0.127293 1.04313 </weights>
                </Neuron>
                <Neuron id="3">
                    <weights>-0.975525 0.1602 -1.82467 0.631978 0.5658 -0.711853 -1.39659 1.19658 1.79247 0.875669 -0.175529 1.49832 0.134466 -0.793012 -0.177385 -0.198069 0.17356 </weights>
                </Neuron>
                <Neuron id="4">
                    <weights>0.147538 -0.986878 -0.659661 0.304114 0.847215 1.04095 0.414949 -0.286651 -0.184552 -0.08709 0.0887127 0.0982454 -0.227467 -0.632361 0.0805538 -0.369366 -1.16928 </weights>
                </Neuron>
                <Neuron id="5">
                    <weights>0.11288 -0.358489 -1.30304 -0.60852 0.54426 1.08893 -0.632276 -0.471243 0.885377 -0.493886 0.698338 0.0466192 -0.313995 0.180586 -0.411462 1.4438 0.702716 </weights>
                </Neuron>
                <Neuron id="6">
                    <weights>-0.0207041 -0.809259 -0.525295 -0.285172 -1.84435 -0.103576 -1.26291 0.0670633 -0.723051 -0.837195 0.603425 1.03744 0.291274 0.143777 -1.94633 1.27104 0.0751385 </weights>
                </Neuron>
                <Neuron id="7">
                    <weights>1.14503 -0.976926 0.239179 -0.0058511 -1.25421 -0.824351 0.904559 0.685404 -0.877194 -1.90713 -0.516457 1.77163 -1.29403 1.41797 0.178582 -0.365108 0.354428 </weights>
                </Neuron>
                <Neuron id="8">
                    <weights>-0.839793 0.269511 -1.93411 0.430707 -0.295295 1.22323 -0.425933 -1.01827 0.0801016 0.00273791 0.597678 -1.02806 0.462238 0.646738 -1.17475 -1.76481 -1.29762 </weights>
                </Neuron>
                <Neuron id="9">
                    <weights>-1.5577 -1.15251 -0.808068 1.49251 -0.945476 1.02844 -0.00405803 0.450942 0.49014 0.149446 -1.61919 1.53986 0.884917 -0.418594 -0.284999 0.729883 -2.17625 </weights>
                </Neuron>
                <Neuron id="10">
                    <weights>-0.574883 0.263198 1.47736 -0.299634 0.295722 -1.85249 0.87121 0.303964 0.970244 -2.00984 -0.214423 0.759559 -0.0326649 1.04929 0.209395 2.1414 1.0445 </weights>
                </Neuron>
                <Neuron id="11">
                    <weights>-1.21137 0.488047 0.465538 -0.0729898 1.09389 0.448305 0.065874 0.645296 -0.709376 0.215723 -0.0744154 0.747168 -1.25627 0.246147 -0.0325389 0.904586 -0.80667 </weights>
                </Neuron>
            </NeuronLayer>
            <NeuronLayer id="2">
                <Neuron id="0">
                    <weights>-0.984648 0.78631 -2.96233 -0.234037 0.390646 1.52586 0.214833 0.417761 0.289547 0.788731 1.1665 -1.4917 0.625107 </weights>
                </Neuron>
                <Neuron id="1">
                    <weights>1.07893 -2.23828 -0.534636 0.865009 0.119948 0.922765 -0.0248626 -0.651617 0.123867 0.107943 0.887107 2.09337 -1.76176 </weights>
                </Neuron>
                <Neuron id="2">
                    <weights>1.94686 0.139879 -0.475186 -0.217833 -0.978576 0.214272 0.0525946 -0.185505 -1.27003 -0.392036 0.710276 0.611299 -0.135219 </weights>
                </Neuron>
            </NeuronLayer>
        </NeuralNetwork>
    </Entity>
    <Entity type="Herbivore">
        <x>235.996</x>
        <y>26.2863</y>
        <radius>10.7984</radius>
        <angle>-0.0976756</angle>
        <maxSpeed>50</maxSpeed>
        <attack>2</attack>
        <energy>0</energy>
        <sex>true</sex>
        <mating>2047</mating>
        <age>10208</age>
        <hunger>880</hunger>
        <thirst>2000</thirst>
        <health>2112</health>
        <NeuralNetwork>
            <NeuronLayer id="0">
                <inputsNum>16</inputsNum>
            </NeuronLayer>
            <NeuronLayer id="1">
                <Neuron id="0">
                    <weights>0.287273 0.282169 0.213032 0.394643 0.793602 0.618497 -2.55262 0.893505 -0.758486 0.160186 -0.00290698 1.36593 -2.34857 -2.05325 -1.63785 -2.02095 -0.145095 </weights>
                </Neuron>
                <Neuron id="1">
                    <weights>0.525157 0.783181 -0.199935 0.133058 1.3752 -0.336446 0.366843 -0.199855 -0.194041 -0.143604 0.600211 -0.969973 -0.309407 -0.750087 1.42516 -0.0710015 -0.558258 </weights>
                </Neuron>
                <Neuron id="2">
                    <weights>0.622796 -0.82239 -0.842187 0.279795 -2.19882 0.624968 -0.523226 -0.898862 -0.761761 0.713839 0.0529043 -0.315546 0.415315 -0.535144 -0.0623682 0.127293 1.04313 </weights>
                </Neuron>
                <Neuron id="3">
                    <weights>-0.975525 0.1602 -1.82467 0.631978 0.5658 -0.711853 -1.39659 1.19658 1.79247 0.875669 -0.175529 1.49832 0.134466 -0.793012 -0.177385 -0.198069 0.17356 </weights>
                </Neuron>
                <Neuron id="4">
                    <weights>0.147538 -0.986878 -0.659661 0.304114 0.847215 1.04095 0.414949 -0.286651 -0.184552 -0.08709 0.0887127 0.0982454 -0.227467 -0.632361 0.0805538 -0.369366 -1.16928 </weights>
                </Neuron>
                <Neuron id="5">
                    <weights>0.11288 -0.358489 -1.30304 -0.60852 0.54426 1.08893 -0.632276 -0.471243 0.885377 -0.493886 0.698338 0.0466192 -0.313995 0.180586 -0.411462 1.4438 0.702716 </weights>
                </Neuron>
                <Neuron id="6">
                    <weights>-0.0207041 -0.809259 -0.525295 -0.285172 -1.84435 -0.103576 -1.26291 0.0670633 -0.723051 -0.837195 0.603425 1.03744 0.291274 0.143777 -1.94633 1.27104 0.0751385 </weights>
                </Neuron>
                <Neuron id="7">
                    <weights>0.0922316 -1.0279 -0.471486 1.01668 0.14508 0.0731249 -0.673604 -0.975461 -0.885563 -0.253417 -0.180985 1.61588 -1.22138 -1.15708 1.04344 -0.0197444 0.99744 </weights>
                </Neuron>
                <Neuron id="8">
                    <weights>-1.44689 -0.352533 -1.08589 1.25979 0.582235 1.07917 -1.16421 -0.406282 -0.363541 0.0334271 -1.52877 -1.10664 -0.18368 1.33521 -2.65897 0.861709 -1.202 </weights>
                </Neuron>
                <Neuron id="9">
                    <weights>-1.5577 -1.15251 -0.808068 1.49251 -0.945476 1.02844 -0.00405803 0.450942 0.49014 0.149446 -1.61919 1.53986 0.884917 -0.418594 -0.284999 0.729883 -2.17625 </weights>
                </Neuron>
                <Neuron id="10">
                    <weights>-0.574883 0.263198 1.47736 -0.299634 0.295722 -1.85249 0.87121 0.303964 0.970244 -2.00984 -0.214423 0.759559 -0.0326649 1.04929 0.209395 2.1414 1.0445 </weights>
                </Neuron>
                <Neuron id="11">
                    <weights>0.366891 1.08607 -0.00115007 -0.678842 -1.39662 -0.0375953 1.65676 1.07748 0.123951 1.19819 -0.89456 -0.686046 -0.999962 -2.12956 0.149722 1.23952 0.593239 </weights>
                </Neuron>
            </NeuronLayer>
            <NeuronLayer id="2">
                <Neuron id="0">
                    <weights>-0.984648 0.78631 -2.96233 -0.234037 0.390646 1.52586 0.214833 0.417761 0.289547 0.788731 1.1665 -1.4917 0.625107 </weights>
                </Neuron>
                <Neuron id="1">
                    <weights>1.07893 -2.23828 -0.534636 0.865009 0.119948 0.922765 -0.0248626 -0.651617 0.123867 0.107943 0.887107 2.09337 -1.76176 </weights>
                </Neuron>
                <Neuron id="2">
                    <weights>-0.696516 0.227553 -0.269841 -1.10753 -0.828184 -1.73582 -0.294167 -1.72911 -1.65086 0.980116 1.22106 -0.293758 -0.142742 </weights>
                </Neuron>
            </NeuronLayer>
        </NeuralNetwork>
    </Entity>
    <Entity type="Herbivore">
        <x>372.154</x>
        <y>97.4371</y>
        <radius>10.6217</radius>
        <angle>0.711793</angle>
        <maxSpeed>50</maxSpeed>
        <attack>2</attack>
        <energy>0</energy>
        <sex>false</sex>
        <mating>2500</mating>
        <age>10208</age>
        <hunger>1469</hunger>
        <thirst>42</thirst>
        <health>4646</health>
        <NeuralNetwork>
            <NeuronLayer id="0">
                <inputsNum>16</inputsNum>
            </NeuronLayer>
            <NeuronLayer id="1">
                <Neuron id="0">
                    <weights>0.287273 0.282169 0.213032 0.394643 0.793602 0.618497 -2.55262 0.893505 -0.758486 0.160186 -0.00290698 1.36593 -2.34857 -2.05325 -1.63785 -2.02095 -0.145095 </weights>
                </Neuron>
                <Neuron id="1">
                    <weights>0.525157 0.783181 -0.199935 0.133058 1.3752 -0.336446 0.366843 -0.199855 -0.194041 -0.143604 0.600211 -0.969973 -0.309407 -0.750087 1.42516 -0.0710015 -0.558258 </weights>
                </Neuron>
                <Neuron id="2">
                    <weights>0.622796 -0.82239 -0.842187 0.279795 -2.19882 0.624968 -0.523226 -0.898862 -0.761761 0.713839 0.0529043 -0.315546 0.415315 -0.535144 -0.0623682 0.127293 1.04313 </weights>
                </Neuron>
                <Neuron id="3">
                    <weights>-0.975525 0.1602 -1.82467 0.631978 0.5658 -0.711853 -1.39659 1.19658 1.79247 0.875669 -0.175529 1.49832 0.134466 -0.793012 -0.177385 -0.198069 0.17356 </weights>
                </Neuron>
                <Neuron id="4">
                    <weights>0.147538 -0.986878 -0.659661 0.304114 0.847215 1.04095 0.414949 -0.286651 -0.184552 -0.08709 0.0887127 0.0982454 -0.227467 -0.632361 0.0805538 -0.369366 -1.16928 </weights>
                </Neuron>
                <Neuron id="5">
                    <weights>0.11288 -0.358489 -1.30304 -0.60852 0.54426 1.08893 -0.632276 -0.471243 0.885377 -0.493886 0.698338 0.0466192 -0.313995 0.180586 -0.411462 1.4438 0.702716 </weights>
                </Neuron>
                <Neuron id="6">
                    <weights>-0.0207041 -0.809259 -0.525295 -0.285172 -1.84435 -0.103576 -1.26291 0.0670633 -0.723051 -0.837195 0.603425 1.03744 0.291274 0.143777 -1.94633 1.27104 0.0751385 </weights>
                </Neuron>
                <Neuron id="7">
                    <weights>1.14503 -0.976926 0.239179 -0.0058511 -1.25421 -0.824351 0.904559 0.685404 -0.877194 -1.90713 -0.516457 1.77163 -1.29403 1.41797 0.178582 -0.365108 0.354428 </weights>
                </Neuron>
                <Neuron id="8">
                    <weights>-0.839793 0.269511 -1.93411 0.430707 -0.295295 1.22323 -0.425933 -1.01827 0.0801016 0.00273791 0.597678 -1.02806 0.462238 0.646738 -1.17475 -1.76481 -1.29762 </weights>
                </Neuron>
                <Neuron id="9">
                    <weights>-1.5577 -1.15251 -0.808068 1.49251 -0.945476 1.02844 -0.00405803 0.450942 0.49014 0.149446 -1.61919 1.53986 0.884917 -0.418594 -0.284999 0.729883 -2.17625 </weights>
                </Neuron>
                <Neuron id="10">
                    <weights>-0.574883 0.263198 1.47736 -0.299634 0.295722 -1.85249 0.87121 0.303964 0.970244 -2.00984 -0.214423 0.759559 -0.0326649 1.04929 0.209395 2.1414 1.0445 </weights>
                </Neuron>
                <Neuron id="11">
                    <weights>-1.21137 0.488047 0.465538 -0.0729898 1.09389 0.448305 0.065874 0.645296 -0.709376 0.215723 -0.0744154 0.747168 -1.25627 0.246147 -0.0325389 0.904586 -0.80667 </weights>
                </Neuron>
            </NeuronLayer>
            <NeuronLayer id="2">
                <Neuron id="0">
                    <weights>-0.984648 0.78631 -2.96233 -0.234037 0.390646 1.52586 0.214833 0.417761 0.289547 0.788731 1.1665 -1.4917 0.625107 </weights>
                </Neuron>
                <Neuron id="1">
                    <weights>1.07893 -2.23828 -0.534636 0.865009 0.119948 0.922765 -0.0248626 -0.651617 0.123867 0.107943 0.887107 2.09337 -1.76176 </weights>
                </Neuron>
                <Neuron id="2">
                    <weights>-0.696516 0.227553 -0.269841 -1.10753 -0.828184 -1.73582 -0.294167 -1.72911 -1.65086 0.980116 1.22106 -0.293758 -0.142742 </weights>
                </Neuron>
            </NeuronLayer>
        </NeuralNetwork>
    </Entity>
    <Entity type="Herbivore">
        <x>172.818</x>
        <y>341.942</y>
        <radius>9.9062</radius>
        <angle>2.74172</angle>
        <maxSpeed>50</maxSpeed>
        <attack>2</attack>
        <energy>1</energy>
        <sex>true</sex>
        <mating>376</mating>
        <age>7567</age>
        <hunger>1213</hunger>
        <thirst>482</thirst>
        <health>5000</health>
        <NeuralNetwork>
            <NeuronLayer id="0">
                <inputsNum>16</inputsNum>
            </NeuronLayer>
            <NeuronLayer id="1">
                <Neuron id="0">
                    <weights>0.287273 0.282169 0.213032 0.394643 0.793602 0.618497 -2.55262 0.893505 -0.758486 0.160186 -0.00290698 1.36593 -2.34857 -2.05325 -1.63785 -2.02095 -0.145095 </weights>
                </Neuron>
                <Neuron id="1">
                    <weights>0.525157 0.783181 -0.199935 0.133058 1.3752 -0.336446 0.366843 -0.199855 -0.194041 -0.143604 0.600211 -0.969973 -0.309407 -0.750087 1.42516 -0.0710015 -0.558258 </weights>
                </Neuron>
                <Neuron id="2">
                    <weights>0.622796 -0.82239 -0.842187 0.279795 -2.19882 0.624968 -0.523226 -0.898862 -0.761761 0.713839 0.0529043 -0.315546 0.415315 -0.535144 -0.0623682 0.127293 1.04313 </weights>
                </Neuron>
                <Neuron id="3">
                    <weights>-0.975525 0.1602 -1.82467 0.631978 0.5658 -0.711853 -1.39659 1.19658 1.79247 0.875669 -0.175529 1.49832 0.134466 -0.793012 -0.177385 -0.198069 0.17356 </weights>
                </Neuron>
                <Neuron id="4">
                    <weights>0.147538 -0.986878 -0.659661 0.304114 0.847215 1.04095 0.414949 -0.286651 -0.184552 -0.08709 0.0887127 0.0982454 -0.227467 -0.632361 0.0805538 -0.369366 -1.16928 </weights>
                </Neuron>
                <Neuron id="5">
                    <weights>0.11288 -0.358489 -1.30304 -0.60852 0.54426 1.08893 -0.632276 -0.471243 0.885377 -0.493886 0.698338 0.0466192 -0.313995 0.180586 -0.411462 1.4438 0.702716 </weights>
                </Neuron>
                <Neuron id="6">
                    <weights>-0.0207041 -0.809259 -0.525295 -0.285172 -1.84435 -0.103576 -1.26291 0.0670633 -0.723051 -0.837195 0.603425 1.03744 0.291274 0.143777 -1.94633 1.27104 0.0751385 </weights>
                </Neuron>
                <Neuron id="7">
                    <weights>0.0922316 -1.0279 -0.471486 1.01668 0.14508 0.0731249 -0.673604 -0.975461 -0.885563 -0.253417 -0.180985 1.61588 -1.22138 -1.15708 1.04344 -0.0197444 0.99744 </weights>
                </Neuron>
                <Neuron id="8">
                    <weights>-0.839793 0.269511 -1.93411 0.430707 -0.295295 1.22323 -0.425933 -1.01827 0.0801016 0.00273791 0.597678 -1.02806 0.462238 0.646738 -1.17475 -1.76481 -1.29762 </weights>
                </Neuron>
                <Neuron id="9">
                    <weights>-1.5577 -1.15251 -0.808068 1.49251 -0.945476 1.02844 -0.00405803 0.450942 0.49014 0.149446 -1.61919 1.53986 0.884917 -0.418594 -0.284999 0.729883 -2.17625 </weights>
                </Neuron>
                <Neuron id="10">
                    <weights>-0.574883 0.263198 1.47736 -0.299634 0.295722 -1.85249 0.87121 0.303964 0.970244 -2.00984 -0.214423 0.759559 -0.0326649 1.04929 0.209395 2.1414 1.0445 </weights>
                </Neuron>
                <Neuron id="11">
                    <weights>-1.21137 0.488047 0.465538 -0.0729898 1.09389 0.448305 0.065874 0.645296 -0.709376 0.215723 -0.0744154 0.747168 -1.25627 0.246147 -0.0325389 0.904586 -0.80667 </weights>
                </Neuron>
            </NeuronLayer>
            <NeuronLayer id="2">
                <Neuron id="0">
                    <weights>-0.984648 0.78631 -2.96233 -0.234037 0.390646 1.52586 0.214833 0.417761 0.289547 0.788731 1.1665 -1.4917 0.625107 </weights>
                </Neuron>
                <Neuron id="1">
                    <weights>1.07893 -2.23828 -0.534636 0.865009 0.119948 0.922765 -0.0248626 -0.651617 0.123867 0.107943 0.887107 2.09337 -1.76176 </weights>
                </Neuron>
                <Neuron id="2">
                    <weights>-0.696516 0.227553 -0.269841 -1.10753 -0.828184 -1.73582 -0.294167 -1.72911 -1.65086 0.980116 1.22106 -0.293758 -0.142742 </weights>
                </Neuron>
            </NeuronLayer>
        </NeuralNetwork>
    </Entity>
    <Entity type="Herbivore">
        <x>157.128</x>
        <y>162.539</y>
        <radius>9.8342</radius>
        <angle>-0.927676</angle>
        <maxSpeed>50</maxSpeed>
        <attack>2</attack>
        <energy>0</energy>
        <sex>false</sex>
        <mating>1655</mating>
        <age>7543</age>
        <hunger>1429</hunger>
        <thirst>721</thirst>
        <health>5000</health>
        <NeuralNetwork>
            <NeuronLayer id="0">
                <inputsNum>16</inputsNum>
            </NeuronLayer>
            <NeuronLayer id="1">
                <Neuron id="0">
                    <weights>0.287273 0.282169 0.213032 0.394643 0.793602 0.618497 -2.55262 0.893505 -0.758486 0.160186 -0.00290698 1.36593 -2.34857 -2.05325 -1.63785 -2.02095 -0.145095 </weights>
                </Neuron>
                <Neuron id="1">
                    <weights>0.525157 0.783181 -0.199935 0.133058 1.3752 -0.336446 0.366843 -0.199855 -0.194041 -0.143604 0.600211 -0.969973 -0.309407 -0.750087 1.42516 -0.0710015 -0.558258 </weights>
                </Neuron>
                <Neuron id="2">
                    <weights>0.622796 -0.82239 -0.842187 0.279795 -2.19882 0.624968 -0.523226 -0.898862 -0.761761 0.713839 0.0529043 -0.315546 0.415315 -0.535144 -0.0623682 0.127293 1.04313 </weights>
                </Neuron>
                <Neuron id="3">
                    <weights>-0.975525 0.1602 -1.82467 0.631978 0.5658 -0.711853 -1.39659 1.19658 1.79247 0.875669 -0.175529 1.49832 0.134466 -0.793012 -0.177385 -0.198069 0.17356 </weights>
                </Neuron>
                <Neuron id="4">
                    <weights>0.147538 -0.986878 -0.659661 0.304114 0.847215 1.04095 0.414949 -0.286651 -0.184552 -0.08709 0.0887127 0.0982454 -0.227467 -0.632361 0.0805538 -0.369366 -1.16928 </weights>
                </Neuron>
                <Neuron id="5">
                    <weights>0.11288 -0.358489 -1.30304 -0.60852 0.54426 1.08893 -0.632276 -0.471243 0.885377 -0.493886 0.698338 0.0466192 -0.313995 0.180586 -0.411462 1.4438 0.702716 </weights>
                </Neuron>
                <Neuron id="6">
                    <weights>-0.0207041 -0.809259 -0.525295 -0.285172 -1.84435 -0.103576 -1.26291 0.0670633 -0.723051 -0.837195 0.603425 1.03744 0.291274 0.143777 -1.94633 1.27104 0.0751385 </weights>
                </Neuron>
                <Neuron id="7">
                    <weights>0.0922316 -1.0279 -0.471486 1.01668 0.14508 0.0731249 -0.673604 -0.975461 -0.885563 -0.253417 -0.180985 1.61588 -1.22138 -1.15708 1.04344 -0.0197444 0.99744 </weights>
                </Neuron>
                <Neuron id="8">
                    <weights>-0.839793 0.269511 -1.93411 0.430707 -0.295295 1.22323 -0.425933 -1.01827 0.0801016 0.00273791 0.597678 -1.02806 0.462238 0.646738 -1.17475 -1.76481 -1.29762 </weights>
                </Neuron>
                <Neuron id="9">
                    <weights>-1.5577 -1.15251 -0.808068 1.49251 -0.945476 1.02844 -0.00405803 0.450942 0.49014 0.149446 -1.61919 1.53986 0.884917 -0.418594 -0.284999 0.729883 -2.17625 </weights>
                </Neuron>
                <Neuron id="10">
                    <weights>-0.574883 0.263198 1.47736 -0.299634 0.295722 -1.85249 0.87121 0.303964 0.970244 -2.00984 -0.214423 0.759559 -0.0326649 1.04929 0.209395 2.1414 1.0445 </weights>
                </Neuron>
                <Neuron id="11">
                    <weights>-1.21137 0.488047 0.465538 -0.0729898 1.09389 0.448305 0.065874 0.645296 -0.709376 0.215723 -0.0744154 0.747168 -1.25627 0.246147 -0.0325389 0.904586 -0.80667 </weights>
                </Neuron>
            </NeuronLayer>
            <NeuronLayer id="2">
                <Neuron id="0">
                    <weights>-0.984648 0.78631 -2.96233 -0.234037 0.390646 1.52586 0.214833 0.417761 0.289547 0.788731 1.1665 -1.4917 0.625107 </weights>
                </Neuron>
                <Neuron id="1">
                    <weights>1.07893 -2.23828 -0.534636 0.865009 0.119948 0.922765 -0.0248626 -0.651617 0.123867 0.107943 0.887107 2.09337 -1.76176 </weights>
                </Neuron>
                <Neuron id="2">
                    <weights>-0.696516 0.227553 -0.269841 -1.10753 -0.828184 -1.73582 -0.294167 -1.72911 -1.65086 0.980116 1.22106 -0.293758 -0.142742 </weights>
                </Neuron>
            </NeuronLayer>
        </NeuralNetwork>
    </Entity>
    <Entity type="Herbivore">
        <x>154.703</x>
        <y>478.862</y>
        <radius>9.5909</radius>
        <angle>-0.409672</angle>
        <maxSpeed>50</maxSpeed>
        <attack>2</attack>
        <energy>0</energy>
        <sex>true</sex>
        <mating>1164</mating>
        <age>6466</age>
        <hunger>1163</hunger>
        <thirst>1366</thirst>
        <health>5000</health>
        <NeuralNetwork>
            <NeuronLayer id="0">
                <inputsNum>16</inputsNum>
            </NeuronLayer>
            <NeuronLayer id="1">
                <Neuron id="0">
                    <weights>0.287273 0.282169 0.213032 0.394643 0.793602 0.618497 -2.55262 0.893505 -0.758486 0.160186 -0.00290698 1.36593 -2.34857 -2.05325 -1.63785 -2.02095 -0.145095 </weights>
                </Neuron>
                <Neuron id="1">
                    <weights>0.525157 0.783181 -0.199935 0.133058 1.3752 -0.336446 0.366843 -0.199855 -0.194041 -0.143604 0.600211 -0.969973 -0.309407 -0.750087 1.42516 -0.0710015 -0.558258 </weights>
                </Neuron>
                <Neuron id="2">
                    <weights>0.622796 -0.82239 -0.842187 0.279795 -2.19882 0.624968 -0.523226 -0.898862 -0.761761 0.713839 0.0529043 -0.315546 0.415315 -0.535144 -0.0623682 0.127293 1.04313 </weights>
                </Neuron>
                <Neuron id="3">
                    <weights>0.928388 -1.77849 -0.94403 0.933425 0.722841 2.18225 0.640663 -0.106311 -0.50107 -0.754483 -0.79598 0.507194 -1.58373 -2.21238 0.55098 -1.76429 -0.0869259 </weights>
                </Neuron>
                <Neuron id="4">
                    <weights>0.147538 -0.986878 -0.659661 0.304114 0.847215 1.04095 0.414949 -0.286651 -0.184552 -0.08709 0.0887127 0.0982454 -0.227467 -0.632361 0.0805538 -0.369366 -1.16928 </weights>
                </Neuron>
                <Neuron id="5">
                    <weights>0.11288 -0.358489 -1.30304 -0.60852 0.54426 1.08893 -0.632276 -0.471243 0.885377 -0.493886 0.698338 0.0466192 -0.313995 0.180586 -0.411462 1.4438 0.702716 </weights>
                </Neuron>
                <Neuron id="6">
                    <weights>-0.0207041 -0.809259 -0.525295 -0.285172 -1.84435 -0.103576 -1.26291 0.0670633 -0.723051 -0.837195 0.603425 1.03744 0.291274 0.143777 -1.94633 1.27104 0.0751385 </weights>
                </Neuron>
                <Neuron id="7">
                    <weights>0.0922316 -1.0279 -0.471486 1.01668 0.14508 0.0731249 -0.673604 -0.975461 -0.885563 -0.253417 -0.180985 1.61588 -1.22138 -1.15708 1.04344 -0.0197444 0.99744 </weights>
                </Neuron>
                <Neuron id="8">
                    <weights>-1.44689 -0.352533 -1.08589 1.25979 0.582235 1.07917 -1.16421 -0.406282 -0.363541 0.0334271 -1.52877 -1.10664 -0.18368 1.33521 -2.65897 0.861709 -1.202 </weights>
                </Neuron>
                <Neuron id="9">
                    <weights>-1.5577 -1.15251 -0.808068 1.49251 -0.945476 1.02844 -0.00405803 0.450942 0.49014 0.149446 -1.61919 1.53986 0.884917 -0.418594 -0.284999 0.729883 -2.17625 </weights>
                </Neuron>
                <Neuron id="10">
                    <weights>-0.574883 0.263198 1.47736 -0.299634 0.295722 -1.85249 0.87121 0.303964 0.970244 -2.00984 -0.214423 0.759559 -0.0326649 1.04929 0.209395 2.1414 1.0445 </weights>
                </Neuron>
                <Neuron id="11">
                    <weights>-1.21137 0.488047 0.465538 -0.0729898 1.09389 0.448305 0.065874 0.645296 -0.709376 0.215723 -0.0744154 0.747168 -1.25627 0.246147 -0.0325389 0.904586 -0.80667 </weights>
                </Neuron>
            </NeuronLayer>
            <NeuronLayer id="2">
                <Neuron id="0">
                    <weights>-0.984648 0.78631 -2.96233 -0.234037 0.390646 1.52586 0.214833 0.417761 0.289547 0.788731 1.1665 -1.4917 0.625107 </weights>
                </Neuron>
                <Neuron id="1">
                    <weights>1.81125 -0.0775803 0.0572595 1.26213 -1.79211 0.764897 1.54289 -0.100801 0.0270109 -0.910765 -0.0195282 0.685173 -2.30515 </weights>
                </Neuron>
                <Neuron id="2">
                    <weights>1.01927 -0.0239199 1.52734 -0.0293556 0.573023 -2.2769 1.96042 -0.287905 0.410788 0.639197 -0.532999 0.459826 0.0942152 </weights>
                </Neuron>
            </NeuronLayer>
        </NeuralNetwork>
    </Entity>
    <Entity type="Herbivore">
        <x>472.961</x>
        <y>193.582</y>
        <radius>9.8858</radius>
        <angle>1.56836</angle>
        <maxSpeed>50</maxSpeed>
        <attack>2</attack>
        <energy>2</energy>
        <sex>true</sex>
        <mating>1080</mating>
        <age>6466</age>
        <hunger>180</hunger>
        <thirst>1525</thirst>
        <health>4975</health>
        <NeuralNetwork>
            <NeuronLayer id="0">
                <inputsNum>16</inputsNum>
            </NeuronLayer>
            <NeuronLayer id="1">
                <Neuron id="0">
                    <weights>0.287273 0.282169 0.213032 0.394643 0.793602 0.618497 -2.55262 0.893505 -0.758486 0.160186 -0.00290698 1.36593 -2.34857 -2.05325 -1.63785 -2.02095 -0.145095 </weights>
                </Neuron>
                <Neuron id="1">
                    <weights>0.525157 0.783181 -0.199935 0.133058 1.3752 -0.336446 0.366843 -0.199855 -0.194041 -0.143604 0.600211 -0.969973 -0.309407 -0.750087 1.42516 -0.0710015 -0.558258 </weights>
                </Neuron>
                <Neuron id="2">
                    <weights>0.622796 -0.82239 -0.842187 0.279795 -2.19882 0.624968 -0.523226 -0.898862 -0.761761 0.713839 0.0529043 -0.315546 0.415315 -0.535144 -0.0623682 0.127293 1.04313 </weights>
                </Neuron>
                <Neuron id="3">
                    <weights>0.928388 -1.77849 -0.94403 0.933425 0.722841 2.18225 0.640663 -0.106311 -0.50107 -0.754483 -0.79598 0.507194 -1.58373 -2.21238 0.55098 -1.76429 -0.0869259 </weights>
                </Neuron>
                <Neuron id="4">
                    <weights>0.147538 -0.986878 -0.659661 0.304114 0.847215 1.04095 0.414949 -0.286651 -0.184552 -0.08709 0.0887127 0.0982454 -0.227467 -0.632361 0.0805538 -0.369366 -1.16928 </weights>
                </Neuron>
                <Neuron id="5">
                    <weights>0.11288 -0.358489 -1.30304 -0.60852 0.54426 1.08893 -0.632276 -0.471243 0.885377 -0.493886 0.698338 0.0466192 -0.313995 0.180586 -0.411462 1.4438 0.702716 </weights>
                </Neuron>
                <Neuron id="6">
                    <weights>-0.0207041 -0.809259 -0.525295 -0.285172 -1.84435 -0.103576 -1.26291 0.0670633 -0.723051 -0.837195 0.603425 1.03744 0.291274 0.143777 -1.94633 1.27104 0.0751385 </weights>
                </Neuron>
                <Neuron id="7">
                    <weights>0.0922316 -1.0279 -0.471486 1.01668 0.14508 0.0731249 -0.673604 -0.975461 -0.885563 -0.253417 -0.180985 1.61588 -1.22138 -1.15708 1.04344 -0.0197444 0.99744 </weights>
                </Neuron>
                <Neuron id="8">
                    <weights>-1.44689 -0.352533 -1.08589 1.25979 0.582235 1.07917 -1.16421 -0.406282 -0.363541 0.0334271 -1.52877 -1.10664 -0.18368 1.33521 -2.65897 0.861709 -1.202 </weights>
                </Neuron>
                <Neuron id="9">
                    <weights>-1.5577 -1.15251 -0.808068 1.49251 -0.945476 1.02844 -0.00405803 0.450942 0.49014 0.149446 -1.61919 1.53986 0.884917 -0.418594 -0.284999 0.729883 -2.17625 </weights>
                </Neuron>
                <Neuron id="10">
                    <weights>-0.574883 0.263198 1.47736 -0.299634 0.295722 -1.85249 0.87121 0.303964 0.970244 -2.00984 -0.214423 0.759559 -0.0326649 1.04929 0.209395 2.1414 1.0445 </weights>
                </Neuron>
                <Neuron id="11">
                    <weights>-1.21137 0.488047 0.465538 -0.0729898 1.09389 0.448305 0.065874 0.645296 -0.709376 0.215723 -0.0744154 0.747168 -1.25627 0.246147 -0.0325389 0.904586 -0.80667 </weights>
                </Neuron>
            </NeuronLayer>
            <NeuronLayer id="2">
                <Neuron id="0">
                    <weights>0.248319 -0.456097 -0.614482 -0.0370368 -0.149318 2.04733 0.442138 0.292237 -0.00312563 0.558005 -0.600346 0.670264 -0.0925976 </weights>
                </Neuron>
                <Neuron id="1">
                    <weights>1.81125 -0.0775803 0.0572595 1.26213 -1.79211 0.764897 1.54289 -0.100801 0.0270109 -0.910765 -0.0195282 0.685173 -2.30515 </weights>
                </Neuron>
                <Neuron id="2">
                    <weights>1.01927 -0.0239199 1.52734 -0.0293556 0.573023 -2.2769 1.96042 -0.287905 0.410788 0.639197 -0.532999 0.459826 0.0942152 </weights>
                </Neuron>
            </NeuronLayer>
        </NeuralNetwork>
    </Entity>
    <Entity type="Herbivore">
        <x>174.475</x>
        <y>160.714</y>
        <radius>9.9296</radius>
        <angle>-0.165977</angle>
        <maxSpeed>50</maxSpeed>
        <attack>2</attack>
        <energy>1</energy>
        <sex>true</sex>
        <mating>1535</mating>
        <age>6466</age>
        <hunger>34</hunger>
        <thirst>1482</thirst>
        <health>5000</health>
        <NeuralNetwork>
            <NeuronLayer id="0">
                <inputsNum>16</inputsNum>
            </NeuronLayer>
            <NeuronLayer id="1">
                <Neuron id="0">
                    <weights>0.287273 0.282169 0.213032 0.394643 0.793602 0.618497 -2.55262 0.893505 -0.758486 0.160186 -0.00290698 1.36593 -2.34857 -2.05325 -1.63785 -2.02095 -0.145095 </weights>
                </Neuron>
                <Neuron id="1">
                    <weights>0.525157 0.783181 -0.199935 0.133058 1.3752 -0.336446 0.366843 -0.199855 -0.194041 -0.143604 0.600211 -0.969973 -0.309407 -0.750087 1.42516 -0.0710015 -0.558258 </weights>
                </Neuron>
                <Neuron id="2">
                    <weights>0.622796 -0.82239 -0.842187 0.279795 -2.19882 0.624968 -0.523226 -0.898862 -0.761761 0.713839 0.0529043 -0.315546 0.415315 -0.535144 -0.0623682 0.127293 1.04313 </weights>
                </Neuron>
                <Neuron id="3">
                    <weights>0.928388 -1.77849 -0.94403 0.933425 0.722841 2.18225 0.640663 -0.106311 -0.50107 -0.754483 -0.79598 0.507194 -1.58373 -2.21238 0.55098 -1.76429 -0.0869259 </weights>
                </Neuron>
                <Neuron id="4">
                    <weights>0.147538 -0.986878 -0.659661 0.304114 0.847215 1.04095 0.414949 -0.286651 -0.184552 -0.08709 0.0887127 0.0982454 -0.227467 -0.632361 0.0805538 -0.369366 -1.16928 </weights>
                </Neuron>
                <Neuron id="5">
                    <weights>0.11288 -0.358489 -1.30304 -0.60852 0.54426 1.08893 -0.632276 -0.471243 0.885377 -0.493886 0.698338 0.0466192 -0.313995 0.180586 -0.411462 1.4438 0.702716 </weights>
                </Neuron>
                <Neuron id="6">
                    <weights>-0.0207041 -0.809259 -0.525295 -0.285172 -1.84435 -0.103576 -1.26291 0.0670633 -0.723051 -0.837195 0.603425 1.03744 0.291274 0.143777 -1.94633 1.27104 0.0751385 </weights>
                </Neuron>
                <Neuron id="7">
                    <weights>0.0922316 -1.0279 -0.471486 1.01668 0.14508 0.0731249 -0.673604 -0.975461 -0.885563 -0.253417 -0.180985 1.61588 -1.22138 -1.15708 1.04344 -0.0197444 0.99744 </weights>
                </Neuron>
                <Neuron id="8">
                    <weights>-1.44689 -0.352533 -1.08589 1.25979 0.582235 1.07917 -1.16421 -0.406282 -0.363541 0.0334271 -1.52877 -1.10664 -0.18368 1.33521 -2.65897 0.861709 -1.202 </weights>
                </Neuron>
                <Neuron id="9">
                    <weights>-1.5577 -1.15251 -0.808068 1.49251 -0.945476 1.02844 -0.00405803 0.450942 0.49014 0.149446 -1.61919 1.53986 0.884917 -0.418594 -0.284999 0.729883 -2.17625 </weights>
                </Neuron>
                <Neuron id="10">
                    <weights>-0.574883 0.263198 1.47736 -0.299634 0.295722 -1.85249 0.87121 0.303964 0.970244 -2.00984 -0.214423 0.759559 -0.0326649 1.04929 0.209395 2.1414 1.0445 </weights>
                </Neuron>
                <Neuron id="11">
                    <weights>-1.21137 0.488047 0.465538 -0.0729898 1.09389 0.448305 0.065874 0.645296 -0.709376 0.215723 -0.0744154 0.747168 -1.25627 0.246147 -0.0325389 0.904586 -0.80667 </weights>
                </Neuron>
            </NeuronLayer>
            <NeuronLayer id="2">
                <Neuron id="0">
                    <weights>0.248319 -0.456097 -0.614482 -0.0370368 -0.149318 2.04733 0.442138 0.292237 -0.00312563 0.558005 -0.600346 0.670264 -0.0925976 </weights>
                </Neuron>
                <Neuron id="1">
                    <weights>1.81125 -0.0775803 0.0572595 1.26213 -1.79211 0.764897 1.54289 -0.100801 0.0270109 -0.910765 -0.0195282 0.685173 -2.30515 </weights>
                </Neuron>
                <Neuron id="2">
                    <weights>1.01927 -0.0239199 1.52734 -0.0293556 0.573023 -2.2769 1.96042 -0.287905 0.410788 0.639197 -0.532999 0.459826 0.0942152 </weights>
                </Neuron>
            </NeuronLayer>
        </NeuralNetwork>
    </Entity>
    <Entity type="Herbivore">
        <x>168.396</x>
        <y>281.1</y>
        <radius>9.2975</radius>
        <angle>1.93085</angle>
        <maxSpeed>50</maxSpeed>
        <attack>2</attack>
        <energy>0</energy>
        <sex>true</sex>
        <mating>1980</mating>
        <age>5022</age>
        <hunger>697</hunger>
        <thirst>855</thirst>
        <health>5000</health>
        <NeuralNetwork>
            <NeuronLayer id="0">
                <inputsNum>16</inputsNum>
            </NeuronLayer>
            <NeuronLayer id="1">
                <Neuron id="0">
                    <weights>0.287273 0.282169 0.213032 0.394643 0.793602 0.618497 -2.55262 0.893505 -0.758486 0.160186 -0.00290698 1.36593 -2.34857 -2.05325 -1.63785 -2.02095 -0.145095 </weights>
                </Neuron>
                <Neuron id="1">
                    <weights>0.525157 0.783181 -0.199935 0.133058 1.3752 -0.336446 0.366843 -0.199855 -0.194041 -0.143604 0.600211 -0.969973 -0.309407 -0.750087 1.42516 -0.0710015 -0.558258 </weights>
                </Neuron>
                <Neuron id="2">
                    <weights>0.622796 -0.82239 -0.842187 0.279795 -2.19882 0.624968 -0.523226 -0.898862 -0.761761 0.713839 0.0529043 -0.315546 0.415315 -0.535144 -0.0623682 0.127293 1.04313 </weights>
                </Neuron>
                <Neuron id="3">
                    <weights>-0.975525 0.1602 -1.82467 0.631978 0.5658 -0.711853 -1.39659 1.19658 1.79247 0.875669 -0.175529 1.49832 0.134466 -0.793012 -0.177385 -0.198069 0.17356 </weights>
                </Neuron>
                <Neuron id="4">
                    <weights>1.8814 -1.51052 -0.185485 -1.41258 -0.887468 0.755239 0.552643 0.935747 1.30882 -0.442576 -0.462394 2.3404 0.0565496 -0.764946 -0.173514 0.685655 -1.39051 </weights>
                </Neuron>
                <Neuron id="5">
                    <weights>0.11288 -0.358489 -1.30304 -0.60852 0.54426 1.08893 -0.632276 -0.471243 0.885377 -0.493886 0.698338 0.0466192 -0.313995 0.180586 -0.411462 1.4438 0.702716 </weights>
                </Neuron>
                <Neuron id="6">
                    <weights>-0.0207041 -0.809259 -0.525295 -0.285172 -1.84435 -0.103576 -1.26291 0.0670633 -0.723051 -0.837195 0.603425 1.03744 0.291274 0.143777 -1.94633 1.27104 0.0751385 </weights>
                </Neuron>
                <Neuron id="7">
                    <weights>0.0922316 -1.0279 -0.471486 1.01668 0.14508 0.0731249 -0.673604 -0.975461 -0.885563 -0.253417 -0.180985 1.61588 -1.22138 -1.15708 1.04344 -0.0197444 0.99744 </weights>
                </Neuron>
                <Neuron id="8">
                    <weights>-1.44689 -0.352533 -1.08589 1.25979 0.582235 1.07917 -1.16421 -0.406282 -0.363541 0.0334271 -1.52877 -1.10664 -0.18368 1.33521 -2.65897 0.861709 -1.202 </weights>
                </Neuron>
                <Neuron id="9">
                    <weights>-1.5577 -1.15251 -0.808068 1.49251 -0.945476 1.02844 -0.00405803 0.450942 0.49014 0.149446 -1.61919 1.53986 0.884917 -0.418594 -0.284999 0.729883 -2.17625 </weights>
                </Neuron>
                <Neuron id="10">
                    <weights>-0.574883 0.263198 1.47736 -0.299634 0.295722 -1.85249 0.87121 0.303964 0.970244 -2.00984 -0.214423 0.759559 -0.0326649 1.04929 0.209395 2.1414 1.0445 </weights>
                </Neuron>
                <Neuron id="11">
                    <weights>-1.21137 0.488047 0.465538 -0.0729898 1.09389 0.448305 0.065874 0.645296 -0.709376 0.215723 -0.0744154 0.747168 -1.25627 0.246147 -0.0325389 0.904586 -0.80667 </weights>
                </Neuron>
            </NeuronLayer>
            <NeuronLayer id="2">
                <Neuron id="0">
                    <weights>-0.984648 0.78631 -2.96233 -0.234037 0.390646 1.52586 0.214833 0.417761 0.289547 0.788731 1.1665 -1.4917 0.625107 </weights>
                </Neuron>
                <Neuron id="1">
                    <weights>1.07893 -2.23828 -0.534636 0.865009 0.119948 0.922765 -0.0248626 -0.651617 0.123867 0.107943 0.887107 2.09337 -1.76176 </weights>
                </Neuron>
                <Neuron id="2">
                    <weights>-0.696516 0.227553 -0.269841 -1.10753 -0.828184 -1.73582 -0.294167 -1.72911 -1.65086 0.980116 1.22106 -0.293758 -0.142742 </weights>
                </Neuron>
            </NeuronLayer>
        </NeuralNetwork>
    </Entity>
    <Entity type="Herbivore">
        <x>187.412</x>
        <y>87.4279</y>
        <radius>8.8598</radius>
        <angle>-1.11708</angle>
        <maxSpeed>50</maxSpeed>
        <attack>2</attack>
        <energy>1</energy>
        <sex>false</sex>
        <mating>377</mating>
        <age>5022</age>
        <hunger>2000</hunger>
        <thirst>1353</thirst>
        <health>2914</health>
        <NeuralNetwork>
            <NeuronLayer id="0">
                <inputsNum>16</inputsNum>
            </NeuronLayer>
            <NeuronLayer id="1">
                <Neuron id="0">
                    <weights>0.287273 0.282169 0.213032 0.394643 0.793602 0.618497 -2.55262 0.893505 -0.758486 0.160186 -0.00290698 1.36593 -2.34857 -2.05325 -1.63785 -2.02095 -0.145095 </weights>
                </Neuron>
                <Neuron id="1">
                    <weights>0.525157 0.783181 -0.199935 0.133058 1.3752 -0.336446 0.366843 -0.199855 -0.194041 -0.143604 0.600211 -0.969973 -0.309407 -0.750087 1.42516 -0.0710015 -0.558258 </weights>
                </Neuron>
                <Neuron id="2">
                    <weights>0.622796 -0.82239 -0.842187 0.279795 -2.19882 0.624968 -0.523226 -0.898862 -0.761761 0.713839 0.0529043 -0.315546 0.415315 -0.535144 -0.0623682 0.127293 1.04313 </weights>
                </Neuron>
                <Neuron id="3">
                    <weights>-0.975525 0.1602 -1.82467 0.631978 0.5658 -0.711853 -1.39659 1.19658 1.79247 0.875669 -0.175529 1.49832 0.134466 -0.793012 -0.177385 -0.198069 0.17356 </weights>
                </Neuron>
                <Neuron id="4">
                    <weights>1.8814 -1.51052 -0.185485 -1.41258 -0.887468 0.755239 0.552643 0.935747 1.30882 -0.442576 -0.462394 2.3404 0.0565496 -0.764946 -0.173514 0.685655 -1.39051 </weights>
                </Neuron>
                <Neuron id="5">
                    <weights>0.11288 -0.358489 -1.30304 -0.60852 0.54426 1.08893 -0.632276 -0.471243 0.885377 -0.493886 0.698338 0.0466192 -0.313995 0.180586 -0.411462 1.4438 0.702716 </weights>
                </Neuron>
                <Neuron id="6">
                    <weights>-0.0207041 -0.809259 -0.525295 -0.285172 -1.84435 -0.103576 -1.26291 0.0670633 -0.723051 -0.837195 0.603425 1.03744 0.291274 0.143777 -1.94633 1.27104 0.0751385 </weights>
                </Neuron>
                <Neuron id="7">
                    <weights>0.0922316 -1.0279 -0.471486 1.01668 0.14508 0.0731249 -0.673604 -0.975461 -0.885563 -0.253417 -0.180985 1.61588 -1.22138 -1.15708 1.04344 -0.0197444 0.99744 </weights>
                </Neuron>
                <Neuron id="8">
                    <weights>-1.44689 -0.352533 -1.08589 1.25979 0.582235 1.07917 -1.16421 -0.406282 -0.363541 0.0334271 -1.52877 -1.10664 -0.18368 1.33521 -2.65897 0.861709 -1.202 </weights>
                </Neuron>
                <Neuron id="9">
                    <weights>-1.5577 -1.15251 -0.808068 1.49251 -0.945476 1.02844 -0.00405803 0.450942 0.49014 0.149446 -1.61919 1.53986 0.884917 -0.418594 -0.284999 0.729883 -2.17625 </weights>
                </Neuron>
                <Neuron id="10">
                    <weights>-0.574883 0.263198 1.47736 -0.299634 0.295722 -1.85249 0.87121 0.303964 0.970244 -2.00984 -0.214423 0.759559 -0.0326649 1.04929 0.209395 2.1414 1.0445 </weights>
                </Neuron>
                <Neuron id="11">
                    <weights>0.366891 1.08607 -0.00115007 -0.678842 -1.39662 -0.0375953 1.65676 1.07748 0.123951 1.19819 -0.89456 -0.686046 -0.999962 -2.12956 0.149722 1.23952 0.593239 </weights>
                </Neuron>
            </NeuronLayer>
            <NeuronLayer id="2">
                <Neuron id="0">
                    <weights>-0.984648 0.78631 -2.96233 -0.234037 0.390646 1.52586 0.214833 0.417761 0.289547 0.788731 1.1665 -1.4917 0.625107 </weights>
                </Neuron>
                <Neuron id="1">
                    <weights>1.07893 -2.23828 -0.534636 0.865009 0.119948 0.922765 -0.0248626 -0.651617 0.123867 0.107943 0.887107 2.09337 -1.76176 </weights>
                </Neuron>
                <Neuron id="2">
                    <weights>-0.696516 0.227553 -0.269841 -1.10753 -0.828184 -1.73582 -0.294167 -1.72911 -1.65086 0.980116 1.22106 -0.293758 -0.142742 </weights>
                </Neuron>
            </NeuronLayer>
        </NeuralNetwork>
    </Entity>
    <Entity type="Herbivore">
        <x>454.076</x>
        <y>129.111</y>
        <radius>8.9066</radius>
        <angle>-0.0283567</angle>
        <maxSpeed>50</maxSpeed>
        <attack>2</attack>
        <energy>0</energy>
        <sex>false</sex>
        <mating>2048</mating>
        <age>5022</age>
        <hunger>2000</hunger>
        <thirst>1721</thirst>
        <health>4270</health>
        <NeuralNetwork>
            <NeuronLayer id="0">
                <inputsNum>16</inputsNum>
            </NeuronLayer>
            <NeuronLayer id="1">
                <Neuron id="0">
                    <weights>0.287273 0.282169 0.213032 0.394643 0.793602 0.618497 -2.55262 0.893505 -0.758486 0.160186 -0.00290698 1.36593 -2.34857 -2.05325 -1.63785 -2.02095 -0.145095 </weights>
                </Neuron>
                <Neuron id="1">
                    <weights>0.525157 0.783181 -0.199935 0.133058 1.3752 -0.336446 0.366843 -0.199855 -0.194041 -0.143604 0.600211 -0.969973 -0.309407 -0.750087 1.42516 -0.0710015 -0.558258 </weights>
                </Neuron>
                <Neuron id="2">
                    <weights>0.622796 -0.82239 -0.842187 0.279795 -2.19882 0.624968 -0.523226 -0.898862 -0.761761 0.713839 0.0529043 -0.315546 0.415315 -0.535144 -0.0623682 0.127293 1.04313 </weights>
                </Neuron>
                <Neuron id="3">
                    <weights>-0.975525 0.1602 -1.82467 0.631978 0.5658 -0.711853 -1.39659 1.19658 1.79247 0.875669 -0.175529 1.49832 0.134466 -0.793012 -0.177385 -0.198069 0.17356 </weights>
                </Neuron>
                <Neuron id="4">
                    <weights>0.147538 -0.986878 -0.659661 0.304114 0.847215 1.04095 0.414949 -0.286651 -0.184552 -0.08709 0.0887127 0.0982454 -0.227467 -0.632361 0.0805538 -0.369366 -1.16928 </weights>
                </Neuron>
                <Neuron id="5">
                    <weights>0.11288 -0.358489 -1.30304 -0.60852 0.54426 1.08893 -0.632276 -0.471243 0.885377 -0.493886 0.698338 0.0466192 -0.313995 0.180586 -0.411462 1.4438 0.702716 </weights>
                </Neuron>
                <Neuron id="6">
                    <weights>-0.0207041 -0.809259 -0.525295 -0.285172 -1.84435 -0.103576 -1.26291 0.0670633 -0.723051 -0.837195 0.603425 1.03744 0.291274 0.143777 -1.94633 1.27104 0.0751385 </weights>
                </Neuron>
                <Neuron id="7">
                    <weights>0.0922316 -1.0279 -0.471486 1.01668 0.14508 0.0731249 -0.673604 -0.975461 -0.885563 -0.253417 -0.180985 1.61588 -1.22138 -1.15708 1.04344 -0.0197444 0.99744 </weights>
                </Neuron>
                <Neuron id="8">
                    <weights>-1.44689 -0.352533 -1.08589 1.25979 0.582235 1.07917 -1.16421 -0.406282 -0.363541 0.0334271 -1.52877 -1.10664 -0.18368 1.33521 -2.65897 0.861709 -1.202 </weights>
                </Neuron>
                <Neuron id="9">
                    <weights>-1.5577 -1.15251 -0.808068 1.49251 -0.945476 1.02844 -0.00405803 0.450942 0.49014 0.149446 -1.61919 1.53986 0.884917 -0.418594 -0.284999 0.729883 -2.17625 </weights>
                </Neuron>
                <Neuron id="10">
                    <weights>-0.574883 0.263198 1.47736 -0.299634 0.295722 -1.85249 0.87121 0.303964 0.970244 -2.00984 -0.214423 0.759559 -0.0326649 1.04929 0.209395 2.1414 1.0445 </weights>
                </Neuron>
                <Neuron id="11">
                    <weights>-1.21137 0.488047 0.465538 -0.0729898 1.09389 0.448305 0.065874 0.645296 -0.709376 0.215723 -0.0744154 0.747168 -1.25627 0.246147 -0.0325389 0.904586 -0.80667 </weights>
                </Neuron>
            </NeuronLayer>
            <NeuronLayer id="2">
                <Neuron id="0">
                    <weights>-0.984648 0.78631 -2.96233 -0.234037 0.390646 1.52586 0.214833 0.417761 0.289547 0.788731 1.1665 -1.4917 0.625107 </weights>
                </Neuron>
                <Neuron id="1">
                    <weights>1.07893 -2.23828 -0.534636 0.865009 0.119948 0.922765 -0.0248626 -0.651617 0.123867 0.107943 0.887107 2.09337 -1.76176 </weights>
                </Neuron>
                <Neuron id="2">
                    <weights>-0.696516 0.227553 -0.269841 -1.10753 -0.828184 -1.73582 -0.294167 -1.72911 -1.65086 0.980116 1.22106 -0.293758 -0.142742 </weights>
                </Neuron>
            </NeuronLayer>
        </NeuralNetwork>
    </Entity>
    <Entity type="Herbivore">
        <x>222.753</x>
        <y>25.5463</y>
        <radius>9.0251</radius>
        <angle>-0.425885</angle>
        <maxSpeed>50</maxSpeed>
        <attack>2</attack>
        <energy>0</energy>
        <sex>false</sex>
        <mating>891</mating>
        <age>4708</age>
        <hunger>1291</hunger>
        <thirst>1204</thirst>
        <health>5000</health>
        <NeuralNetwork>
            <NeuronLayer id="0">
                <inputsNum>16</inputsNum>
            </NeuronLayer>
            <NeuronLayer id="1">
                <Neuron id="0">
                    <weights>0.287273 0.282169 0.213032 0.394643 0.793602 0.618497 -2.55262 0.893505 -0.758486 0.160186 -0.00290698 1.36593 -2.34857 -2.05325 -1.63785 -2.02095 -0.145095 </weights>
                </Neuron>
                <Neuron id="1">
                    <weights>0.525157 0.783181 -0.199935 0.133058 1.3752 -0.336446 0.366843 -0.199855 -0.194041 -0.143604 0.600211 -0.969973 -0.309407 -0.750087 1.42516 -0.0710015 -0.558258 </weights>
                </Neuron>
                <Neuron id="2">
                    <weights>0.622796 -0.82239 -0.842187 0.279795 -2.19882 0.624968 -0.523226 -0.898862 -0.761761 0.713839 0.0529043 -0.315546 0.415315 -0.535144 -0.0623682 0.127293 1.04313 </weights>
                </Neuron>
                <Neuron id="3">
                    <weights>1.44905 0.709344 -0.55134 -0.367065 -1.50873 0.0559181 -0.436055 -0.282933 0.224305 0.979326 1.09946 -1.4076 -2.12439 -0.697452 -1.04698 -0.233415 -0.697562 </weights>
                </Neuron>
                <Neuron id="4">
                    <weights>0.147538 -0.986878 -0.659661 0.304114 0.847215 1.04095 0.414949 -0.286651 -0.184552 -0.08709 0.0887127 0.0982454 -0.227467 -0.632361 0.0805538 -0.369366 -1.16928 </weights>
                </Neuron>
                <Neuron id="5">
                    <weights>0.11288 -0.358489 -1.30304 -0.60852 0.54426 1.08893 -0.632276 -0.471243 0.885377 -0.493886 0.698338 0.0466192 -0.313995 0.180586 -0.411462 1.4438 0.702716 </weights>
                </Neuron>
                <Neuron id="6">
                    <weights>-0.0207041 -0.809259 -0.525295 -0.285172 -1.84435 -0.103576 -1.26291 0.0670633 -0.723051 -0.837195 0.603425 1.03744 0.291274 0.143777 -1.94633 1.27104 0.0751385 </weights>
                </Neuron>
                <Neuron id="7">
                    <weights>1.14503 -0.976926 0.239179 -0.0058511 -1.25421 -0.824351 0.904559 0.685404 -0.877194 -1.90713 -0.516457 1.77163 -1.29403 1.41797 0.178582 -0.365108 0.354428 </weights>
                </Neuron>
                <Neuron id="8">
                    <weights>-1.44689 -0.352533 -1.08589 1.25979 0.582235 1.07917 -1.16421 -0.406282 -0.363541 0.0334271 -1.52877 -1.10664 -0.18368 1.33521 -2.65897 0.861709 -1.202 </weights>
                </Neuron>
                <Neuron id="9">
                    <weights>-1.5577 -1.15251 -0.808068 1.49251 -0.945476 1.02844 -0.00405803 0.450942 0.49014 0.149446 -1.61919 1.53986 0.884917 -0.418594 -0.284999 0.729883 -2.17625 </weights>
                </Neuron>
                <Neuron id="10">
                    <weights>-0.574883 0.263198 1.47736 -0.299634 0.295722 -1.85249 0.87121 0.303964 0.970244 -2.00984 -0.214423 0.759559 -0.0326649 1.04929 0.209395 2.1414 1.0445 </weights>
                </Neuron>
                <Neuron id="11">
                    <weights>-1.21137 0.488047 0.465538 -0.0729898 1.09389 0.448305 0.065874 0.645296 -0.709376 0.215723 -0.0744154 0.747168 -1.25627 0.246147 -0.0325389 0.904586 -0.80667 </weights>
                </Neuron>
            </NeuronLayer>
            <NeuronLayer id="2">
                <Neuron id="0">
                    <weights>-0.984648 0.78631 -2.96233 -0.234037 0.390646 1.52586 0.214833 0.417761 0.289547 0.788731 1.1665 -1.4917 0.625107 </weights>
                </Neuron>
                <Neuron id="1">
                    <weights>1.07893 -2.23828 -0.534636 0.865009 0.119948 0.922765 -0.0248626 -0.651617 0.123867 0.107943 0.887107 2.09337 -1.76176 </weights>
                </Neuron>
                <Neuron id="2">
                    <weights>-0.696516 0.227553 -0.269841 -1.10753 -0.828184 -1.73582 -0.294167 -1.72911 -1.65086 0.980116 1.22106 -0.293758 -0.142742 </weights>
                </Neuron>
            </NeuronLayer>
        </NeuralNetwork>
    </Entity>
    <Entity type="Herbivore">
        <x>377.023</x>
        <y>141.162</y>
        <radius>8.867</radius>
        <angle>2.26392</angle>
        <maxSpeed>50</maxSpeed>
        <attack>2</attack>
        <energy>0</energy>
        <sex>false</sex>
        <mating>1640</mating>
        <age>4708</age>
        <hunger>1614</hunger>
        <thirst>1512</thirst>
        <health>1841</health>
        <NeuralNetwork>
            <NeuronLayer id="0">
                <inputsNum>16</inputsNum>
            </NeuronLayer>
            <NeuronLayer id="1">
                <Neuron id="0">
                    <weights>0.287273 0.282169 0.213032 0.394643 0.793602 0.618497 -2.55262 0.893505 -0.758486 0.160186 -0.00290698 1.36593 -2.34857 -2.05325 -1.63785 -2.02095 -0.145095 </weights>
                </Neuron>
                <Neuron id="1">
                    <weights>0.525157 0.783181 -0.199935 0.133058 1.3752 -0.336446 0.366843 -0.199855 -0.194041 -0.143604 0.600211 -0.969973 -0.309407 -0.750087 1.42516 -0.0710015 -0.558258 </weights>
                </Neuron>
                <Neuron id="2">
                    <weights>0.622796 -0.82239 -0.842187 0.279795 -2.19882 0.624968 -0.523226 -0.898862 -0.761761 0.713839 0.0529043 -0.315546 0.415315 -0.535144 -0.0623682 0.127293 1.04313 </weights>
                </Neuron>
                <Neuron id="3">
                    <weights>-0.975525 0.1602 -1.82467 0.631978 0.5658 -0.711853 -1.39659 1.19658 1.79247 0.875669 -0.175529 1.49832 0.134466 -0.793012 -0.177385 -0.198069 0.17356 </weights>
                </Neuron>
                <Neuron id="4">
                    <weights>0.147538 -0.986878 -0.659661 0.304114 0.847215 1.04095 0.414949 -0.286651 -0.184552 -0.08709 0.0887127 0.0982454 -0.227467 -0.632361 0.0805538 -0.369366 -1.16928 </weights>
                </Neuron>
                <Neuron id="5">
                    <weights>0.11288 -0.358489 -1.30304 -0.60852 0.54426 1.08893 -0.632276 -0.471243 0.885377 -0.493886 0.698338 0.0466192 -0.313995 0.180586 -0.411462 1.4438 0.702716 </weights>
                </Neuron>
                <Neuron id="6">
                    <weights>-0.0207041 -0.809259 -0.525295 -0.285172 -1.84435 -0.103576 -1.26291 0.0670633 -0.723051 -0.837195 0.603425 1.03744 0.291274 0.143777 -1.94633 1.27104 0.0751385 </weights>
                </Neuron>
                <Neuron id="7">
                    <weights>0.0922316 -1.0279 -0.471486 1.01668 0.14508 0.0731249 -0.673604 -0.975461 -0.885563 -0.253417 -0.180985 1.61588 -1.22138 -1.15708 1.04344 -0.0197444 0.99744 </weights>
                </Neuron>
                <Neuron id="8">
                    <weights>-0.839793 0.269511 -1.93411 0.430707 -0.295295 1.22323 -0.425933 -1.01827 0.0801016 0.00273791 0.597678 -1.02806 0.462238 0.646738 -1.17475 -1.76481 -1.29762 </weights>
                </Neuron>
                <Neuron id="9">
                    <weights>-1.5577 -1.15251 -0.808068 1.49251 -0.945476 1.02844 -0.00405803 0.450942 0.49014 0.149446 -1.61919 1.53986 0.884917 -0.418594 -0.284999 0.729883 -2.17625 </weights>
                </Neuron>
                <Neuron id="10">
                    <weights>-0.574883 0.263198 1.47736 -0.299634 0.295722 -1.85249 0.87121 0.303964 0.970244 -2.00984 -0.214423 0.759559 -0.0326649 1.04929 0.209395 2.1414 1.0445 </weights>
                </Neuron>
                <Neuron id="11">
                    <weights>0.366891 1.08607 -0.00115007 -0.678842 -1.39662 -0.0375953 1.65676 1.07748 0.123951 1.19819 -0.89456 -0.686046 -0.999962 -2.12956 0.149722 1.23952 0.593239 </weights>
                </Neuron>
            </NeuronLayer>
            <NeuronLayer id="2">
                <Neuron id="0">
                    <weights>-0.984648 0.78631 -2.96233 -0.234037 0.390646 1.52586 0.214833 0.417761 0.289547 0.788731 1.1665 -1.4917 0.625107 </weights>
                </Neuron>
                <Neuron id="1">
                    <weights>1.07893 -2.23828 -0.534636 0.865009 0.119948 0.922765 -0.0248626 -0.651617 0.123867 0.107943 0.887107 2.09337 -1.76176 </weights>
                </Neuron>
                <Neuron id="2">
                    <weights>-0.696516 0.227553 -0.269841 -1.10753 -0.828184 -1.73582 -0.294167 -1.72911 -1.65086 0.980116 1.22106 -0.293758 -0.142742 </weights>
                </Neuron>
            </NeuronLayer>
        </NeuralNetwork>
    </Entity>
    <Entity type="Herbivore">
        <x>456.727</x>
        <y>98.0441</y>
        <radius>8.9807</radius>
        <angle>0.854059</angle>
        <maxSpeed>50</maxSpeed>
        <attack>2</attack>
        <energy>0</energy>
        <sex>false</sex>
        <mating>1081</mating>
        <age>4414</age>
        <hunger>1145</hunger>
        <thirst>481</thirst>
        <health>5000</health>
        <NeuralNetwork>
            <NeuronLayer id="0">
                <inputsNum>16</inputsNum>
            </NeuronLayer>
            <NeuronLayer id="1">
                <Neuron id="0">
                    <weights>0.287273 0.282169 0.213032 0.394643 0.793602 0.618497 -2.55262 0.893505 -0.758486 0.160186 -0.00290698 1.36593 -2.34857 -2.05325 -1.63785 -2.02095 -0.145095 </weights>
                </Neuron>
                <Neuron id="1">
                    <weights>0.525157 0.783181 -0.199935 0.133058 1.3752 -0.336446 0.366843 -0.199855 -0.194041 -0.143604 0.600211 -0.969973 -0.309407 -0.750087 1.42516 -0.0710015 -0.558258 </weights>
                </Neuron>
                <Neuron id="2">
                    <weights>0.622796 -0.82239 -0.842187 0.279795 -2.19882 0.624968 -0.523226 -0.898862 -0.761761 0.713839 0.0529043 -0.315546 0.415315 -0.535144 -0.0623682 0.127293 1.04313 </weights>
                </Neuron>
                <Neuron id="3">
                    <weights>-0.975525 0.1602 -1.82467 0.631978 0.5658 -0.711853 -1.39659 1.19658 1.79247 0.875669 -0.175529 1.49832 0.134466 -0.793012 -0.177385 -0.198069 0.17356 </weights>
                </Neuron>
                <Neuron id="4">
                    <weights>0.147538 -0.986878 -0.659661 0.304114 0.847215 1.04095 0.414949 -0.286651 -0.184552 -0.08709 0.0887127 0.0982454 -0.227467 -0.632361 0.0805538 -0.369366 -1.16928 </weights>
                </Neuron>
                <Neuron id="5">
                    <weights>0.11288 -0.358489 -1.30304 -0.60852 0.54426 1.08893 -0.632276 -0.471243 0.885377 -0.493886 0.698338 0.0466192 -0.313995 0.180586 -0.411462 1.4438 0.702716 </weights>
                </Neuron>
                <Neuron id="6">
                    <weights>-0.0207041 -0.809259 -0.525295 -0.285172 -1.84435 -0.103576 -1.26291 0.0670633 -0.723051 -0.837195 0.603425 1.03744 0.291274 0.143777 -1.94633 1.27104 0.0751385 </weights>
                </Neuron>
                <Neuron id="7">
                    <weights>0.0922316 -1.0279 -0.471486 1.01668 0.14508 0.0731249 -0.673604 -0.975461 -0.885563 -0.253417 -0.180985 1.61588 -1.22138 -1.15708 1.04344 -0.0197444 0.99744 </weights>
                </Neuron>
                <Neuron id="8">
                    <weights>-0.839793 0.269511 -1.93411 0.430707 -0.295295 1.22323 -0.425933 -1.01827 0.0801016 0.00273791 0.597678 -1.02806 0.462238 0.646738 -1.17475 -1.76481 -1.29762 </weights>
                </Neuron>
                <Neuron id="9">
                    <weights>-1.5577 -1.15251 -0.808068 1.49251 -0.945476 1.02844 -0.00405803 0.450942 0.49014 0.149446 -1.61919 1.53986 0.884917 -0.418594 -0.284999 0.729883 -2.17625 </weights>
                </Neuron>
                <Neuron id="10">
                    <weights>-0.574883 0.263198 1.47736 -0.299634 0.295722 -1.85249 0.87121 0.303964 0.970244 -2.00984 -0.214423 0.759559 -0.0326649 1.04929 0.209395 2.1414 1.0445 </weights>
                </Neuron>
                <Neuron id="11">
                    <weights>-1.21137 0.488047 0.465538 -0.0729898 1.09389 0.448305 0.065874 0.645296 -0.709376 0.215723 -0.0744154 0.747168 -1.25627 0.246147 -0.0325389 0.904586 -0.80667 </weights>
                </Neuron>
            </NeuronLayer>
            <NeuronLayer id="2">
                <Neuron id="0">
                    <weights>-0.984648 0.78631 -2.96233 -0.234037 0.390646 1.52586 0.214833 0.417761 0.289547 0.788731 1.1665 -1.4917 0.625107 </weights>
                </Neuron>
                <Neuron id="1">
                    <weights>1.07893 -2.23828 -0.534636 0.865009 0.119948 0.922765 -0.0248626 -0.651617 0.123867 0.107943 0.887107 2.09337 -1.76176 </weights>
                </Neuron>
                <Neuron id="2">
                    <weights>-0.696516 0.227553 -0.269841 -1.10753 -0.828184 -1.73582 -0.294167 -1.72911 -1.65086 0.980116 1.22106 -0.293758 -0.142742 </weights>
                </Neuron>
            </NeuronLayer>
        </NeuralNetwork>
    </Entity>
    <Entity type="Herbivore">
        <x>170.83</x>
        <y>231.849</y>
        <radius>8.9045</radius>
        <angle>1.81865</angle>
        <maxSpeed>50</maxSpeed>
        <attack>2</attack>
        <energy>0</energy>
        <sex>true</sex>
        <mating>1166</mating>
        <age>4414</age>
        <hunger>1399</hunger>
        <thirst>550</thirst>
        <health>5000</health>
        <NeuralNetwork>
            <NeuronLayer id="0">
                <inputsNum>16</inputsNum>
            </NeuronLayer>
            <NeuronLayer id="1">
                <Neuron id="0">
                    <weights>0.287273 0.282169 0.213032 0.394643 0.793602 0.618497 -2.55262 0.893505 -0.758486 0.160186 -0.00290698 1.36593 -2.34857 -2.05325 -1.63785 -2.02095 -0.145095 </weights>
                </Neuron>
                <Neuron id="1">
                    <weights>0.525157 0.783181 -0.199935 0.133058 1.3752 -0.336446 0.366843 -0.199855 -0.194041 -0.143604 0.600211 -0.969973 -0.309407 -0.750087 1.42516 -0.0710015 -0.558258 </weights>
                </Neuron>
                <Neuron id="2">
                    <weights>0.622796 -0.82239 -0.842187 0.279795 -2.19882 0.624968 -0.523226 -0.898862 -0.761761 0.713839 0.0529043 -0.315546 0.415315 -0.535144 -0.0623682 0.127293 1.04313 </weights>
                </Neuron>
                <Neuron id="3">
                    <weights>-0.975525 0.1602 -1.82467 0.631978 0.5658 -0.711853 -1.39659 1.19658 1.79247 0.875669 -0.175529 1.49832 0.134466 -0.793012 -0.177385 -0.198069 0.17356 </weights>
                </Neuron>
                <Neuron id="4">
                    <weights>0.147538 -0.986878 -0.659661 0.304114 0.847215 1.04095 0.414949 -0.286651 -0.184552 -0.08709 0.0887127 0.0982454 -0.227467 -0.632361 0.0805538 -0.369366 -1.16928 </weights>
                </Neuron>
                <Neuron id="5">
                    <weights>0.11288 -0.358489 -1.30304 -0.60852 0.54426 1.08893 -0.632276 -0.471243 0.885377 -0.493886 0.698338 0.0466192 -0.313995 0.180586 -0.411462 1.4438 0.702716 </weights>
                </Neuron>
                <Neuron id="6">
                    <weights>-0.0207041 -0.809259 -0.525295 -0.285172 -1.84435 -0.103576 -1.26291 0.0670633 -0.723051 -0.837195 0.603425 1.03744 0.291274 0.143777 -1.94633 1.27104 0.0751385 </weights>
                </Neuron>
                <Neuron id="7">
                    <weights>0.0922316 -1.0279 -0.471486 1.01668 0.14508 0.0731249 -0.673604 -0.975461 -0.885563 -0.253417 -0.180985 1.61588 -1.22138 -1.15708 1.04344 -0.0197444 0.99744 </weights>
                </Neuron>
                <Neuron id="8">
                    <weights>-0.839793 0.269511 -1.93411 0.430707 -0.295295 1.22323 -0.425933 -1.01827 0.0801016 0.00273791 0.597678 -1.02806 0.462238 0.646738 -1.17475 -1.76481 -1.29762 </weights>
                </Neuron>
                <Neuron id="9">
                    <weights>-1.5577 -1.15251 -0.808068 1.49251 -0.945476 1.02844 -0.00405803 0.450942 0.49014 0.149446 -1.61919 1.53986 0.884917 -0.418594 -0.284999 0.729883 -2.17625 </weights>
                </Neuron>
                <Neuron id="10">
                    <weights>-0.574883 0.263198 1.47736 -0.299634 0.295722 -1.85249 0.87121 0.303964 0.970244 -2.00984 -0.214423 0.759559 -0.0326649 1.04929 0.209395 2.1414 1.0445 </weights>
                </Neuron>
                <Neuron id="11">
                    <weights>-1.21137 0.488047 0.465538 -0.0729898 1.09389 0.448305 0.065874 0.645296 -0.709376 0.215723 -0.0744154 0.747168 -1.25627 0.246147 -0.0325389 0.904586 -0.80667 </weights>
                </Neuron>
            </NeuronLayer>
            <NeuronLayer id="2">
                <Neuron id="0">
                    <weights>-0.984648 0.78631 -2.96233 -0.234037 0.390646 1.52586 0.214833 0.417761 0.289547 0.788731 1.1665 -1.4917 0.625107 </weights>
                </Neuron>
                <Neuron id="1">
                    <weights>1.07893 -2.23828 -0.534636 0.865009 0.119948 0.922765 -0.0248626 -0.651617 0.123867 0.107943 0.887107 2.09337 -1.76176 </weights>
                </Neuron>
                <Neuron id="2">
                    <weights>-0.696516 0.227553 -0.269841 -1.10753 -0.828184 -1.73582 -0.294167 -1.72911 -1.65086 0.980116 1.22106 -0.293758 -0.142742 </weights>
                </Neuron>
            </NeuronLayer>
        </NeuralNetwork>
    </Entity>
    <Entity type="Herbivore">
        <x>219.437</x>
        <y>477.69</y>
        <radius>9.2171</radius>
        <angle>-0.237703</angle>
        <maxSpeed>50</maxSpeed>
        <attack>2</attack>
        <energy>0</energy>
        <sex>true</sex>
        <mating>1640</mating>
        <age>4414</age>
        <hunger>357</hunger>
        <thirst>571</thirst>
        <health>1909</health>
        <NeuralNetwork>
            <NeuronLayer id="0">
                <inputsNum>16</inputsNum>
            </NeuronLayer>
            <NeuronLayer id="1">
                <Neuron id="0">
                    <weights>0.287273 0.282169 0.213032 0.394643 0.793602 0.618497 -2.55262 0.893505 -0.758486 0.160186 -0.00290698 1.36593 -2.34857 -2.05325 -1.63785 -2.02095 -0.145095 </weights>
                </Neuron>
                <Neuron id="1">
                    <weights>0.525157 0.783181 -0.199935 0.133058 1.3752 -0.336446 0.366843 -0.199855 -0.194041 -0.143604 0.600211 -0.969973 -0.309407 -0.750087 1.42516 -0.0710015 -0.558258 </weights>
                </Neuron>
                <Neuron id="2">
                    <weights>0.622796 -0.82239 -0.842187 0.279795 -2.19882 0.624968 -0.523226 -0.898862 -0.761761 0.713839 0.0529043 -0.315546 0.415315 -0.535144 -0.0623682 0.127293 1.04313 </weights>
                </Neuron>
                <Neuron id="3">
                    <weights>-0.975525 0.1602 -1.82467 0.631978 0.5658 -0.711853 -1.39659 1.19658 1.79247 0.875669 -0.175529 1.49832 0.134466 -0.793012 -0.177385 -0.198069 0.17356 </weights>
                </Neuron>
                <Neuron id="4">
                    <weights>0.147538 -0.986878 -0.659661 0.304114 0.847215 1.04095 0.414949 -0.286651 -0.184552 -0.08709 0.0887127 0.0982454 -0.227467 -0.632361 0.0805538 -0.369366 -1.16928 </weights>
                </Neuron>
                <Neuron id="5">
                    <weights>0.11288 -0.358489 -1.30304 -0.60852 0.54426 1.08893 -0.632276 -0.471243 0.885377 -0.493886 0.698338 0.0466192 -0.313995 0.180586 -0.411462 1.4438 0.702716 </weights>
                </Neuron>
                <Neuron id="6">
                    <weights>-0.0207041 -0.809259 -0.525295 -0.285172 -1.84435 -0.103576 -1.26291 0.0670633 -0.723051 -0.837195 0.603425 1.03744 0.291274 0.143777 -1.94633 1.27104 0.0751385 </weights>
                </Neuron>
                <Neuron id="7">
                    <weights>0.0922316 -1.0279 -0.471486 1.01668 0.14508 0.0731249 -0.673604 -0.975461 -0.885563 -0.253417 -0.180985 1.61588 -1.22138 -1.15708 1.04344 -0.0197444 0.99744 </weights>
                </Neuron>
                <Neuron id="8">
                    <weights>-0.839793 0.269511 -1.93411 0.430707 -0.295295 1.22323 -0.425933 -1.01827 0.0801016 0.00273791 0.597678 -1.02806 0.462238 0.646738 -1.17475 -1.76481 -1.29762 </weights>
                </Neuron>
                <Neuron id="9">
                    <weights>-1.5577 -1.15251 -0.808068 1.49251 -0.945476 1.02844 -0.00405803 0.450942 0.49014 0.149446 -1.61919 1.53986 0.884917 -0.418594 -0.284999 0.729883 -2.17625 </weights>
                </Neuron>
                <Neuron id="10">
                    <weights>-0.574883 0.263198 1.47736 -0.299634 0.295722 -1.85249 0.87121 0.303964 0.970244 -2.00984 -0.214423 0.759559 -0.0326649 1.04929 0.209395 2.1414 1.0445 </weights>
                </Neuron>
                <Neuron id="11">
                    <weights>-1.21137 0.488047 0.465538 -0.0729898 1.09389 0.448305 0.065874 0.645296 -0.709376 0.215723 -0.0744154 0.747168 -1.25627 0.246147 -0.0325389 0.904586 -0.80667 </weights>
                </Neuron>
            </NeuronLayer>
            <NeuronLayer id="2">
                <Neuron id="0">
                    <weights>-0.984648 0.78631 -2.96233 -0.234037 0.390646 1.52586 0.214833 0.417761 0.289547 0.788731 1.1665 -1.4917 0.625107 </weights>
                </Neuron>
                <Neuron id="1">
                    <weights>1.07893 -2.23828 -0.534636 0.865009 0.119948 0.922765 -0.0248626 -0.651617 0.123867 0.107943 0.887107 2.09337 -1.76176 </weights>
                </Neuron>
                <Neuron id="2">
                    <weights>-0.696516 0.227553 -0.269841 -1.10753 -0.828184 -1.73582 -0.294167 -1.72911 -1.65086 0.980116 1.22106 -0.293758 -0.142742 </weights>
                </Neuron>
            </NeuronLayer>
        </NeuralNetwork>
    </Entity>
    <Entity type="Herbivore">
        <x>75.394</x>
        <y>249.252</y>
        <radius>8.7824</radius>
        <angle>-2.21217</angle>
        <maxSpeed>50</maxSpeed>
        <attack>2</attack>
        <energy>0</energy>
        <sex>false</sex>
        <mating>1224</mating>
        <age>3919</age>
        <hunger>1311</hunger>
        <thirst>689</thirst>
        <health>5000</health>
        <NeuralNetwork>
            <NeuronLayer id="0">
                <inputsNum>16</inputsNum>
            </NeuronLayer>
            <NeuronLayer id="1">
                <Neuron id="0">
                    <weights>0.287273 0.282169 0.213032 0.394643 0.793602 0.618497 -2.55262 0.893505 -0.758486 0.160186 -0.00290698 1.36593 -2.34857 -2.05325 -1.63785 -2.02095 -0.145095 </weights>
                </Neuron>
                <Neuron id="1">
                    <weights>0.525157 0.783181 -0.199935 0.133058 1.3752 -0.336446 0.366843 -0.199855 -0.194041 -0.143604 0.600211 -0.969973 -0.309407 -0.750087 1.42516 -0.0710015 -0.558258 </weights>
                </Neuron>
                <Neuron id="2">
                    <weights>0.622796 -0.82239 -0.842187 0.279795 -2.19882 0.624968 -0.523226 -0.898862 -0.761761 0.713839 0.0529043 -0.315546 0.415315 -0.535144 -0.0623682 0.127293 1.04313 </weights>
                </Neuron>
                <Neuron id="3">
                    <weights>-0.975525 0.1602 -1.82467 0.631978 0.5658 -0.711853 -1.39659 1.19658 1.79247 0.875669 -0.175529 1.49832 0.134466 -0.793012 -0.177385 -0.198069 0.17356 </weights>
                </Neuron>
                <Neuron id="4">
                    <weights>1.8814 -1.51052 -0.185485 -1.41258 -0.887468 0.755239 0.552643 0.935747 1.30882 -0.442576 -0.462394 2.3404 0.0565496 -0.764946 -0.173514 0.685655 -1.39051 </weights>
                </Neuron>
                <Neuron id="5">
                    <weights>0.11288 -0.358489 -1.30304 -0.60852 0.54426 1.08893 -0.632276 -0.471243 0.885377 -0.493886 0.698338 0.0466192 -0.313995 0.180586 -0.411462 1.4438 0.702716 </weights>
                </Neuron>
                <Neuron id="6">
                    <weights>-0.0207041 -0.809259 -0.525295 -0.285172 -1.84435 -0.103576 -1.26291 0.0670633 -0.723051 -0.837195 0.603425 1.03744 0.291274 0.143777 -1.94633 1.27104 0.0751385 </weights>
                </Neuron>
                <Neuron id="7">
                    <weights>1.14503 -0.976926 0.239179 -0.0058511 -1.25421 -0.824351 0.904559 0.685404 -0.877194 -1.90713 -0.516457 1.77163 -1.29403 1.41797 0.178582 -0.365108 0.354428 </weights>
                </Neuron>
                <Neuron id="8">
                    <weights>-0.839793 0.269511 -1.93411 0.430707 -0.295295 1.22323 -0.425933 -1.01827 0.0801016 0.00273791 0.597678 -1.02806 0.462238 0.646738 -1.17475 -1.76481 -1.29762 </weights>
                </Neuron>
                <Neuron id="9">
                    <weights>-1.5577 -1.15251 -0.808068 1.49251 -0.945476 1.02844 -0.00405803 0.450942 0.49014 0.149446 -1.61919 1.53986 0.884917 -0.418594 -0.284999 0.729883 -2.17625 </weights>
                </Neuron>
                <Neuron id="10">
                    <weights>-0.574883 0.263198 1.47736 -0.299634 0.295722 -1.85249 0.87121 0.303964 0.970244 -2.00984 -0.214423 0.759559 -0.0326649 1.04929 0.209395 2.1414 1.0445 </weights>
                </Neuron>
                <Neuron id="11">
                    <weights>-1.21137 0.488047 0.465538 -0.0729898 1.09389 0.448305 0.065874 0.645296 -0.709376 0.215723 -0.0744154 0.747168 -1.25627 0.246147 -0.0325389 0.904586 -0.80667 </weights>
                </Neuron>
            </NeuronLayer>
            <NeuronLayer id="2">
                <Neuron id="0">
                    <weights>-0.984648 0.78631 -2.96233 -0.234037 0.390646 1.52586 0.214833 0.417761 0.289547 0.788731 1.1665 -1.4917 0.625107 </weights>
                </Neuron>
                <Neuron id="1">
                    <weights>1.07893 -2.23828 -0.534636 0.865009 0.119948 0.922765 -0.0248626 -0.651617 0.123867 0.107943 0.887107 2.09337 -1.76176 </weights>
                </Neuron>
                <Neuron id="2">
                    <weights>1.94686 0.139879 -0.475186 -0.217833 -0.978576 0.214272 0.0525946 -0.185505 -1.27003 -0.392036 0.710276 0.611299 -0.135219 </weights>
                </Neuron>
            </NeuronLayer>
        </NeuralNetwork>
    </Entity>
    <Entity type="Herbivore">
        <x>209.845</x>
        <y>175.945</y>
        <radius>9.0617</radius>
        <angle>-2.79262</angle>
        <maxSpeed>50</maxSpeed>
        <attack>2</attack>
        <energy>0</energy>
        <sex>false</sex>
        <mating>1244</mating>
        <age>3919</age>
        <hunger>380</hunger>
        <thirst>1598</thirst>
        <health>4902</health>
        <NeuralNetwork>
            <NeuronLayer id="0">
                <inputsNum>16</inputsNum>
            </NeuronLayer>
            <NeuronLayer id="1">
                <Neuron id="0">
                    <weights>0.287273 0.282169 0.213032 0.394643 0.793602 0.618497 -2.55262 0.893505 -0.758486 0.160186 -0.00290698 1.36593 -2.34857 -2.05325 -1.63785 -2.02095 -0.145095 </weights>
                </Neuron>
                <Neuron id="1">
                    <weights>0.525157 0.783181 -0.199935 0.133058 1.3752 -0.336446 0.366843 -0.199855 -0.194041 -0.143604 0.600211 -0.969973 -0.309407 -0.750087 1.42516 -0.0710015 -0.558258 </weights>
                </Neuron>
                <Neuron id="2">
                    <weights>0.622796 -0.82239 -0.842187 0.279795 -2.19882 0.624968 -0.523226 -0.898862 -0.761761 0.713839 0.0529043 -0.315546 0.415315 -0.535144 -0.0623682 0.127293 1.04313 </weights>
                </Neuron>
                <Neuron id="3">
                    <weights>-0.975525 0.1602 -1.82467 0.631978 0.5658 -0.711853 -1.39659 1.19658 1.79247 0.875669 -0.175529 1.49832 0.134466 -0.793012 -0.177385 -0.198069 0.17356 </weights>
                </Neuron>
                <Neuron id="4">
                    <weights>0.147538 -0.986878 -0.659661 0.304114 0.847215 1.04095 0.414949 -0.286651 -0.184552 -0.08709 0.0887127 0.0982454 -0.227467 -0.632361 0.0805538 -0.369366 -1.16928 </weights>
                </Neuron>
                <Neuron id="5">
                    <weights>0.11288 -0.358489 -1.30304 -0.60852 0.54426 1.08893 -0.632276 -0.471243 0.885377 -0.493886 0.698338 0.0466192 -0.313995 0.180586 -0.411462 1.4438 0.702716 </weights>
                </Neuron>
                <Neuron id="6">
                    <weights>-0.0207041 -0.809259 -0.525295 -0.285172 -1.84435 -0.103576 -1.26291 0.0670633 -0.723051 -0.837195 0.603425 1.03744 0.291274 0.143777 -1.94633 1.27104 0.0751385 </weights>
                </Neuron>
                <Neuron id="7">
                    <weights>1.14503 -0.976926 0.239179 -0.0058511 -1.25421 -0.824351 0.904559 0.685404 -0.877194 -1.90713 -0.516457 1.77163 -1.29403 1.41797 0.178582 -0.365108 0.354428 </weights>
                </Neuron>
                <Neuron id="8">
                    <weights>-0.839793 0.269511 -1.93411 0.430707 -0.295295 1.22323 -0.425933 -1.01827 0.0801016 0.00273791 0.597678 -1.02806 0.462238 0.646738 -1.17475 -1.76481 -1.29762 </weights>
                </Neuron>
                <Neuron id="9">
                    <weights>-1.5577 -1.15251 -0.808068 1.49251 -0.945476 1.02844 -0.00405803 0.450942 0.49014 0.149446 -1.61919 1.53986 0.884917 -0.418594 -0.284999 0.729883 -2.17625 </weights>
                </Neuron>
                <Neuron id="10">
                    <weights>-0.574883 0.263198 1.47736 -0.299634 0.295722 -1.85249 0.87121 0.303964 0.970244 -2.00984 -0.214423 0.759559 -0.0326649 1.04929 0.209395 2.1414 1.0445 </weights>
                </Neuron>
                <Neuron id="11">
                    <weights>-1.21137 0.488047 0.465538 -0.0729898 1.09389 0.448305 0.065874 0.645296 -0.709376 0.215723 -0.0744154 0.747168 -1.25627 0.246147 -0.0325389 0.904586 -0.80667 </weights>
                </Neuron>
            </NeuronLayer>
            <NeuronLayer id="2">
                <Neuron id="0">
                    <weights>-0.984648 0.78631 -2.96233 -0.234037 0.390646 1.52586 0.214833 0.417761 0.289547 0.788731 1.1665 -1.4917 0.625107 </weights>
                </Neuron>
                <Neuron id="1">
                    <weights>1.07893 -2.23828 -0.534636 0.865009 0.119948 0.922765 -0.0248626 -0.651617 0.123867 0.107943 0.887107 2.09337 -1.76176 </weights>
                </Neuron>
                <Neuron id="2">
                    <weights>1.94686 0.139879 -0.475186 -0.217833 -0.978576 0.214272 0.0525946 -0.185505 -1.27003 -0.392036 0.710276 0.611299 -0.135219 </weights>
                </Neuron>
            </NeuronLayer>
        </NeuralNetwork>
    </Entity>
    <Entity type="Herbivore">
        <x>457.199</x>
        <y>82.1256</y>
        <radius>8.9363</radius>
        <angle>0.413411</angle>
        <maxSpeed>50</maxSpeed>
        <attack>2</attack>
        <energy>0</energy>
        <sex>true</sex>
        <mating>1224</mating>
        <age>3919</age>
        <hunger>798</hunger>
        <thirst>1337</thirst>
        <health>5000</health>
        <NeuralNetwork>
            <NeuronLayer id="0">
                <inputsNum>16</inputsNum>
            </NeuronLayer>
            <NeuronLayer id="1">
                <Neuron id="0">
                    <weights>0.287273 0.282169 0.213032 0.394643 0.793602 0.618497 -2.55262 0.893505 -0.758486 0.160186 -0.00290698 1.36593 -2.34857 -2.05325 -1.63785 -2.02095 -0.145095 </weights>
                </Neuron>
                <Neuron id="1">
                    <weights>0.525157 0.783181 -0.199935 0.133058 1.3752 -0.336446 0.366843 -0.199855 -0.194041 -0.143604 0.600211 -0.969973 -0.309407 -0.750087 1.42516 -0.0710015 -0.558258 </weights>
                </Neuron>
                <Neuron id="2">
                    <weights>0.622796 -0.82239 -0.842187 0.279795 -2.19882 0.624968 -0.523226 -0.898862 -0.761761 0.713839 0.0529043 -0.315546 0.415315 -0.535144 -0.0623682 0.127293 1.04313 </weights>
                </Neuron>
                <Neuron id="3">
                    <weights>-0.975525 0.1602 -1.82467 0.631978 0.5658 -0.711853 -1.39659 1.19658 1.79247 0.875669 -0.175529 1.49832 0.134466 -0.793012 -0.177385 -0.198069 0.17356 </weights>
                </Neuron>
                <Neuron id="4">
                    <weights>1.8814 -1.51052 -0.185485 -1.41258 -0.887468 0.755239 0.552643 0.935747 1.30882 -0.442576 -0.462394 2.3404 0.0565496 -0.764946 -0.173514 0.685655 -1.39051 </weights>
                </Neuron>
                <Neuron id="5">
                    <weights>0.11288 -0.358489 -1.30304 -0.60852 0.54426 1.08893 -0.632276 -0.471243 0.885377 -0.493886 0.698338 0.0466192 -0.313995 0.180586 -0.411462 1.4438 0.702716 </weights>
                </Neuron>
                <Neuron id="6">
                    <weights>-0.0207041 -0.809259 -0.525295 -0.285172 -1.84435 -0.103576 -1.26291 0.0670633 -0.723051 -0.837195 0.603425 1.03744 0.291274 0.143777 -1.94633 1.27104 0.0751385 </weights>
                </Neuron>
                <Neuron id="7">
                    <weights>1.14503 -0.976926 0.239179 -0.0058511 -1.25421 -0.824351 0.904559 0.685404 -0.877194 -1.90713 -0.516457 1.77163 -1.29403 1.41797 0.178582 -0.365108 0.354428 </weights>
                </Neuron>
                <Neuron id="8">
                    <weights>-0.839793 0.269511 -1.93411 0.430707 -0.295295 1.22323 -0.425933 -1.01827 0.0801016 0.00273791 0.597678 -1.02806 0.462238 0.646738 -1.17475 -1.76481 -1.29762 </weights>
                </Neuron>
                <Neuron id="9">
                    <weights>-1.5577 -1.15251 -0.808068 1.49251 -0.945476 1.02844 -0.00405803 0.450942 0.49014 0.149446 -1.61919 1.53986 0.884917 -0.418594 -0.284999 0.729883 -2.17625 </weights>
                </Neuron>
                <Neuron id="10">
                    <weights>-0.574883 0.263198 1.47736 -0.299634 0.295722 -1.85249 0.87121 0.303964 0.970244 -2.00984 -0.214423 0.759559 -0.0326649 1.04929 0.209395 2.1414 1.0445 </weights>
                </Neuron>
                <Neuron id="11">
                    <weights>-1.21137 0.488047 0.465538 -0.0729898 1.09389 0.448305 0.065874 0.645296 -0.709376 0.215723 -0.0744154 0.747168 -1.25627 0.246147 -0.0325389 0.904586 -0.80667 </weights>
                </Neuron>
            </NeuronLayer>
            <NeuronLayer id="2">
                <Neuron id="0">
                    <weights>-0.984648 0.78631 -2.96233 -0.234037 0.390646 1.52586 0.214833 0.417761 0.289547 0.788731 1.1665 -1.4917 0.625107 </weights>
                </Neuron>
                <Neuron id="1">
                    <weights>1.07893 -2.23828 -0.534636 0.865009 0.119948 0.922765 -0.0248626 -0.651617 0.123867 0.107943 0.887107 2.09337 -1.76176 </weights>
                </Neuron>
                <Neuron id="2">
                    <weights>1.94686 0.139879 -0.475186 -0.217833 -0.978576 0.214272 0.0525946 -0.185505 -1.27003 -0.392036 0.710276 0.611299 -0.135219 </weights>
                </Neuron>
            </NeuronLayer>
        </NeuralNetwork>
    </Entity>
    <Entity type="Herbivore">
        <x>289.443</x>
        <y>79.9928</y>
        <radius>8.7668</radius>
        <angle>-0.59902</angle>
        <maxSpeed>50</maxSpeed>
        <attack>2</attack>
        <energy>0</energy>
        <sex>false</sex>
        <mating>1165</mating>
        <age>3919</age>
        <hunger>1363</hunger>
        <thirst>1481</thirst>
        <health>5000</health>
        <NeuralNetwork>
            <NeuronLayer id="0">
                <inputsNum>16</inputsNum>
            </NeuronLayer>
            <NeuronLayer id="1">
                <Neuron id="0">
                    <weights>0.287273 0.282169 0.213032 0.394643 0.793602 0.618497 -2.55262 0.893505 -0.758486 0.160186 -0.00290698 1.36593 -2.34857 -2.05325 -1.63785 -2.02095 -0.145095 </weights>
                </Neuron>
                <Neuron id="1">
                    <weights>0.525157 0.783181 -0.199935 0.133058 1.3752 -0.336446 0.366843 -0.199855 -0.194041 -0.143604 0.600211 -0.969973 -0.309407 -0.750087 1.42516 -0.0710015 -0.558258 </weights>
                </Neuron>
                <Neuron id="2">
                    <weights>0.622796 -0.82239 -0.842187 0.279795 -2.19882 0.624968 -0.523226 -0.898862 -0.761761 0.713839 0.0529043 -0.315546 0.415315 -0.535144 -0.0623682 0.127293 1.04313 </weights>
                </Neuron>
                <Neuron id="3">
                    <weights>-0.975525 0.1602 -1.82467 0.631978 0.5658 -0.711853 -1.39659 1.19658 1.79247 0.875669 -0.175529 1.49832 0.134466 -0.793012 -0.177385 -0.198069 0.17356 </weights>
                </Neuron>
                <Neuron id="4">
                    <weights>0.147538 -0.986878 -0.659661 0.304114 0.847215 1.04095 0.414949 -0.286651 -0.184552 -0.08709 0.0887127 0.0982454 -0.227467 -0.632361 0.0805538 -0.369366 -1.16928 </weights>
                </Neuron>
                <Neuron id="5">
                    <weights>0.11288 -0.358489 -1.30304 -0.60852 0.54426 1.08893 -0.632276 -0.471243 0.885377 -0.493886 0.698338 0.0466192 -0.313995 0.180586 -0.411462 1.4438 0.702716 </weights>
                </Neuron>
                <Neuron id="6">
                    <weights>-0.0207041 -0.809259 -0.525295 -0.285172 -1.84435 -0.103576 -1.26291 0.0670633 -0.723051 -0.837195 0.603425 1.03744 0.291274 0.143777 -1.94633 1.27104 0.0751385 </weights>
                </Neuron>
                <Neuron id="7">
                    <weights>1.14503 -0.976926 0.239179 -0.0058511 -1.25421 -0.824351 0.904559 0.685404 -0.877194 -1.90713 -0.516457 1.77163 -1.29403 1.41797 0.178582 -0.365108 0.354428 </weights>
                </Neuron>
                <Neuron id="8">
                    <weights>-0.839793 0.269511 -1.93411 0.430707 -0.295295 1.22323 -0.425933 -1.01827 0.0801016 0.00273791 0.597678 -1.02806 0.462238 0.646738 -1.17475 -1.76481 -1.29762 </weights>
                </Neuron>
                <Neuron id="9">
                    <weights>-1.5577 -1.15251 -0.808068 1.49251 -0.945476 1.02844 -0.00405803 0.450942 0.49014 0.149446 -1.61919 1.53986 0.884917 -0.418594 -0.284999 0.729883 -2.17625 </weights>
                </Neuron>
                <Neuron id="10">
                    <weights>-0.574883 0.263198 1.47736 -0.299634 0.295722 -1.85249 0.87121 0.303964 0.970244 -2.00984 -0.214423 0.759559 -0.0326649 1.04929 0.209395 2.1414 1.0445 </weights>
                </Neuron>
                <Neuron id="11">
                    <weights>-1.21137 0.488047 0.465538 -0.0729898 1.09389 0.448305 0.065874 0.645296 -0.709376 0.215723 -0.0744154 0.747168 -1.25627 0.246147 -0.0325389 0.904586 -0.80667 </weights>
                </Neuron>
            </NeuronLayer>
            <NeuronLayer id="2">
                <Neuron id="0">
                    <weights>-0.984648 0.78631 -2.96233 -0.234037 0.390646 1.52586 0.214833 0.417761 0.289547 0.788731 1.1665 -1.4917 0.625107 </weights>
                </Neuron>
                <Neuron id="1">
                    <weights>1.07893 -2.23828 -0.534636 0.865009 0.119948 0.922765 -0.0248626 -0.651617 0.123867 0.107943 0.887107 2.09337 -1.76176 </weights>
                </Neuron>
                <Neuron id="2">
                    <weights>1.94686 0.139879 -0.475186 -0.217833 -0.978576 0.214272 0.0525946 -0.185505 -1.27003 -0.392036 0.710276 0.611299 -0.135219 </weights>
                </Neuron>
            </NeuronLayer>
        </NeuralNetwork>
    </Entity>
    <Entity type="Herbivore">
        <x>351.453</x>
        <y>132.077</y>
        <radius>9.1289</radius>
        <angle>-3.11559</angle>
        <maxSpeed>50</maxSpeed>
        <attack>2</attack>
        <energy>2</energy>
        <sex>true</sex>
        <mating>621</mating>
        <age>3764</age>
        <hunger>1</hunger>
        <thirst>913</thirst>
        <health>5000</health>
        <NeuralNetwork>
            <NeuronLayer id="0">
                <inputsNum>16</inputsNum>
            </NeuronLayer>
            <NeuronLayer id="1">
                <Neuron id="0">
                    <weights>0.287273 0.282169 0.213032 0.394643 0.793602 0.618497 -2.55262 0.893505 -0.758486 0.160186 -0.00290698 1.36593 -2.34857 -2.05325 -1.63785 -2.02095 -0.145095 </weights>
                </Neuron>
                <Neuron id="1">
                    <weights>0.525157 0.783181 -0.199935 0.133058 1.3752 -0.336446 0.366843 -0.199855 -0.194041 -0.143604 0.600211 -0.969973 -0.309407 -0.750087 1.42516 -0.0710015 -0.558258 </weights>
                </Neuron>
                <Neuron id="2">
                    <weights>-1.56378 0.769827 -0.557701 -0.594183 -0.704297 1.13201 -0.0170093 0.817508 -1.19543 1.19673 -1.04613 -1.1193 -0.80451 -0.9901 -0.24089 0.952699 0.779168 </weights>
                </Neuron>
                <Neuron id="3">
                    <weights>-0.975525 0.1602 -1.82467 0.631978 0.5658 -0.711853 -1.39659 1.19658 1.79247 0.875669 -0.175529 1.49832 0.134466 -0.793012 -0.177385 -0.198069 0.17356 </weights>
                </Neuron>
                <Neuron id="4">
                    <weights>0.147538 -0.986878 -0.659661 0.304114 0.847215 1.04095 0.414949 -0.286651 -0.184552 -0.08709 0.0887127 0.0982454 -0.227467 -0.632361 0.0805538 -0.369366 -1.16928 </weights>
                </Neuron>
                <Neuron id="5">
                    <weights>0.11288 -0.358489 -1.30304 -0.60852 0.54426 1.08893 -0.632276 -0.471243 0.885377 -0.493886 0.698338 0.0466192 -0.313995 0.180586 -0.411462 1.4438 0.702716 </weights>
                </Neuron>
                <Neuron id="6">
                    <weights>-0.0207041 -0.809259 -0.525295 -0.285172 -1.84435 -0.103576 -1.26291 0.0670633 -0.723051 -0.837195 0.603425 1.03744 0.291274 0.143777 -1.94633 1.27104 0.0751385 </weights>
                </Neuron>
                <Neuron id="7">
                    <weights>0.0922316 -1.0279 -0.471486 1.01668 0.14508 0.0731249 -0.673604 -0.975461 -0.885563 -0.253417 -0.180985 1.61588 -1.22138 -1.15708 1.04344 -0.0197444 0.99744 </weights>
                </Neuron>
                <Neuron id="8">
                    <weights>-1.44689 -0.352533 -1.08589 1.25979 0.582235 1.07917 -1.16421 -0.406282 -0.363541 0.0334271 -1.52877 -1.10664 -0.18368 1.33521 -2.65897 0.861709 -1.202 </weights>
                </Neuron>
                <Neuron id="9">
                    <weights>-1.5577 -1.15251 -0.808068 1.49251 -0.945476 1.02844 -0.00405803 0.450942 0.49014 0.149446 -1.61919 1.53986 0.884917 -0.418594 -0.284999 0.729883 -2.17625 </weights>
                </Neuron>
                <Neuron id="10">
                    <weights>-0.574883 0.263198 1.47736 -0.299634 0.295722 -1.85249 0.87121 0.303964 0.970244 -2.00984 -0.214423 0.759559 -0.0326649 1.04929 0.209395 2.1414 1.0445 </weights>
                </Neuron>
                <Neuron id="11">
                    <weights>-1.21137 0.488047 0.465538 -0.0729898 1.09389 0.448305 0.065874 0.645296 -0.709376 0.215723 -0.0744154 0.747168 -1.25627 0.246147 -0.0325389 0.904586 -0.80667 </weights>
                </Neuron>
            </NeuronLayer>
            <NeuronLayer id="2">
                <Neuron id="0">
                    <weights>0.248319 -0.456097 -0.614482 -0.0370368 -0.149318 2.04733 0.442138 0.292237 -0.00312563 0.558005 -0.600346 0.670264 -0.0925976 </weights>
                </Neuron>
                <Neuron id="1">
                    <weights>1.81125 -0.0775803 0.0572595 1.26213 -1.79211 0.764897 1.54289 -0.100801 0.0270109 -0.910765 -0.0195282 0.685173 -2.30515 </weights>
                </Neuron>
                <Neuron id="2">
                    <weights>1.94686 0.139879 -0.475186 -0.217833 -0.978576 0.214272 0.0525946 -0.185505 -1.27003 -0.392036 0.710276 0.611299 -0.135219 </weights>
                </Neuron>
            </NeuronLayer>
        </NeuralNetwork>
    </Entity>
    <Entity type="Herbivore">
        <x>196.525</x>
        <y>213.18</y>
        <radius>9.0836</radius>
        <angle>2.05699</angle>
        <maxSpeed>50</maxSpeed>
        <attack>2</attack>
        <energy>0</energy>
        <sex>false</sex>
        <mating>740</mating>
        <age>3764</age>
        <hunger>152</hunger>
        <thirst>1374</thirst>
        <health>5000</health>
        <NeuralNetwork>
            <NeuronLayer id="0">
                <inputsNum>16</inputsNum>
            </NeuronLayer>
            <NeuronLayer id="1">
