<?xml version="1.0" encoding="UTF-8"?>
<NeuralNetwork>
    <NeuronLayer id="0">
        <inputsNum>15</inputsNum>
    </NeuronLayer>
    <NeuronLayer id="1">
        <Neuron id="0">
            <weights>1.1178 -1.37695 -1.32297 -1.13938 1.31107 -2.08545 0.742205 -0.734298 -0.230758 -0.758189 0.401819 -1.32889 -0.782596 0.200105 -0.747976 0.00122285 </weights>
        </Neuron>
        <Neuron id="1">
            <weights>0.130107 -0.969907 0.573996 -0.885565 0.563003 2.02473 0.541197 -0.766265 -0.946404 -1.23637 -0.410142 0.0761502 -0.864101 1.05011 0.172841 0.205143 </weights>
        </Neuron>
        <Neuron id="2">
            <weights>1.32365 0.239388 0.530319 0.185795 -0.524332 1.33633 -1.32488 0.116772 -0.266973 -0.568362 -1.68408 1.26485 -1.0578 -0.403912 1.86872 -0.645502 </weights>
        </Neuron>
        <Neuron id="3">
            <weights>1.0509 1.30207 -0.594778 -0.249236 0.780183 0.424689 0.468669 -1.17279 -0.474487 -0.414921 -0.972317 0.020976 0.563942 0.158731 0.277165 2.43543 </weights>
        </Neuron>
        <Neuron id="4">
            <weights>0.110132 0.489289 1.21425 -1.34305 0.516415 -0.0155935 -0.349743 1.79252 1.18369 2.15542 0.871205 0.489567 -1.38593 0.923924 -0.362929 1.78576 </weights>
        </Neuron>
        <Neuron id="5">
            <weights>-0.143151 -2.02528 -0.291356 1.75057 -0.325605 -0.50761 1.41449 -0.836096 -0.172947 -0.137839 -0.0561291 -0.423752 -0.168752 0.165774 0.572216 -1.10138 </weights>
        </Neuron>
        <Neuron id="6">
            <weights>-0.159996 0.15781 1.32711 -0.114689 -1.11296 0.969686 -2.13722 0.290971 0.870417 0.96114 -0.681149 -0.571794 0.805482 0.112644 0.50603 0.22996 </weights>
        </Neuron>
        <Neuron id="7">
            <weights>-1.46055 1.14734 0.194174 -1.08777 0.251692 1.80327 0.448662 1.16995 0.571736 -0.386427 1.2642 0.730473 0.76339 -0.761188 -0.131637 0.99204 </weights>
        </Neuron>
        <Neuron id="8">
            <weights>0.611398 1.36712 0.542221 0.609843 0.828316 0.407617 -0.425053 0.268768 0.201286 0.821487 0.40249 0.322539 -1.01024 -0.649335 -0.874972 -1.83194 </weights>
        </Neuron>
        <Neuron id="9">
            <weights>-0.0297822 -0.0601941 -0.315519 0.704411 0.210759 0.992272 -0.718732 -2.02098 0.0670169 -0.0330527 -0.545558 -1.58705 -1.15676 0.220284 -0.00916486 1.04541 </weights>
        </Neuron>
        <Neuron id="10">
            <weights>0.381552 -0.70543 -1.13264 -0.48227 -0.852407 -1.42093 0.0359002 -0.544194 -1.27461 -1.46287 -0.876564 0.581508 1.22346 -0.0823853 2.25225 1.34734 </weights>
        </Neuron>
        <Neuron id="11">
            <weights>-0.88621 -0.317489 1.07905 -2.62803 -0.392544 -0.00864571 0.374265 -0.88499 0.11794 1.3577 -1.16348 -1.40658 1.18501 -0.0275278 -0.322777 0.0897049 </weights>
        </Neuron>
    </NeuronLayer>
    <NeuronLayer id="2">
        <Neuron id="0">
            <weights>-1.12751 0.235101 0.0865016 0.664954 -0.548984 0.329199 -0.331947 0.954369 0.235939 0.724775 -0.335161 1.23772 0.579395 </weights>
        </Neuron>
        <Neuron id="1">
            <weights>-0.823712 0.155285 -0.0746649 -0.922014 -0.895266 0.905161 -1.14755 1.80826 0.652763 -1.19801 -1.04749 0.0744961 0.0106867 </weights>
        </Neuron>
        <Neuron id="2">
            <weights>0.403288 -0.492107 0.469178 -0.907802 -0.793219 -1.1509 -0.0115934 -1.10904 0.456388 0.416955 -0.21329 -1.03489 -1.7113 </weights>
        </Neuron>
    </NeuronLayer>
</NeuralNetwork>
