<?xml version="1.0" encoding="UTF-8"?>
<World>
    <x>500</x>
    <y>500</y>
    <age>0</age>
    <Entity type="Vegetal">
        <x>350</x>
        <y>400</y>
        <radius>50</radius>
        <quantity>5000</quantity>
        <maxQuantity>5000</maxQuantity>
    </Entity>
    <Entity type="Vegetal">
        <x>400</x>
        <y>100</y>
        <radius>50</radius>
        <quantity>4999</quantity>
        <maxQuantity>5000</maxQuantity>
    </Entity>
    <Entity type="Vegetal">
        <x>200</x>
        <y>10</y>
        <radius>50</radius>
        <quantity>4999</quantity>
        <maxQuantity>5000</maxQuantity>
    </Entity>
    <Entity type="Vegetal">
        <x>380</x>
        <y>460</y>
        <radius>50</radius>
        <quantity>5000</quantity>
        <maxQuantity>5000</maxQuantity>
    </Entity>
    <Entity type="Vegetal">
        <x>100</x>
        <y>200</y>
        <radius>50</radius>
        <quantity>5000</quantity>
        <maxQuantity>5000</maxQuantity>
    </Entity>
    <Entity type="Vegetal">
        <x>220</x>
        <y>280</y>
        <radius>50</radius>
        <quantity>4999</quantity>
        <maxQuantity>5000</maxQuantity>
    </Entity>
    <Entity type="Vegetal">
        <x>250</x>
        <y>180</y>
        <radius>50</radius>
        <quantity>4917</quantity>
        <maxQuantity>5000</maxQuantity>
    </Entity>
    <Entity type="Water">
        <x>100</x>
        <y>300</y>
        <radius>20</radius>
        <quantity>5000</quantity>
        <maxQuantity>5000</maxQuantity>
    </Entity>
    <Entity type="Water">
        <x>400</x>
        <y>250</y>
        <radius>50</radius>
        <quantity>5000</quantity>
        <maxQuantity>5000</maxQuantity>
    </Entity>
    <Entity type="Water">
        <x>450</x>
        <y>25</y>
        <radius>20</radius>
        <quantity>4999</quantity>
        <maxQuantity>5000</maxQuantity>
    </Entity>
    <Entity type="Water">
        <x>100</x>
        <y>420</y>
        <radius>50</radius>
        <quantity>4965</quantity>
        <maxQuantity>5000</maxQuantity>
    </Entity>
    <Entity type="Water">
        <x>70</x>
        <y>70</y>
        <radius>50</radius>
        <quantity>4997</quantity>
        <maxQuantity>5000</maxQuantity>
    </Entity>
    <Entity type="Water">
        <x>25</x>
        <y>370</y>
        <radius>20</radius>
        <quantity>5000</quantity>
        <maxQuantity>5000</maxQuantity>
    </Entity>
    <Entity type="Water">
        <x>300</x>
        <y>70</y>
        <radius>30</radius>
        <quantity>5000</quantity>
        <maxQuantity>5000</maxQuantity>
    </Entity>
    <Entity type="Water">
        <x>200</x>
        <y>400</y>
        <radius>40</radius>
        <quantity>4999</quantity>
        <maxQuantity>5000</maxQuantity>
    </Entity>
    <Entity type="Herbivore">
        <x>392.728</x>
        <y>158.47</y>
        <radius>8.0306</radius>
        <angle>0.338629</angle>
        <maxSpeed>50</maxSpeed>
        <attack>20</attack>
        <energy>2</energy>
        <sex>false</sex>
        <mating>208</mating>
        <age>226</age>
        <hunger>124</hunger>
        <thirst>226</thirst>
        <health>5000</health>
        <NeuralNetwork>
            <NeuronLayer id="0">
                <inputsNum>16</inputsNum>
            </NeuronLayer>
            <NeuronLayer id="1">
                <Neuron id="0">
                    <weights>0.414089 0.413464 1.46929 -0.218056 -0.432501 -0.666948 -0.964318 0.261086 -0.147984 1.00265 -0.424289 0.442498 0.6085 1.25 -0.656892 0.632953 -0.928483 </weights>
                </Neuron>
                <Neuron id="1">
                    <weights>0.962175 -0.241182 0.722084 1.23199 -1.86997 -0.0401601 1.6726 -0.330709 0.276459 0.972051 -0.00434804 -0.137885 1.01744 -0.873812 0.113566 -0.500653 0.0858471 </weights>
                </Neuron>
                <Neuron id="2">
                    <weights>-0.388172 -0.716574 -1.49421 -1.03243 0.569057 0.466677 0.269161 -1.29697 1.16809 -1.17558 -1.86436 0.518644 -0.847895 -0.492612 -1.06888 -0.786709 1.01343 </weights>
                </Neuron>
                <Neuron id="3">
                    <weights>0.458626 -0.673392 -1.21231 0.736025 -1.67981 -1.92559 0.469752 0.0397483 0.148896 -1.0033 -0.584105 0.950894 1.20325 0.115145 0.123834 1.09162 0.580368 </weights>
                </Neuron>
                <Neuron id="4">
                    <weights>-2.08678 0.537971 -2.15251 0.35503 -0.160829 -0.689509 0.642217 -0.184456 -1.052 1.58228 0.46054 0.351465 -0.783094 -0.655457 -0.622763 -0.296808 -0.423899 </weights>
                </Neuron>
                <Neuron id="5">
                    <weights>-1.08673 -2.48824 1.82659 0.0998266 0.854622 1.06181 0.185381 -0.525649 0.0299071 -0.499146 -0.171529 1.43265 -1.99285 0.00866862 -1.23447 2.0569 0.79586 </weights>
                </Neuron>
                <Neuron id="6">
                    <weights>1.05721 -0.224357 0.473263 1.10833 -0.905317 0.0278928 0.727721 0.614476 2.31567 -0.272019 1.04879 -0.775222 -2.33271 0.244731 0.758661 0.1225 0.0293595 </weights>
                </Neuron>
                <Neuron id="7">
                    <weights>0.363103 -0.686453 0.249169 0.0550799 -0.837131 -0.456586 -0.119293 -1.70549 -1.14093 -1.2988 -1.18582 -0.339409 1.08401 -0.632988 0.590976 -1.48913 0.753296 </weights>
                </Neuron>
                <Neuron id="8">
                    <weights>0.67636 -1.19292 0.253345 -0.90228 -0.237214 0.389737 0.326033 0.685406 -2.20471 -0.319605 0.560492 2.33803 1.12788 -0.091873 -0.374526 -0.084131 0.403837 </weights>
                </Neuron>
                <Neuron id="9">
                    <weights>0.423931 -0.892041 -0.225653 -0.57099 -0.821727 1.08497 -1.38412 -0.478233 2.39534 1.0623 0.122184 0.831649 0.37617 1.10002 0.502791 -2.34038 0.937952 </weights>
                </Neuron>
                <Neuron id="10">
                    <weights>1.22195 -0.485542 1.36963 0.339102 -0.91116 0.42216 -1.00549 -0.466675 -0.270752 0.166539 -0.909079 -0.440174 -0.840993 -1.10534 0.352028 -1.20244 -3.27317 </weights>
                </Neuron>
                <Neuron id="11">
                    <weights>-1.13377 -0.0943274 -0.650527 -0.959104 1.63928 1.16994 0.224895 -0.295505 -0.943937 0.334228 0.276299 -1.11914 -1.0909 2.40821 0.938859 -0.581772 0.889684 </weights>
                </Neuron>
            </NeuronLayer>
            <NeuronLayer id="2">
                <Neuron id="0">
                    <weights>-0.614596 0.499337 1.01117 -0.0333391 0.504306 1.27763 -0.431455 0.0420838 -0.485223 0.708191 0.570306 0.555987 -0.568447 </weights>
                </Neuron>
                <Neuron id="1">
                    <weights>2.04714 -0.299121 1.76167 -0.932939 -2.61375 -0.117787 -0.699619 0.32048 0.898303 -0.881727 0.380214 0.254345 0.421716 </weights>
                </Neuron>
                <Neuron id="2">
                    <weights>-0.839757 1.1785 0.131384 1.36085 -0.0570283 -1.79709 2.17512 -1.25374 -0.116678 0.543481 -1.34257 -1.18208 -0.727054 </weights>
                </Neuron>
            </NeuronLayer>
        </NeuralNetwork>
    </Entity>
    <Entity type="Herbivore">
        <x>262.548</x>
        <y>199.328</y>
        <radius>8.0612</radius>
        <angle>0.502483</angle>
        <maxSpeed>50</maxSpeed>
        <attack>20</attack>
        <energy>0</energy>
        <sex>false</sex>
        <mating>2500</mating>
        <age>226</age>
        <hunger>22</hunger>
        <thirst>226</thirst>
        <health>4510</health>
        <NeuralNetwork>
            <NeuronLayer id="0">
                <inputsNum>16</inputsNum>
            </NeuronLayer>
            <NeuronLayer id="1">
                <Neuron id="0">
                    <weights>-0.906987 0.643483 0.139798 -1.08547 0.367705 -0.294679 -0.631286 -1.13081 -0.911405 -1.94727 -0.183128 -1.2495 -0.574015 0.183403 1.03267 0.576542 0.103392 </weights>
                </Neuron>
                <Neuron id="1">
                    <weights>0.226336 1.25321 1.01729 0.77881 -0.912996 2.28757 0.046961 -1.96323 1.57678 0.0192828 0.903505 -1.2794 -1.34028 -0.321044 0.925564 0.424798 -0.1833 </weights>
                </Neuron>
                <Neuron id="2">
                    <weights>-1.22379 -0.360828 -0.576374 -0.410207 -0.720283 -0.748088 -0.563603 -0.105531 -1.529 -1.31596 -0.485583 -0.587695 -0.22881 1.2993 -0.152511 -0.77596 -1.82922 </weights>
                </Neuron>
                <Neuron id="3">
                    <weights>-0.686427 1.3026 -0.131208 -0.889561 2.15308 -1.7798 -0.197942 -0.554767 0.107247 1.67539 -0.209438 0.874793 -1.23887 1.19251 -1.60875 0.959694 0.21109 </weights>
                </Neuron>
                <Neuron id="4">
                    <weights>1.25211 0.5443 0.328239 -1.01065 0.841593 0.452062 0.768385 0.628405 0.72999 -0.81786 -2.00761 0.960672 -0.0591332 0.778226 -0.0808416 -1.38584 0.541177 </weights>
                </Neuron>
                <Neuron id="5">
                    <weights>-1.47424 0.8124 0.245313 1.2205 0.215248 -0.21043 -1.3028 -0.000247801 -0.193278 -0.25242 0.301041 0.801672 -1.42435 -0.792494 0.156413 -0.974743 0.31576 </weights>
                </Neuron>
                <Neuron id="6">
                    <weights>-1.06478 1.92362 -0.105285 -1.58161 -0.768563 -0.276213 -1.94239 0.178312 -0.421897 -1.48671 1.83375 -0.444842 0.760842 -1.6187 0.0729802 1.00372 -0.838994 </weights>
                </Neuron>
                <Neuron id="7">
                    <weights>1.18112 -0.410141 0.473529 -0.147718 -0.0961994 -0.877697 -0.576404 -0.044053 0.196658 -0.421782 1.88855 -0.2639 1.20237 0.640098 0.512678 0.688093 -1.14171 </weights>
                </Neuron>
                <Neuron id="8">
                    <weights>-0.669809 0.370305 -1.16227 0.385526 -1.50742 0.122292 1.63571 0.714591 0.127563 -0.975772 2.02476 -0.614862 0.621963 0.486505 -0.429041 0.173287 0.204328 </weights>
                </Neuron>
                <Neuron id="9">
                    <weights>-1.11466 1.20501 1.45698 1.0711 -0.86586 1.17471 0.285664 1.20931 -1.04217 0.168806 -0.745422 0.620681 -0.145899 -0.374525 -1.79992 -0.190554 0.265719 </weights>
                </Neuron>
                <Neuron id="10">
                    <weights>-0.339426 -1.83237 0.229807 1.05497 1.09619 -0.97933 -0.532774 1.37515 2.87305 -0.615561 -0.434531 0.303273 0.525248 -0.394548 0.923813 -0.508024 -1.52906 </weights>
                </Neuron>
                <Neuron id="11">
                    <weights>-0.639473 0.0991407 0.248826 0.795119 0.989652 -0.071545 0.279077 0.0834712 -0.717132 1.10762 -0.280633 -0.00705032 -0.169245 1.05164 -1.54696 0.0454407 0.261176 </weights>
                </Neuron>
            </NeuronLayer>
            <NeuronLayer id="2">
                <Neuron id="0">
                    <weights>-0.586292 -0.342114 -0.0224288 -1.1941 -1.35036 -0.465826 -1.9044 -0.767549 0.410739 -0.144705 -0.449902 1.0804 -0.395036 </weights>
                </Neuron>
                <Neuron id="1">
                    <weights>0.625395 1.16488 -1.08286 2.20722 -0.194384 0.608268 0.20238 1.12545 -2.34786 0.460915 -1.91856 -0.311768 -1.14747 </weights>
                </Neuron>
                <Neuron id="2">
                    <weights>-1.1603 -0.370441 0.0386839 -1.77265 0.508799 -0.0904171 -0.802274 0.261088 -2.22558 0.133226 -0.905759 -0.854279 1.00572 </weights>
                </Neuron>
            </NeuronLayer>
        </NeuralNetwork>
    </Entity>
    <Entity type="Herbivore">
        <x>381.745</x>
        <y>68.7064</y>
        <radius>8.0132</radius>
        <angle>-0.896669</angle>
        <maxSpeed>50</maxSpeed>
        <attack>20</attack>
        <energy>0</energy>
        <sex>false</sex>
        <mating>143</mating>
        <age>226</age>
        <hunger>182</hunger>
        <thirst>226</thirst>
        <health>5000</health>
        <NeuralNetwork>
            <NeuronLayer id="0">
                <inputsNum>16</inputsNum>
            </NeuronLayer>
            <NeuronLayer id="1">
                <Neuron id="0">
                    <weights>-1.46671 0.620557 -2.01459 1.16345 -1.30715 1.14004 -0.282795 -0.0432173 1.09948 0.809553 -0.577838 0.612289 -1.00022 -0.720229 -0.829522 0.275811 -2.47977 </weights>
                </Neuron>
                <Neuron id="1">
                    <weights>-0.183143 1.10277 1.11477 -1.07474 1.54079 -0.162114 -1.08225 0.725756 -0.226242 2.61937 0.291626 -0.516913 -0.0935083 -0.58754 1.37122 -0.706332 -0.166894 </weights>
                </Neuron>
                <Neuron id="2">
                    <weights>0.328978 -0.120531 0.500854 -0.687451 0.985999 -0.0274501 -0.49827 -0.976563 0.260571 -0.637302 -0.51558 -0.587848 -0.150403 -0.231709 -0.727594 -0.00455019 1.0493 </weights>
                </Neuron>
                <Neuron id="3">
                    <weights>-1.18849 0.57143 -0.125492 0.741509 -0.40314 -0.919883 0.653183 0.198001 0.847097 -0.236913 -0.712115 -0.154611 0.781658 -0.764808 -0.804721 1.09282 -0.105514 </weights>
                </Neuron>
                <Neuron id="4">
                    <weights>-0.525249 -1.17364 0.860328 1.82008 1.24147 -0.565808 0.982326 1.52399 0.143005 -2.00735 1.5471 -0.398053 0.112247 0.621118 1.34575 0.725947 0.670778 </weights>
                </Neuron>
                <Neuron id="5">
                    <weights>-2.50433 1.31015 2.53673 0.172774 1.43551 2.28949 -0.0803767 -0.279356 -0.358367 0.482196 -2.04089 1.16192 0.334336 -0.326468 0.719247 0.125104 -0.777047 </weights>
                </Neuron>
                <Neuron id="6">
                    <weights>1.25354 0.19845 0.2201 -0.391138 0.678878 -0.664572 -0.988854 1.16565 0.358089 0.451655 0.272121 1.03783 0.77886 1.45639 -0.93507 0.070783 -0.823241 </weights>
                </Neuron>
                <Neuron id="7">
                    <weights>2.06108 -0.462138 -0.606523 -0.188824 0.0712224 0.652648 0.62773 -0.813613 0.441518 -0.303757 -0.583946 -1.55518 -0.171288 -0.272054 1.43574 -0.108821 0.234038 </weights>
                </Neuron>
                <Neuron id="8">
                    <weights>1.15432 -0.00433146 -2.15957 -0.299979 0.931873 0.0917314 -1.59062 2.08814 -0.106382 0.701515 -1.27406 -1.43686 1.00391 -0.313286 -1.95509 0.751643 0.183766 </weights>
                </Neuron>
                <Neuron id="9">
                    <weights>-0.235724 -1.11687 -0.500952 -2.15482 1.33435 1.27409 0.313812 -2.36123 0.588762 1.18681 1.2184 0.904494 -0.563945 1.1185 0.198808 1.54412 1.13999 </weights>
                </Neuron>
                <Neuron id="10">
                    <weights>0.211455 -0.774511 -0.179016 1.54926 -0.638589 1.29311 1.13961 -0.914547 -1.42143 -1.21101 0.495592 -1.01826 0.453477 -1.9757 2.04796 -1.18896 2.51564 </weights>
                </Neuron>
                <Neuron id="11">
                    <weights>0.573785 0.20588 -0.469948 -0.863054 -0.609062 -0.697847 0.970526 -0.522144 -0.116918 -1.63373 -1.05018 -0.0212254 -0.369058 0.302735 -0.0947187 -0.632291 -0.169119 </weights>
                </Neuron>
            </NeuronLayer>
            <NeuronLayer id="2">
                <Neuron id="0">
                    <weights>-0.68837 2.03923 0.669378 -2.15961 -0.0178544 0.258952 -0.670182 -1.63082 0.461757 -0.777571 -1.95581 0.738161 1.26616 </weights>
                </Neuron>
                <Neuron id="1">
                    <weights>-0.710629 -0.345179 -0.163136 -2.21578 0.699953 -0.732877 0.214288 0.270285 -0.807567 -0.927292 0.440422 0.911009 -0.0802897 </weights>
                </Neuron>
                <Neuron id="2">
                    <weights>1.51454 -0.123821 0.519826 1.06352 0.627701 1.44912 0.289665 0.312561 0.221093 0.664146 0.0101573 -0.917278 -0.767137 </weights>
                </Neuron>
            </NeuronLayer>
        </NeuralNetwork>
    </Entity>
    <Entity type="Herbivore">
        <x>184</x>
        <y>301</y>
        <radius>8.0678</radius>
        <angle>0.353629</angle>
        <maxSpeed>50</maxSpeed>
        <attack>20</attack>
        <energy>3</energy>
        <sex>false</sex>
        <mating>2500</mating>
        <age>226</age>
        <hunger>0</hunger>
        <thirst>226</thirst>
        <health>5000</health>
        <NeuralNetwork>
            <NeuronLayer id="0">
                <inputsNum>16</inputsNum>
            </NeuronLayer>
            <NeuronLayer id="1">
                <Neuron id="0">
                    <weights>-1.38204 0.304425 -0.321637 0.237987 -0.686498 -1.21874 0.172754 -0.119095 -1.70058 -0.849815 -0.171033 0.564824 -0.568356 0.405323 -0.668539 -0.423972 0.759467 </weights>
                </Neuron>
                <Neuron id="1">
                    <weights>-0.617631 0.0112006 0.543555 0.827857 -0.491868 1.10247 0.570455 -0.306736 0.0345797 -0.138757 -1.26632 0.836239 -1.45446 0.814735 2.29781 0.652115 -0.00693188 </weights>
                </Neuron>
                <Neuron id="2">
                    <weights>1.18301 1.20425 0.0154531 0.716188 0.446114 0.680132 0.16309 -1.59189 0.896438 0.853318 0.232863 -1.48917 0.352124 -0.16806 -0.4877 -0.49491 0.750079 </weights>
                </Neuron>
                <Neuron id="3">
                    <weights>0.60408 -1.10325 -0.523517 0.290458 0.0710962 0.697697 0.969129 0.1216 0.0969193 -0.698317 0.702364 1.10368 -0.389896 0.991207 0.558929 0.706186 0.343368 </weights>
                </Neuron>
                <Neuron id="4">
                    <weights>2.49618 1.01278 -1.84862 0.443764 -0.246673 -0.305061 0.025524 -1.3525 0.69688 0.433139 1.37545 -1.0387 0.0514195 -0.1774 0.288007 0.518676 -2.3259 </weights>
                </Neuron>
                <Neuron id="5">
                    <weights>-0.481287 0.0899356 -0.240303 1.75872 0.772774 0.443493 -0.566516 -0.198684 -1.40344 0.804613 -0.189762 -1.69741 -0.301246 -0.229808 -0.629114 0.342914 -0.526638 </weights>
                </Neuron>
                <Neuron id="6">
                    <weights>-0.526628 -0.959175 -0.0562392 0.536308 -0.656342 0.507727 0.121204 1.61711 -0.183633 0.477234 -0.885661 -1.90692 0.746707 0.75797 1.16284 -0.00863436 0.476201 </weights>
                </Neuron>
                <Neuron id="7">
                    <weights>1.31392 0.175437 -2.27216 0.774672 -1.01942 0.812567 -0.715495 -0.820554 -1.2368 0.414868 0.442034 0.55749 -0.399769 1.55945 -0.284757 0.547772 0.00914027 </weights>
                </Neuron>
                <Neuron id="8">
                    <weights>-0.714277 -1.14345 -0.229009 -0.807914 0.987179 0.113155 0.228483 -1.13971 0.309545 -1.17354 -1.25493 0.814302 -1.06715 0.0739365 0.0985588 1.12879 -0.305635 </weights>
                </Neuron>
                <Neuron id="9">
                    <weights>0.954329 0.0936317 1.43818 1.25812 -0.25002 0.206724 -2.22134 0.50985 -1.02282 0.0805585 0.40313 0.00915365 0.106614 -0.463451 -0.464741 1.82227 -1.07912 </weights>
                </Neuron>
                <Neuron id="10">
                    <weights>-0.100286 -1.07524 -1.83487 -1.08321 0.431976 -1.34564 0.727493 -0.025861 0.39268 0.236065 1.01416 1.32928 0.224284 0.953174 -0.220805 -1.41663 2.063 </weights>
                </Neuron>
                <Neuron id="11">
                    <weights>1.43363 1.43509 -0.214504 -0.269784 0.983231 -0.207366 0.827212 -1.77812 -1.02817 1.06446 0.874764 0.937134 0.294049 1.04808 0.477855 0.363999 0.0316641 </weights>
                </Neuron>
            </NeuronLayer>
            <NeuronLayer id="2">
                <Neuron id="0">
                    <weights>0.314652 -0.959714 0.0742605 -0.0340013 1.15534 0.136629 -1.7864 -0.0734392 -0.44022 1.09012 0.921209 -0.664199 -0.402681 </weights>
                </Neuron>
                <Neuron id="1">
                    <weights>-0.875206 0.56851 -0.950299 0.647289 0.715372 0.640755 0.252467 -0.520232 -0.741132 1.24455 -0.740799 -0.102165 0.176733 </weights>
                </Neuron>
                <Neuron id="2">
                    <weights>2.29874 1.52882 1.86227 0.239392 -0.753749 0.272595 0.822256 -0.0727945 0.329747 0.69979 -0.388548 -0.923957 0.355823 </weights>
                </Neuron>
            </NeuronLayer>
        </NeuralNetwork>
    </Entity>
    <Entity type="Herbivore">
        <x>116.853</x>
        <y>115.508</y>
        <radius>8.0081</radius>
        <angle>1.63388</angle>
        <maxSpeed>50</maxSpeed>
        <attack>20</attack>
        <energy>0</energy>
        <sex>false</sex>
        <mating>2500</mating>
        <age>226</age>
        <hunger>199</hunger>
        <thirst>226</thirst>
        <health>4588</health>
        <NeuralNetwork>
            <NeuronLayer id="0">
                <inputsNum>16</inputsNum>
            </NeuronLayer>
            <NeuronLayer id="1">
                <Neuron id="0">
                    <weights>-0.703785 0.0777122 -0.760701 1.43675 -1.18256 -1.1943 0.331059 0.251954 0.352832 -0.230085 0.508384 -0.379251 0.145422 0.982578 -1.80335 0.258165 -1.35656 </weights>
                </Neuron>
                <Neuron id="1">
                    <weights>0.871142 -1.13306 -0.000745712 0.574793 0.0302064 2.12472 0.32063 0.976777 0.0823283 0.913383 0.747859 0.0677744 0.784436 -0.722439 -1.35991 -0.267816 0.0156975 </weights>
                </Neuron>
                <Neuron id="2">
                    <weights>0.498731 -0.0542149 -0.145624 -0.257587 -0.71474 0.0455754 -0.813081 0.0805868 1.09421 0.596441 -0.211793 -0.0168822 -0.839237 -0.701974 2.741 -0.584006 -0.850102 </weights>
                </Neuron>
                <Neuron id="3">
                    <weights>-0.0673712 -1.93584 -0.951001 0.841657 -0.320611 0.31001 -0.0394162 -0.928164 1.5365 1.07387 1.50526 -0.20722 -0.490847 0.974991 -1.661 2.01536 -0.838745 </weights>
                </Neuron>
                <Neuron id="4">
                    <weights>-1.85704 -1.03251 1.21234 -1.53115 0.321738 -0.468122 -0.536887 0.672595 0.249708 0.451028 0.603273 -0.0799894 -0.607035 -1.27436 -0.323964 1.2221 0.788751 </weights>
                </Neuron>
                <Neuron id="5">
                    <weights>0.149117 -0.641503 1.74796 -0.429342 -1.75514 1.19245 1.19398 -1.54559 -0.253251 0.723827 1.04953 -1.32955 1.49605 -1.14526 1.17473 2.0321 1.18538 </weights>
                </Neuron>
                <Neuron id="6">
                    <weights>0.794257 1.17306 -0.733988 -0.108927 1.85732 -0.319106 -0.59283 0.280156 -0.72375 -0.484016 -0.200512 2.53538 1.18492 -2.80749 1.00944 1.26141 -0.18784 </weights>
                </Neuron>
                <Neuron id="7">
                    <weights>0.0390113 0.400092 0.992055 -1.28285 0.197355 -1.78011 0.522247 0.0607301 -0.892979 1.27604 -0.381806 -0.277865 0.423561 -0.135598 -0.133199 -0.103041 0.206339 </weights>
                </Neuron>
                <Neuron id="8">
                    <weights>-1.23631 -1.79408 -0.586671 0.268009 -1.95256 -1.76842 -0.313344 0.587968 -0.563863 -0.762974 0.088919 0.0953133 -1.68496 -0.449023 0.131062 -0.460532 -0.256484 </weights>
                </Neuron>
                <Neuron id="9">
                    <weights>1.21884 0.431589 1.67356 0.287422 1.40896 -0.35955 0.254321 0.178926 -0.298885 -1.07293 1.1356 -0.870122 -0.639196 0.730602 0.917697 0.749843 0.668579 </weights>
                </Neuron>
                <Neuron id="10">
                    <weights>-0.0891222 0.264599 0.47586 0.0177636 0.107656 -0.567646 -0.923422 0.71174 2.02202 -0.504975 0.916232 0.630037 -1.06152 -0.0544117 -0.400118 -0.73639 -0.333554 </weights>
                </Neuron>
                <Neuron id="11">
                    <weights>-1.00516 1.32715 -1.57221 0.613818 1.41583 -0.471688 -0.398041 -0.199035 0.861344 -0.0738975 0.592244 -1.59503 -1.01644 0.878472 0.282381 0.985435 0.363523 </weights>
                </Neuron>
            </NeuronLayer>
            <NeuronLayer id="2">
                <Neuron id="0">
                    <weights>0.871561 0.306167 -0.649259 0.193188 1.67168 0.279741 -0.748364 -0.441401 -0.486687 -0.664201 -2.19022 -0.606033 0.0413149 </weights>
                </Neuron>
                <Neuron id="1">
                    <weights>-1.07207 -0.113806 0.781115 -0.626558 1.09433 -0.102075 0.951979 0.450488 0.259454 1.23165 0.675815 -0.0357531 -1.60429 </weights>
                </Neuron>
                <Neuron id="2">
                    <weights>-1.36938 0.921374 -1.3964 0.239427 0.134863 -0.338158 -1.90962 -0.161528 1.0503 0.0386074 -0.242249 -1.27773 -1.55138 </weights>
                </Neuron>
            </NeuronLayer>
        </NeuralNetwork>
    </Entity>
    <Entity type="Herbivore">
        <x>48.0474</x>
        <y>63.2701</y>
        <radius>8</radius>
        <angle>0.323629</angle>
        <maxSpeed>50</maxSpeed>
        <attack>20</attack>
        <energy>2</energy>
        <sex>false</sex>
        <mating>2500</mating>
        <age>226</age>
        <hunger>226</hunger>
        <thirst>0</thirst>
        <health>3778</health>
        <NeuralNetwork>
            <NeuronLayer id="0">
                <inputsNum>16</inputsNum>
            </NeuronLayer>
            <NeuronLayer id="1">
                <Neuron id="0">
                    <weights>-0.737866 -0.899018 0.451677 -1.05482 0.128172 0.210863 -0.0438589 0.142624 0.126834 0.324647 0.168315 1.35245 -0.357562 0.714725 1.30296 -1.99654 -0.834401 </weights>
                </Neuron>
                <Neuron id="1">
                    <weights>0.170665 0.99236 -1.32513 1.18337 -0.617974 -1.67221 -1.30027 0.756872 1.09743 -1.30434 -0.441642 -1.30494 0.142162 -1.32088 -0.935044 -0.70877 0.215507 </weights>
                </Neuron>
                <Neuron id="2">
                    <weights>0.121745 -0.625309 0.565734 1.35979 -2.53895 1.38092 -0.151329 0.520254 1.07049 -1.48429 -0.507147 1.65053 1.09103 -1.28231 -1.39253 0.758381 1.50102 </weights>
                </Neuron>
                <Neuron id="3">
                    <weights>-0.768779 0.65962 -1.93656 0.600292 -0.646003 -1.71114 2.17873 -0.469182 1.02558 1.0752 -0.736195 0.156127 1.96411 -0.245388 1.72625 2.0782 1.76099 </weights>
                </Neuron>
                <Neuron id="4">
                    <weights>0.121066 -0.148246 -0.502127 1.05585 -0.637625 0.141429 -0.307258 0.296583 0.107463 1.2779 -0.685574 0.498272 -1.27926 -2.84862 0.829244 -1.98529 1.49074 </weights>
                </Neuron>
                <Neuron id="5">
                    <weights>-0.201141 0.815471 0.710576 -0.792402 0.217126 1.86782 -1.58134 0.311644 0.641616 -0.642382 -0.117087 0.795116 0.389636 1.52913 0.396056 -1.14527 -0.568224 </weights>
                </Neuron>
                <Neuron id="6">
                    <weights>0.0727594 -0.251327 -0.168251 0.538251 -0.409982 -1.30792 -0.192171 0.304715 -0.987085 0.478495 -1.09076 0.751056 -0.893342 -0.326202 0.229469 0.773591 1.33122 </weights>
                </Neuron>
                <Neuron id="7">
                    <weights>-0.491633 -0.383469 2.32354 -0.570077 -0.577135 1.41124 2.26256 -1.67818 1.30079 -0.915949 -0.572146 0.487382 0.894523 1.11818 1.68453 -0.326233 -0.641833 </weights>
                </Neuron>
                <Neuron id="8">
                    <weights>-0.611981 0.0139441 1.25523 1.30075 1.02034 0.544143 -1.76318 1.60007 -0.237432 -0.569185 -0.773003 -1.41259 0.412828 1.69672 0.00541849 0.98933 -1.06278 </weights>
                </Neuron>
                <Neuron id="9">
                    <weights>-1.40983 -0.177329 1.82828 0.087334 -1.35521 -0.528888 -0.20498 -2.29075 -1.39374 1.22116 1.09597 -1.0672 0.464358 -1.95538 0.110139 0.894482 -1.34917 </weights>
                </Neuron>
                <Neuron id="10">
                    <weights>-0.660141 -0.514317 0.151632 0.421594 1.16677 1.17029 0.0289279 0.514069 -0.0142707 0.528195 -0.218994 0.51891 0.456765 -2.03754 -0.859592 1.71499 -0.0905941 </weights>
                </Neuron>
                <Neuron id="11">
                    <weights>-1.78551 1.27802 -0.135807 -0.346735 -0.795882 -0.566534 -0.426438 1.29822 -0.606555 0.688791 -0.498909 -1.1412 1.04015 -1.45977 1.09388 1.92751 0.285114 </weights>
                </Neuron>
            </NeuronLayer>
            <NeuronLayer id="2">
                <Neuron id="0">
                    <weights>0.402517 -1.09962 -0.909235 0.0163857 -0.316394 -0.158261 1.21046 0.774174 -1.293 -0.16256 -0.544637 -0.409849 -1.30929 </weights>
                </Neuron>
                <Neuron id="1">
                    <weights>0.576454 0.723665 1.49139 0.529668 -0.355258 0.700867 0.0861867 -1.28017 1.21498 -0.351989 0.921906 1.33311 0.517397 </weights>
                </Neuron>
                <Neuron id="2">
                    <weights>2.24664 -1.35157 0.757617 -0.410338 -0.27832 -0.800807 -0.394816 -0.523682 -0.173871 0.748261 1.07714 0.223025 2.88433 </weights>
                </Neuron>
            </NeuronLayer>
        </NeuralNetwork>
    </Entity>
    <Entity type="Herbivore">
        <x>288.772</x>
        <y>353.625</y>
        <radius>8</radius>
        <angle>2.11681</angle>
        <maxSpeed>50</maxSpeed>
        <attack>20</attack>
        <energy>1</energy>
        <sex>false</sex>
        <mating>2500</mating>
        <age>226</age>
        <hunger>226</hunger>
        <thirst>226</thirst>
        <health>4200</health>
        <NeuralNetwork>
            <NeuronLayer id="0">
                <inputsNum>16</inputsNum>
            </NeuronLayer>
            <NeuronLayer id="1">
                <Neuron id="0">
                    <weights>0.925915 0.37979 0.395331 0.239373 -0.38932 0.866827 -0.713628 1.67594 1.03869 -1.34851 0.167611 0.612771 -3.14891 -0.762923 1.93412 -1.69651 -0.921448 </weights>
                </Neuron>
                <Neuron id="1">
                    <weights>1.46163 -0.534085 1.72988 0.981183 1.18459 0.590205 -1.18998 -0.237226 1.31424 0.346164 0.539072 1.28372 0.898035 -0.772953 -0.0658379 0.455481 -0.210498 </weights>
                </Neuron>
                <Neuron id="2">
                    <weights>-1.13 -0.373044 0.774465 0.423471 1.09992 -0.286585 -0.74864 0.26056 0.800503 -0.640204 1.69573 -1.23512 0.0385563 0.0938103 1.88273 -1.01753 1.08434 </weights>
                </Neuron>
                <Neuron id="3">
                    <weights>-0.992736 0.142416 0.0545281 1.06746 0.346122 1.19537 -1.68458 -1.7746 -1.01537 0.0943922 -0.618155 -0.180479 -0.0196913 1.04072 -1.54292 -0.403514 -0.0375921 </weights>
                </Neuron>
                <Neuron id="4">
                    <weights>-1.93078 -0.418787 -1.97562 -2.29442 -0.0426841 -1.22159 -2.01437 -1.26023 1.39646 -1.47947 1.50773 0.229086 0.688777 0.78506 0.554695 1.62478 -0.00868719 </weights>
                </Neuron>
                <Neuron id="5">
                    <weights>0.56225 -0.449378 -2.00482 -0.808762 0.171183 1.29295 -0.336387 0.354923 -0.172402 -0.308169 0.0876467 -0.270861 -0.109671 0.269007 -1.20664 -1.4574 -0.580131 </weights>
                </Neuron>
                <Neuron id="6">
                    <weights>0.0754153 -0.317238 0.869561 0.826282 0.656134 0.221183 0.256027 -0.222186 -0.420827 -0.0107781 -0.553207 -0.410979 -0.980795 1.39745 -0.551552 -0.0329242 -0.757359 </weights>
                </Neuron>
                <Neuron id="7">
                    <weights>-1.01861 -0.181316 -0.34095 0.700488 0.0308827 -0.418074 0.093807 -0.40784 0.616647 1.23427 -0.0519068 -0.157535 0.235601 0.683263 0.708876 -0.219398 -0.781644 </weights>
                </Neuron>
                <Neuron id="8">
                    <weights>0.681214 -0.745855 0.543933 0.114072 -0.524858 -0.424891 -0.558521 -0.379241 -0.693717 -1.01996 1.96911 1.78129 -1.59615 -0.2092 -0.0812692 1.51017 -0.397038 </weights>
                </Neuron>
                <Neuron id="9">
                    <weights>-0.850294 -0.00661629 -2.10544 -1.12023 -0.0414459 1.09683 -0.634236 -2.06714 1.28872 0.493892 0.995944 -0.239917 1.92958 2.25945 -1.63483 -0.412106 -1.23451 </weights>
                </Neuron>
                <Neuron id="10">
                    <weights>-0.041066 0.566458 0.223539 1.26113 0.016372 0.0357517 -0.266826 0.736894 -0.265531 -0.808149 0.00127943 0.339724 -0.509826 -0.0623978 2.29868 0.0147787 1.52853 </weights>
                </Neuron>
                <Neuron id="11">
                    <weights>1.35389 0.344142 0.659451 0.849353 -0.574748 0.153269 0.371872 -1.01494 -0.140626 -2.53068 0.242726 0.893472 -0.040193 -1.64468 1.40047 -0.428597 -0.558249 </weights>
                </Neuron>
            </NeuronLayer>
            <NeuronLayer id="2">
                <Neuron id="0">
                    <weights>0.100967 0.609441 0.4547 0.169485 -1.39098 0.901393 0.655974 -1.48008 -0.54375 -0.570254 -1.13779 -0.306477 1.1482 </weights>
                </Neuron>
                <Neuron id="1">
                    <weights>0.962095 1.33183 -0.328494 -0.223788 0.298688 -0.183374 0.0111047 1.95993 -1.28862 -2.57476 -0.111082 0.56263 0.68637 </weights>
                </Neuron>
                <Neuron id="2">
                    <weights>1.29799 0.724256 0.0376486 1.12972 -0.22486 1.02408 0.667047 -1.64744 0.106285 -0.303252 -1.61111 -0.35628 -0.527321 </weights>
                </Neuron>
            </NeuronLayer>
        </NeuralNetwork>
    </Entity>
    <Entity type="Herbivore">
        <x>8.44186</x>
        <y>196.38</y>
        <radius>8.0507</radius>
        <angle>1.5529</angle>
        <maxSpeed>50</maxSpeed>
        <attack>20</attack>
        <energy>1</energy>
        <sex>true</sex>
        <mating>208</mating>
        <age>226</age>
        <hunger>57</hunger>
        <thirst>226</thirst>
        <health>5000</health>
        <NeuralNetwork>
            <NeuronLayer id="0">
                <inputsNum>16</inputsNum>
            </NeuronLayer>
            <NeuronLayer id="1">
                <Neuron id="0">
                    <weights>0.291068 0.204837 -1.15203 0.422583 1.87265 -0.421959 -0.825089 0.00807557 0.0280273 -0.320613 0.72716 -1.15437 0.550219 -0.541987 0.760555 0.0259687 -1.50904 </weights>
                </Neuron>
                <Neuron id="1">
                    <weights>-0.553941 0.105957 -1.28338 1.35832 -0.940672 -1.07698 -1.56834 0.0252514 0.434719 0.440684 -0.566017 0.231755 -0.0337628 -0.70238 0.147061 0.298571 0.552492 </weights>
                </Neuron>
                <Neuron id="2">
                    <weights>1.34814 -0.643028 -0.0194351 -0.5455 -0.444454 -0.659668 0.975849 0.896057 0.570068 -0.240295 -0.847432 0.836457 0.990802 -0.178266 1.4712 -1.42689 1.32923 </weights>
                </Neuron>
                <Neuron id="3">
                    <weights>1.9146 0.68438 2.06917 2.59769 0.909978 -0.975093 -0.33187 0.378934 -0.61789 -2.02081 1.11309 0.200098 -0.0206368 -0.074163 -1.51579 0.409305 -1.90872 </weights>
                </Neuron>
                <Neuron id="4">
                    <weights>0.655207 -0.215608 0.461244 -1.26231 0.398831 -0.216595 0.320032 -0.230886 -0.173005 -0.23154 -0.589403 -0.913054 -1.88353 -0.83117 1.20307 -0.884121 -0.168391 </weights>
                </Neuron>
                <Neuron id="5">
                    <weights>0.951101 -0.322094 -0.0514707 0.884879 0.789833 0.177576 -0.236092 1.50373 0.81087 -1.28138 -0.0295917 0.952535 -1.77164 0.804769 -0.561136 -0.620223 0.18314 </weights>
                </Neuron>
                <Neuron id="6">
                    <weights>-1.36942 -1.11589 -0.644473 -2.27479 -0.204212 1.38705 0.351838 -1.20419 -0.202396 -0.0387118 0.356508 -0.440556 0.585661 -0.132344 -0.606309 0.779519 -0.47283 </weights>
                </Neuron>
                <Neuron id="7">
                    <weights>-0.418086 1.6564 2.63556 0.521984 0.57973 0.864747 2.29248 -0.791398 -0.174256 0.718168 -0.90171 0.204164 -1.40629 0.261746 1.36369 0.0154687 1.55411 </weights>
                </Neuron>
                <Neuron id="8">
                    <weights>-1.41588 -0.0490375 0.416344 0.434611 0.0852789 -1.30731 0.643117 -1.44953 1.09924 -0.122426 1.36734 0.177483 0.66965 -0.744299 -0.465767 1.55697 0.407892 </weights>
                </Neuron>
                <Neuron id="9">
                    <weights>-1.01878 -2.52913 0.607539 0.468821 0.665311 0.18398 0.568225 1.48651 -0.236043 0.488132 -0.493573 -0.257205 1.78988 -0.156039 0.90931 0.447268 -0.77757 </weights>
                </Neuron>
                <Neuron id="10">
                    <weights>-0.191954 0.557178 -0.564471 -0.303554 -0.376653 1.38509 -1.72903 -0.383553 -0.661051 -0.97191 2.76071 -0.277152 -0.748898 0.2314 0.246109 -0.906581 1.71056 </weights>
                </Neuron>
                <Neuron id="11">
                    <weights>2.0605 -1.07941 -0.200467 0.571913 0.908088 -0.339113 1.22883 0.752638 0.248378 1.8894 1.6216 -0.533281 0.296937 -0.360972 -3.38266 0.477858 1.78824 </weights>
                </Neuron>
            </NeuronLayer>
            <NeuronLayer id="2">
                <Neuron id="0">
                    <weights>-1.01875 -0.745949 -0.829498 1.07148 -0.0887308 -0.172087 -0.312004 0.669375 0.590354 0.822908 0.916353 0.134796 -0.839984 </weights>
                </Neuron>
                <Neuron id="1">
                    <weights>-0.729025 -0.208961 1.38 0.129684 0.635004 2.62532 1.29433 0.413449 0.170863 1.07445 1.48866 -0.179688 -1.35608 </weights>
                </Neuron>
                <Neuron id="2">
                    <weights>-1.31988 -0.723289 0.323534 -0.436324 -0.633944 -1.35684 1.22204 -1.90203 1.07372 1.83918 -0.269658 1.49588 -2.04725 </weights>
                </Neuron>
            </NeuronLayer>
        </NeuralNetwork>
    </Entity>
    <Entity type="Herbivore">
        <x>22.4439</x>
        <y>249.463</y>
        <radius>8</radius>
        <angle>0.961014</angle>
        <maxSpeed>50</maxSpeed>
        <attack>20</attack>
        <energy>2</energy>
        <sex>true</sex>
        <mating>143</mating>
        <age>226</age>
        <hunger>226</hunger>
        <thirst>226</thirst>
        <health>3800</health>
        <NeuralNetwork>
            <NeuronLayer id="0">
                <inputsNum>16</inputsNum>
            </NeuronLayer>
            <NeuronLayer id="1">
                <Neuron id="0">
                    <weights>0.294607 -1.85185 1.77781 0.728849 1.27297 -2.56512 1.36833 -0.755054 1.07258 0.247998 0.97978 0.181687 -0.123753 -2.76361 0.451789 -1.11164 1.15796 </weights>
                </Neuron>
                <Neuron id="1">
                    <weights>-0.9297 0.840929 -1.03085 0.322446 -2.60483 -0.35303 0.31724 0.0148732 -0.731109 -0.817918 0.659558 -1.61997 -1.27685 -0.683704 -1.28247 -1.37798 0.420304 </weights>
                </Neuron>
                <Neuron id="2">
                    <weights>0.211385 0.360979 0.388168 -0.343622 1.7172 1.29219 -0.242934 2.13715 -1.08219 -1.0522 -0.111288 -0.180803 0.967444 -1.36902 0.737504 -0.929175 0.0226749 </weights>
                </Neuron>
                <Neuron id="3">
                    <weights>0.598055 -1.21803 -0.106348 0.763446 0.853551 -0.372102 -1.22466 0.786268 0.401715 0.345553 0.266834 -0.237005 1.06045 -0.796414 0.615525 0.706459 0.442195 </weights>
                </Neuron>
                <Neuron id="4">
                    <weights>0.197015 0.131659 -0.138863 1.01054 1.22868 3.1221 -0.0680115 0.0816092 -1.23245 -0.499603 0.0739273 -0.0541581 -0.630877 -1.43756 -1.94082 -0.0820615 1.10597 </weights>
                </Neuron>
                <Neuron id="5">
                    <weights>0.0348352 1.14971 -1.22485 0.55114 0.225257 -2.00583 -0.122985 -0.0672632 0.697786 -0.940103 0.302282 -0.520866 0.19554 1.15299 0.716568 0.115126 -2.25206 </weights>
                </Neuron>
                <Neuron id="6">
                    <weights>-1.02612 -1.09724 -0.4585 0.323007 -0.333767 0.620875 -1.76001 -0.0901504 0.305503 -0.593737 -0.511155 0.798963 -1.28406 0.375338 -1.46327 1.21794 1.07044 </weights>
                </Neuron>
                <Neuron id="7">
                    <weights>-1.13172 -0.489237 -0.0726485 -0.0872082 -0.786747 0.774083 -0.292098 0.542924 1.74546 -1.26753 -2.52762 -0.87665 0.924567 -1.415 1.07757 -1.10647 -0.273154 </weights>
                </Neuron>
                <Neuron id="8">
                    <weights>-0.912607 1.49476 0.114413 -1.43787 -0.156643 0.509731 1.03797 0.454092 0.534424 0.657127 0.0868239 -1.38773 -0.243562 0.771416 -0.564445 -0.391625 -0.862555 </weights>
                </Neuron>
                <Neuron id="9">
                    <weights>-0.888749 0.198943 -0.486641 0.694542 -0.806995 -1.54469 -1.18581 0.121489 -0.960607 0.334392 -0.902418 -0.708839 0.558339 0.392752 1.12777 0.198058 -0.0355803 </weights>
                </Neuron>
                <Neuron id="10">
                    <weights>1.50832 0.153111 1.04747 1.35137 -0.0866983 -1.45208 -0.789853 0.549051 -0.104341 0.0311343 -0.777167 -0.711213 -0.197681 1.10047 -0.933431 0.328614 0.965378 </weights>
                </Neuron>
                <Neuron id="11">
                    <weights>0.115079 0.658397 -0.146225 -0.545041 0.962779 1.32357 -1.22039 1.15493 -0.36769 -1.81272 0.0625927 -0.0852906 1.42382 -0.553326 -1.22267 -0.76564 0.51316 </weights>
                </Neuron>
            </NeuronLayer>
            <NeuronLayer id="2">
                <Neuron id="0">
                    <weights>-0.222305 -1.78705 1.41028 0.199943 0.540678 -0.0927048 -1.03687 0.145221 -1.07211 0.645726 -2.52085 -0.223513 1.18411 </weights>
                </Neuron>
                <Neuron id="1">
                    <weights>1.06665 0.0436431 0.297004 -0.263559 1.03505 0.251007 -0.693448 0.717699 0.155539 -1.1618 0.664624 -0.176333 -1.44879 </weights>
                </Neuron>
                <Neuron id="2">
                    <weights>0.0594901 0.868442 0.0970291 0.667514 -0.354661 0.895093 0.651562 0.531914 0.967409 -0.491394 0.997125 -0.492101 0.974977 </weights>
                </Neuron>
            </NeuronLayer>
        </NeuralNetwork>
    </Entity>
    <Entity type="Herbivore">
        <x>198.326</x>
        <y>2.43677</y>
        <radius>8.0678</radius>
        <angle>0.984188</angle>
        <maxSpeed>50</maxSpeed>
        <attack>20</attack>
        <energy>2</energy>
        <sex>false</sex>
        <mating>2500</mating>
        <age>226</age>
        <hunger>0</hunger>
        <thirst>226</thirst>
        <health>5000</health>
        <NeuralNetwork>
            <NeuronLayer id="0">
                <inputsNum>16</inputsNum>
            </NeuronLayer>
            <NeuronLayer id="1">
                <Neuron id="0">
                    <weights>0.0251198 -0.0824293 -0.475835 -0.322921 -0.791006 -0.931483 1.09655 -0.796439 -0.901565 -0.454635 1.48166 0.0741049 0.6282 2.28967 -0.506253 -0.630413 -0.36501 </weights>
                </Neuron>
                <Neuron id="1">
                    <weights>0.934943 0.0457922 0.796993 0.0804756 -0.00768047 -1.65236 0.0170563 0.409035 0.929614 -0.441023 0.0642572 -1.80186 0.0403263 1.01143 -1.82163 -0.619788 0.67983 </weights>
                </Neuron>
                <Neuron id="2">
                    <weights>0.00246954 -0.7111 0.967519 0.11469 2.03074 -0.284876 0.974013 -0.175613 -0.341189 0.286304 -2.52034 0.285564 1.96271 -2.36416 -0.68593 -0.758017 0.619223 </weights>
                </Neuron>
                <Neuron id="3">
                    <weights>0.429834 1.04736 0.611601 -0.909328 -0.466056 0.423332 0.656505 -0.808593 -0.187776 -0.159237 -0.999983 -1.0354 0.0211361 1.44822 1.57824 -1.84155 -0.128513 </weights>
                </Neuron>
                <Neuron id="4">
                    <weights>-2.07661 -1.15923 0.460907 0.307772 0.09878 -0.131474 -0.21904 -0.10233 0.232872 -0.855894 -0.405449 -0.959953 0.146592 -0.199961 0.737436 1.01674 1.36213 </weights>
                </Neuron>
                <Neuron id="5">
                    <weights>1.74731 1.7006 0.264632 -2.11413 0.759292 1.59927 -0.953971 -0.0397919 -0.669763 1.58796 -0.308951 -0.240519 -0.102623 -0.536095 -0.4818 -0.953741 -0.163213 </weights>
                </Neuron>
                <Neuron id="6">
                    <weights>1.25613 -0.650217 -0.463763 -0.00843199 -1.29206 1.02511 -0.953136 -0.740995 0.424875 -0.730932 0.300176 1.16073 0.659982 -0.0529686 0.586684 1.17319 -1.7054 </weights>
                </Neuron>
                <Neuron id="7">
                    <weights>0.571304 0.700663 -0.873124 0.251998 -1.25282 -0.297664 -0.49445 -1.43276 0.637806 -1.05469 -0.107889 0.396111 0.453148 0.311123 -0.421465 0.891163 3.11318 </weights>
                </Neuron>
                <Neuron id="8">
                    <weights>-0.33302 0.0160959 0.789484 -1.50762 0.853349 0.887137 -2.22233 0.339393 0.201102 1.0321 0.205615 0.00212124 0.298956 0.477443 -2.14572 2.57406 0.887851 </weights>
                </Neuron>
                <Neuron id="9">
                    <weights>-0.808391 -0.190514 -0.952798 0.803899 0.468034 1.0876 1.08379 -0.746218 0.105626 -0.350017 -0.609832 -2.32781 -0.466642 -0.133247 -0.327327 -0.472841 -1.04907 </weights>
                </Neuron>
                <Neuron id="10">
                    <weights>-1.07916 1.44987 0.0849607 -0.917872 -0.597427 -1.69418 -1.25523 1.98626 0.596955 -0.599914 -0.388926 0.53394 -0.801362 1.28264 -0.87956 0.426375 -0.647856 </weights>
                </Neuron>
                <Neuron id="11">
                    <weights>-1.60689 0.112036 0.567783 -0.222705 0.87838 -0.597017 -0.952653 0.56413 -0.262591 -0.835294 -0.510891 1.27814 1.57211 0.674227 0.00398259 -0.162631 -0.433367 </weights>
                </Neuron>
            </NeuronLayer>
            <NeuronLayer id="2">
                <Neuron id="0">
                    <weights>-0.632884 1.31496 0.429574 -2.51888 -0.765569 0.529393 0.915719 -0.0124088 0.343105 -0.328724 -0.68219 -2.43093 0.557406 </weights>
                </Neuron>
                <Neuron id="1">
                    <weights>-0.0807079 0.172612 -0.8897 2.22627 -0.0475631 -1.32758 0.788995 0.28393 0.990081 -0.243103 0.020011 0.747617 -0.613926 </weights>
                </Neuron>
                <Neuron id="2">
                    <weights>-0.125952 0.210771 -0.291813 -1.20153 1.70754 -1.52565 -0.221805 -0.382332 -1.18881 -1.73287 -1.48657 -0.522956 1.42321 </weights>
                </Neuron>
            </NeuronLayer>
        </NeuralNetwork>
    </Entity>
    <Entity type="Herbivore">
        <x>286.845</x>
        <y>184.72</y>
        <radius>8.0678</radius>
        <angle>2.70014</angle>
        <maxSpeed>50</maxSpeed>
        <attack>20</attack>
        <energy>2</energy>
        <sex>true</sex>
        <mating>2500</mating>
        <age>226</age>
        <hunger>0</hunger>
        <thirst>226</thirst>
        <health>5000</health>
        <NeuralNetwork>
            <NeuronLayer id="0">
                <inputsNum>16</inputsNum>
            </NeuronLayer>
            <NeuronLayer id="1">
                <Neuron id="0">
                    <weights>0.278586 0.159986 -0.220379 0.387917 -1.25674 -0.327896 -0.14888 -1.40553 0.790728 1.07781 0.433401 0.21553 0.387497 -0.795475 2.2189 0.149096 -1.17321 </weights>
                </Neuron>
                <Neuron id="1">
                    <weights>0.186688 -0.57695 1.02499 1.63766 -2.07389 1.36692 1.42645 0.670105 -1.02091 -1.96643 1.05204 1.0129 0.457934 -1.11619 0.632176 -0.69009 -0.609859 </weights>
                </Neuron>
                <Neuron id="2">
                    <weights>-2.40311 0.67706 -1.66476 -2.11201 0.670092 -0.191435 -2.04349 -1.59969 1.42869 0.0668465 -0.863294 0.695513 0.0599821 -0.443765 -1.37479 -0.880501 -0.0407421 </weights>
                </Neuron>
                <Neuron id="3">
                    <weights>0.555367 1.14484 -1.0358 -0.770128 1.69975 -1.06708 -0.0727642 0.328306 1.18317 0.859639 -0.527703 -0.963833 -0.776099 1.49846 -0.107361 1.21442 0.789957 </weights>
                </Neuron>
                <Neuron id="4">
                    <weights>0.757076 -0.177128 0.253543 0.147492 0.182735 -0.0757698 -0.288099 -0.406182 1.46488 1.34613 0.64686 0.303969 -1.75183 0.448445 -1.32889 -0.398541 0.788089 </weights>
                </Neuron>
                <Neuron id="5">
                    <weights>0.514227 -0.889243 -0.640772 -1.78215 0.859745 0.562458 -0.898858 -0.180892 -0.185774 -2.11298 1.18832 0.625238 -1.09943 0.432969 0.919323 -0.889094 -1.06625 </weights>
                </Neuron>
                <Neuron id="6">
                    <weights>0.723012 0.133451 2.25798 1.40171 -0.298314 -0.900514 -0.342374 0.22667 0.260541 -0.821472 -1.20508 0.115725 -0.51138 -2.06618 1.0297 -1.67247 0.636865 </weights>
                </Neuron>
                <Neuron id="7">
                    <weights>-0.132142 -1.00012 1.02492 -0.0710614 -0.252662 -0.264257 0.142474 -0.400196 0.446935 0.812427 -0.0187501 1.49434 -0.669388 -0.470922 1.73753 -0.106992 1.28274 </weights>
                </Neuron>
                <Neuron id="8">
                    <weights>-1.12582 -1.77509 -0.0778365 0.539036 -0.8844 -1.11762 0.235424 1.69046 0.233055 -1.19637 -0.575138 -0.113267 -0.831442 -0.129776 1.52669 -0.987904 1.37434 </weights>
                </Neuron>
                <Neuron id="9">
                    <weights>-1.06808 -0.0759567 0.382599 0.276161 0.830056 0.681469 0.720656 -0.789388 1.06517 -1.25209 -1.24876 0.924324 0.27079 -0.978367 0.769821 0.192911 1.39797 </weights>
                </Neuron>
                <Neuron id="10">
                    <weights>0.643227 -1.12207 -0.804679 -0.004215 0.915415 -0.122228 -0.826578 -1.07886 -0.458974 1.92299 0.091059 -0.376227 -1.08884 0.944771 1.84774 -0.311461 0.278893 </weights>
                </Neuron>
                <Neuron id="11">
                    <weights>0.279174 0.977557 2.1692 -0.41131 0.607409 1.58048 1.83945 0.376614 0.673965 -0.298411 -0.879971 0.744756 0.0735317 -0.743711 -0.108126 2.03772 -1.28638 </weights>
                </Neuron>
            </NeuronLayer>
            <NeuronLayer id="2">
                <Neuron id="0">
                    <weights>0.478728 0.099921 0.65077 -0.289554 -0.692354 -0.604049 1.09181 0.240408 0.684617 -1.23089 1.42728 1.20252 0.767122 </weights>
                </Neuron>
                <Neuron id="1">
                    <weights>-0.75043 0.306985 -1.65641 0.568685 -1.08526 -0.566117 -0.491248 -1.03311 2.21218 1.37489 -0.845174 -0.832188 -0.975931 </weights>
                </Neuron>
                <Neuron id="2">
                    <weights>0.386248 -0.814663 0.164157 -0.853668 -1.63838 1.41142 1.74223 0.180988 0.120429 0.0267715 -0.0823198 0.258342 0.257987 </weights>
                </Neuron>
            </NeuronLayer>
        </NeuralNetwork>
    </Entity>
    <Entity type="Herbivore">
        <x>54</x>
        <y>261</y>
        <radius>8</radius>
        <angle>-1.92658</angle>
        <maxSpeed>50</maxSpeed>
        <attack>20</attack>
        <energy>3</energy>
        <sex>false</sex>
        <mating>2500</mating>
        <age>226</age>
        <hunger>226</hunger>
        <thirst>226</thirst>
        <health>5000</health>
        <NeuralNetwork>
            <NeuronLayer id="0">
                <inputsNum>16</inputsNum>
            </NeuronLayer>
            <NeuronLayer id="1">
                <Neuron id="0">
                    <weights>2.05495 -0.0163661 0.582275 0.548582 0.281416 0.434482 0.213189 -1.92241 -0.0246914 -1.27222 -2.20318 -0.716209 1.64344 -3.2098 0.0138015 -1.57668 0.000874009 </weights>
                </Neuron>
                <Neuron id="1">
                    <weights>-0.626305 -1.37006 0.0619331 0.681828 0.338385 0.917541 0.189937 0.56847 0.28843 -0.447816 2.0532 0.183151 -0.444284 1.49077 -0.823196 1.70191 0.316005 </weights>
                </Neuron>
                <Neuron id="2">
                    <weights>-0.175436 0.0719326 -1.29862 0.31538 -0.0342164 1.55363 -1.36288 0.527882 -1.01957 1.41218 0.0130179 -1.01425 0.308714 -1.05047 -1.85194 -0.471094 1.27585 </weights>
                </Neuron>
                <Neuron id="3">
                    <weights>-0.811449 0.430031 0.902892 0.45918 -2.5659 0.24649 -0.280498 -0.292474 2.08258 -0.61572 0.231407 0.21424 -2.0502 0.785488 -0.0525678 -0.37024 0.840665 </weights>
                </Neuron>
                <Neuron id="4">
                    <weights>-1.92177 -0.898688 0.267312 -0.980554 0.933526 2.19742 -0.698556 0.322513 0.624119 -1.03397 -1.74029 -1.29218 -1.31868 0.809031 0.650104 0.753609 -1.03787 </weights>
                </Neuron>
                <Neuron id="5">
                    <weights>1.92096 -0.0134232 1.2962 0.133141 0.981494 0.266417 1.34048 0.363242 -0.122667 -1.22531 1.58077 -0.236765 0.427244 -0.456001 0.774122 1.04065 0.883734 </weights>
                </Neuron>
                <Neuron id="6">
                    <weights>-0.601284 -0.949428 0.217592 1.40398 -0.389664 2.45464 -1.36162 0.080544 1.28354 -0.296469 -0.777687 1.2002 2.8404 -0.614895 -0.138168 -1.44527 0.173565 </weights>
                </Neuron>
                <Neuron id="7">
                    <weights>0.106266 -0.167449 -0.458782 -0.232655 -0.125659 1.41547 0.471497 -0.264837 0.11002 0.309514 1.2328 -0.504247 -1.58665 -0.554625 -1.0799 0.0500274 1.32203 </weights>
                </Neuron>
                <Neuron id="8">
                    <weights>0.304619 -1.06244 0.855009 0.922133 0.556386 -1.66035 1.10337 1.03566 0.43134 -1.44513 1.4115 1.60481 -0.233794 0.311109 -0.0984372 0.279829 0.0952249 </weights>
                </Neuron>
                <Neuron id="9">
                    <weights>0.520595 0.569385 0.368391 -1.10243 -1.45166 0.122165 -1.37801 0.348285 -0.357782 2.4025 -1.00917 0.832599 -0.860696 -0.642308 0.759674 0.00673862 -0.191887 </weights>
                </Neuron>
                <Neuron id="10">
                    <weights>-1.33029 -2.01829 -0.248423 -0.403787 -1.52273 0.133231 -1.41977 0.670463 0.564144 -1.62492 -0.256834 1.50882 -0.383712 2.13823 0.245476 1.96039 -0.366616 </weights>
                </Neuron>
                <Neuron id="11">
                    <weights>-0.45938 -0.0658359 -0.495899 -1.27961 0.104957 -0.465483 1.37666 0.150359 -0.948819 0.377691 -0.365712 0.884065 -0.560848 2.37297 -0.177004 0.862057 -1.33633 </weights>
                </Neuron>
            </NeuronLayer>
            <NeuronLayer id="2">
                <Neuron id="0">
                    <weights>-0.189307 -1.00895 1.48655 0.744696 -0.749222 -1.098 -0.936666 -0.523915 0.330426 0.715541 -0.237182 -0.842944 0.41036 </weights>
                </Neuron>
                <Neuron id="1">
                    <weights>-0.499461 -0.767072 1.39168 0.893442 2.58057 1.44365 -0.0865323 0.680223 -1.66236 -0.55283 0.867134 0.775814 -0.293872 </weights>
                </Neuron>
                <Neuron id="2">
                    <weights>-0.221032 0.0141843 -0.422265 -0.00638327 -1.81465 -1.24504 -2.18377 0.145235 -1.36646 -1.42421 -2.10503 0.0711375 -1.38072 </weights>
                </Neuron>
            </NeuronLayer>
        </NeuralNetwork>
    </Entity>
    <Entity type="Herbivore">
        <x>148.571</x>
        <y>215.948</y>
        <radius>8</radius>
        <angle>1.93035</angle>
        <maxSpeed>50</maxSpeed>
        <attack>20</attack>
        <energy>0</energy>
        <sex>false</sex>
        <mating>2500</mating>
        <age>226</age>
        <hunger>226</hunger>
        <thirst>226</thirst>
        <health>3366</health>
        <NeuralNetwork>
            <NeuronLayer id="0">
                <inputsNum>16</inputsNum>
            </NeuronLayer>
            <NeuronLayer id="1">
                <Neuron id="0">
                    <weights>-0.947741 0.383375 1.29202 -1.80752 0.469344 2.0231 0.671484 -0.221233 0.261434 -0.0820215 -0.329178 1.35147 -0.0412944 0.655264 -1.53243 0.564921 1.99463 </weights>
                </Neuron>
                <Neuron id="1">
                    <weights>-2.03988 0.0465127 0.745754 -0.215337 -1.44809 -0.200568 0.311736 0.768383 0.0698501 0.0564268 0.518951 0.116855 -3.96101 1.37935 -1.38598 1.09597 1.36226 </weights>
                </Neuron>
                <Neuron id="2">
                    <weights>-0.178556 -0.999327 -0.311183 -0.535029 1.1469 1.29458 1.54389 -1.12018 -0.127601 1.56896 -0.0272678 -0.431396 0.767994 0.546935 -1.4556 0.993421 -1.45609 </weights>
                </Neuron>
                <Neuron id="3">
                    <weights>0.0532298 0.837534 -0.231907 0.707019 -1.21021 -0.796656 0.524845 0.423743 -0.325536 0.683693 0.765291 -0.262841 0.308517 1.51162 -0.94367 0.216272 -1.8229 </weights>
                </Neuron>
                <Neuron id="4">
                    <weights>1.08252 -0.516664 0.165633 1.32941 -0.476928 -0.797403 1.40583 -0.706981 -0.75148 0.238083 0.0565597 0.466671 0.690676 1.62753 -0.825093 -0.601277 0.722083 </weights>
                </Neuron>
                <Neuron id="5">
                    <weights>0.439407 -1.72592 1.04934 0.266267 -0.488767 0.883821 0.657627 0.365661 -1.69876 0.978792 0.300307 -0.495718 -0.46725 0.0580701 1.96234 -0.0306084 -1.79437 </weights>
                </Neuron>
                <Neuron id="6">
                    <weights>1.68019 0.619473 -0.160576 -2.01387 0.332541 -0.997727 -1.22707 0.882396 0.352256 1.26456 1.37448 1.37854 0.735241 0.277391 -0.0458218 0.250775 -1.58342 </weights>
                </Neuron>
                <Neuron id="7">
                    <weights>-1.00738 -0.579874 1.04417 -0.968265 0.164621 0.20469 0.151354 -1.85628 0.213165 0.621406 -1.25502 -0.258706 0.748978 0.520496 -1.21854 -0.0224835 0.271053 </weights>
                </Neuron>
                <Neuron id="8">
                    <weights>-0.551504 -0.669712 -0.198563 -0.254563 -0.820708 -0.352659 -1.86224 0.370918 0.332835 0.0867904 1.56891 -0.587337 -0.320196 -1.511 -0.474311 -0.0876812 0.911259 </weights>
                </Neuron>
                <Neuron id="9">
                    <weights>1.57782 1.79126 -0.17119 -0.739126 -0.153036 1.67458 -0.310637 0.171184 0.107605 -0.968763 0.555725 -0.413467 1.57542 0.645986 -0.0646565 -0.620033 -1.60903 </weights>
                </Neuron>
                <Neuron id="10">
                    <weights>-0.0465854 -0.417237 0.993616 1.67171 -0.951884 0.0359049 -1.74926 -0.772003 -0.312263 1.77959 -0.479506 0.203058 -0.36625 1.63991 -0.0165512 0.559186 0.523656 </weights>
                </Neuron>
                <Neuron id="11">
                    <weights>-0.128088 0.584728 -0.621184 -2.35264 1.0315 -1.20556 0.141006 -0.183338 1.02284 -1.37524 -0.656156 1.50005 -1.04543 -2.44444 1.64734 0.480598 -0.691665 </weights>
                </Neuron>
            </NeuronLayer>
            <NeuronLayer id="2">
                <Neuron id="0">
                    <weights>1.59117 1.07205 0.394318 -1.08603 -0.364944 -0.572056 0.447761 0.196121 0.108887 -0.319789 0.23553 -1.01354 -0.626404 </weights>
                </Neuron>
                <Neuron id="1">
                    <weights>-1.41275 -0.585303 0.872133 0.875758 -0.456722 -1.14614 0.68129 0.636366 -0.230394 0.700141 -0.179411 -0.285831 0.947667 </weights>
                </Neuron>
                <Neuron id="2">
                    <weights>3.80531 1.45501 2.19132 -0.637291 -1.72451 0.435092 -1.14689 1.30293 -0.893595 0.283635 -1.03216 -0.263416 1.47836 </weights>
                </Neuron>
            </NeuronLayer>
        </NeuralNetwork>
    </Entity>
    <Entity type="Herbivore">
        <x>471.347</x>
        <y>8.96541</y>
        <radius>8</radius>
        <angle>-1.63038</angle>
        <maxSpeed>50</maxSpeed>
        <attack>20</attack>
        <energy>0</energy>
        <sex>true</sex>
        <mating>2500</mating>
        <age>226</age>
        <hunger>226</hunger>
        <thirst>226</thirst>
        <health>5000</health>
        <NeuralNetwork>
            <NeuronLayer id="0">
                <inputsNum>16</inputsNum>
            </NeuronLayer>
            <NeuronLayer id="1">
                <Neuron id="0">
                    <weights>-0.210633 -0.39329 -1.7198 0.657823 1.25822 -1.4233 0.311324 -1.11086 0.648479 -1.1784 0.53914 -0.736392 -0.0759431 -1.43504 1.61313 1.94507 0.0832264 </weights>
                </Neuron>
                <Neuron id="1">
                    <weights>-1.62577 -0.716184 -1.29557 0.13657 1.18079 0.450912 0.920669 0.970482 0.497675 0.62289 0.382295 0.0857234 1.93868 0.81961 -1.75891 -0.931219 -1.11268 </weights>
                </Neuron>
                <Neuron id="2">
                    <weights>-0.836093 -0.659989 -0.11177 -1.17218 0.0458566 3.06874 -0.360181 0.66324 0.566754 0.842679 -0.221441 1.01675 -1.53863 -0.692822 -2.10782 0.567704 -1.51093 </weights>
                </Neuron>
                <Neuron id="3">
                    <weights>0.517937 0.61025 0.66697 0.837268 -0.0887604 0.609919 1.30538 -1.21517 -0.939085 -1.95394 0.192189 -2.04085 -1.04943 1.52538 -1.36054 0.115002 0.847357 </weights>
                </Neuron>
                <Neuron id="4">
                    <weights>0.162328 -0.120611 0.289937 -0.680103 0.942665 -0.0529513 0.477422 0.732057 -1.21815 -0.958517 0.0768027 -0.905172 -0.715445 1.78352 1.42808 -0.0322449 2.67762 </weights>
                </Neuron>
                <Neuron id="5">
                    <weights>-0.262479 -1.08492 -0.00177109 0.438546 0.0353645 0.501705 -0.395756 2.03684 -0.848796 -0.726718 0.257001 -0.828416 -0.686803 -0.252523 1.88783 -1.5769 -0.376153 </weights>
                </Neuron>
                <Neuron id="6">
                    <weights>-1.29386 -1.2179 0.532884 -0.88685 -0.286399 -0.856579 -0.243972 -0.00484723 0.689941 -2.2095 -0.608951 -2.06864 -0.295859 -0.116986 0.162778 -0.140722 0.772511 </weights>
                </Neuron>
                <Neuron id="7">
                    <weights>0.396024 -0.233988 -0.581842 -2.01699 -1.28006 0.639425 -1.61058 1.70965 -0.763761 0.215005 -2.02228 0.284735 0.823827 0.820416 0.207221 1.99284 3.06011 </weights>
                </Neuron>
                <Neuron id="8">
                    <weights>-0.52721 1.13656 0.174839 0.769577 -0.405631 -1.30689 -0.828882 -1.71621 0.854021 0.134009 -0.490675 1.82221 -0.842546 -0.533728 -0.527395 0.841654 0.0624369 </weights>
                </Neuron>
                <Neuron id="9">
                    <weights>0.359319 -0.33608 0.621535 0.70978 2.37135 -0.253325 0.55623 0.0642313 -2.57459 0.245323 -0.734561 0.366726 0.966788 -0.894297 0.956947 1.15452 1.20198 </weights>
                </Neuron>
                <Neuron id="10">
                    <weights>-0.200297 -1.32095 1.25852 -0.316324 1.49457 0.512658 -1.06898 1.02348 -0.148586 1.04002 0.531031 -0.850233 -0.208356 -1.09071 1.03563 0.923865 0.565094 </weights>
                </Neuron>
                <Neuron id="11">
                    <weights>-0.946803 0.174205 -0.579831 2.305 -1.56041 -0.575342 -0.467728 1.17556 -0.644298 2.43428 1.38714 -0.459308 0.704798 -0.69329 -0.407141 -0.26577 0.101858 </weights>
                </Neuron>
            </NeuronLayer>
            <NeuronLayer id="2">
                <Neuron id="0">
                    <weights>-1.06019 0.233732 -0.328512 0.145675 0.100427 -0.993596 -0.856893 -0.240903 0.758188 1.24767 -0.477903 1.58589 -0.149457 </weights>
                </Neuron>
                <Neuron id="1">
                    <weights>-0.00838899 0.963606 1.23631 -0.483786 -0.345751 -1.0041 0.124896 1.01586 0.92925 -0.432392 -0.715563 -0.817244 0.130746 </weights>
                </Neuron>
                <Neuron id="2">
                    <weights>-0.373897 -0.393511 0.528577 0.378798 -0.03563 0.583266 0.808057 -2.03469 0.915272 0.623824 -0.820828 -0.451698 0.412168 </weights>
                </Neuron>
            </NeuronLayer>
        </NeuralNetwork>
    </Entity>
    <Entity type="Herbivore">
        <x>148.189</x>
        <y>235.52</y>
        <radius>8</radius>
        <angle>-2.98918</angle>
        <maxSpeed>50</maxSpeed>
        <attack>20</attack>
        <energy>1</energy>
        <sex>true</sex>
        <mating>2500</mating>
        <age>226</age>
        <hunger>226</hunger>
        <thirst>226</thirst>
        <health>4992</health>
        <NeuralNetwork>
            <NeuronLayer id="0">
                <inputsNum>16</inputsNum>
            </NeuronLayer>
            <NeuronLayer id="1">
                <Neuron id="0">
                    <weights>-0.144929 0.0461759 1.53228 -0.160254 -0.686376 0.11418 -0.321849 -0.531914 1.65811 -0.598306 -0.550686 0.235934 -0.0857434 -0.374037 1.29648 0.160782 0.175757 </weights>
                </Neuron>
                <Neuron id="1">
                    <weights>0.0723199 -0.670438 0.157473 0.214312 0.737399 0.070634 0.848459 0.638225 0.0624461 -0.619916 1.77281 0.626403 0.615313 -0.837634 -0.375308 -0.331713 1.32618 </weights>
                </Neuron>
                <Neuron id="2">
                    <weights>-0.472202 -0.0464268 -0.58625 0.171329 -1.69366 1.54975 0.11678 -0.413655 -1.65071 0.355458 1.19749 -0.268323 0.0918334 0.0898824 0.246871 2.53613 -0.145131 </weights>
                </Neuron>
                <Neuron id="3">
                    <weights>-0.00913268 -1.19275 -0.686028 -0.737575 0.117962 -0.0765564 -0.94699 0.811909 -0.747059 -1.77912 1.31636 -1.3584 0.0585464 1.69977 -0.596529 1.77588 -0.531245 </weights>
                </Neuron>
                <Neuron id="4">
                    <weights>1.27486 -0.343506 -1.52593 1.03573 0.689636 0.0158272 1.02994 -0.0760362 1.0822 0.318835 1.20134 0.691117 0.460963 0.394688 -0.0825861 -0.627911 1.97717 </weights>
                </Neuron>
                <Neuron id="5">
                    <weights>0.430735 -0.938045 -0.0767074 -0.719334 0.398389 0.179074 0.986392 -0.0777702 0.977848 -0.572783 1.11096 0.319038 0.260447 0.378559 -0.655966 0.930956 -1.19938 </weights>
                </Neuron>
                <Neuron id="6">
                    <weights>1.01166 -0.157821 -2.59629 0.707845 -1.19739 -0.0599356 -0.193746 0.675567 2.47294 0.260168 0.755207 -0.792201 -0.177305 0.301173 0.324778 1.26854 -0.316804 </weights>
                </Neuron>
                <Neuron id="7">
                    <weights>1.65784 -0.0988816 -0.0358605 1.33352 0.460878 -1.64453 0.271047 1.71648 -0.245859 -0.430645 0.573486 -0.264841 -0.615877 -1.07641 -0.133571 -1.07583 -1.03096 </weights>
                </Neuron>
                <Neuron id="8">
                    <weights>0.53877 0.309581 0.930479 -1.07085 1.01373 0.627345 -0.471479 -0.32724 0.42792 -1.47851 0.315709 -0.942227 0.133539 -1.28443 -2.1654 1.52271 0.409637 </weights>
                </Neuron>
                <Neuron id="9">
                    <weights>2.19723 1.22066 1.11001 -1.19139 -1.02175 0.131487 -1.34132 0.0408419 -0.948795 0.902456 0.424275 -0.322212 0.0485803 0.28591 1.38698 -0.207985 1.98567 </weights>
                </Neuron>
                <Neuron id="10">
                    <weights>0.597604 1.16177 0.194391 1.04644 -1.18113 1.11818 1.05562 -0.541886 -0.00539703 -0.188177 -0.459984 1.66312 -0.869979 -2.1435 0.453463 -0.0217052 1.20248 </weights>
                </Neuron>
                <Neuron id="11">
                    <weights>-0.227863 -1.64215 -0.312037 -2.27745 -0.0188217 2.14385 -0.946678 -1.13847 -1.87563 -1.05862 -0.564509 -0.372329 -0.0215164 -0.178329 -0.973285 -1.60669 -0.0942905 </weights>
                </Neuron>
            </NeuronLayer>
            <NeuronLayer id="2">
                <Neuron id="0">
                    <weights>-0.365273 1.01198 0.379666 0.956351 0.771939 -0.779349 1.01603 0.0800258 0.187708 -0.673637 1.10421 -0.272948 0.0680691 </weights>
                </Neuron>
                <Neuron id="1">
                    <weights>-0.116503 -0.386417 0.802016 -0.795744 0.950574 -0.246843 1.12211 0.461716 -2.35104 0.558508 -0.0666405 -1.52722 -0.136918 </weights>
                </Neuron>
                <Neuron id="2">
                    <weights>-0.533391 2.11322 -1.18994 -0.371961 -0.346401 1.25972 -0.106956 1.02921 1.35099 0.598153 1.09038 0.597548 0.358666 </weights>
                </Neuron>
            </NeuronLayer>
        </NeuralNetwork>
    </Entity>
    <Entity type="Herbivore">
        <x>280.109</x>
        <y>300.092</y>
        <radius>8</radius>
        <angle>-3.14118</angle>
        <maxSpeed>50</maxSpeed>
        <attack>20</attack>
        <energy>2</energy>
        <sex>true</sex>
        <mating>2500</mating>
        <age>226</age>
        <hunger>226</hunger>
        <thirst>226</thirst>
        <health>5000</health>
        <NeuralNetwork>
            <NeuronLayer id="0">
                <inputsNum>16</inputsNum>
            </NeuronLayer>
            <NeuronLayer id="1">
                <Neuron id="0">
                    <weights>-0.987959 -0.388758 -0.586834 -0.31251 -2.86085 0.387601 0.470489 -0.247777 3.18275 0.168237 -0.693564 -1.13032 0.382601 1.24547 0.728324 -1.05873 -0.0445173 </weights>
                </Neuron>
                <Neuron id="1">
                    <weights>-0.736051 -1.89245 -0.471648 0.963753 -0.304726 -0.523103 1.00399 0.255971 1.53197 -1.05598 -0.220421 0.792165 1.43564 -0.123704 -0.953029 1.10027 -0.769251 </weights>
                </Neuron>
                <Neuron id="2">
                    <weights>0.0805017 -0.635332 -1.07078 -2.11438 1.09973 -0.546995 1.91377 -0.0207617 -0.613948 -3.07165 1.69976 0.025535 -1.39137 0.0993456 -0.389674 0.28157 -1.13928 </weights>
                </Neuron>
                <Neuron id="3">
                    <weights>0.0920298 -0.0973134 0.756542 0.00123227 -1.44681 -0.919993 -0.310842 0.696768 0.0993366 -0.0593335 1.36308 1.29039 0.196034 1.35446 -0.261805 -1.19094 1.30539 </weights>
                </Neuron>
                <Neuron id="4">
                    <weights>-0.413067 -1.39606 -0.241375 1.39094 2.36886 -0.474301 1.45668 0.456168 -0.610997 -1.58804 -0.905808 -0.918453 1.68693 0.316512 -0.0464116 -0.650009 -0.47042 </weights>
                </Neuron>
                <Neuron id="5">
                    <weights>0.950869 0.55989 1.04517 0.966942 -0.0917102 -0.257388 0.122287 0.233825 0.131543 -0.621819 0.208963 -0.646365 -0.919154 1.07089 -0.986758 0.428526 0.805031 </weights>
                </Neuron>
                <Neuron id="6">
                    <weights>-0.960327 0.747751 -1.47192 2.6074 0.0753174 0.287765 2.3143 0.767915 0.0459321 0.686511 0.846568 1.15423 0.995617 -1.01995 -0.296262 0.368122 -0.383844 </weights>
                </Neuron>
                <Neuron id="7">
                    <weights>0.242887 -0.344105 1.62321 0.378153 0.0257609 -0.351234 -0.592762 -1.86431 0.681388 0.510867 0.613379 -0.299033 -0.20261 -1.398 0.298779 -0.398833 -0.689198 </weights>
                </Neuron>
                <Neuron id="8">
                    <weights>-0.529898 -0.807508 -1.26121 -0.554583 0.172051 0.595094 -0.260326 1.02383 -0.992124 1.37389 -0.22208 0.0145477 -1.26061 1.08968 1.47711 1.36933 0.0712966 </weights>
                </Neuron>
                <Neuron id="9">
                    <weights>-1.2758 0.247607 -1.86823 0.536981 -0.107153 0.312985 -1.0098 -0.228558 0.168697 -1.95351 -1.16367 -0.556103 -0.778032 -0.113806 -1.23729 -0.21317 -0.802317 </weights>
                </Neuron>
                <Neuron id="10">
                    <weights>-0.720855 -0.0869504 0.131902 -0.710926 1.57015 -1.04342 0.155047 1.99697 0.402677 -0.607533 -1.0041 -1.30036 -1.0801 2.33986 0.322443 -0.402539 1.10709 </weights>
                </Neuron>
                <Neuron id="11">
                    <weights>-1.78163 -0.356833 1.40621 0.302827 -0.935028 -0.390212 0.177154 -0.981002 0.751646 -0.558274 0.241013 -0.31221 -0.156854 0.627809 1.0307 0.305066 -0.840515 </weights>
                </Neuron>
            </NeuronLayer>
            <NeuronLayer id="2">
                <Neuron id="0">
                    <weights>0.722841 -0.319333 0.792383 -0.0229066 -0.640723 0.284033 -0.0300875 -0.230334 -0.939375 -0.873948 0.83629 0.593076 -0.213058 </weights>
                </Neuron>
                <Neuron id="1">
                    <weights>-1.67929 -1.4064 1.53581 1.64765 0.0420911 0.224159 -0.383065 1.09461 -0.206187 -0.266092 -1.9174 -0.202282 -0.457662 </weights>
                </Neuron>
                <Neuron id="2">
                    <weights>-0.325885 -1.74742 0.0240613 -0.908608 0.234006 1.09373 -0.132007 0.100516 -1.71171 0.0824555 -0.834832 0.324116 0.710198 </weights>
                </Neuron>
            </NeuronLayer>
        </NeuralNetwork>
    </Entity>
    <Entity type="Herbivore">
        <x>390.009</x>
        <y>498.967</y>
        <radius>8</radius>
        <angle>-0.0688013</angle>
        <maxSpeed>50</maxSpeed>
        <attack>20</attack>
        <energy>0</energy>
        <sex>false</sex>
        <mating>2500</mating>
        <age>226</age>
        <hunger>226</hunger>
        <thirst>226</thirst>
        <health>5000</health>
        <NeuralNetwork>
            <NeuronLayer id="0">
                <inputsNum>16</inputsNum>
            </NeuronLayer>
            <NeuronLayer id="1">
                <Neuron id="0">
                    <weights>0.819705 0.728103 1.62957 -1.51975 -0.328359 -0.965724 0.511861 0.785891 -0.529276 0.299485 0.337546 0.843533 0.468748 0.257709 -2.20297 1.50213 -0.90505 </weights>
                </Neuron>
                <Neuron id="1">
                    <weights>-0.401292 -0.857143 -0.31041 -0.0891209 0.333947 -0.416458 -0.7983 -0.512533 -0.336867 -0.193405 -0.963523 -0.49739 -1.89072 -0.394306 0.078373 -1.57104 0.317395 </weights>
                </Neuron>
                <Neuron id="2">
                    <weights>1.16915 -0.272195 -1.50936 0.045085 0.975917 0.243452 0.969782 1.35586 0.606646 -0.162574 -0.0949025 0.850078 0.652222 -0.568148 -0.489336 0.783803 0.208682 </weights>
                </Neuron>
                <Neuron id="3">
                    <weights>1.63777 1.80194 0.616708 1.73338 -0.100424 -1.04003 -0.318804 -0.300997 0.500968 -0.0194311 -0.474181 0.834961 -1.08159 0.95946 -0.57691 0.837027 0.400465 </weights>
                </Neuron>
                <Neuron id="4">
                    <weights>1.1141 0.583941 1.24583 -0.497767 -1.02594 0.636985 1.1381 -1.40619 -0.418807 -1.21421 -0.295704 -0.543887 -1.02673 1.43069 -1.80491 1.09774 1.78646 </weights>
                </Neuron>
                <Neuron id="5">
                    <weights>-0.577217 0.257082 0.0280175 -0.207073 0.542013 -0.1964 2.46466 1.21085 -0.38163 0.406762 -1.19436 0.64044 -1.373 1.01468 -0.68208 0.189634 -1.86525 </weights>
                </Neuron>
                <Neuron id="6">
                    <weights>-0.396871 -0.958067 1.61119 0.731604 -0.594745 0.359836 -0.940754 -0.410528 -0.896242 -0.199282 -1.37205 -2.75096 1.05298 2.30459 0.0811227 -1.16366 -1.79803 </weights>
                </Neuron>
                <Neuron id="7">
                    <weights>-1.80465 1.72158 0.0720223 -1.20212 -2.17004 0.0702789 0.325196 0.266634 0.330812 -1.31126 -1.2201 0.300688 0.0441957 -0.760158 1.38619 1.21545 0.0533862 </weights>
                </Neuron>
                <Neuron id="8">
                    <weights>-0.191859 1.76598 2.84536 0.835552 0.922769 0.0448069 0.771356 -2.67159 0.780056 1.14215 0.981348 -0.768919 -0.729447 0.790909 -0.113813 0.168029 -0.302531 </weights>
                </Neuron>
                <Neuron id="9">
                    <weights>-1.25042 0.336452 1.60082 -0.44418 0.231614 0.320126 0.175344 0.32424 -0.0544003 -0.754568 0.0736795 -1.51248 -0.66571 -0.492577 -0.652632 0.15087 1.43985 </weights>
                </Neuron>
                <Neuron id="10">
                    <weights>-0.794063 1.68387 -0.293597 -0.375086 -0.321479 0.625807 -1.49936 0.0752451 0.434145 0.965203 1.36995 -1.12573 -0.74585 -1.20502 1.04982 -1.02716 -1.99493 </weights>
                </Neuron>
                <Neuron id="11">
                    <weights>2.35163 0.0672533 -0.716379 1.76213 0.18308 0.599626 0.554898 0.341179 -0.37162 -0.256835 -0.489388 1.46452 -1.17691 0.739776 0.971769 0.857062 0.598837 </weights>
                </Neuron>
            </NeuronLayer>
            <NeuronLayer id="2">
                <Neuron id="0">
                    <weights>0.351636 0.855153 -2.41275 1.82438 -0.305194 1.20682 -1.75313 2.36096 -0.670736 1.20392 -1.31947 1.19239 0.256978 </weights>
                </Neuron>
                <Neuron id="1">
                    <weights>-0.304397 0.682944 0.771801 -0.969738 -0.369555 -0.830898 0.258766 0.100986 -1.73256 2.6113 -1.40474 -0.318919 -0.598619 </weights>
                </Neuron>
                <Neuron id="2">
                    <weights>-0.0226989 -1.14036 0.846823 0.661987 -0.488455 -0.031226 -1.24527 0.619822 -0.519279 0.59609 1.37362 -1.60291 -0.125734 </weights>
                </Neuron>
            </NeuronLayer>
        </NeuralNetwork>
    </Entity>
    <Entity type="Herbivore">
        <x>247.699</x>
        <y>190.748</y>
        <radius>8.0678</radius>
        <angle>-1.99475</angle>
        <maxSpeed>50</maxSpeed>
        <attack>20</attack>
        <energy>2</energy>
        <sex>false</sex>
        <mating>2500</mating>
        <age>226</age>
        <hunger>0</hunger>
        <thirst>226</thirst>
        <health>5000</health>
        <NeuralNetwork>
            <NeuronLayer id="0">
                <inputsNum>16</inputsNum>
            </NeuronLayer>
            <NeuronLayer id="1">
                <Neuron id="0">
                    <weights>-0.492959 -0.0213907 -2.71017 -0.784405 -1.33822 1.27459 -2.08807 0.420338 0.0767843 -0.127327 -2.2372 -0.994483 -0.383699 -0.770254 1.16809 0.163429 0.219666 </weights>
                </Neuron>
                <Neuron id="1">
                    <weights>0.0904195 -0.338845 0.0172764 -1.64488 1.45472 0.00796428 1.3441 0.348436 0.54871 0.252458 1.60937 -1.45332 -0.26951 1.14426 -0.732018 0.17198 -0.773387 </weights>
                </Neuron>
                <Neuron id="2">
                    <weights>1.0265 0.000964408 0.423772 -0.185639 -1.47692 -0.0214672 -0.506357 0.703349 1.39754 -0.63422 -0.48994 0.000819661 0.390403 -1.73627 -0.779938 0.110027 -0.160835 </weights>
                </Neuron>
                <Neuron id="3">
                    <weights>-0.0362028 0.27621 -0.20661 1.25147 -1.13716 -1.05853 0.0558264 0.124239 0.184359 -1.82789 0.962584 0.134828 0.630588 0.0719335 -2.4338 -0.450474 -0.0980479 </weights>
                </Neuron>
                <Neuron id="4">
                    <weights>0.328678 0.797845 -0.128141 1.41168 2.09185 0.257282 0.250594 -0.400981 0.633796 0.991299 -2.30265 -0.133282 -2.54099 -0.135058 1.39416 0.243517 0.206557 </weights>
                </Neuron>
                <Neuron id="5">
                    <weights>-1.49067 1.53303 0.676114 -1.38805 -1.22516 1.31267 0.548037 -1.20866 -1.40627 1.58718 -1.73473 -1.41229 1.87613 0.207322 -1.52542 0.402483 1.03242 </weights>
                </Neuron>
                <Neuron id="6">
                    <weights>-1.12209 -2.43126 1.85553 -1.32934 -0.11996 0.379845 0.149089 -0.302594 -0.329716 0.309202 -0.645815 -0.804236 -2.29255 1.82825 0.913959 0.183918 0.648312 </weights>
                </Neuron>
                <Neuron id="7">
                    <weights>0.642382 -0.782407 1.07219 0.501117 1.20686 -0.462844 -0.207414 -0.763086 -0.243948 -0.881302 0.438936 1.41236 0.19761 -1.39391 0.263341 -0.591334 0.750673 </weights>
                </Neuron>
                <Neuron id="8">
                    <weights>0.137334 0.612638 -0.720163 -0.78212 -0.461858 -1.61288 -0.0479647 0.151367 0.353396 0.0997764 0.406937 -0.121319 2.45385 -0.8711 0.153648 1.04531 0.635961 </weights>
                </Neuron>
                <Neuron id="9">
                    <weights>-1.18927 -0.630152 0.423808 -1.9258 -0.393627 -0.977062 0.184257 -1.08862 0.9687 0.314889 -1.36433 -0.366527 -0.106935 -0.165239 -0.587228 -2.03007 -1.68791 </weights>
                </Neuron>
                <Neuron id="10">
                    <weights>2.41486 -0.70814 -1.94152 0.902415 0.586533 0.572064 1.25183 -0.555845 -1.06497 -0.925391 0.581913 -0.0611777 -1.20377 -0.180571 -0.131945 0.70421 0.684288 </weights>
                </Neuron>
                <Neuron id="11">
                    <weights>-1.40872 -0.946863 -1.23224 0.669234 -1.88449 0.299072 -1.07486 0.354466 1.18905 -1.9939 0.643079 -1.09242 1.08884 -0.86537 0.301287 -0.120587 -0.272159 </weights>
                </Neuron>
            </NeuronLayer>
            <NeuronLayer id="2">
                <Neuron id="0">
                    <weights>0.89481 0.781411 1.47221 0.738598 -0.483729 0.265689 0.662972 -0.105201 -0.697603 -1.63422 -1.32574 1.39836 0.794444 </weights>
                </Neuron>
                <Neuron id="1">
                    <weights>1.13633 0.24904 -2.22275 0.811205 0.728789 -0.773774 0.447014 -0.75361 0.217268 0.45096 -0.183407 0.850586 -2.03642 </weights>
                </Neuron>
                <Neuron id="2">
                    <weights>-0.00476036 -0.202396 1.07132 0.707392 -0.737807 -0.291134 -1.37513 0.391511 0.265059 1.02441 -1.58221 -0.732436 0.214083 </weights>
                </Neuron>
            </NeuronLayer>
        </NeuralNetwork>
    </Entity>
    <Entity type="Carnivore">
        <x>10</x>
        <y>409</y>
        <radius>8.0678</radius>
        <angle>0.353614</angle>
        <maxSpeed>50</maxSpeed>
        <attack>200</attack>
        <energy>3</energy>
        <sex>false</sex>
        <mating>2500</mating>
        <age>226</age>
        <hunger>0</hunger>
        <thirst>226</thirst>
        <health>5000</health>
        <NeuralNetwork>
            <NeuronLayer id="0">
                <inputsNum>16</inputsNum>
            </NeuronLayer>
            <NeuronLayer id="1">
                <Neuron id="0">
                    <weights>-2.7549 0.267525 1.81512 -0.388406 1.40148 2.32309 1.79694 -0.722766 0.486702 -0.123361 -0.556135 0.960728 0.493415 0.0718677 -2.13307 -0.343849 1.21488 </weights>
                </Neuron>
                <Neuron id="1">
                    <weights>0.395641 0.52064 -1.30386 1.19908 -0.144919 -0.685692 0.413816 1.37308 -1.08169 0.908831 -0.200414 0.00246533 0.112175 -1.32988 -0.271091 1.49437 0.253428 </weights>
                </Neuron>
                <Neuron id="2">
                    <weights>-0.0990636 0.151054 -1.32687 -0.412599 1.27647 1.1955 1.17829 0.594502 0.616039 1.34674 0.440932 -1.9221 -0.231572 1.3229 -0.192017 -1.15917 1.49132 </weights>
                </Neuron>
                <Neuron id="3">
                    <weights>1.45632 -0.207391 -1.47938 -0.383074 -0.881246 -0.707557 0.560129 0.27922 -0.251899 0.36288 -1.57146 0.6388 1.40375 1.05499 -2.27138 1.27148 -0.512176 </weights>
                </Neuron>
                <Neuron id="4">
                    <weights>1.02184 1.50184 -0.67804 0.0470383 0.429677 -1.30687 -0.439766 -0.0886808 1.36574 -0.273149 -0.412073 0.580669 -0.543823 1.06407 -0.154654 0.882933 -0.620233 </weights>
                </Neuron>
                <Neuron id="5">
                    <weights>0.354729 -0.605428 -2.04484 0.730679 -1.29372 2.31635 0.545769 -0.075036 -0.604608 -0.512765 0.0214968 0.744252 2.13924 -0.0842476 1.00414 0.262009 -0.255018 </weights>
                </Neuron>
                <Neuron id="6">
                    <weights>0.731144 0.519447 -0.589831 -1.71509 -1.98808 0.831003 2.33166 1.54583 -1.12966 -0.746911 0.616466 -0.0902296 -0.836101 0.541469 1.22365 0.215202 0.246394 </weights>
                </Neuron>
                <Neuron id="7">
                    <weights>0.261342 -1.26817 -0.362887 0.724737 -0.781113 -1.11177 0.48783 1.25825 0.301594 -3.12645 -1.88055 -1.28879 1.13952 0.987283 -0.956075 -1.11621 -0.70331 </weights>
                </Neuron>
                <Neuron id="8">
                    <weights>-0.895159 -0.137101 0.445751 2.01027 -0.0647001 1.04896 -0.130801 -1.02255 1.23774 1.68122 2.00943 0.370863 -0.199886 1.9726 0.10011 1.32176 2.67071 </weights>
                </Neuron>
                <Neuron id="9">
                    <weights>0.353758 -0.886854 -1.05267 -0.79781 -0.86375 0.736927 0.568847 -2.00083 -0.505095 0.349221 -0.290192 -0.980196 -0.182496 -1.47684 -0.0356662 0.847831 0.751857 </weights>
                </Neuron>
                <Neuron id="10">
                    <weights>0.176902 -0.309903 -0.163184 0.704162 -0.225387 0.176914 -0.167288 -1.11261 -0.549953 -0.534616 -0.0928714 0.984725 -1.53905 -0.415828 -0.0427254 0.642715 -0.562423 </weights>
                </Neuron>
                <Neuron id="11">
                    <weights>-1.77768 -0.819286 1.57934 0.472666 1.42563 0.44267 0.822446 -2.12311 -1.51157 -0.0426546 -0.992049 0.688186 -1.28513 1.07487 0.0164032 0.426969 2.19169 </weights>
                </Neuron>
            </NeuronLayer>
            <NeuronLayer id="2">
                <Neuron id="0">
                    <weights>-2.0526 -0.397295 1.25512 0.48028 -0.0819698 0.341266 -2.34234 0.612036 0.175169 -1.13512 -0.549667 0.28015 -1.52977 </weights>
                </Neuron>
                <Neuron id="1">
                    <weights>-0.464302 0.62246 -0.109824 -0.559936 -3.17352 -0.264761 0.000473066 0.979437 0.0558615 0.786518 1.37453 0.247902 1.9856 </weights>
                </Neuron>
                <Neuron id="2">
                    <weights>1.89208 -0.0471677 -1.27346 -0.958755 0.218832 0.964973 1.44306 -0.634096 -0.32402 0.475171 0.598915 0.557618 0.209317 </weights>
                </Neuron>
            </NeuronLayer>
        </NeuralNetwork>
    </Entity>
    <Entity type="Carnivore">
        <x>410.469</x>
        <y>1.39221</y>
        <radius>8</radius>
        <angle>1.48101</angle>
        <maxSpeed>50</maxSpeed>
        <attack>200</attack>
        <energy>0</energy>
        <sex>true</sex>
        <mating>2500</mating>
        <age>226</age>
        <hunger>226</hunger>
        <thirst>226</thirst>
        <health>4860</health>
        <NeuralNetwork>
            <NeuronLayer id="0">
                <inputsNum>16</inputsNum>
            </NeuronLayer>
            <NeuronLayer id="1">
                <Neuron id="0">
                    <weights>0.0840767 -0.369483 2.42337 -1.85919 -0.50476 -0.45202 -1.47427 0.575799 -0.549829 1.36999 0.673639 -0.798827 0.370682 -0.319206 0.946119 0.686076 0.385587 </weights>
                </Neuron>
                <Neuron id="1">
                    <weights>-0.418422 -0.39308 -0.622786 -1.93874 0.969454 -1.00457 -0.896907 -0.798342 -0.15367 -0.503748 -1.26718 0.584734 -0.188583 -0.487824 0.0589445 -1.32596 -1.15695 </weights>
                </Neuron>
                <Neuron id="2">
                    <weights>0.255955 2.51228 -0.704196 0.315943 1.09287 -0.940241 -1.32489 -0.692876 -2.08801 0.957579 0.682885 -1.03233 -1.77287 0.0736172 0.960087 -0.371841 1.67938 </weights>
                </Neuron>
                <Neuron id="3">
                    <weights>-0.896489 3.22936 -0.228035 0.95749 -1.93706 -1.8288 -1.24994 0.14591 -0.133476 1.25628 0.618415 -0.0614476 -0.894947 -0.800229 1.20566 -0.032982 0.804768 </weights>
                </Neuron>
                <Neuron id="4">
                    <weights>1.17371 -1.76808 1.4508 0.0765907 -0.378718 -0.183315 -0.458667 0.377861 0.14704 0.18744 0.0326361 -0.123838 -0.709286 -0.108072 -0.582971 -0.391712 -0.0232151 </weights>
                </Neuron>
                <Neuron id="5">
                    <weights>0.894633 0.112089 -2.30458 -2.15484 -1.01491 -1.06172 0.527214 -0.113398 -1.23238 -1.06073 1.49085 1.37938 0.754914 0.0421119 0.676974 -1.36303 0.194633 </weights>
                </Neuron>
                <Neuron id="6">
                    <weights>-1.29131 -0.72847 1.14718 -0.369111 -0.205647 1.22387 -0.267911 0.241148 -0.997055 0.97388 0.87916 0.242068 -0.0585971 0.37888 -0.3119 0.339079 3.25141 </weights>
                </Neuron>
                <Neuron id="7">
                    <weights>0.0477737 0.488258 -1.44118 -1.82266 -0.536247 -0.997053 0.0537266 0.429759 0.745486 1.07534 1.92048 -0.240475 -0.0586575 -0.732535 0.139072 1.237 -0.177929 </weights>
                </Neuron>
                <Neuron id="8">
                    <weights>-0.545211 -0.481862 -0.878015 -0.414133 -0.31991 -0.282369 0.687606 -0.473885 2.39772 0.00910495 -1.20242 0.36602 -0.258215 0.05559 0.458973 -2.55472 0.327096 </weights>
                </Neuron>
                <Neuron id="9">
                    <weights>0.599811 -0.064915 -0.241854 -0.319769 -0.0979291 0.310297 0.334089 1.72725 -0.669362 0.39559 -0.324962 -0.201827 -0.455777 -1.93157 0.134527 0.986725 0.648397 </weights>
                </Neuron>
                <Neuron id="10">
                    <weights>0.854727 0.0722127 1.0918 0.173876 -1.56547 -0.883376 -0.420445 0.744154 -1.27139 0.922004 -0.599916 0.480084 1.4889 -1.89302 0.387197 0.37359 -1.70718 </weights>
                </Neuron>
                <Neuron id="11">
                    <weights>-1.88521 -2.28886 -0.141912 -0.475153 0.665798 -1.44274 0.524908 1.09144 0.827082 0.312494 -0.962159 -1.04186 0.139712 0.897692 -2.00626 1.69699 -0.995809 </weights>
                </Neuron>
            </NeuronLayer>
            <NeuronLayer id="2">
                <Neuron id="0">
                    <weights>0.123102 0.85095 -1.24564 -0.824221 1.00146 -0.685489 1.0181 -0.920047 -0.711404 0.0905607 0.06585 -1.14156 0.310209 </weights>
                </Neuron>
                <Neuron id="1">
                    <weights>0.442589 -1.18275 -0.185754 0.167163 0.188089 0.776258 -0.176491 -0.10565 1.00457 1.10072 0.224253 1.23789 -0.58666 </weights>
                </Neuron>
                <Neuron id="2">
                    <weights>-0.352703 -0.621617 0.893262 -0.13739 -0.592782 -0.593951 -0.310482 1.01591 -0.0804577 -0.520761 -0.171394 -1.00887 -0.638081 </weights>
                </Neuron>
            </NeuronLayer>
        </NeuralNetwork>
    </Entity>
    <Entity type="Carnivore">
        <x>84.0224</x>
        <y>435.722</y>
        <radius>8</radius>
        <angle>0.479511</angle>
        <maxSpeed>50</maxSpeed>
        <attack>200</attack>
        <energy>0</energy>
        <sex>true</sex>
        <mating>167</mating>
        <age>226</age>
        <hunger>226</hunger>
        <thirst>11</thirst>
        <health>4880</health>
        <NeuralNetwork>
            <NeuronLayer id="0">
                <inputsNum>16</inputsNum>
            </NeuronLayer>
            <NeuronLayer id="1">
                <Neuron id="0">
                    <weights>1.38079 1.19644 0.3629 -0.526435 0.870743 -2.31279 0.100481 0.799061 1.54413 1.86824 0.0113296 0.456494 1.34959 2.6975 -0.0281792 0.524644 -1.09382 </weights>
                </Neuron>
                <Neuron id="1">
                    <weights>1.78995 0.219191 -0.80187 0.136991 0.161475 -0.471471 -0.742016 -1.38867 -0.641054 0.471364 -0.0939578 -0.754838 0.461135 1.08318 -0.869772 0.360081 -0.842662 </weights>
                </Neuron>
                <Neuron id="2">
                    <weights>-1.3011 -0.907492 -0.00172842 -0.142335 1.75206 -0.329915 0.5764 -0.514761 0.109623 -0.257626 0.866738 -0.344889 0.617303 0.100478 1.02311 -0.709385 -0.690197 </weights>
                </Neuron>
                <Neuron id="3">
                    <weights>0.451773 0.743579 0.980143 0.230961 -1.65133 -0.208715 0.281805 -0.464277 1.11462 0.767589 -1.92193 -1.34054 1.16434 -0.222768 0.893673 -0.172507 0.395423 </weights>
                </Neuron>
                <Neuron id="4">
                    <weights>-2.15823 -0.276061 -0.064306 -1.36663 -1.44486 -0.900515 0.616378 -0.368693 -1.93846 1.57037 1.54957 0.399139 0.706941 -0.574281 0.615363 0.0897134 -0.735016 </weights>
                </Neuron>
                <Neuron id="5">
                    <weights>1.4128 -0.115098 -1.76763 -1.40542 0.11466 -0.492626 -0.675692 0.658333 -0.699633 0.966254 2.00351 -0.361671 1.20307 0.165189 0.0551065 -1.28944 -0.385622 </weights>
                </Neuron>
                <Neuron id="6">
                    <weights>0.811884 -1.13329 0.793594 -0.750515 -0.0747672 1.83837 -3.04319 -1.42994 2.76164 2.11882 -1.01821 -0.317538 -0.190474 -0.243087 -0.897776 -0.501635 -0.408112 </weights>
                </Neuron>
                <Neuron id="7">
                    <weights>-1.61808 -1.61232 -0.569861 -1.08387 -0.891662 -1.07305 -0.15727 0.369893 -1.07385 1.00856 0.68434 -1.41599 1.88183 -2.11861 0.773098 -0.587212 2.02524 </weights>
                </Neuron>
                <Neuron id="8">
                    <weights>-0.619 0.0352126 -0.544102 -1.68696 -0.71962 0.0610467 1.36495 0.887061 -0.426758 -1.39364 1.63189 -0.047741 0.54346 1.0236 -1.25491 0.0420339 0.215795 </weights>
                </Neuron>
                <Neuron id="9">
                    <weights>0.324785 -0.586586 0.74167 -0.921915 1.25273 -0.067047 -0.974394 -0.52195 0.749793 0.906367 -0.203153 -0.860422 0.710591 0.599199 -1.67871 0.248763 -0.753034 </weights>
                </Neuron>
                <Neuron id="10">
                    <weights>0.00411913 -0.643294 -1.07054 -1.03757 0.0408745 0.145725 -0.609452 -0.349409 -0.561175 -0.661654 -0.172125 -1.75243 -0.535923 0.00365301 -0.456185 0.78381 -1.88796 </weights>
                </Neuron>
                <Neuron id="11">
                    <weights>-0.130346 0.827194 1.08439 -0.238758 0.880019 0.502708 -0.330613 1.56067 -1.59532 -0.157173 0.13595 0.588753 -0.379038 0.774238 0.0979307 0.159016 -0.153197 </weights>
                </Neuron>
            </NeuronLayer>
            <NeuronLayer id="2">
                <Neuron id="0">
                    <weights>0.0798287 0.0980868 0.544588 -1.40705 -0.0489713 -1.58244 -0.265394 0.455544 -0.898871 -0.932448 0.915784 0.962139 0.450958 </weights>
                </Neuron>
                <Neuron id="1">
                    <weights>-0.349667 0.273154 -1.95971 -0.187309 -2.42119 0.11141 -1.16695 0.2221 0.984097 1.77227 0.989266 -0.985353 0.770944 </weights>
                </Neuron>
                <Neuron id="2">
                    <weights>0.798295 0.268572 -0.299871 -0.856334 -0.318293 -1.67323 0.0524349 0.110313 -0.0469809 -0.312758 1.01088 2.11159 -0.255371 </weights>
                </Neuron>
            </NeuronLayer>
        </NeuralNetwork>
    </Entity>
    <Entity type="Carnivore">
        <x>161.055</x>
        <y>414.356</y>
        <radius>8</radius>
        <angle>-1.83691</angle>
        <maxSpeed>50</maxSpeed>
        <attack>200</attack>
        <energy>2</energy>
        <sex>false</sex>
        <mating>2500</mating>
        <age>226</age>
        <hunger>226</hunger>
        <thirst>0</thirst>
        <health>4900</health>
        <NeuralNetwork>
            <NeuronLayer id="0">
                <inputsNum>16</inputsNum>
            </NeuronLayer>
            <NeuronLayer id="1">
                <Neuron id="0">
                    <weights>-0.521402 -1.16438 -0.355436 -0.976755 -0.537334 0.807519 -0.289789 -2.4587 1.44688 0.79217 -1.21975 -0.649794 0.43649 0.557079 0.420789 1.15822 0.791866 </weights>
                </Neuron>
                <Neuron id="1">
                    <weights>0.0816977 0.282005 -2.56002 2.15394 -0.603204 -0.477486 -0.114309 0.432648 -0.213074 -1.51673 0.370816 0.204114 0.193354 -0.754278 -0.786364 -0.249399 -0.481353 </weights>
                </Neuron>
                <Neuron id="2">
                    <weights>-1.09909 -0.0723529 0.154863 0.0869112 -0.167981 1.55215 -0.134797 0.495179 -1.03351 0.589617 0.166236 -1.1888 1.36904 1.10741 0.440223 -0.0706004 -0.465919 </weights>
                </Neuron>
                <Neuron id="3">
                    <weights>-1.24961 -1.25389 0.494391 -0.58125 1.23847 -0.863106 -1.35793 0.331327 0.0547266 0.068274 0.0178928 -0.775382 0.974645 -0.881918 -0.627564 0.130003 0.807571 </weights>
                </Neuron>
                <Neuron id="4">
                    <weights>1.72123 0.330252 -0.448235 0.823115 1.79483 -0.0899475 2.65354 0.985546 -0.755129 -1.04225 -0.296663 -1.40629 0.0473527 0.815992 -0.189927 1.12162 1.31357 </weights>
                </Neuron>
                <Neuron id="5">
                    <weights>-0.295749 -2.48549 -0.129069 -1.12151 -1.79006 -0.501841 0.555208 -0.804999 0.333792 -0.0889053 -0.823843 0.271711 0.52397 0.801468 -1.14536 -0.444595 -0.74452 </weights>
                </Neuron>
                <Neuron id="6">
                    <weights>-0.56405 0.402586 2.01925 -1.18019 -1.50991 1.49225 -1.66653 -1.35559 -0.0632785 -1.12287 0.59756 -0.232289 -0.0796478 -0.385621 0.103441 -0.786776 0.499923 </weights>
                </Neuron>
                <Neuron id="7">
                    <weights>-1.08299 1.11217 -0.706655 -1.25468 -0.130279 -1.11755 -1.35138 -0.910746 0.431562 -1.80824 -0.355802 -0.206442 -1.38619 -0.866575 1.0622 -0.526783 2.01582 </weights>
                </Neuron>
                <Neuron id="8">
                    <weights>-1.33896 -0.665954 0.635605 1.94893 0.420724 -1.47672 -1.5549 1.62768 -1.89488 -1.04201 -1.64165 0.902553 0.236336 0.27661 -1.79125 -0.330231 0.701718 </weights>
                </Neuron>
                <Neuron id="9">
                    <weights>0.564678 -0.242109 0.786912 -0.479896 -0.414493 1.07447 1.01757 0.670885 0.703677 -0.921701 1.92282 -0.911483 0.0536855 -2.80106 0.221444 0.183162 0.302186 </weights>
                </Neuron>
                <Neuron id="10">
                    <weights>-2.45325 0.0687142 0.438427 1.12284 1.08941 -0.32182 -0.937062 -0.219868 -1.14169 1.7458 0.762568 0.659253 1.20829 -1.59635 0.0386195 -1.08071 -1.02483 </weights>
                </Neuron>
                <Neuron id="11">
                    <weights>-0.512299 0.00106332 0.553693 -0.871987 2.04902 0.617762 0.984369 -0.945946 -0.790228 0.473941 0.206395 -0.464943 -0.927253 -0.766974 -0.350854 -0.605514 0.498287 </weights>
                </Neuron>
            </NeuronLayer>
            <NeuronLayer id="2">
                <Neuron id="0">
                    <weights>0.808343 1.10108 -0.547961 0.0974683 0.783574 0.25097 0.189181 0.141427 -0.42389 -0.532301 -0.887126 -0.757185 0.0266101 </weights>
                </Neuron>
                <Neuron id="1">
                    <weights>0.544231 -1.29074 -1.84504 1.64619 0.371726 0.445967 0.555271 0.0352032 -0.757954 -0.620867 1.8713 -1.79221 -0.930396 </weights>
                </Neuron>
                <Neuron id="2">
                    <weights>1.50509 -0.454551 0.250543 -1.30294 -0.95402 -0.314347 -0.0335922 0.213445 0.749245 0.0293654 -0.56693 -0.0894684 0.0373679 </weights>
                </Neuron>
            </NeuronLayer>
        </NeuralNetwork>
    </Entity>
    <Entity type="Carnivore">
        <x>408.943</x>
        <y>160.173</y>
        <radius>8</radius>
        <angle>-2.20032</angle>
        <maxSpeed>50</maxSpeed>
        <attack>200</attack>
        <energy>0</energy>
        <sex>false</sex>
        <mating>2500</mating>
        <age>226</age>
        <hunger>226</hunger>
        <thirst>226</thirst>
        <health>4800</health>
        <NeuralNetwork>
            <NeuronLayer id="0">
                <inputsNum>16</inputsNum>
            </NeuronLayer>
            <NeuronLayer id="1">
                <Neuron id="0">
                    <weights>0.277827 0.182419 -0.767219 -0.431549 1.79085 0.902514 2.64013 0.393921 -0.998798 0.0129728 -0.779075 0.189838 0.392002 -1.80087 0.809773 1.7258 -0.138723 </weights>
                </Neuron>
                <Neuron id="1">
