<?xml version="1.0" encoding="UTF-8"?>
<NeuralNetwork>
    <NeuronLayer id="0">
        <inputsNum>16</inputsNum>
    </NeuronLayer>
    <NeuronLayer id="1">
        <Neuron id="0">
            <weights>1.74428 0.06586 1.14352 0.319023 2.36283 1.33358 0.00351877 0.165062 0.647776 0.305706 1.3105 -0.124891 0.910156 -0.774987 -0.0853063 0.185183 -0.406376 </weights>
        </Neuron>
        <Neuron id="1">
            <weights>-0.379914 1.01665 2.46485 -1.70644 -1.32482 0.0579128 -0.36873 -0.906089 -1.67983 1.7161 0.808405 -0.879923 0.684871 -1.91013 -0.136817 -0.264232 0.823946 </weights>
        </Neuron>
        <Neuron id="2">
            <weights>0.149729 -0.934783 1.57505 0.561834 -0.85734 2.50546 -0.203564 -0.91229 0.361016 0.218237 0.297211 -1.56697 0.392735 -1.20627 -0.726702 -0.297486 0.818886 </weights>
        </Neuron>
        <Neuron id="3">
            <weights>-0.789789 -0.0823427 -0.123515 -1.70087 1.40578 0.285875 -0.188226 0.270642 -1.94233 -1.27788 -1.29586 -0.460888 0.52001 -0.0210977 -0.360608 0.146153 -0.185592 </weights>
        </Neuron>
        <Neuron id="4">
            <weights>0.301659 1.50421 -0.0847628 1.25896 -0.258677 0.564321 1.85509 1.72695 0.746561 -0.562587 -1.18343 -1.04456 -0.0594598 0.665551 0.571641 -1.0343 0.215194 </weights>
        </Neuron>
        <Neuron id="5">
            <weights>0.60971 1.31686 -1.57743 0.898476 -0.756603 -0.453825 -0.555253 0.464662 0.560038 -0.521136 0.231012 -1.38612 -1.1415 -2.30759 -0.123409 -0.181998 0.733456 </weights>
        </Neuron>
        <Neuron id="6">
            <weights>0.0499952 0.489158 -0.240869 0.0282921 0.0621275 0.835855 -0.778926 -0.783709 -0.415161 0.816459 0.442257 -0.42576 0.474491 0.546679 -0.87925 -0.60097 1.8537 </weights>
        </Neuron>
        <Neuron id="7">
            <weights>1.63901 -0.147711 -0.670307 -0.279232 1.51832 -1.005 1.2746 1.90314 0.120399 -0.162214 0.513777 -2.18209 -1.63684 -0.0537921 -0.386196 -1.27531 -1.78383 </weights>
        </Neuron>
        <Neuron id="8">
            <weights>-1.01926 0.739399 0.967686 -0.374269 -1.35136 0.172651 -0.852389 -0.845236 0.675216 0.240515 -0.264601 -1.56408 1.81394 -0.751569 1.37937 0.82068 -0.248642 </weights>
        </Neuron>
        <Neuron id="9">
            <weights>1.34692 -0.0495809 0.812421 0.562167 0.0684637 -0.899412 -0.0675434 -0.190438 1.52958 -0.801836 0.164019 -1.2178 0.864097 0.886798 -0.688911 0.0608089 -0.386983 </weights>
        </Neuron>
        <Neuron id="10">
            <weights>0.738436 2.40299 0.426833 1.95815 1.26161 -0.789209 0.918979 1.10986 -0.454963 0.627677 -0.44813 -0.741469 0.0967737 0.255494 -0.559627 0.67753 0.737725 </weights>
        </Neuron>
        <Neuron id="11">
            <weights>-1.1367 1.67276 0.191458 -0.545742 1.16146 -1.47257 1.4813 0.405262 1.42712 -0.41547 -0.544982 -0.399504 1.62994 1.27115 0.320092 0.668657 -0.780098 </weights>
        </Neuron>
    </NeuronLayer>
    <NeuronLayer id="2">
        <Neuron id="0">
            <weights>-1.48144 0.921539 -1.57361 0.498874 -0.64 -0.970197 -1.09956 -0.463704 -2.63614 1.47122 -0.157806 0.0223059 0.564819 </weights>
        </Neuron>
        <Neuron id="1">
            <weights>0.312469 0.234186 -1.4568 0.0701764 0.570144 0.892799 -1.27188 2.09935 -1.29044 -0.483961 2.06162 -0.0143677 -0.713738 </weights>
        </Neuron>
        <Neuron id="2">
            <weights>-0.186171 1.41519 -1.12195 0.573912 0.302436 0.445489 1.01792 0.788719 1.06243 -0.85886 -0.249811 -1.0145 0.529371 </weights>
        </Neuron>
    </NeuronLayer>
</NeuralNetwork>
