<?xml version="1.0" encoding="UTF-8"?>
<NeuralNetwork>
    <NeuronLayer id="0">
        <inputsNum>16</inputsNum>
    </NeuronLayer>
    <NeuronLayer id="1">
        <Neuron id="0">
            <weights>0.277827 0.182419 -0.767219 -0.431549 1.79085 0.902514 2.64013 0.393921 -0.998798 0.0129728 -0.779075 0.189838 0.392002 -1.80087 0.809773 1.7258 -0.138723 </weights>
        </Neuron>
        <Neuron id="1">
            <weights>-0.090042 0.711971 -0.19468 -0.0594886 0.410505 -1.05737 -1.41834 -1.67733 0.356218 -0.719072 0.370783 -0.735037 0.353358 0.447284 -0.425832 -0.154254 3.45554 </weights>
        </Neuron>
        <Neuron id="2">
            <weights>0.000134961 1.10767 1.6397 -0.516028 -1.65847 -0.917026 0.880337 -0.954515 -0.257594 0.639466 0.0162034 -1.12 1.42724 0.932815 -0.472966 1.19827 -0.612276 </weights>
        </Neuron>
        <Neuron id="3">
            <weights>-0.271214 -1.43798 -1.16489 0.755017 -0.0846912 0.621938 0.757676 -0.780445 0.22539 0.389258 0.686703 0.136022 -0.26941 -1.86815 -0.800008 2.3865 -1.1717 </weights>
        </Neuron>
        <Neuron id="4">
            <weights>-0.648609 1.80381 0.552877 -1.20742 0.649993 0.52737 -0.910194 0.592924 -0.107473 -1.19999 -1.18784 -0.598997 -0.326509 0.541785 -0.0482099 0.272694 0.0821021 </weights>
        </Neuron>
        <Neuron id="5">
            <weights>0.560158 0.104904 -0.0684713 -1.23607 -1.49475 -0.501717 -0.947433 0.421883 -2.31155 1.00586 -1.12311 1.29261 -0.883302 -0.467733 0.543809 0.0571041 -0.856795 </weights>
        </Neuron>
        <Neuron id="6">
            <weights>-0.849243 0.953187 -0.588967 -0.523326 0.614427 0.955626 0.9607 -1.51744 -0.177163 1.55814 -0.988771 0.0761658 -0.251846 0.789369 1.97589 -1.01386 -0.233094 </weights>
        </Neuron>
        <Neuron id="7">
            <weights>-0.732021 0.204269 0.00634476 0.876895 0.679561 -0.699644 0.579479 -0.833194 0.323268 0.514001 0.851348 1.2029 -0.690002 -1.18229 -1.06375 -0.0175178 0.683073 </weights>
        </Neuron>
        <Neuron id="8">
            <weights>2.51737 -0.146364 -0.598332 1.23355 1.9107 -0.357491 -1.28476 -0.977695 0.643862 2.43791 -0.0266772 1.90293 -0.640304 0.546844 0.489085 0.593947 -2.65557 </weights>
        </Neuron>
        <Neuron id="9">
            <weights>0.424917 -1.49862 1.57386 -0.992272 0.128219 0.660124 0.329444 -0.603495 1.23363 1.4837 1.41223 -0.196342 0.196812 -0.323397 -0.347576 0.499649 2.16517 </weights>
        </Neuron>
        <Neuron id="10">
            <weights>0.980087 0.450257 -1.8736 1.04322 -0.234591 0.852364 0.304179 0.756701 0.220653 -0.963554 0.0561164 -1.99434 0.324726 0.610734 0.40457 1.46491 0.179611 </weights>
        </Neuron>
        <Neuron id="11">
            <weights>-0.0703603 -1.81025 -2.30911 -1.3638 1.26435 1.11568 -1.58584 -1.30771 1.67569 0.202464 1.45301 -1.30632 -0.851937 -0.135474 -0.159836 0.408435 -0.308205 </weights>
        </Neuron>
    </NeuronLayer>
    <NeuronLayer id="2">
        <Neuron id="0">
            <weights>0.326072 0.859069 0.0079552 0.0908725 0.526129 -0.108285 -0.66836 0.282425 -0.739649 1.29394 0.458998 0.504951 1.03322 </weights>
        </Neuron>
        <Neuron id="1">
            <weights>-0.0693003 -1.89276 0.60577 1.2801 0.530505 -2.18418 0.663929 -0.881574 -0.729558 -0.170326 0.464147 -0.525176 -0.615224 </weights>
        </Neuron>
        <Neuron id="2">
            <weights>-0.877874 0.035659 0.464255 -0.548999 -1.01662 -0.899048 0.38352 0.656387 0.712651 0.774567 2.37255 1.11525 -0.814646 </weights>
        </Neuron>
    </NeuronLayer>
</NeuralNetwork>
