<?xml version="1.0" encoding="UTF-8"?>
<NeuralNetwork>
    <NeuronLayer id="0">
        <inputsNum>16</inputsNum>
    </NeuronLayer>
    <NeuronLayer id="1">
        <Neuron id="0">
            <weights>0.287273 0.282169 0.213032 0.394643 0.793602 0.618497 -2.55262 0.893505 -0.758486 0.160186 -0.00290698 1.36593 -2.34857 -2.05325 -1.63785 -2.02095 -0.145095 </weights>
        </Neuron>
        <Neuron id="1">
            <weights>0.525157 0.783181 -0.199935 0.133058 1.3752 -0.336446 0.366843 -0.199855 -0.194041 -0.143604 0.600211 -0.969973 -0.309407 -0.750087 1.42516 -0.0710015 -0.558258 </weights>
        </Neuron>
        <Neuron id="2">
            <weights>-1.56378 0.769827 -0.557701 -0.594183 -0.704297 1.13201 -0.0170093 0.817508 -1.19543 1.19673 -1.04613 -1.1193 -0.80451 -0.9901 -0.24089 0.952699 0.779168 </weights>
        </Neuron>
        <Neuron id="3">
            <weights>-0.975525 0.1602 -1.82467 0.631978 0.5658 -0.711853 -1.39659 1.19658 1.79247 0.875669 -0.175529 1.49832 0.134466 -0.793012 -0.177385 -0.198069 0.17356 </weights>
        </Neuron>
        <Neuron id="4">
            <weights>0.147538 -0.986878 -0.659661 0.304114 0.847215 1.04095 0.414949 -0.286651 -0.184552 -0.08709 0.0887127 0.0982454 -0.227467 -0.632361 0.0805538 -0.369366 -1.16928 </weights>
        </Neuron>
        <Neuron id="5">
            <weights>0.11288 -0.358489 -1.30304 -0.60852 0.54426 1.08893 -0.632276 -0.471243 0.885377 -0.493886 0.698338 0.0466192 -0.313995 0.180586 -0.411462 1.4438 0.702716 </weights>
        </Neuron>
        <Neuron id="6">
            <weights>-0.0207041 -0.809259 -0.525295 -0.285172 -1.84435 -0.103576 -1.26291 0.0670633 -0.723051 -0.837195 0.603425 1.03744 0.291274 0.143777 -1.94633 1.27104 0.0751385 </weights>
        </Neuron>
        <Neuron id="7">
            <weights>0.0922316 -1.0279 -0.471486 1.01668 0.14508 0.0731249 -0.673604 -0.975461 -0.885563 -0.253417 -0.180985 1.61588 -1.22138 -1.15708 1.04344 -0.0197444 0.99744 </weights>
        </Neuron>
        <Neuron id="8">
            <weights>-1.44689 -0.352533 -1.08589 1.25979 0.582235 1.07917 -1.16421 -0.406282 -0.363541 0.0334271 -1.52877 -1.10664 -0.18368 1.33521 -2.65897 0.861709 -1.202 </weights>
        </Neuron>
        <Neuron id="9">
            <weights>-1.5577 -1.15251 -0.808068 1.49251 -0.945476 1.02844 -0.00405803 0.450942 0.49014 0.149446 -1.61919 1.53986 0.884917 -0.418594 -0.284999 0.729883 -2.17625 </weights>
        </Neuron>
        <Neuron id="10">
            <weights>-0.574883 0.263198 1.47736 -0.299634 0.295722 -1.85249 0.87121 0.303964 0.970244 -2.00984 -0.214423 0.759559 -0.0326649 1.04929 0.209395 2.1414 1.0445 </weights>
        </Neuron>
        <Neuron id="11">
            <weights>-1.21137 0.488047 0.465538 -0.0729898 1.09389 0.448305 0.065874 0.645296 -0.709376 0.215723 -0.0744154 0.747168 -1.25627 0.246147 -0.0325389 0.904586 -0.80667 </weights>
        </Neuron>
    </NeuronLayer>
    <NeuronLayer id="2">
        <Neuron id="0">
            <weights>0.248319 -0.456097 -0.614482 -0.0370368 -0.149318 2.04733 0.442138 0.292237 -0.00312563 0.558005 -0.600346 0.670264 -0.0925976 </weights>
        </Neuron>
        <Neuron id="1">
            <weights>1.81125 -0.0775803 0.0572595 1.26213 -1.79211 0.764897 1.54289 -0.100801 0.0270109 -0.910765 -0.0195282 0.685173 -2.30515 </weights>
        </Neuron>
        <Neuron id="2">
            <weights>1.94686 0.139879 -0.475186 -0.217833 -0.978576 0.214272 0.0525946 -0.185505 -1.27003 -0.392036 0.710276 0.611299 -0.135219 </weights>
        </Neuron>
    </NeuronLayer>
</NeuralNetwork>
