<?xml version="1.0" encoding="UTF-8"?>
<NeuralNetwork>
    <NeuronLayer id="0">
        <inputsNum>16</inputsNum>
    </NeuronLayer>
    <NeuronLayer id="1">
        <Neuron id="0">
            <weights>1.56341 1.91113 -0.338646 -0.947741 0.383375 1.29202 -1.80752 0.469344 2.0231 0.671484 -0.221233 0.261434 -0.0820215 -0.329178 1.35147 -0.0412944 0.655264 </weights>
        </Neuron>
        <Neuron id="1">
            <weights>0.175842 2.59527 -0.133726 0.957422 0.273546 -0.127032 -1.06052 -0.55361 -0.50689 -0.846635 0.408799 0.98514 -0.512745 1.52061 1.72326 1.06484 -0.613078 </weights>
        </Neuron>
        <Neuron id="2">
            <weights>-1.38598 1.09597 1.36226 -0.178556 -0.999327 -0.311183 -0.535029 1.1469 1.29458 1.54389 -1.12018 -0.127601 1.56896 -0.0272678 -0.431396 0.767994 0.546935 </weights>
        </Neuron>
        <Neuron id="3">
            <weights>-0.596128 0.429632 -0.320723 -0.293005 1.20599 1.63783 0.0298476 0.695017 0.0937148 -1.44611 -0.333736 2.61849 -0.0369214 0.873131 0.424236 -1.17584 -0.218801 </weights>
        </Neuron>
        <Neuron id="4">
            <weights>-0.347851 -0.0311507 1.61363 0.564755 0.418099 1.44131 -0.900354 -2.59787 0.787284 0.224726 -1.42803 0.642884 0.0970208 -1.21278 1.8491 0.0498463 -0.292994 </weights>
        </Neuron>
    </NeuronLayer>
    <NeuronLayer id="2">
        <Neuron id="0">
            <weights>-0.825093 -0.601277 0.722083 0.439407 -1.72592 1.04934 </weights>
        </Neuron>
        <Neuron id="1">
            <weights>0.266267 -0.488767 0.883821 0.657627 0.365661 -1.69876 </weights>
        </Neuron>
        <Neuron id="2">
            <weights>-0.11776 1.26151 -1.35981 1.2213 -0.588 -0.33197 </weights>
        </Neuron>
    </NeuronLayer>
</NeuralNetwork>
