<?xml version="1.0" encoding="UTF-8"?>
<NeuralNetwork>
    <NeuronLayer id="0">
        <inputsNum>15</inputsNum>
    </NeuronLayer>
    <NeuronLayer id="1">
        <Neuron id="0">
            <weights>-0.0254771 0.880622 1.95852 -0.118693 0.306932 -0.00807374 3.77098 -0.687657 1.2219 -0.0794526 -1.35432 -0.275048 0.816083 1.17532 0.292106 -0.0864358 </weights>
        </Neuron>
        <Neuron id="1">
            <weights>0.811369 -0.176631 -1.36999 0.165272 -1.03591 0.350818 -0.596434 1.29964 -0.800276 -1.15908 -0.985101 1.0172 -0.527277 0.141538 -1.96598 -2.60819 </weights>
        </Neuron>
        <Neuron id="2">
            <weights>-0.754497 1.76494 0.092037 0.811359 -0.480744 -1.21239 0.0905095 -0.807297 -1.13726 0.0712778 -0.555656 1.62637 -0.393688 0.639894 0.801996 0.0644025 </weights>
        </Neuron>
        <Neuron id="3">
            <weights>0.271366 1.06052 -2.34823 0.977501 0.0505782 1.68966 2.07112 0.380084 -2.3663 -0.0173198 -0.826684 1.08026 1.37317 0.254322 -0.257178 0.67447 </weights>
        </Neuron>
        <Neuron id="4">
            <weights>0.0090341 -0.810797 -0.203887 -0.911714 0.871713 1.17863 0.383992 0.98602 2.26472 -1.9448 -0.219001 -0.389767 0.145967 0.153792 -1.88398 -1.82422 </weights>
        </Neuron>
        <Neuron id="5">
            <weights>-1.90977 1.54072 0.794866 -0.657078 0.195597 -0.0672261 -0.413638 1.92624 -0.986341 -0.30589 0.560706 -0.850599 0.517281 0.656053 0.650457 -1.54078 </weights>
        </Neuron>
        <Neuron id="6">
            <weights>-2.95932 0.926584 -0.617584 -0.0184023 -0.522575 0.29171 1.1813 1.31055 -0.681571 -0.642578 0.985451 0.560706 0.943467 0.608757 -0.725292 -1.26862 </weights>
        </Neuron>
        <Neuron id="7">
            <weights>-0.212614 -0.961123 1.16107 -0.0724887 1.40388 1.42553 -1.51354 -0.0306607 0.639934 -1.6483 -2.65091 2.19887 1.37163 0.266173 -1.57939 0.119524 </weights>
        </Neuron>
        <Neuron id="8">
            <weights>1.87551 -1.15394 -0.511567 -0.0777255 -1.27424 -1.38215 0.673828 1.48244 1.1203 1.16547 0.100368 -0.157651 0.771184 -0.0855319 -1.50948 -0.711291 </weights>
        </Neuron>
        <Neuron id="9">
            <weights>0.532779 0.09224 -0.566551 -0.192849 -0.262249 -0.103148 0.161707 -0.220542 0.072386 -1.26704 2.93176 1.33121 0.77733 -1.39719 -0.956703 0.435623 </weights>
        </Neuron>
        <Neuron id="10">
            <weights>-1.88485 -0.823463 0.654885 -0.143276 0.389132 0.378181 1.17438 0.592973 1.37054 1.8312 -0.406491 0.108636 -0.636279 -1.00726 1.08769 0.684089 </weights>
        </Neuron>
        <Neuron id="11">
            <weights>0.275059 1.11313 0.654468 1.08018 -0.137751 -0.983251 1.02666 -0.707903 -1.13734 -0.603776 -0.734549 0.622336 1.6161 1.55872 1.04081 0.429396 </weights>
        </Neuron>
    </NeuronLayer>
    <NeuronLayer id="2">
        <Neuron id="0">
            <weights>-0.141295 -0.93801 -0.81028 0.278217 -0.530477 -0.27613 -0.758124 -0.981693 -0.67555 -0.726198 0.727465 -0.0107952 0.705741 </weights>
        </Neuron>
        <Neuron id="1">
            <weights>0.215943 -0.0825554 -1.53734 0.864153 -0.0636813 -1.53434 -0.793499 0.354266 -0.20953 0.949446 -0.252825 -0.175941 -1.34259 </weights>
        </Neuron>
        <Neuron id="2">
            <weights>0.919725 0.30132 -0.928943 0.429624 1.10758 -0.0264327 0.673998 -2.37753 -0.0267083 -0.0836368 -1.10521 0.604147 2.7288 </weights>
        </Neuron>
    </NeuronLayer>
</NeuralNetwork>
