<?xml version="1.0" encoding="UTF-8"?>
<World>
    <x>500</x>
    <y>500</y>
    <age>25959527</age>
    <generationNumber>1827</generationNumber>
    <Entity type="Water">
        <x>130.641</x>
        <y>233.967</y>
        <radius>12</radius>
        <quantity>0</quantity>
        <maxQuantity>400</maxQuantity>
    </Entity>
    <Entity type="Water">
        <x>267.221</x>
        <y>365.796</y>
        <radius>12</radius>
        <quantity>0</quantity>
        <maxQuantity>400</maxQuantity>
    </Entity>
    <Entity type="Water">
        <x>321.853</x>
        <y>361.045</y>
        <radius>12</radius>
        <quantity>1</quantity>
        <maxQuantity>400</maxQuantity>
    </Entity>
    <Entity type="Water">
        <x>290.974</x>
        <y>340.855</y>
        <radius>12</radius>
        <quantity>1</quantity>
        <maxQuantity>400</maxQuantity>
    </Entity>
    <Entity type="Water">
        <x>285.036</x>
        <y>144.893</y>
        <radius>17</radius>
        <quantity>346</quantity>
        <maxQuantity>400</maxQuantity>
    </Entity>
    <Entity type="Water">
        <x>185.273</x>
        <y>105.701</y>
        <radius>17</radius>
        <quantity>317</quantity>
        <maxQuantity>400</maxQuantity>
    </Entity>
    <Entity type="Vegetal">
        <x>85.5107</x>
        <y>371.734</y>
        <radius>17</radius>
        <quantity>198</quantity>
        <maxQuantity>400</maxQuantity>
    </Entity>
    <Entity type="Vegetal">
        <x>81.9477</x>
        <y>416.865</y>
        <radius>17</radius>
        <quantity>326</quantity>
        <maxQuantity>400</maxQuantity>
    </Entity>
    <Entity type="Vegetal">
        <x>121.14</x>
        <y>403.8</y>
        <radius>17</radius>
        <quantity>239</quantity>
        <maxQuantity>400</maxQuantity>
    </Entity>
    <Entity type="Vegetal">
        <x>370.546</x>
        <y>264.846</y>
        <radius>17</radius>
        <quantity>394</quantity>
        <maxQuantity>400</maxQuantity>
    </Entity>
    <Entity type="Vegetal">
        <x>99.7625</x>
        <y>102.138</y>
        <radius>8</radius>
        <quantity>262</quantity>
        <maxQuantity>400</maxQuantity>
    </Entity>
    <Entity type="Vegetal">
        <x>55.8195</x>
        <y>141.33</y>
        <radius>8</radius>
        <quantity>275</quantity>
        <maxQuantity>400</maxQuantity>
    </Entity>
    <Entity type="Carnivore">
        <x>61.9028</x>
        <y>303.503</y>
        <radius>7</radius>
        <angle>1.57616</angle>
        <maxSpeed>50</maxSpeed>
        <attack>120</attack>
        <energy>6</energy>
        <sex>true</sex>
        <mating>1200</mating>
        <age>8357</age>
        <hunger>26</hunger>
        <thirst>2797</thirst>
        <health>2828</health>
        <NeuralNetwork>
            <NeuronLayer id="0">
                <inputsNum>35</inputsNum>
            </NeuronLayer>
            <NeuronLayer id="1">
                <Neuron id="0">
                    <weights>0.0320795 -0.599988 0.0897036 0.441497 0.202211 1.29529 0.0451378 -0.968194 -0.447274 1.4392 0.52419 0.729476 -0.339793 -0.866637 -0.662022 -3.46399 0.825106 0.440531 1.34733 -0.245073 0.721822 1.81612 -0.053797 0.246234 1.3468 0.0201695 0.383301 -1.97622 0.0254964 1.54782 -0.500415 0.741959 0.874376 -1.29128 -1.14913 -0.160271 </weights>
                </Neuron>
                <Neuron id="1">
                    <weights>1.24179 -0.135768 -0.123725 -0.193625 1.55512 0.16243 -2.04493 -0.600361 -1.95517 -0.730057 -0.554665 0.157716 0.367619 1.32465 -1.32439 1.22606 -0.208166 0.636784 -0.486528 -0.0140601 1.29864 -1.41034 0.0544692 1.43421 -0.124213 -0.15693 -0.0617833 -1.64187 1.61997 1.2911 0.409758 -1.69714 -0.393391 1.17252 0.475986 -1.01909 </weights>
                </Neuron>
                <Neuron id="2">
                    <weights>0.77729 -0.40589 0.660252 0.270207 0.600527 -0.241225 1.03039 0.734057 -0.394792 0.180992 -0.576828 -0.588825 -0.610032 0.472995 -0.763827 -0.111755 -0.394005 -0.936475 1.69873 0.376336 -0.0371597 0.863918 -1.07117 -2.05094 -0.219676 -1.38692 1.02131 -0.689964 0.00554931 1.4436 1.85994 -0.229953 -0.363374 2.44629 -0.417492 0.0289356 </weights>
                </Neuron>
            </NeuronLayer>
            <NeuronLayer id="2">
                <Neuron id="0">
                    <weights>-2.19377 -1.3905 -0.579011 0.385438 </weights>
                </Neuron>
                <Neuron id="1">
                    <weights>0.717214 0.0088904 0.44764 -0.0277398 </weights>
                </Neuron>
                <Neuron id="2">
                    <weights>0.311608 0.0595522 -1.43887 -1.69435 </weights>
                </Neuron>
            </NeuronLayer>
        </NeuralNetwork>
    </Entity>
    <Entity type="Carnivore">
        <x>296.229</x>
        <y>357.524</y>
        <radius>7</radius>
        <angle>-0.942766</angle>
        <maxSpeed>50</maxSpeed>
        <attack>120</attack>
        <energy>43</energy>
        <sex>true</sex>
        <mating>907</mating>
        <age>5389</age>
        <hunger>388</hunger>
        <thirst>2773</thirst>
        <health>2447</health>
        <NeuralNetwork>
            <NeuronLayer id="0">
                <inputsNum>35</inputsNum>
            </NeuronLayer>
            <NeuronLayer id="1">
                <Neuron id="0">
                    <weights>0.0320795 -0.599988 0.0897036 0.441497 0.202211 1.29529 0.0451378 -0.968194 -0.447274 1.4392 0.52419 0.729476 -0.339793 -0.866637 -0.662022 -3.46399 0.825106 0.440531 1.34733 -0.245073 0.721822 1.81612 -0.053797 0.246234 1.3468 0.0137144 0.383301 -1.97622 0.0254964 1.54782 -0.500415 0.741959 0.874376 -1.29128 -1.14913 -0.160271 </weights>
                </Neuron>
                <Neuron id="1">
                    <weights>1.24179 -0.135768 -0.123725 -0.193625 1.55512 0.16243 -2.04493 -0.600361 -1.95517 -0.730057 -0.554665 0.157716 0.367619 1.32465 -1.32439 1.22606 -0.208166 0.636784 -0.486528 -0.0140601 1.29864 -1.41034 0.0532844 1.43421 -0.124213 -0.15693 -0.0617833 -1.64187 1.61997 1.2911 0.409758 -1.69714 -0.393391 1.17252 0.475986 -1.01631 </weights>
                </Neuron>
                <Neuron id="2">
                    <weights>0.77729 -0.40589 0.660252 0.270207 0.600527 -0.24392 1.03039 0.733501 -0.394792 0.180992 -0.576828 -0.588825 -0.610032 0.472995 -0.763827 -0.111755 -0.394005 -0.936475 1.69873 0.376336 -0.0371597 0.863918 -1.07117 -2.05094 -0.219676 -1.38692 1.02131 -0.689964 0.00554931 1.4436 1.85994 -0.229953 -0.363374 2.44629 -0.417492 0.0289356 </weights>
                </Neuron>
            </NeuronLayer>
            <NeuronLayer id="2">
                <Neuron id="0">
                    <weights>-2.19377 -1.3905 -0.579011 0.385438 </weights>
                </Neuron>
                <Neuron id="1">
                    <weights>0.717214 0.0088904 0.44764 -0.0295842 </weights>
                </Neuron>
                <Neuron id="2">
                    <weights>0.311608 0.0595522 -1.43887 -1.69435 </weights>
                </Neuron>
            </NeuronLayer>
        </NeuralNetwork>
    </Entity>
    <Entity type="Carnivore">
        <x>397.437</x>
        <y>377.737</y>
        <radius>7</radius>
        <angle>1.64808</angle>
        <maxSpeed>50</maxSpeed>
        <attack>120</attack>
        <energy>10</energy>
        <sex>true</sex>
        <mating>1200</mating>
        <age>4154</age>
        <hunger>567</hunger>
        <thirst>2999</thirst>
        <health>2269</health>
        <NeuralNetwork>
            <NeuronLayer id="0">
                <inputsNum>35</inputsNum>
            </NeuronLayer>
            <NeuronLayer id="1">
                <Neuron id="0">
                    <weights>0.0320795 -0.599988 0.0896147 0.441497 0.202211 1.29529 0.0451378 -0.968194 -0.447274 1.4392 0.52419 0.729476 -0.339793 -0.866637 -0.662022 -3.46399 0.825106 0.440531 1.34733 -0.245073 0.721822 1.81612 -0.053797 0.246234 1.3468 0.0137144 0.383301 -1.97622 0.0254964 1.54782 -0.500415 0.741959 0.874376 -1.29128 -1.14913 -0.160271 </weights>
                </Neuron>
                <Neuron id="1">
                    <weights>1.24478 -0.135768 -0.123725 -0.193625 1.55512 0.16243 -2.05751 -0.594529 -1.95517 -0.730057 -0.554665 0.157716 0.367619 1.32465 -1.32439 1.22606 -0.208166 0.636784 -0.486528 -0.0140601 1.29864 -1.41034 0.0532844 1.43421 -0.124213 -0.15693 -0.0617833 -1.64187 1.61997 1.2911 0.409758 -1.69714 -0.393391 1.17252 0.475986 -1.01213 </weights>
                </Neuron>
                <Neuron id="2">
                    <weights>0.77729 -0.40589 0.660252 0.270207 0.600527 -0.241225 1.03039 0.733501 -0.394792 0.180992 -0.576828 -0.588825 -0.610032 0.472995 -0.763827 -0.111755 -0.394005 -0.936475 1.69873 0.376336 -0.0371597 0.863918 -1.07117 -2.05094 -0.219676 -1.38692 1.02131 -0.689964 0.00554931 1.4436 1.85994 -0.229953 -0.363374 2.44629 -0.417492 0.0289356 </weights>
                </Neuron>
            </NeuronLayer>
            <NeuronLayer id="2">
                <Neuron id="0">
                    <weights>-2.19377 -1.3905 -0.579011 0.385438 </weights>
                </Neuron>
                <Neuron id="1">
                    <weights>0.717214 0.0088904 0.44764 -0.0295842 </weights>
                </Neuron>
                <Neuron id="2">
                    <weights>0.314477 0.0595522 -1.43887 -1.69435 </weights>
                </Neuron>
            </NeuronLayer>
        </NeuralNetwork>
    </Entity>
    <Entity type="Carnivore">
        <x>319.36</x>
        <y>362.378</y>
        <radius>7</radius>
        <angle>-0.975043</angle>
        <maxSpeed>50</maxSpeed>
        <attack>120</attack>
        <energy>73</energy>
        <sex>true</sex>
        <mating>1200</mating>
        <age>3839</age>
        <hunger>605</hunger>
        <thirst>3188</thirst>
        <health>1949</health>
        <NeuralNetwork>
            <NeuronLayer id="0">
                <inputsNum>35</inputsNum>
            </NeuronLayer>
            <NeuronLayer id="1">
                <Neuron id="0">
                    <weights>0.0320795 -0.599988 0.0897036 0.441497 0.202211 1.29529 0.0451378 -0.968194 -0.447274 1.4392 0.52419 0.729476 -0.339793 -0.866637 -0.662022 -3.46399 0.825106 0.440531 1.34733 -0.245073 0.721822 1.81612 -0.053797 0.246234 1.3468 0.0201695 0.383301 -1.97622 0.0254964 1.54782 -0.500415 0.741959 0.874376 -1.29128 -1.14913 -0.160271 </weights>
                </Neuron>
                <Neuron id="1">
                    <weights>1.24179 -0.135768 -0.123725 -0.193625 1.55512 0.16243 -2.04493 -0.600361 -1.95517 -0.730057 -0.554665 0.157716 0.367619 1.32465 -1.32439 1.22606 -0.208166 0.636784 -0.486528 -0.0140601 1.29864 -1.41034 0.0544692 1.43421 -0.124213 -0.15693 -0.0577237 -1.64187 1.61997 1.2911 0.409758 -1.69714 -0.393391 1.17252 0.475986 -1.01909 </weights>
                </Neuron>
                <Neuron id="2">
                    <weights>0.77729 -0.40589 0.660252 0.270207 0.600527 -0.241225 1.03039 0.734057 -0.394792 0.180992 -0.576828 -0.588825 -0.610032 0.472995 -0.763827 -0.111755 -0.394005 -0.936475 1.69873 0.376336 -0.0371597 0.863918 -1.07117 -2.05094 -0.219676 -1.38692 1.02131 -0.689964 0.00554931 1.4436 1.85994 -0.229953 -0.363374 2.44629 -0.417492 0.0289356 </weights>
                </Neuron>
            </NeuronLayer>
            <NeuronLayer id="2">
                <Neuron id="0">
                    <weights>-2.19377 -1.3905 -0.579011 0.385438 </weights>
                </Neuron>
                <Neuron id="1">
                    <weights>0.717214 0.0088904 0.44764 -0.0277398 </weights>
                </Neuron>
                <Neuron id="2">
                    <weights>0.311608 0.0595522 -1.43887 -1.69435 </weights>
                </Neuron>
            </NeuronLayer>
        </NeuralNetwork>
    </Entity>
    <Entity type="Carnivore">
        <x>317.459</x>
        <y>390.005</y>
        <radius>7</radius>
        <angle>0.447107</angle>
        <maxSpeed>50</maxSpeed>
        <attack>120</attack>
        <energy>76</energy>
        <sex>false</sex>
        <mating>1200</mating>
        <age>3839</age>
        <hunger>360</hunger>
        <thirst>1489</thirst>
        <health>3000</health>
        <NeuralNetwork>
            <NeuronLayer id="0">
                <inputsNum>35</inputsNum>
            </NeuronLayer>
            <NeuronLayer id="1">
                <Neuron id="0">
                    <weights>0.0320795 -0.599988 0.0897036 0.441497 0.202211 1.29529 0.0451378 -0.968194 -0.447274 1.4392 0.52419 0.729476 -0.339793 -0.866637 -0.662022 -3.46399 0.825106 0.440531 1.34733 -0.245073 0.721822 1.8153 -0.053797 0.246234 1.3468 0.0201695 0.383301 -1.97622 0.0254964 1.54782 -0.500415 0.741959 0.874376 -1.29128 -1.14913 -0.160271 </weights>
                </Neuron>
                <Neuron id="1">
                    <weights>1.24179 -0.135768 -0.123725 -0.193625 1.55512 0.16243 -2.04493 -0.600361 -1.95517 -0.730057 -0.554665 0.157716 0.367619 1.32465 -1.32439 1.22606 -0.208166 0.636784 -0.486528 -0.0140601 1.29864 -1.41034 0.0544692 1.43421 -0.124213 -0.15693 -0.0617833 -1.64187 1.61997 1.2911 0.409758 -1.69714 -0.393391 1.17252 0.475986 -1.01909 </weights>
                </Neuron>
                <Neuron id="2">
                    <weights>0.77729 -0.40589 0.660252 0.270207 0.600527 -0.241225 1.03039 0.734057 -0.394792 0.180992 -0.576828 -0.588825 -0.610032 0.472995 -0.763827 -0.111755 -0.394005 -0.936475 1.69873 0.376336 -0.0371597 0.863918 -1.07117 -2.05094 -0.219676 -1.38692 1.02131 -0.689964 0.00554931 1.4436 1.85994 -0.229953 -0.363374 2.44629 -0.417492 0.0289356 </weights>
                </Neuron>
            </NeuronLayer>
            <NeuronLayer id="2">
                <Neuron id="0">
                    <weights>-2.19377 -1.3905 -0.579011 0.385438 </weights>
                </Neuron>
                <Neuron id="1">
                    <weights>0.717214 0.0088904 0.44764 -0.0277398 </weights>
                </Neuron>
                <Neuron id="2">
                    <weights>0.311608 0.0595522 -1.43887 -1.69435 </weights>
                </Neuron>
            </NeuronLayer>
        </NeuralNetwork>
    </Entity>
    <Entity type="Carnivore">
        <x>267.836</x>
        <y>371.712</y>
        <radius>7</radius>
        <angle>-1.4371</angle>
        <maxSpeed>50</maxSpeed>
        <attack>120</attack>
        <energy>66</energy>
        <sex>false</sex>
        <mating>907</mating>
        <age>3077</age>
        <hunger>165</hunger>
        <thirst>2875</thirst>
        <health>2700</health>
        <NeuralNetwork>
            <NeuronLayer id="0">
                <inputsNum>35</inputsNum>
            </NeuronLayer>
            <NeuronLayer id="1">
                <Neuron id="0">
                    <weights>0.0320795 -0.599988 0.0897036 0.441497 0.202211 1.29529 0.0451378 -0.968194 -0.447274 1.4392 0.52419 0.729476 -0.339793 -0.866637 -0.662022 -3.46399 0.825106 0.440531 1.34733 -0.245073 0.721822 1.81612 -0.053797 0.246234 1.3468 0.0137144 0.383301 -1.97622 0.0254964 1.54782 -0.500415 0.741959 0.874376 -1.29128 -1.14913 -0.160271 </weights>
                </Neuron>
                <Neuron id="1">
                    <weights>1.24179 -0.135768 -0.123725 -0.193625 1.55512 0.16243 -2.04493 -0.600361 -1.95517 -0.730057 -0.554665 0.157716 0.367619 1.32465 -1.32439 1.22606 -0.208166 0.636784 -0.486528 -0.0140601 1.29864 -1.41034 0.0532844 1.43421 -0.124213 -0.15693 -0.0617833 -1.64187 1.61997 1.2911 0.409758 -1.69714 -0.393391 1.17252 0.475986 -1.01631 </weights>
                </Neuron>
                <Neuron id="2">
                    <weights>0.77729 -0.40589 0.654181 0.270207 0.600527 -0.24392 1.03039 0.733501 -0.394792 0.180992 -0.576828 -0.588825 -0.610032 0.472995 -0.763827 -0.111755 -0.394005 -0.936475 1.69873 0.376336 -0.0371597 0.863918 -1.07117 -2.05094 -0.219676 -1.38692 1.02131 -0.689964 0.00554931 1.4436 1.85994 -0.229953 -0.363374 2.44629 -0.417492 0.0289356 </weights>
                </Neuron>
            </NeuronLayer>
            <NeuronLayer id="2">
                <Neuron id="0">
                    <weights>-2.19377 -1.3905 -0.579011 0.385438 </weights>
                </Neuron>
                <Neuron id="1">
                    <weights>0.717214 0.0088904 0.44764 -0.0295842 </weights>
                </Neuron>
                <Neuron id="2">
                    <weights>0.311608 0.0595522 -1.43887 -1.69435 </weights>
                </Neuron>
            </NeuronLayer>
        </NeuralNetwork>
    </Entity>
    <Entity type="Carnivore">
        <x>139.077</x>
        <y>59.6911</y>
        <radius>7</radius>
        <angle>2.1768</angle>
        <maxSpeed>50</maxSpeed>
        <attack>120</attack>
        <energy>10</energy>
        <sex>false</sex>
        <mating>1200</mating>
        <age>3077</age>
        <hunger>1</hunger>
        <thirst>3077</thirst>
        <health>2548</health>
        <NeuralNetwork>
            <NeuronLayer id="0">
                <inputsNum>35</inputsNum>
            </NeuronLayer>
            <NeuronLayer id="1">
                <Neuron id="0">
                    <weights>0.0320795 -0.599988 0.0897036 0.441497 0.202211 1.29529 0.0451378 -0.968194 -0.447274 1.4392 0.52419 0.729476 -0.339793 -0.866637 -0.662022 -3.46399 0.825106 0.440531 1.34733 -0.245073 0.721822 1.81612 -0.053797 0.246234 1.3468 0.0137144 0.383301 -1.97622 0.0254964 1.54782 -0.500415 0.741959 0.874376 -1.29128 -1.14913 -0.160271 </weights>
                </Neuron>
                <Neuron id="1">
                    <weights>1.24179 -0.135768 -0.123725 -0.193625 1.55512 0.16243 -2.04493 -0.600361 -1.95517 -0.730057 -0.554665 0.157716 0.367619 1.32465 -1.32439 1.22606 -0.208166 0.636784 -0.486528 -0.0140601 1.29864 -1.41034 0.0532844 1.43421 -0.124213 -0.15693 -0.0617833 -1.64187 1.61997 1.2911 0.409758 -1.69714 -0.393391 1.17252 0.475986 -1.01631 </weights>
                </Neuron>
                <Neuron id="2">
                    <weights>0.77729 -0.40589 0.660252 0.270207 0.600527 -0.24392 1.03039 0.733501 -0.394792 0.180992 -0.576828 -0.588825 -0.610032 0.472995 -0.763827 -0.111755 -0.394005 -0.936475 1.69873 0.376336 -0.0371597 0.863918 -1.07117 -2.05094 -0.219676 -1.38692 1.02131 -0.689964 0.00554931 1.4436 1.85994 -0.229953 -0.363374 2.44629 -0.417492 0.0289356 </weights>
                </Neuron>
            </NeuronLayer>
            <NeuronLayer id="2">
                <Neuron id="0">
                    <weights>-2.19377 -1.3905 -0.579011 0.385438 </weights>
                </Neuron>
                <Neuron id="1">
                    <weights>0.717214 0.0088904 0.44764 -0.0295842 </weights>
                </Neuron>
                <Neuron id="2">
                    <weights>0.311608 0.0595522 -1.43887 -1.69435 </weights>
                </Neuron>
            </NeuronLayer>
        </NeuralNetwork>
    </Entity>
    <Entity type="Carnivore">
        <x>110.027</x>
        <y>301.531</y>
        <radius>7</radius>
        <angle>2.32901</angle>
        <maxSpeed>50</maxSpeed>
        <attack>120</attack>
        <energy>10</energy>
        <sex>false</sex>
        <mating>1200</mating>
        <age>2819</age>
        <hunger>0</hunger>
        <thirst>2435</thirst>
        <health>3000</health>
        <NeuralNetwork>
            <NeuronLayer id="0">
                <inputsNum>35</inputsNum>
            </NeuronLayer>
            <NeuronLayer id="1">
                <Neuron id="0">
                    <weights>0.0320795 -0.599988 0.0897036 0.441497 0.202211 1.29529 0.0451378 -0.968194 -0.447274 1.4392 0.52419 0.729476 -0.339793 -0.866637 -0.662022 -3.46399 0.825106 0.440531 1.34733 -0.245073 0.721822 1.81612 -0.053797 0.246234 1.3468 0.0137144 0.383301 -1.97622 0.0254964 1.54782 -0.500415 0.741959 0.874376 -1.29128 -1.14913 -0.160271 </weights>
                </Neuron>
                <Neuron id="1">
                    <weights>1.24179 -0.135768 -0.123725 -0.193625 1.55512 0.16243 -2.04493 -0.600361 -1.95517 -0.730057 -0.554665 0.157716 0.367619 1.32465 -1.32439 1.22606 -0.208166 0.636784 -0.486528 -0.0140601 1.29864 -1.41034 0.0532844 1.43421 -0.124213 -0.15693 -0.0617833 -1.64187 1.61997 1.2911 0.409758 -1.69714 -0.393391 1.17252 0.475986 -1.01631 </weights>
                </Neuron>
                <Neuron id="2">
                    <weights>0.77729 -0.40589 0.660252 0.270207 0.600527 -0.24392 1.03039 0.733501 -0.394792 0.180992 -0.576828 -0.588825 -0.610032 0.472995 -0.763827 -0.111755 -0.394005 -0.936475 1.69873 0.376336 -0.0371597 0.863918 -1.07117 -2.05094 -0.219676 -1.38692 1.02131 -0.689964 0.00554931 1.4436 1.85994 -0.229953 -0.363374 2.44629 -0.417492 0.0289356 </weights>
                </Neuron>
            </NeuronLayer>
            <NeuronLayer id="2">
                <Neuron id="0">
                    <weights>-2.19377 -1.3905 -0.579011 0.385438 </weights>
                </Neuron>
                <Neuron id="1">
                    <weights>0.717214 0.0088904 0.44764 -0.0295842 </weights>
                </Neuron>
                <Neuron id="2">
                    <weights>0.311608 0.0595522 -1.43887 -1.69435 </weights>
                </Neuron>
            </NeuronLayer>
        </NeuralNetwork>
    </Entity>
    <Entity type="Carnivore">
        <x>257.899</x>
        <y>387.765</y>
        <radius>7</radius>
        <angle>-1.55644</angle>
        <maxSpeed>50</maxSpeed>
        <attack>120</attack>
        <energy>47</energy>
        <sex>false</sex>
        <mating>1200</mating>
        <age>2819</age>
        <hunger>239</hunger>
        <thirst>2819</thirst>
        <health>2806</health>
        <NeuralNetwork>
            <NeuronLayer id="0">
                <inputsNum>35</inputsNum>
            </NeuronLayer>
            <NeuronLayer id="1">
                <Neuron id="0">
                    <weights>0.0320795 -0.599988 0.0897036 0.441497 0.202211 1.29529 0.0451378 -0.968194 -0.447274 1.4392 0.52419 0.729476 -0.339793 -0.866637 -0.662022 -3.46399 0.825106 0.440531 1.34733 -0.245073 0.721822 1.81612 -0.053797 0.246234 1.3468 0.0137144 0.383301 -1.97622 0.0254964 1.54782 -0.500415 0.741959 0.874376 -1.29128 -1.14913 -0.160271 </weights>
                </Neuron>
                <Neuron id="1">
                    <weights>1.24179 -0.135768 -0.123725 -0.193625 1.55512 0.16243 -2.04493 -0.600361 -1.95517 -0.730057 -0.554665 0.157716 0.367619 1.32465 -1.32439 1.22606 -0.208166 0.636784 -0.486528 -0.0140601 1.29864 -1.41034 0.0532844 1.43421 -0.124213 -0.15693 -0.0617833 -1.64187 1.61997 1.2911 0.409758 -1.69714 -0.393391 1.17252 0.475986 -1.01631 </weights>
                </Neuron>
                <Neuron id="2">
                    <weights>0.77729 -0.40589 0.660252 0.270207 0.600527 -0.24392 1.03039 0.733501 -0.394792 0.180992 -0.576828 -0.588825 -0.610032 0.472995 -0.763827 -0.111755 -0.394005 -0.936475 1.69873 0.376336 -0.0371597 0.863918 -1.07117 -2.05094 -0.219676 -1.38692 1.02131 -0.689964 0.00554931 1.4436 1.85994 -0.229953 -0.363374 2.44629 -0.417492 0.0289356 </weights>
                </Neuron>
            </NeuronLayer>
            <NeuronLayer id="2">
                <Neuron id="0">
                    <weights>-2.19377 -1.3905 -0.579011 0.385438 </weights>
                </Neuron>
                <Neuron id="1">
                    <weights>0.717214 0.0088904 0.44764 -0.0295842 </weights>
                </Neuron>
                <Neuron id="2">
                    <weights>0.311608 0.0595522 -1.43887 -1.69435 </weights>
                </Neuron>
            </NeuronLayer>
        </NeuralNetwork>
    </Entity>
    <Entity type="Carnivore">
        <x>71.4262</x>
        <y>458.584</y>
        <radius>7</radius>
        <angle>-0.442845</angle>
        <maxSpeed>50</maxSpeed>
        <attack>120</attack>
        <energy>30</energy>
        <sex>true</sex>
        <mating>1200</mating>
        <age>2580</age>
        <hunger>121</hunger>
        <thirst>2440</thirst>
        <health>3000</health>
        <NeuralNetwork>
            <NeuronLayer id="0">
                <inputsNum>35</inputsNum>
            </NeuronLayer>
            <NeuronLayer id="1">
                <Neuron id="0">
                    <weights>0.0320795 -0.599988 0.0897036 0.441497 0.202211 1.29529 0.0451378 -0.976961 -0.447274 1.4392 0.52419 0.729476 -0.339793 -0.866637 -0.662022 -3.46399 0.825106 0.440531 1.34733 -0.245073 0.721822 1.8153 -0.053797 0.246234 1.3468 0.0201695 0.383301 -1.97622 0.0254964 1.54782 -0.500415 0.741959 0.874376 -1.29128 -1.14913 -0.160271 </weights>
                </Neuron>
                <Neuron id="1">
                    <weights>1.24179 -0.135768 -0.123725 -0.193625 1.55512 0.16243 -2.04493 -0.600361 -1.95517 -0.730057 -0.554665 0.157716 0.367619 1.32465 -1.32439 1.22606 -0.208166 0.636784 -0.486528 -0.0140601 1.29864 -1.41034 0.0544692 1.43421 -0.124213 -0.15693 -0.0617833 -1.64187 1.61997 1.2911 0.409758 -1.69714 -0.393391 1.17252 0.475986 -1.01909 </weights>
                </Neuron>
                <Neuron id="2">
                    <weights>0.77729 -0.40589 0.660252 0.270207 0.600527 -0.241225 1.03039 0.734057 -0.394792 0.180992 -0.576828 -0.588825 -0.610032 0.472995 -0.763827 -0.111755 -0.394005 -0.936475 1.69873 0.376336 -0.0371597 0.863918 -1.07117 -2.05094 -0.219676 -1.38692 1.02131 -0.689964 0.00554931 1.4436 1.85994 -0.229953 -0.363374 2.44629 -0.417492 0.0289356 </weights>
                </Neuron>
            </NeuronLayer>
            <NeuronLayer id="2">
                <Neuron id="0">
                    <weights>-2.19377 -1.3905 -0.579011 0.385438 </weights>
                </Neuron>
                <Neuron id="1">
                    <weights>0.717214 0.0088904 0.44764 -0.0277398 </weights>
                </Neuron>
                <Neuron id="2">
                    <weights>0.311608 0.0595522 -1.43887 -1.69435 </weights>
                </Neuron>
            </NeuronLayer>
        </NeuralNetwork>
    </Entity>
    <Entity type="Carnivore">
        <x>131.452</x>
        <y>230.723</y>
        <radius>7</radius>
        <angle>-1.22955</angle>
        <maxSpeed>50</maxSpeed>
        <attack>120</attack>
        <energy>32</energy>
        <sex>false</sex>
        <mating>1200</mating>
        <age>2580</age>
        <hunger>418</hunger>
        <thirst>981</thirst>
        <health>3000</health>
        <NeuralNetwork>
            <NeuronLayer id="0">
                <inputsNum>35</inputsNum>
            </NeuronLayer>
            <NeuronLayer id="1">
                <Neuron id="0">
                    <weights>0.0320795 -0.599988 0.0896147 0.441497 0.202211 1.29529 0.0451378 -0.968194 -0.447274 1.4392 0.52419 0.729476 -0.339793 -0.866637 -0.662022 -3.46399 0.825106 0.440531 1.34733 -0.245073 0.721822 1.81612 -0.053797 0.246234 1.3468 0.0137144 0.383301 -1.97622 0.0254964 1.54782 -0.500415 0.741959 0.874376 -1.29128 -1.14913 -0.160271 </weights>
                </Neuron>
                <Neuron id="1">
                    <weights>1.24478 -0.135768 -0.123725 -0.193625 1.55512 0.16243 -2.05751 -0.594529 -1.95517 -0.730057 -0.554665 0.157716 0.367619 1.32465 -1.32439 1.22606 -0.208166 0.636784 -0.486528 -0.0140601 1.29864 -1.41034 0.0532844 1.43421 -0.124213 -0.15693 -0.0617833 -1.64187 1.61997 1.2911 0.409758 -1.69714 -0.393391 1.17252 0.475986 -1.01213 </weights>
                </Neuron>
                <Neuron id="2">
                    <weights>0.77729 -0.40589 0.660252 0.270207 0.600527 -0.241225 1.03039 0.733501 -0.394792 0.180992 -0.576828 -0.588825 -0.610032 0.472995 -0.763827 -0.111755 -0.394005 -0.936475 1.69873 0.376336 -0.0371597 0.863918 -1.07117 -2.05094 -0.219676 -1.38692 1.02131 -0.689964 0.00554931 1.4436 1.85994 -0.229953 -0.363374 2.44629 -0.417492 0.0289356 </weights>
                </Neuron>
            </NeuronLayer>
            <NeuronLayer id="2">
                <Neuron id="0">
                    <weights>-2.19377 -1.3905 -0.579011 0.385438 </weights>
                </Neuron>
                <Neuron id="1">
                    <weights>0.717214 0.0088904 0.44764 -0.0295842 </weights>
                </Neuron>
                <Neuron id="2">
                    <weights>0.314477 0.0595522 -1.43887 -1.69435 </weights>
                </Neuron>
            </NeuronLayer>
        </NeuralNetwork>
    </Entity>
    <Entity type="Carnivore">
        <x>169.201</x>
        <y>47.0101</y>
        <radius>7</radius>
        <angle>2.61739</angle>
        <maxSpeed>50</maxSpeed>
        <attack>120</attack>
        <energy>2</energy>
        <sex>false</sex>
        <mating>1200</mating>
        <age>2495</age>
        <hunger>1</hunger>
        <thirst>1867</thirst>
        <health>3000</health>
        <NeuralNetwork>
            <NeuronLayer id="0">
                <inputsNum>35</inputsNum>
            </NeuronLayer>
            <NeuronLayer id="1">
                <Neuron id="0">
                    <weights>0.0320795 -0.599988 0.0897036 0.441497 0.202211 1.29529 0.0451378 -0.968194 -0.447274 1.4392 0.52419 0.723795 -0.339793 -0.866637 -0.662022 -3.46399 0.825106 0.440531 1.34733 -0.245073 0.721822 1.8153 -0.053797 0.246234 1.3468 0.0201695 0.383301 -1.97622 0.0254964 1.54782 -0.500415 0.741959 0.874376 -1.29128 -1.14913 -0.160271 </weights>
                </Neuron>
                <Neuron id="1">
                    <weights>1.24179 -0.135768 -0.123725 -0.193625 1.55512 0.16243 -2.04493 -0.600361 -1.95517 -0.730057 -0.554665 0.157716 0.367619 1.32917 -1.32439 1.22606 -0.208166 0.636784 -0.486528 -0.0140601 1.29864 -1.41034 0.0544692 1.43421 -0.124213 -0.15693 -0.0617833 -1.64187 1.61997 1.2911 0.409758 -1.69714 -0.393391 1.17252 0.475986 -1.01909 </weights>
                </Neuron>
                <Neuron id="2">
                    <weights>0.77729 -0.40589 0.660252 0.270207 0.600527 -0.241225 1.03039 0.734057 -0.394792 0.180992 -0.576828 -0.588825 -0.610032 0.472995 -0.763827 -0.111755 -0.394005 -0.936475 1.69873 0.376336 -0.0371597 0.863918 -1.07117 -2.05094 -0.219676 -1.38692 1.02131 -0.689964 0.00554931 1.4436 1.85994 -0.229953 -0.363374 2.44629 -0.417492 0.0289356 </weights>
                </Neuron>
            </NeuronLayer>
            <NeuronLayer id="2">
                <Neuron id="0">
                    <weights>-2.19377 -1.3905 -0.579011 0.385438 </weights>
                </Neuron>
                <Neuron id="1">
                    <weights>0.717214 0.0088904 0.44764 -0.0277398 </weights>
                </Neuron>
                <Neuron id="2">
                    <weights>0.311608 0.0595522 -1.43887 -1.69435 </weights>
                </Neuron>
            </NeuronLayer>
        </NeuralNetwork>
    </Entity>
    <Entity type="Carnivore">
        <x>48.9147</x>
        <y>144.396</y>
        <radius>7</radius>
        <angle>1.15168</angle>
        <maxSpeed>50</maxSpeed>
        <attack>120</attack>
        <energy>2</energy>
        <sex>true</sex>
        <mating>1200</mating>
        <age>2495</age>
        <hunger>519</hunger>
        <thirst>2495</thirst>
        <health>3000</health>
        <NeuralNetwork>
            <NeuronLayer id="0">
                <inputsNum>35</inputsNum>
            </NeuronLayer>
            <NeuronLayer id="1">
                <Neuron id="0">
                    <weights>0.0320795 -0.599988 0.0897036 0.441497 0.202211 1.29529 0.0451378 -0.968194 -0.447274 1.4392 0.52419 0.729476 -0.339793 -0.866637 -0.662022 -3.46399 0.825106 0.440531 1.34733 -0.245073 0.721822 1.8153 -0.053797 0.246234 1.3468 0.0201695 0.383301 -1.97622 0.0254964 1.54782 -0.500415 0.747303 0.874376 -1.29128 -1.14913 -0.160271 </weights>
                </Neuron>
                <Neuron id="1">
                    <weights>1.24179 -0.135768 -0.123725 -0.193625 1.55512 0.16243 -2.04493 -0.600361 -1.95517 -0.730057 -0.554665 0.157716 0.367619 1.32465 -1.32439 1.22606 -0.208166 0.636784 -0.486528 -0.0140601 1.29864 -1.41034 0.0544692 1.43421 -0.124213 -0.15693 -0.0617833 -1.64187 1.61954 1.2911 0.409758 -1.69714 -0.393391 1.17252 0.475986 -1.01909 </weights>
                </Neuron>
                <Neuron id="2">
                    <weights>0.77729 -0.40589 0.660252 0.270207 0.600527 -0.241225 1.03039 0.734057 -0.394792 0.180992 -0.576828 -0.588825 -0.610032 0.472995 -0.763827 -0.111755 -0.394005 -0.936475 1.69873 0.376336 -0.0371597 0.863918 -1.07117 -2.05094 -0.219676 -1.38692 1.02131 -0.689964 0.00554931 1.4436 1.85994 -0.229953 -0.363374 2.44629 -0.417492 0.0289356 </weights>
                </Neuron>
            </NeuronLayer>
            <NeuronLayer id="2">
                <Neuron id="0">
                    <weights>-2.19377 -1.3905 -0.579011 0.385438 </weights>
                </Neuron>
                <Neuron id="1">
                    <weights>0.717214 0.0088904 0.44764 -0.0277398 </weights>
                </Neuron>
                <Neuron id="2">
                    <weights>0.311608 0.0595522 -1.43887 -1.69435 </weights>
                </Neuron>
            </NeuronLayer>
        </NeuralNetwork>
    </Entity>
    <Entity type="Carnivore">
        <x>143.615</x>
        <y>16.5412</y>
        <radius>7</radius>
        <angle>-1.92885</angle>
        <maxSpeed>50</maxSpeed>
        <attack>120</attack>
        <energy>11</energy>
        <sex>true</sex>
        <mating>2351</mating>
        <age>2351</age>
        <hunger>281</hunger>
        <thirst>1869</thirst>
        <health>3000</health>
        <NeuralNetwork>
            <NeuronLayer id="0">
                <inputsNum>35</inputsNum>
            </NeuronLayer>
            <NeuronLayer id="1">
                <Neuron id="0">
                    <weights>0.0320795 -0.599988 0.0897036 0.441497 0.202211 1.29529 0.0451378 -0.968194 -0.447274 1.4392 0.52419 0.729476 -0.339793 -0.866637 -0.662022 -3.46399 0.825106 0.440531 1.34733 -0.246134 0.721822 1.81612 -0.053797 0.246234 1.3468 0.0137144 0.383301 -1.97622 0.0254964 1.54782 -0.500415 0.741959 0.874376 -1.29128 -1.14913 -0.160271 </weights>
                </Neuron>
                <Neuron id="1">
                    <weights>1.24179 -0.135768 -0.123725 -0.193625 1.55512 0.16243 -2.04493 -0.600361 -1.95517 -0.730057 -0.554665 0.157716 0.367619 1.32465 -1.32439 1.22606 -0.208166 0.636784 -0.486528 -0.0140601 1.29864 -1.41034 0.0532844 1.43421 -0.124213 -0.15693 -0.0617833 -1.64187 1.61997 1.2911 0.409758 -1.69714 -0.393391 1.17252 0.475986 -1.02086 </weights>
                </Neuron>
                <Neuron id="2">
                    <weights>0.77729 -0.40589 0.660252 0.270207 0.600527 -0.24392 1.03039 0.733501 -0.394792 0.180992 -0.576828 -0.588825 -0.610032 0.46939 -0.763827 -0.111755 -0.394005 -0.936475 1.69873 0.376336 -0.0371597 0.863918 -1.07117 -2.05094 -0.219676 -1.38692 1.02131 -0.689964 0.00554931 1.4436 1.85994 -0.229953 -0.363374 2.44629 -0.417492 0.0289356 </weights>
                </Neuron>
            </NeuronLayer>
            <NeuronLayer id="2">
                <Neuron id="0">
                    <weights>-2.19414 -1.3905 -0.579011 0.385438 </weights>
                </Neuron>
                <Neuron id="1">
                    <weights>0.717214 0.0088904 0.44764 -0.0295842 </weights>
                </Neuron>
                <Neuron id="2">
                    <weights>0.311608 0.0595522 -1.43887 -1.69435 </weights>
                </Neuron>
            </NeuronLayer>
        </NeuralNetwork>
    </Entity>
    <Entity type="Carnivore">
        <x>4.61606</x>
        <y>2.23384</y>
        <radius>7</radius>
        <angle>1.35242</angle>
        <maxSpeed>50</maxSpeed>
        <attack>120</attack>
        <energy>5</energy>
        <sex>true</sex>
        <mating>2351</mating>
        <age>2351</age>
        <hunger>0</hunger>
        <thirst>2295</thirst>
        <health>3000</health>
        <NeuralNetwork>
            <NeuronLayer id="0">
                <inputsNum>35</inputsNum>
            </NeuronLayer>
            <NeuronLayer id="1">
                <Neuron id="0">
                    <weights>0.0320795 -0.599988 0.0897036 0.441497 0.202211 1.29529 0.0451378 -0.968194 -0.447274 1.4392 0.52419 0.729476 -0.339793 -0.866637 -0.662022 -3.46399 0.825106 0.440531 1.34733 -0.246134 0.721822 1.81612 -0.053797 0.246234 1.3468 0.0137144 0.383301 -1.97622 0.0254964 1.54782 -0.500415 0.741959 0.874376 -1.29128 -1.14913 -0.160271 </weights>
                </Neuron>
                <Neuron id="1">
                    <weights>1.24179 -0.135768 -0.123725 -0.193625 1.55512 0.16243 -2.04493 -0.600361 -1.95517 -0.730057 -0.554665 0.157716 0.367619 1.32465 -1.32439 1.22606 -0.208166 0.636784 -0.486528 -0.0180063 1.29864 -1.41034 0.0532844 1.43421 -0.124213 -0.15693 -0.0617833 -1.64187 1.61997 1.2911 0.409758 -1.69714 -0.393391 1.17252 0.475986 -1.01631 </weights>
                </Neuron>
                <Neuron id="2">
                    <weights>0.77729 -0.40589 0.660252 0.270207 0.600527 -0.24392 1.03039 0.733501 -0.394792 0.180992 -0.576828 -0.588825 -0.610032 0.472995 -0.763827 -0.111755 -0.394005 -0.936475 1.69873 0.376336 -0.0371597 0.863918 -1.07117 -2.05094 -0.219676 -1.38692 1.02131 -0.689964 0.00554931 1.4436 1.85994 -0.229953 -0.363374 2.44629 -0.417492 0.0289356 </weights>
                </Neuron>
            </NeuronLayer>
            <NeuronLayer id="2">
                <Neuron id="0">
                    <weights>-2.19377 -1.3905 -0.579011 0.385438 </weights>
                </Neuron>
                <Neuron id="1">
                    <weights>0.717214 0.0088904 0.44764 -0.0295842 </weights>
                </Neuron>
                <Neuron id="2">
                    <weights>0.311608 0.0595522 -1.43887 -1.69435 </weights>
                </Neuron>
            </NeuronLayer>
        </NeuralNetwork>
    </Entity>
    <Entity type="Carnivore">
        <x>110.646</x>
        <y>200.838</y>
        <radius>7</radius>
        <angle>0.52982</angle>
        <maxSpeed>50</maxSpeed>
        <attack>120</attack>
        <energy>10</energy>
        <sex>false</sex>
        <mating>1471</mating>
        <age>1471</age>
        <hunger>378</hunger>
        <thirst>1460</thirst>
        <health>3000</health>
        <NeuralNetwork>
            <NeuronLayer id="0">
                <inputsNum>35</inputsNum>
            </NeuronLayer>
            <NeuronLayer id="1">
                <Neuron id="0">
                    <weights>0.0320795 -0.599988 0.0897036 0.441497 0.202211 1.29529 0.0451378 -0.968194 -0.447274 1.4392 0.52419 0.729476 -0.339793 -0.866637 -0.662022 -3.46399 0.825106 0.440531 1.34733 -0.245073 0.721822 1.81612 -0.053797 0.246234 1.3468 0.0137144 0.383301 -1.97622 0.0254964 1.54782 -0.500415 0.741959 0.874376 -1.29128 -1.14913 -0.160271 </weights>
                </Neuron>
                <Neuron id="1">
                    <weights>1.24179 -0.135768 -0.123725 -0.193625 1.55512 0.16243 -2.04493 -0.600361 -1.95517 -0.730057 -0.554665 0.157716 0.367619 1.32465 -1.32439 1.22612 -0.217749 0.636784 -0.486528 -0.0140601 1.29864 -1.41034 0.0532844 1.43421 -0.124213 -0.15693 -0.0617833 -1.64187 1.61997 1.2911 0.409758 -1.69714 -0.393391 1.17252 0.475986 -1.01631 </weights>
                </Neuron>
                <Neuron id="2">
                    <weights>0.77729 -0.40589 0.660252 0.270207 0.600527 -0.24392 1.03039 0.733501 -0.394792 0.180992 -0.576828 -0.588825 -0.610032 0.472995 -0.763827 -0.111755 -0.394005 -0.936475 1.69873 0.376336 -0.0371597 0.863918 -1.07117 -2.05094 -0.219676 -1.38692 1.02131 -0.689964 0.00554931 1.4436 1.85994 -0.229953 -0.363374 2.44629 -0.417492 0.0289356 </weights>
                </Neuron>
            </NeuronLayer>
            <NeuronLayer id="2">
                <Neuron id="0">
                    <weights>-2.19377 -1.3905 -0.579011 0.385438 </weights>
                </Neuron>
                <Neuron id="1">
                    <weights>0.717214 0.0088904 0.44764 -0.0295842 </weights>
                </Neuron>
                <Neuron id="2">
                    <weights>0.311608 0.0595522 -1.43887 -1.69435 </weights>
                </Neuron>
            </NeuronLayer>
        </NeuralNetwork>
    </Entity>
    <Entity type="Carnivore">
        <x>390.555</x>
        <y>141.163</y>
        <radius>7</radius>
        <angle>0.510437</angle>
        <maxSpeed>50</maxSpeed>
        <attack>120</attack>
        <energy>42</energy>
        <sex>false</sex>
        <mating>1471</mating>
        <age>1471</age>
        <hunger>627</hunger>
        <thirst>971</thirst>
        <health>3000</health>
        <NeuralNetwork>
            <NeuronLayer id="0">
                <inputsNum>35</inputsNum>
            </NeuronLayer>
            <NeuronLayer id="1">
                <Neuron id="0">
                    <weights>0.0320795 -0.599988 0.0897036 0.441497 0.202211 1.29529 0.0451378 -0.968194 -0.447274 1.4392 0.52419 0.729476 -0.339793 -0.866637 -0.662022 -3.46399 0.825106 0.440531 1.34733 -0.245073 0.721822 1.81612 -0.053797 0.246234 1.3468 0.0201695 0.383301 -1.97622 0.0254964 1.54782 -0.500415 0.741959 0.874376 -1.29128 -1.14913 -0.160271 </weights>
                </Neuron>
                <Neuron id="1">
                    <weights>1.24179 -0.135768 -0.123725 -0.193625 1.55512 0.16243 -2.04493 -0.600361 -1.95517 -0.730057 -0.554665 0.157716 0.367619 1.32465 -1.32439 1.22606 -0.208166 0.636784 -0.486528 -0.0140601 1.29864 -1.41034 0.0544692 1.43421 -0.124213 -0.15693 -0.0617833 -1.64187 1.61997 1.2911 0.409758 -1.69714 -0.393391 1.17252 0.475986 -1.01909 </weights>
                </Neuron>
                <Neuron id="2">
                    <weights>0.77729 -0.40589 0.660252 0.270207 0.600527 -0.241225 1.03039 0.734057 -0.394792 0.180992 -0.576828 -0.588825 -0.610032 0.472995 -0.763827 -0.111755 -0.392132 -0.936475 1.69873 0.376336 -0.0371597 0.863918 -1.07117 -2.05094 -0.219676 -1.38692 1.02131 -0.689964 0.00554931 1.4436 1.85994 -0.229953 -0.363374 2.44629 -0.417492 0.0289356 </weights>
                </Neuron>
            </NeuronLayer>
            <NeuronLayer id="2">
                <Neuron id="0">
                    <weights>-2.19377 -1.3905 -0.579011 0.385438 </weights>
                </Neuron>
                <Neuron id="1">
                    <weights>0.717214 0.0088904 0.44764 -0.0277398 </weights>
                </Neuron>
                <Neuron id="2">
                    <weights>0.311608 0.0595522 -1.43887 -1.69435 </weights>
                </Neuron>
            </NeuronLayer>
        </NeuralNetwork>
    </Entity>
    <Entity type="Carnivore">
        <x>40.7511</x>
        <y>293.289</y>
        <radius>7</radius>
        <angle>1.34118</angle>
        <maxSpeed>50</maxSpeed>
        <attack>120</attack>
        <energy>29</energy>
        <sex>true</sex>
        <mating>907</mating>
        <age>907</age>
        <hunger>105</hunger>
        <thirst>907</thirst>
        <health>3000</health>
        <NeuralNetwork>
            <NeuronLayer id="0">
                <inputsNum>35</inputsNum>
            </NeuronLayer>
            <NeuronLayer id="1">
                <Neuron id="0">
                    <weights>0.0320795 -0.599988 0.0897036 0.441497 0.202211 1.29529 0.0451378 -0.968194 -0.447274 1.4392 0.52419 0.729476 -0.339793 -0.866637 -0.662022 -3.46399 0.825106 0.440531 1.34733 -0.245073 0.721822 1.81612 -0.053797 0.246234 1.3468 0.0137144 0.383301 -1.97622 0.0254964 1.54782 -0.500415 0.741959 0.874376 -1.29128 -1.14913 -0.160271 </weights>
                </Neuron>
                <Neuron id="1">
                    <weights>1.24179 -0.135768 -0.123725 -0.193625 1.55512 0.16243 -2.04493 -0.600361 -1.95517 -0.730057 -0.554665 0.157716 0.367619 1.32465 -1.32439 1.22606 -0.208166 0.636784 -0.486528 -0.0140601 1.29864 -1.41034 0.0532844 1.43421 -0.124213 -0.15693 -0.0617833 -1.64187 1.61997 1.2911 0.409758 -1.69714 -0.393391 1.17252 0.475986 -1.01631 </weights>
                </Neuron>
                <Neuron id="2">
                    <weights>0.77729 -0.40589 0.660252 0.270207 0.600527 -0.24392 1.03039 0.733501 -0.394792 0.180992 -0.576828 -0.588825 -0.610032 0.472995 -0.763827 -0.111755 -0.394005 -0.936475 1.69873 0.376336 -0.0371597 0.863918 -1.07117 -2.05094 -0.219676 -1.38692 1.02131 -0.689964 0.00554931 1.4436 1.85994 -0.229953 -0.363374 2.44629 -0.417492 0.0289356 </weights>
                </Neuron>
            </NeuronLayer>
            <NeuronLayer id="2">
                <Neuron id="0">
                    <weights>-2.19377 -1.3905 -0.579011 0.385438 </weights>
                </Neuron>
                <Neuron id="1">
                    <weights>0.717214 0.0088904 0.44764 -0.0295842 </weights>
                </Neuron>
                <Neuron id="2">
                    <weights>0.311608 0.0595522 -1.43887 -1.69435 </weights>
                </Neuron>
            </NeuronLayer>
        </NeuralNetwork>
    </Entity>
    <Entity type="Carnivore">
        <x>458.201</x>
        <y>492.526</y>
        <radius>7</radius>
        <angle>-0.793013</angle>
        <maxSpeed>50</maxSpeed>
        <attack>120</attack>
        <energy>1</energy>
        <sex>false</sex>
        <mating>907</mating>
        <age>907</age>
        <hunger>29</hunger>
        <thirst>907</thirst>
        <health>3000</health>
        <NeuralNetwork>
            <NeuronLayer id="0">
                <inputsNum>35</inputsNum>
            </NeuronLayer>
            <NeuronLayer id="1">
                <Neuron id="0">
                    <weights>0.0320795 -0.599988 0.0897036 0.441497 0.202211 1.29529 0.0451378 -0.968194 -0.447274 1.4392 0.52419 0.729476 -0.339793 -0.866637 -0.662022 -3.46399 0.825106 0.440531 1.34733 -0.245073 0.721822 1.81612 -0.053797 0.246234 1.3468 0.0137144 0.383301 -1.97622 0.0254964 1.54782 -0.500415 0.741959 0.874376 -1.29128 -1.14913 -0.160271 </weights>
                </Neuron>
                <Neuron id="1">
                    <weights>1.24179 -0.135768 -0.123725 -0.193625 1.55512 0.16243 -2.04493 -0.600361 -1.95517 -0.730057 -0.554665 0.157716 0.367619 1.32465 -1.32439 1.22606 -0.208166 0.636784 -0.486528 -0.0140601 1.29864 -1.41034 0.0532844 1.43421 -0.124213 -0.15693 -0.0617833 -1.64187 1.61997 1.2911 0.409758 -1.69714 -0.394006 1.17252 0.475986 -1.01631 </weights>
                </Neuron>
                <Neuron id="2">
                    <weights>0.77729 -0.40589 0.660252 0.270207 0.600527 -0.24392 1.03039 0.733501 -0.394792 0.180992 -0.576828 -0.588825 -0.610032 0.472995 -0.763827 -0.111755 -0.394005 -0.936475 1.69873 0.376336 -0.0371597 0.863918 -1.07117 -2.05094 -0.219676 -1.38692 1.02131 -0.689964 0.00554931 1.4436 1.85994 -0.229953 -0.363374 2.44629 -0.417492 0.0289356 </weights>
                </Neuron>
            </NeuronLayer>
            <NeuronLayer id="2">
                <Neuron id="0">
                    <weights>-2.19377 -1.3905 -0.579011 0.385438 </weights>
                </Neuron>
                <Neuron id="1">
                    <weights>0.717214 0.0088904 0.44764 -0.0295842 </weights>
                </Neuron>
                <Neuron id="2">
                    <weights>0.311608 0.0595522 -1.43887 -1.69435 </weights>
                </Neuron>
            </NeuronLayer>
        </NeuralNetwork>
    </Entity>
    <Entity type="Herbivore">
        <x>179.482</x>
        <y>1.85306</y>
        <radius>7</radius>
        <angle>0.424402</angle>
        <maxSpeed>50</maxSpeed>
        <attack>0</attack>
        <energy>2</energy>
        <sex>true</sex>
        <mating>749</mating>
        <age>749</age>
        <hunger>671</hunger>
        <thirst>749</thirst>
        <health>3000</health>
        <NeuralNetwork>
            <NeuronLayer id="0">
                <inputsNum>35</inputsNum>
            </NeuronLayer>
            <NeuronLayer id="1">
                <Neuron id="0">
                    <weights>2.76733 1.89918 1.57669 -2.69487 0.270376 -1.91297 -1.80461 -2.3646 1.1572 -0.28212 -0.017576 0.332027 -0.120988 -1.73762 -1.29248 -0.39191 0.0704523 1.02943 1.64463 -0.126798 -1.83728 0.971629 -1.01933 -0.0134383 -1.14459 1.7819 2.0722 1.95859 0.065628 -0.735966 -0.842064 0.199524 -0.877265 0.319034 -1.01473 2.51317 </weights>
                </Neuron>
                <Neuron id="1">
                    <weights>1.40855 -2.6247 -1.17441 -1.00579 1.94216 1.38006 -0.0343574 1.031 -2.54364 -2.38604 -0.733595 -0.111276 0.261111 -0.275273 1.4939 1.33451 0.132509 0.500187 2.51042 2.66812 -0.661843 -2.7349 -1.62012 0.26977 0.502029 1.4878 2.15298 -1.53616 -3.85087 -2.21056 0.199748 -1.38571 3.99966 0.0657515 3.39126 -0.0707683 </weights>
                </Neuron>
                <Neuron id="2">
                    <weights>0.917174 -1.09835 -3.17811 0.788734 -1.97983 -3.49141 -0.668696 1.33442 0.121151 -1.02433 -0.584956 1.89398 -1.40571 -0.723818 -2.24244 -0.289916 2.51418 0.168332 0.000426016 -3.91961 -1.0366 -0.744534 0.962333 0.666607 -1.08593 -1.1161 -0.844216 1.25008 -1.92762 -3.54032 1.38794 1.34117 -0.630184 0.197255 -1.04088 -0.261385 </weights>
                </Neuron>
            </NeuronLayer>
            <NeuronLayer id="2">
                <Neuron id="0">
                    <weights>-0.50353 3.17036 -1.42577 1.7271 </weights>
                </Neuron>
                <Neuron id="1">
                    <weights>-0.6985 -1.62647 -0.149421 -0.443485 </weights>
                </Neuron>
                <Neuron id="2">
                    <weights>0.290784 0.764751 1.31564 -1.31243 </weights>
                </Neuron>
            </NeuronLayer>
        </NeuralNetwork>
    </Entity>
    <Entity type="Herbivore">
        <x>37.7672</x>
        <y>205.716</y>
        <radius>7</radius>
        <angle>-1.02535</angle>
        <maxSpeed>50</maxSpeed>
        <attack>0</attack>
        <energy>1</energy>
        <sex>true</sex>
        <mating>673</mating>
        <age>673</age>
        <hunger>673</hunger>
        <thirst>673</thirst>
        <health>600</health>
        <NeuralNetwork>
            <NeuronLayer id="0">
                <inputsNum>35</inputsNum>
            </NeuronLayer>
            <NeuronLayer id="1">
                <Neuron id="0">
                    <weights>2.77628 1.89918 1.58412 -2.69487 0.270376 -1.91297 -1.80461 -2.36334 1.16044 -0.287138 -0.0114919 0.332027 -0.117368 -1.73762 -1.29248 -0.39191 0.0730078 1.02943 1.64463 -0.127265 -1.82948 0.971629 -1.01933 -0.0157127 -1.14708 1.78236 2.0722 1.95213 0.0609265 -0.737244 -0.838211 0.200531 -0.877265 0.319034 -1.02279 2.51317 </weights>
                </Neuron>
                <Neuron id="1">
                    <weights>1.40855 -2.62572 -1.17441 -1.00325 1.93741 1.37897 -0.0343574 1.02751 -2.53825 -2.38604 -0.745473 -0.109503 0.259427 -0.275273 1.49202 1.33451 0.13507 0.500637 2.51042 2.66812 -0.661043 -2.7349 -1.62748 0.26977 0.502409 1.4878 2.15272 -1.53648 -3.85087 -2.21056 0.190593 -1.38463 3.99966 0.0665357 3.39126 -0.0707683 </weights>
                </Neuron>
                <Neuron id="2">
                    <weights>0.917174 -1.08655 -3.18801 0.784178 -1.97983 -3.49141 -0.668696 1.33442 0.109825 -1.02433 -0.583214 1.89398 -1.40571 -0.732872 -2.24244 -0.284413 2.50784 0.168332 0.000426016 -3.91961 -1.03606 -0.744534 0.952905 0.666814 -1.07719 -1.12096 -0.847239 1.23916 -1.92762 -3.52857 1.38794 1.34117 -0.61332 0.196874 -1.03706 -0.261385 </weights>
                </Neuron>
            </NeuronLayer>
            <NeuronLayer id="2">
                <Neuron id="0">
                    <weights>-0.50353 3.17036 -1.42577 1.72908 </weights>
                </Neuron>
                <Neuron id="1">
                    <weights>-0.6985 -1.63335 -0.142568 -0.44756 </weights>
                </Neuron>
                <Neuron id="2">
                    <weights>0.290784 0.764751 1.31295 -1.30981 </weights>
                </Neuron>
            </NeuronLayer>
        </NeuralNetwork>
    </Entity>
    <Entity type="Herbivore">
        <x>54.4516</x>
        <y>260.916</y>
        <radius>7</radius>
        <angle>-0.723248</angle>
        <maxSpeed>50</maxSpeed>
        <attack>0</attack>
        <energy>0</energy>
        <sex>true</sex>
        <mating>650</mating>
        <age>650</age>
        <hunger>561</hunger>
        <thirst>650</thirst>
        <health>120</health>
        <NeuralNetwork>
            <NeuronLayer id="0">
                <inputsNum>35</inputsNum>
            </NeuronLayer>
            <NeuronLayer id="1">
                <Neuron id="0">
                    <weights>2.76712 1.89918 1.57769 -2.69487 0.270376 -1.91821 -1.80461 -2.36103 1.14568 -0.28212 -0.0187677 0.334032 -0.120988 -1.74394 -1.29248 -0.380526 0.0719812 1.02943 1.63751 -0.135931 -1.83203 0.967007 -1.0197 -0.00546185 -1.14401 1.77081 2.0722 1.95213 0.0666 -0.738623 -0.844846 0.1997 -0.876146 0.319034 -1.02508 2.51317 </weights>
                </Neuron>
                <Neuron id="1">
                    <weights>1.4165 -2.62572 -1.17441 -1.00669 1.93741 1.37897 -0.0343574 1.02751 -2.55012 -2.37816 -0.736149 -0.118583 0.261111 -0.275273 1.49202 1.33451 0.130322 0.500187 2.51042 2.66812 -0.661043 -2.73694 -1.62748 0.267509 0.509632 1.49839 2.15272 -1.53648 -3.84962 -2.21056 0.1956 -1.38098 3.99966 0.0693352 3.39126 -0.0707683 </weights>
                </Neuron>
                <Neuron id="2">
                    <weights>0.920391 -1.09996 -3.18801 0.791841 -1.97543 -3.49529 -0.668696 1.33442 0.13795 -1.01757 -0.584184 1.90365 -1.40571 -0.736463 -2.23441 -0.28133 2.50507 0.168332 0.00572094 -3.91181 -1.03606 -0.744534 0.962333 0.662651 -1.09147 -1.12096 -0.844216 1.24851 -1.92762 -3.54151 1.38535 1.33668 -0.635918 0.208048 -1.03923 -0.261385 </weights>
                </Neuron>
            </NeuronLayer>
            <NeuronLayer id="2">
                <Neuron id="0">
                    <weights>-0.506176 3.17074 -1.42577 1.73014 </weights>
                </Neuron>
                <Neuron id="1">
                    <weights>-0.6985 -1.63649 -0.148075 -0.44756 </weights>
                </Neuron>
                <Neuron id="2">
                    <weights>0.290784 0.772993 1.31564 -1.30981 </weights>
                </Neuron>
            </NeuronLayer>
        </NeuralNetwork>
    </Entity>
    <Entity type="Herbivore">
        <x>116.09</x>
        <y>279.078</y>
        <radius>7</radius>
        <angle>2.74712</angle>
        <maxSpeed>50</maxSpeed>
        <attack>0</attack>
        <energy>1</energy>
        <sex>false</sex>
        <mating>621</mating>
        <age>621</age>
        <hunger>621</hunger>
        <thirst>621</thirst>
        <health>120</health>
        <NeuralNetwork>
            <NeuronLayer id="0">
                <inputsNum>35</inputsNum>
            </NeuronLayer>
            <NeuronLayer id="1">
                <Neuron id="0">
                    <weights>2.76733 1.89918 1.57669 -2.69487 0.270376 -1.91297 -1.80461 -2.3646 1.1572 -0.28212 -0.017576 0.332027 -0.120988 -1.73762 -1.29248 -0.39191 0.0704523 1.02943 1.64293 -0.126798 -1.83728 0.971629 -1.01933 -0.0134383 -1.14459 1.7819 2.0722 1.95859 0.0609265 -0.735966 -0.841971 0.199524 -0.877265 0.316122 -1.01473 2.51317 </weights>
                </Neuron>
                <Neuron id="1">
                    <weights>1.40855 -2.6247 -1.17441 -1.00325 1.94509 1.38006 -0.0343574 1.031 -2.54364 -2.38019 -0.733595 -0.111276 0.261111 -0.275273 1.4939 1.33704 0.130322 0.500187 2.51042 2.66812 -0.661843 -2.7349 -1.62012 0.26977 0.502409 1.4878 2.15298 -1.53616 -3.85087 -2.21056 0.1956 -1.38571 3.99966 0.0657515 3.39126 -0.0707683 </weights>
                </Neuron>
                <Neuron id="2">
                    <weights>0.917174 -1.09835 -3.1777 0.788734 -1.97983 -3.49141 -0.668696 1.33442 0.121151 -1.02433 -0.584956 1.89398 -1.40571 -0.723818 -2.24244 -0.284679 2.51418 0.168332 0.000426016 -3.91961 -1.0366 -0.758363 0.962333 0.666607 -1.08593 -1.12096 -0.844216 1.25008 -1.92762 -3.54163 1.38794 1.34117 -0.630184 0.197255 -1.03706 -0.261385 </weights>
                </Neuron>
            </NeuronLayer>
            <NeuronLayer id="2">
                <Neuron id="0">
                    <weights>-0.50353 3.17036 -1.42577 1.7271 </weights>
                </Neuron>
                <Neuron id="1">
                    <weights>-0.6985 -1.62647 -0.149421 -0.443485 </weights>
                </Neuron>
                <Neuron id="2">
                    <weights>0.290784 0.764751 1.31564 -1.30981 </weights>
                </Neuron>
            </NeuronLayer>
        </NeuralNetwork>
    </Entity>
    <Entity type="Herbivore">
        <x>174.061</x>
        <y>483.174</y>
        <radius>7</radius>
        <angle>2.1761</angle>
        <maxSpeed>50</maxSpeed>
        <attack>0</attack>
        <energy>2</energy>
        <sex>true</sex>
        <mating>590</mating>
        <age>590</age>
        <hunger>358</hunger>
        <thirst>590</thirst>
        <health>3000</health>
        <NeuralNetwork>
            <NeuronLayer id="0">
                <inputsNum>35</inputsNum>
            </NeuronLayer>
            <NeuronLayer id="1">
                <Neuron id="0">
                    <weights>2.765 1.89719 1.57918 -2.69071 0.254242 -1.89854 -1.80184 -2.37064 1.1624 -0.284329 -0.02839 0.333624 -0.117047 -1.73611 -1.29249 -0.397597 0.0764075 1.02918 1.65058 -0.125654 -1.83728 0.971824 -1.0355 -0.0159167 -1.14401 1.7777 2.07647 1.95548 0.0609265 -0.740999 -0.832852 0.180363 -0.877265 0.318362 -1.02594 2.51111 </weights>
                </Neuron>
                <Neuron id="1">
                    <weights>1.41104 -2.62572 -1.20773 -1.00492 1.94065 1.37858 -0.0310346 1.02169 -2.55567 -2.38246 -0.748188 -0.0897854 0.262564 -0.282497 1.49202 1.34175 0.12413 0.500187 2.50998 2.63274 -0.656254 -2.72852 -1.63202 0.268005 0.497312 1.47051 2.16195 -1.53504 -3.84902 -2.21031 0.200257 -1.38334 3.99966 0.0604414 3.39987 -0.0705388 </weights>
                </Neuron>
                <Neuron id="2">
                    <weights>0.922313 -1.10131 -3.18801 0.794054 -1.97983 -3.48944 -0.669921 1.32492 0.126116 -1.01751 -0.590149 1.88432 -1.40571 -0.737501 -2.23431 -0.291913 2.51604 0.171284 -0.000740674 -3.91825 -1.03823 -0.756497 0.969772 0.665156 -1.08593 -1.12312 -0.850098 1.2391 -1.93418 -3.54151 1.39636 1.34688 -0.653772 0.211066 -1.0259 -0.26359 </weights>
                </Neuron>
            </NeuronLayer>
            <NeuronLayer id="2">
                <Neuron id="0">
                    <weights>-0.499814 3.17342 -1.4211 1.72294 </weights>
                </Neuron>
                <Neuron id="1">
                    <weights>-0.694687 -1.64181 -0.151606 -0.45415 </weights>
                </Neuron>
                <Neuron id="2">
                    <weights>0.291267 0.759463 1.3132 -1.31684 </weights>
                </Neuron>
            </NeuronLayer>
        </NeuralNetwork>
    </Entity>
    <Entity type="Herbivore">
        <x>24.5186</x>
        <y>351.321</y>
        <radius>7</radius>
        <angle>2.31135</angle>
        <maxSpeed>50</maxSpeed>
        <attack>0</attack>
        <energy>1</energy>
        <sex>false</sex>
        <mating>590</mating>
        <age>590</age>
        <hunger>590</hunger>
        <thirst>590</thirst>
        <health>3000</health>
        <NeuralNetwork>
            <NeuronLayer id="0">
                <inputsNum>35</inputsNum>
            </NeuronLayer>
            <NeuronLayer id="1">
                <Neuron id="0">
                    <weights>2.765 1.89719 1.57918 -2.69071 0.254242 -1.89854 -1.80184 -2.37064 1.1624 -0.284329 -0.02839 0.333624 -0.117047 -1.73611 -1.29249 -0.397597 0.0764075 1.02918 1.65058 -0.125654 -1.83728 0.971824 -1.0355 -0.0159167 -1.14401 1.7777 2.07647 1.95548 0.0609265 -0.740999 -0.832852 0.180363 -0.877265 0.318362 -1.02594 2.51111 </weights>
                </Neuron>
                <Neuron id="1">
                    <weights>1.41104 -2.62572 -1.20773 -1.00492 1.94065 1.37858 -0.0310346 1.02169 -2.55567 -2.38246 -0.748188 -0.0897854 0.262564 -0.282497 1.49202 1.34175 0.12413 0.500187 2.50998 2.63274 -0.656254 -2.72852 -1.63202 0.268005 0.497312 1.47051 2.16195 -1.53504 -3.84902 -2.21031 0.200257 -1.38334 3.99966 0.0604414 3.39987 -0.0705388 </weights>
                </Neuron>
                <Neuron id="2">
                    <weights>0.922313 -1.10131 -3.18801 0.794054 -1.97983 -3.48944 -0.669921 1.32492 0.126116 -1.01751 -0.590149 1.88432 -1.40571 -0.737501 -2.23431 -0.291913 2.51604 0.171284 -0.000740674 -3.91825 -1.03823 -0.756497 0.969772 0.665156 -1.08593 -1.12312 -0.850098 1.2391 -1.93418 -3.54151 1.39636 1.34688 -0.653772 0.211066 -1.0259 -0.26359 </weights>
                </Neuron>
            </NeuronLayer>
            <NeuronLayer id="2">
                <Neuron id="0">
                    <weights>-0.499814 3.17342 -1.4211 1.72294 </weights>
                </Neuron>
                <Neuron id="1">
                    <weights>-0.694687 -1.64181 -0.151606 -0.45415 </weights>
                </Neuron>
                <Neuron id="2">
                    <weights>0.291267 0.759463 1.3132 -1.31684 </weights>
                </Neuron>
            </NeuronLayer>
        </NeuralNetwork>
    </Entity>
    <Entity type="Herbivore">
        <x>144.978</x>
        <y>44.6222</y>
        <radius>7</radius>
        <angle>-2.76699</angle>
        <maxSpeed>50</maxSpeed>
        <attack>0</attack>
        <energy>1</energy>
        <sex>false</sex>
        <mating>512</mating>
        <age>512</age>
        <hunger>512</hunger>
        <thirst>512</thirst>
        <health>840</health>
        <NeuralNetwork>
            <NeuronLayer id="0">
                <inputsNum>35</inputsNum>
            </NeuronLayer>
            <NeuronLayer id="1">
                <Neuron id="0">
                    <weights>2.76712 1.89918 1.57769 -2.69487 0.257604 -1.91821 -1.80461 -2.36834 1.1572 -0.28212 -0.0145847 0.334032 -0.120988 -1.73919 -1.29248 -0.39191 0.0719812 1.027 1.64141 -0.126798 -1.83203 0.967007 -1.01698 -0.00546185 -1.14536 1.77566 2.0722 1.95213 0.0686612 -0.744681 -0.84079 0.199524 -0.879641 0.303195 -1.02279 2.51388 </weights>
                </Neuron>
                <Neuron id="1">
                    <weights>1.4165 -2.62572 -1.17441 -1.00442 1.93741 1.37897 -0.0343574 1.02751 -2.54364 -2.37816 -0.736149 -0.118583 0.258642 -0.275273 1.48851 1.33451 0.130322 0.500187 2.51042 2.66812 -0.665257 -2.73694 -1.62748 0.26977 0.502409 1.49101 2.15272 -1.53648 -3.84962 -2.21056 0.1956 -1.38571 3.99966 0.062588 3.39126 -0.0707683 </weights>
                </Neuron>
                <Neuron id="2">
                    <weights>0.920391 -1.09835 -3.18801 0.791841 -1.97983 -3.49141 -0.668696 1.33442 0.138962 -1.01013 -0.584184 1.90365 -1.40571 -0.736463 -2.23732 -0.284413 2.50507 0.168332 0.00572094 -3.91134 -1.03606 -0.744534 0.962333 0.670376 -1.09147 -1.1206 -0.844216 1.23766 -1.92762 -3.53752 1.3771 1.33668 -0.635918 0.208521 -1.0376 -0.261385 </weights>
                </Neuron>
            </NeuronLayer>
            <NeuronLayer id="2">
                <Neuron id="0">
                    <weights>-0.50353 3.17074 -1.42577 1.73014 </weights>
                </Neuron>
                <Neuron id="1">
                    <weights>-0.6985 -1.63649 -0.148075 -0.44756 </weights>
                </Neuron>
                <Neuron id="2">
                    <weights>0.290784 0.772993 1.31564 -1.31564 </weights>
                </Neuron>
            </NeuronLayer>
        </NeuralNetwork>
    </Entity>
    <Entity type="Herbivore">
        <x>209.959</x>
        <y>426.809</y>
        <radius>7</radius>
        <angle>-1.8987</angle>
        <maxSpeed>50</maxSpeed>
        <attack>0</attack>
        <energy>1</energy>
        <sex>false</sex>
        <mating>416</mating>
        <age>416</age>
        <hunger>407</hunger>
        <thirst>416</thirst>
        <health>1920</health>
        <NeuralNetwork>
            <NeuronLayer id="0">
                <inputsNum>35</inputsNum>
            </NeuronLayer>
            <NeuronLayer id="1">
                <Neuron id="0">
                    <weights>2.77253 1.90079 1.57669 -2.69487 0.264746 -1.92385 -1.80461 -2.37102 1.1572 -0.287138 -0.0180899 0.330231 -0.120988 -1.73008 -1.29248 -0.39191 0.0704523 1.02943 1.64463 -0.126798 -1.83531 0.971629 -1.01724 -0.0175254 -1.14401 1.77931 2.0722 1.95213 0.0609265 -0.737244 -0.84079 0.199524 -0.877265 0.319034 -1.02279 2.51317 </weights>
                </Neuron>
                <Neuron id="1">
                    <weights>1.40543 -2.6289 -1.1672 -1.00325 1.93016 1.38241 -0.0291822 1.02751 -2.54364 -2.38487 -0.742659 -0.109503 0.25714 -0.275273 1.49257 1.33348 0.12432 0.50295 2.51042 2.66812 -0.661043 -2.7349 -1.61574 0.26977 0.502409 1.4918 2.15272 -1.53648 -3.85087 -2.21056 0.1956 -1.38571 3.99966 0.0657515 3.38796 -0.0722741 </weights>
                </Neuron>
                <Neuron id="2">
                    <weights>0.917174 -1.09253 -3.18394 0.785217 -1.97983 -3.4934 -0.660472 1.33442 0.121151 -1.02433 -0.584184 1.89398 -1.40206 -0.732872 -2.24244 -0.284413 2.50507 0.170567 0.000426016 -3.91709 -1.04777 -0.744534 0.962333 0.666814 -1.08593 -1.12096 -0.846138 1.24621 -1.92884 -3.54151 1.38794 1.34117 -0.630184 0.208048 -1.03706 -0.269979 </weights>
                </Neuron>
            </NeuronLayer>
            <NeuronLayer id="2">
                <Neuron id="0">
                    <weights>-0.50353 3.17036 -1.42577 1.7236 </weights>
                </Neuron>
                <Neuron id="1">
                    <weights>-0.691905 -1.6323 -0.144696 -0.44756 </weights>
                </Neuron>
                <Neuron id="2">
                    <weights>0.291474 0.763666 1.31564 -1.30981 </weights>
                </Neuron>
            </NeuronLayer>
        </NeuralNetwork>
    </Entity>
    <Entity type="Herbivore">
        <x>415.995</x>
        <y>196.394</y>
        <radius>7</radius>
        <angle>2.79657</angle>
        <maxSpeed>50</maxSpeed>
        <attack>0</attack>
        <energy>1</energy>
        <sex>false</sex>
        <mating>408</mating>
        <age>408</age>
        <hunger>408</hunger>
        <thirst>146</thirst>
        <health>3000</health>
        <NeuralNetwork>
            <NeuronLayer id="0">
                <inputsNum>35</inputsNum>
            </NeuronLayer>
            <NeuronLayer id="1">
                <Neuron id="0">
                    <weights>2.765 1.89719 1.57918 -2.69071 0.254242 -1.89854 -1.80184 -2.37064 1.1624 -0.284329 -0.02839 0.333624 -0.117047 -1.73611 -1.29249 -0.397597 0.0764075 1.02918 1.65058 -0.125654 -1.83728 0.971824 -1.0355 -0.0159167 -1.14401 1.7777 2.07647 1.95548 0.0609265 -0.740999 -0.832852 0.180363 -0.877265 0.318362 -1.02594 2.51111 </weights>
                </Neuron>
                <Neuron id="1">
                    <weights>1.41104 -2.62572 -1.20773 -1.00492 1.94065 1.37858 -0.0310346 1.02169 -2.55567 -2.38246 -0.748188 -0.0897854 0.262564 -0.282497 1.49202 1.34175 0.12413 0.500187 2.50998 2.63274 -0.656254 -2.72852 -1.63202 0.268005 0.495079 1.47051 2.16195 -1.53504 -3.84902 -2.21031 0.200257 -1.38334 3.99966 0.0604414 3.39987 -0.0705388 </weights>
                </Neuron>
                <Neuron id="2">
                    <weights>0.922313 -1.10131 -3.18801 0.794054 -1.97983 -3.48944 -0.669921 1.32492 0.126116 -1.01751 -0.590149 1.88432 -1.40571 -0.737501 -2.23431 -0.291913 2.51604 0.171284 -0.000740674 -3.91825 -1.03823 -0.756497 0.969772 0.665156 -1.08593 -1.12312 -0.850098 1.2391 -1.93418 -3.54151 1.39636 1.34688 -0.653772 0.211066 -1.0259 -0.26359 </weights>
                </Neuron>
            </NeuronLayer>
            <NeuronLayer id="2">
                <Neuron id="0">
                    <weights>-0.499814 3.17342 -1.4211 1.72294 </weights>
                </Neuron>
                <Neuron id="1">
                    <weights>-0.694687 -1.64181 -0.151606 -0.45415 </weights>
                </Neuron>
                <Neuron id="2">
                    <weights>0.291267 0.759463 1.3132 -1.31684 </weights>
                </Neuron>
            </NeuronLayer>
        </NeuralNetwork>
    </Entity>
    <Entity type="Herbivore">
        <x>493.944</x>
        <y>34.5297</y>
        <radius>7</radius>
        <angle>-0.0166014</angle>
        <maxSpeed>50</maxSpeed>
        <attack>0</attack>
        <energy>2</energy>
        <sex>false</sex>
        <mating>403</mating>
        <age>403</age>
        <hunger>403</hunger>
        <thirst>403</thirst>
        <health>3000</health>
        <NeuralNetwork>
            <NeuronLayer id="0">
                <inputsNum>35</inputsNum>
            </NeuronLayer>
            <NeuronLayer id="1">
                <Neuron id="0">
                    <weights>2.7679 1.8908 1.57669 -2.69487 0.266991 -1.92664 -1.80461 -2.36834 1.1572 -0.285787 -0.0168083 0.334032 -0.120988 -1.73762 -1.29248 -0.39191 0.0664549 1.02943 1.64349 -0.126798 -1.83728 0.971629 -1.01698 0.000735022 -1.14401 1.77566 2.0722 1.95213 0.0594181 -0.738623 -0.84079 0.199524 -0.877562 0.319034 -1.02227 2.51317 </weights>
                </Neuron>
                <Neuron id="1">
                    <weights>1.4165 -2.61672 -1.17441 -1.00669 1.93741 1.37897 -0.0343574 1.0314 -2.54364 -2.37816 -0.736149 -0.116333 0.261111 -0.275273 1.49202 1.33451 0.130322 0.500187 2.51042 2.66812 -0.661043 -2.73694 -1.62748 0.26977 0.502409 1.49101 2.15272 -1.53648 -3.84962 -2.21056 0.1956 -1.38571 3.99966 0.0693352 3.39126 -0.0707683 </weights>
                </Neuron>
                <Neuron id="2">
                    <weights>0.920391 -1.09835 -3.18801 0.791841 -1.97983 -3.49141 -0.668696 1.3354 0.12933 -1.01013 -0.584184 1.90365 -1.40571 -0.736463 -2.23732 -0.284413 2.50507 0.168332 0.00572094 -3.92313 -1.03606 -0.745405 0.962333 0.654686 -1.09147 -1.12096 -0.844216 1.24621 -1.92762 -3.54448 1.3802 1.34036 -0.635918 0.20555 -1.03923 -0.261385 </weights>
                </Neuron>
            </NeuronLayer>
            <NeuronLayer id="2">
                <Neuron id="0">
                    <weights>-0.503364 3.17074 -1.42577 1.73014 </weights>
                </Neuron>
                <Neuron id="1">
                    <weights>-0.6985 -1.62525 -0.148075 -0.453848 </weights>
                </Neuron>
                <Neuron id="2">
                    <weights>0.290784 0.772993 1.31564 -1.30981 </weights>
                </Neuron>
            </NeuronLayer>
        </NeuralNetwork>
    </Entity>
    <Entity type="Herbivore">
        <x>400.343</x>
        <y>155.035</y>
        <radius>7</radius>
        <angle>-1.01644</angle>
        <maxSpeed>50</maxSpeed>
        <attack>0</attack>
        <energy>1</energy>
        <sex>true</sex>
        <mating>397</mating>
        <age>397</age>
        <hunger>397</hunger>
        <thirst>397</thirst>
        <health>3000</health>
        <NeuralNetwork>
            <NeuronLayer id="0">
                <inputsNum>35</inputsNum>
            </NeuronLayer>
            <NeuronLayer id="1">
                <Neuron id="0">
                    <weights>2.76712 1.89918 1.57769 -2.69487 0.270376 -1.91821 -1.80461 -2.36103 1.1572 -0.286779 -0.0168083 0.334032 -0.120988 -1.74038 -1.29248 -0.380526 0.0719812 1.02943 1.63751 -0.120774 -1.83203 0.967007 -1.01698 -0.00546185 -1.14401 1.77566 2.0722 1.95213 0.0749018 -0.738623 -0.844846 0.199524 -0.882591 0.319034 -1.02279 2.51317 </weights>
                </Neuron>
                <Neuron id="1">
                    <weights>1.41629 -2.62572 -1.17441 -1.00669 1.93741 1.37897 -0.0343574 1.02751 -2.54364 -2.37336 -0.736149 -0.118583 0.261111 -0.277035 1.49114 1.33451 0.135908 0.500187 2.51042 2.66812 -0.661043 -2.73694 -1.62748 0.272616 0.502409 1.49839 2.15272 -1.53648 -3.84962 -2.21056 0.1956 -1.38571 3.9911 0.0693352 3.39126 -0.0707683 </weights>
                </Neuron>
                <Neuron id="2">
                    <weights>0.920391 -1.09835 -3.18801 0.787962 -1.982 -3.49138 -0.668696 1.33442 0.13795 -1.01757 -0.584184 1.90365 -1.40571 -0.737026 -2.23732 -0.284413 2.50507 0.168332 0.0117402 -3.91181 -1.03606 -0.744534 0.962333 0.662651 -1.09147 -1.12096 -0.844216 1.24851 -1.92762 -3.54151 1.37951 1.33668 -0.635918 0.208048 -1.03923 -0.261385 </weights>
                </Neuron>
            </NeuronLayer>
            <NeuronLayer id="2">
                <Neuron id="0">
                    <weights>-0.50353 3.17074 -1.42577 1.73014 </weights>
                </Neuron>
                <Neuron id="1">
                    <weights>-0.6985 -1.63649 -0.148075 -0.44756 </weights>
                </Neuron>
                <Neuron id="2">
                    <weights>0.290784 0.772993 1.31564 -1.30981 </weights>
                </Neuron>
            </NeuronLayer>
        </NeuralNetwork>
    </Entity>
    <Entity type="Herbivore">
        <x>479.383</x>
        <y>59.1745</y>
        <radius>7</radius>
        <angle>2.99142</angle>
        <maxSpeed>50</maxSpeed>
        <attack>0</attack>
        <energy>0</energy>
        <sex>false</sex>
        <mating>339</mating>
        <age>339</age>
        <hunger>339</hunger>
        <thirst>339</thirst>
        <health>3000</health>
        <NeuralNetwork>
            <NeuronLayer id="0">
                <inputsNum>35</inputsNum>
            </NeuronLayer>
            <NeuronLayer id="1">
                <Neuron id="0">
                    <weights>2.77253 1.89918 1.57185 -2.69487 0.270376 -1.91545 -1.80461 -2.37102 1.1572 -0.290461 -0.0168083 0.332027 -0.120988 -1.73762 -1.29248 -0.39191 0.0730078 1.02943 1.64524 -0.126798 -1.8322 0.971629 -1.01933 -0.0157127 -1.14401 1.77665 2.0722 1.95213 0.0609265 -0.737244 -0.838211 0.20198 -0.877265 0.317751 -1.03461 2.51346 </weights>
                </Neuron>
                <Neuron id="1">
                    <weights>1.40894 -2.62572 -1.17441 -1.00325 1.93741 1.37897 -0.0288389 1.02751 -2.54364 -2.38604 -0.742488 -0.109503 0.246538 -0.275273 1.49202 1.33451 0.130322 0.509844 2.51042 2.66812 -0.65254 -2.7349 -1.62748 0.26977 0.503795 1.4878 2.15272 -1.53472 -3.85087 -2.21056 0.190593 -1.38463 3.99966 0.0657515 3.39356 -0.0707683 </weights>
                </Neuron>
                <Neuron id="2">
                    <weights>0.917174 -1.0954 -3.18801 0.784178 -1.97983 -3.49141 -0.668696 1.33531 0.121151 -1.02813 -0.586404 1.89398 -1.40571 -0.732872 -2.24244 -0.284413 2.50784 0.168332 -0.000577122 -3.91961 -1.03606 -0.744534 0.952905 0.666814 -1.08453 -1.12096 -0.844216 1.24621 -1.92892 -3.52857 1.38794 1.3413 -0.630184 0.208048 -1.03706 -0.261385 </weights>
                </Neuron>
            </NeuronLayer>
            <NeuronLayer id="2">
                <Neuron id="0">
                    <weights>-0.50353 3.17036 -1.43172 1.7271 </weights>
                </Neuron>
                <Neuron id="1">
                    <weights>-0.6985 -1.62277 -0.145898 -0.44756 </weights>
                </Neuron>
                <Neuron id="2">
                    <weights>0.290784 0.764751 1.31564 -1.30981 </weights>
                </Neuron>
            </NeuronLayer>
        </NeuralNetwork>
    </Entity>
    <Entity type="Herbivore">
        <x>474.898</x>
        <y>105.585</y>
        <radius>7</radius>
        <angle>2.00908</angle>
        <maxSpeed>50</maxSpeed>
        <attack>0</attack>
        <energy>0</energy>
        <sex>true</sex>
        <mating>295</mating>
        <age>295</age>
        <hunger>295</hunger>
        <thirst>295</thirst>
        <health>1440</health>
        <NeuralNetwork>
            <NeuronLayer id="0">
                <inputsNum>35</inputsNum>
            </NeuronLayer>
            <NeuronLayer id="1">
                <Neuron id="0">
                    <weights>2.765 1.89292 1.58566 -2.6868 0.254242 -1.9085 -1.80461 -2.37064 1.1624 -0.284329 -0.02839 0.333624 -0.117047 -1.73611 -1.29157 -0.397597 0.0827512 1.02918 1.64612 -0.125654 -1.83728 0.971824 -1.01933 -0.0159167 -1.14401 1.7777 2.07647 1.95812 0.0609265 -0.739541 -0.832852 0.18076 -0.877265 0.308982 -1.02279 2.51111 </weights>
                </Neuron>
                <Neuron id="1">
                    <weights>1.41104 -2.62572 -1.20696 -0.998021 1.94065 1.37897 -0.0310346 1.02169 -2.55567 -2.37339 -0.748188 -0.0859177 0.259015 -0.278917 1.47399 1.34166 0.12413 0.500187 2.50998 2.63854 -0.656254 -2.72811 -1.63202 0.268005 0.497312 1.46688 2.16681 -1.53504 -3.84902 -2.21087 0.203904 -1.37539 3.99966 0.0670088 3.38602 -0.0639847 </weights>
                </Neuron>
                <Neuron id="2">
                    <weights>0.922313 -1.10131 -3.18658 0.794054 -1.97983 -3.49497 -0.669921 1.32612 0.126116 -1.01751 -0.584184 1.88758 -1.40571 -0.737501 -2.23005 -0.291913 2.51399 0.171284 -0.000740674 -3.91825 -1.03278 -0.756497 0.971659 0.667645 -1.08593 -1.12871 -0.848199 1.2391 -1.93418 -3.54151 1.39565 1.34688 -0.653772 0.211066 -1.0259 -0.26359 </weights>
                </Neuron>
            </NeuronLayer>
            <NeuronLayer id="2">
                <Neuron id="0">
                    <weights>-0.499814 3.18048 -1.4211 1.72655 </weights>
                </Neuron>
                <Neuron id="1">
                    <weights>-0.693686 -1.64181 -0.151606 -0.45415 </weights>
                </Neuron>
                <Neuron id="2">
                    <weights>0.291267 0.77012 1.3132 -1.31684 </weights>
                </Neuron>
            </NeuronLayer>
        </NeuralNetwork>
    </Entity>
    <Entity type="Herbivore">
        <x>140.078</x>
        <y>45.3043</y>
        <radius>7</radius>
        <angle>-3.11872</angle>
        <maxSpeed>50</maxSpeed>
        <attack>0</attack>
        <energy>1</energy>
        <sex>true</sex>
        <mating>186</mating>
        <age>186</age>
        <hunger>186</hunger>
        <thirst>186</thirst>
        <health>2760</health>
        <NeuralNetwork>
            <NeuronLayer id="0">
                <inputsNum>35</inputsNum>
            </NeuronLayer>
            <NeuronLayer id="1">
                <Neuron id="0">
                    <weights>2.76712 1.8908 1.57669 -2.69487 0.266991 -1.92664 -1.80461 -2.36834 1.1572 -0.28212 -0.0168083 0.334032 -0.120988 -1.73762 -1.29248 -0.39191 0.0704523 1.02943 1.64349 -0.126798 -1.83728 0.971629 -1.01698 0.000735022 -1.14401 1.77566 2.0722 1.95213 0.0594181 -0.738623 -0.84079 0.199524 -0.877562 0.319034 -1.02227 2.51317 </weights>
                </Neuron>
                <Neuron id="1">
                    <weights>1.4165 -2.61672 -1.17441 -1.00669 1.93741 1.37897 -0.0343574 1.0314 -2.54364 -2.37816 -0.736149 -0.116333 0.261111 -0.275273 1.4902 1.33451 0.130322 0.500187 2.51042 2.66812 -0.661043 -2.73694 -1.62748 0.26977 0.502409 1.49101 2.15272 -1.53648 -3.84931 -2.21056 0.1956 -1.38571 3.99966 0.0693352 3.39126 -0.0707683 </weights>
                </Neuron>
                <Neuron id="2">
                    <weights>0.920391 -1.09835 -3.18801 0.791841 -1.97983 -3.49141 -0.668696 1.3354 0.12933 -1.01013 -0.584184 1.90365 -1.40571 -0.736463 -2.23732 -0.284413 2.50507 0.168332 0.00572094 -3.92313 -1.03641 -0.745405 0.962333 0.663585 -1.09147 -1.12096 -0.844216 1.24621 -1.92762 -3.54448 1.3802 1.33668 -0.635918 0.208048 -1.03923 -0.261385 </weights>
                </Neuron>
            </NeuronLayer>
            <NeuronLayer id="2">
                <Neuron id="0">
                    <weights>-0.503364 3.17074 -1.42577 1.73014 </weights>
                </Neuron>
                <Neuron id="1">
                    <weights>-0.70489 -1.61975 -0.148075 -0.453848 </weights>
                </Neuron>
                <Neuron id="2">
                    <weights>0.290784 0.772993 1.31564 -1.30981 </weights>
                </Neuron>
            </NeuronLayer>
        </NeuralNetwork>
    </Entity>
    <Entity type="Herbivore">
        <x>431.474</x>
        <y>180.543</y>
        <radius>7</radius>
        <angle>-1.36427</angle>
        <maxSpeed>50</maxSpeed>
        <attack>0</attack>
        <energy>1</energy>
        <sex>true</sex>
        <mating>183</mating>
        <age>183</age>
        <hunger>183</hunger>
        <thirst>183</thirst>
        <health>1680</health>
        <NeuralNetwork>
            <NeuronLayer id="0">
                <inputsNum>35</inputsNum>
            </NeuronLayer>
            <NeuronLayer id="1">
                <Neuron id="0">
                    <weights>2.76733 1.89918 1.57669 -2.69487 0.270376 -1.91297 -1.80461 -2.3646 1.15396 -0.28212 -0.017576 0.332027 -0.120988 -1.73762 -1.29248 -0.39191 0.0704523 1.02943 1.64463 -0.126798 -1.83728 0.969275 -1.01933 -0.0134383 -1.14459 1.7819 2.0722 1.95213 0.0609265 -0.739733 -0.84079 0.199524 -0.877265 0.313918 -1.01587 2.51317 </weights>
                </Neuron>
                <Neuron id="1">
                    <weights>1.40855 -2.62572 -1.17441 -1.00325 1.93741 1.37897 -0.0343574 1.031 -2.54364 -2.38604 -0.733595 -0.111276 0.261111 -0.26887 1.4939 1.33451 0.130322 0.500187 2.51042 2.66812 -0.661843 -2.7349 -1.62756 0.26977 0.502409 1.4878 2.15298 -1.54088 -3.85087 -2.21056 0.1956 -1.38571 3.99966 0.0657515 3.39126 -0.0707683 </weights>
                </Neuron>
                <Neuron id="2">
                    <weights>0.917174 -1.09835 -3.18089 0.788734 -1.97983 -3.50044 -0.668696 1.33442 0.121151 -1.02433 -0.590436 1.89261 -1.40571 -0.732872 -2.24244 -0.284679 2.51094 0.168332 0.000426016 -3.91961 -1.0366 -0.744534 0.96232 0.666607 -1.08593 -1.12096 -0.844216 1.25008 -1.92762 -3.53022 1.39077 1.34117 -0.630184 0.197255 -1.03706 -0.261385 </weights>
                </Neuron>
            </NeuronLayer>
            <NeuronLayer id="2">
                <Neuron id="0">
                    <weights>-0.494658 3.17036 -1.42577 1.7271 </weights>
                </Neuron>
                <Neuron id="1">
                    <weights>-0.6985 -1.62647 -0.144876 -0.443485 </weights>
                </Neuron>
                <Neuron id="2">
                    <weights>0.296898 0.764751 1.31564 -1.30981 </weights>
                </Neuron>
            </NeuronLayer>
        </NeuralNetwork>
    </Entity>
    <Entity type="Herbivore">
        <x>73.0011</x>
        <y>178.451</y>
        <radius>7</radius>
        <angle>0.903069</angle>
        <maxSpeed>50</maxSpeed>
        <attack>0</attack>
        <energy>0</energy>
        <sex>true</sex>
        <mating>167</mating>
        <age>167</age>
        <hunger>167</hunger>
        <thirst>167</thirst>
        <health>1680</health>
        <NeuralNetwork>
            <NeuronLayer id="0">
                <inputsNum>35</inputsNum>
            </NeuronLayer>
            <NeuronLayer id="1">
                <Neuron id="0">
                    <weights>2.765 1.89292 1.58566 -2.69071 0.254242 -1.90852 -1.80461 -2.37064 1.1624 -0.284329 -0.02839 0.333624 -0.117047 -1.73611 -1.2874 -0.397597 0.0764075 1.02918 1.64921 -0.125654 -1.83728 0.971824 -1.01933 -0.0159167 -1.14401 1.7777 2.07647 1.95812 0.0609265 -0.739541 -0.832852 0.19055 -0.877265 0.308982 -1.02279 2.51111 </weights>
                </Neuron>
                <Neuron id="1">
                    <weights>1.41104 -2.62572 -1.20773 -0.998021 1.93333 1.37897 -0.0263055 1.02169 -2.55567 -2.37339 -0.748188 -0.0931137 0.262564 -0.282497 1.49202 1.34166 0.12413 0.500187 2.50998 2.63854 -0.656254 -2.7349 -1.63202 0.259721 0.498004 1.46688 2.16236 -1.53504 -3.84902 -2.21056 0.200257 -1.37539 3.99966 0.0670088 3.38602 -0.0578203 </weights>
                </Neuron>
                <Neuron id="2">
                    <weights>0.922313 -1.09319 -3.18658 0.794054 -1.97983 -3.49497 -0.674331 1.32612 0.11484 -1.01751 -0.584184 1.88758 -1.40571 -0.737501 -2.23431 -0.291913 2.51791 0.171284 -0.000740674 -3.91825 -1.03278 -0.756497 0.971659 0.665156 -1.08593 -1.12835 -0.864818 1.23862 -1.93418 -3.54151 1.39565 1.34688 -0.653772 0.217278 -1.0259 -0.26359 </weights>
                </Neuron>
            </NeuronLayer>
            <NeuronLayer id="2">
                <Neuron id="0">
                    <weights>-0.499814 3.18048 -1.4211 1.72294 </weights>
                </Neuron>
                <Neuron id="1">
                    <weights>-0.695093 -1.64181 -0.151606 -0.45415 </weights>
                </Neuron>
                <Neuron id="2">
                    <weights>0.291267 0.763921 1.3132 -1.31684 </weights>
                </Neuron>
            </NeuronLayer>
        </NeuralNetwork>
    </Entity>
    <Entity type="Herbivore">
        <x>112.591</x>
        <y>0.346705</y>
        <radius>7</radius>
        <angle>-1.0021</angle>
        <maxSpeed>50</maxSpeed>
        <attack>0</attack>
        <energy>0</energy>
        <sex>true</sex>
        <mating>153</mating>
        <age>153</age>
        <hunger>153</hunger>
        <thirst>153</thirst>
        <health>3000</health>
        <NeuralNetwork>
            <NeuronLayer id="0">
                <inputsNum>35</inputsNum>
            </NeuronLayer>
            <NeuronLayer id="1">
                <Neuron id="0">
                    <weights>2.76101 1.89774 1.57669 -2.70152 0.270376 -1.91297 -1.80461 -2.36594 1.16622 -0.28212 -0.0168083 0.332027 -0.127056 -1.74045 -1.30694 -0.389531 0.0704523 1.02943 1.64349 -0.126798 -1.84054 0.971629 -1.01933 -0.0154799 -1.14401 1.77668 2.0722 1.95376 0.0609265 -0.737244 -0.84079 0.199524 -0.877265 0.306299 -1.02279 2.517 </weights>
                </Neuron>
                <Neuron id="1">
                    <weights>1.4084 -2.62119 -1.17441 -1.00325 1.93741 1.37897 -0.0362739 1.02751 -2.54364 -2.38281 -0.740888 -0.110181 0.261216 -0.274286 1.49202 1.33451 0.130322 0.500187 2.51042 2.66812 -0.662546 -2.7349 -1.62748 0.26977 0.502409 1.4878 2.15272 -1.53648 -3.85087 -2.20882 0.1956 -1.38571 3.99968 0.0648812 3.39126 -0.069884 </weights>
                </Neuron>
                <Neuron id="2">
                    <weights>0.917174 -1.09835 -3.18801 0.785217 -1.97983 -3.49642 -0.671383 1.33408 0.121151 -1.02112 -0.584184 1.89398 -1.4089 -0.732872 -2.24244 -0.288648 2.50507 0.184021 0.00725775 -3.91961 -1.03606 -0.753166 0.962333 0.666814 -1.0844 -1.12096 -0.848989 1.24771 -1.92762 -3.54387 1.39799 1.34117 -0.630184 0.198842 -1.03706 -0.266146 </weights>
                </Neuron>
            </NeuronLayer>
            <NeuronLayer id="2">
                <Neuron id="0">
                    <weights>-0.503316 3.17036 -1.42815 1.72992 </weights>
                </Neuron>
                <Neuron id="1">
                    <weights>-0.7023 -1.62647 -0.150955 -0.44756 </weights>
                </Neuron>
                <Neuron id="2">
                    <weights>0.290784 0.764751 1.31564 -1.30981 </weights>
                </Neuron>
            </NeuronLayer>
        </NeuralNetwork>
    </Entity>
    <Entity type="Herbivore">
        <x>199.274</x>
        <y>328.188</y>
        <radius>7</radius>
        <angle>0.506246</angle>
        <maxSpeed>50</maxSpeed>
        <attack>0</attack>
        <energy>42</energy>
        <sex>true</sex>
        <mating>53</mating>
        <age>53</age>
        <hunger>53</hunger>
        <thirst>53</thirst>
        <health>3000</health>
        <NeuralNetwork>
            <NeuronLayer id="0">
                <inputsNum>35</inputsNum>
            </NeuronLayer>
            <NeuronLayer id="1">
                <Neuron id="0">
                    <weights>2.78087 1.89618 1.57769 -2.69487 0.270376 -1.91821 -1.80461 -2.36103 1.14568 -0.28212 -0.0187677 0.334032 -0.120522 -1.74394 -1.29248 -0.380526 0.0719812 1.02943 1.63751 -0.135931 -1.83203 0.967007 -1.01698 -0.00546185 -1.14401 1.77081 2.0722 1.95213 0.0666 -0.738623 -0.844846 0.199524 -0.876146 0.322333 -1.02508 2.51317 </weights>
                </Neuron>
                <Neuron id="1">
                    <weights>1.4165 -2.62572 -1.17441 -1.00669 1.93741 1.37897 -0.0343574 1.02751 -2.55012 -2.37816 -0.736149 -0.118583 0.261111 -0.275273 1.49202 1.33451 0.130322 0.500187 2.51042 2.66812 -0.661043 -2.73694 -1.62748 0.267509 0.502409 1.49839 2.15272 -1.53648 -3.84962 -2.21056 0.1956 -1.38098 3.99966 0.0693352 3.39126 -0.0707683 </weights>
                </Neuron>
                <Neuron id="2">
                    <weights>0.92158 -1.09996 -3.18801 0.791841 -1.97543 -3.49141 -0.668696 1.33442 0.13795 -1.01757 -0.584184 1.90365 -1.40571 -0.736463 -2.23441 -0.28133 2.50507 0.168332 0.00572094 -3.91181 -1.03606 -0.744534 0.962333 0.662651 -1.09147 -1.12096 -0.844216 1.24851 -1.92762 -3.54151 1.38535 1.33668 -0.635918 0.208048 -1.03923 -0.261385 </weights>
                </Neuron>
            </NeuronLayer>
            <NeuronLayer id="2">
                <Neuron id="0">
                    <weights>-0.50353 3.17074 -1.42577 1.73014 </weights>
                </Neuron>
                <Neuron id="1">
                    <weights>-0.6985 -1.63649 -0.148075 -0.44756 </weights>
                </Neuron>
                <Neuron id="2">
                    <weights>0.290784 0.772993 1.31564 -1.30981 </weights>
                </Neuron>
            </NeuronLayer>
        </NeuralNetwork>
    </Entity>
    <Entity type="Herbivore">
        <x>337.15</x>
        <y>434.651</y>
        <radius>7</radius>
        <angle>2.31753</angle>
        <maxSpeed>50</maxSpeed>
        <attack>0</attack>
        <energy>62</energy>
        <sex>true</sex>
        <mating>33</mating>
        <age>33</age>
        <hunger>33</hunger>
        <thirst>33</thirst>
        <health>3000</health>
        <NeuralNetwork>
            <NeuronLayer id="0">
                <inputsNum>35</inputsNum>
            </NeuronLayer>
            <NeuronLayer id="1">
                <Neuron id="0">
                    <weights>2.765 1.89292 1.58935 -2.69243 0.254242 -1.90852 -1.80461 -2.37064 1.1624 -0.284329 -0.02839 0.333624 -0.117047 -1.73611 -1.2874 -0.397597 0.0827512 1.02918 1.64921 -0.125654 -1.83728 0.971824 -1.01933 -0.0159167 -1.14401 1.7777 2.07647 1.95812 0.0609265 -0.739541 -0.832852 0.18076 -0.877265 0.308982 -1.02279 2.51111 </weights>
                </Neuron>
                <Neuron id="1">
                    <weights>1.41104 -2.62456 -1.20696 -0.998021 1.94284 1.37897 -0.0310346 1.02169 -2.55567 -2.37339 -0.748188 -0.0859177 0.259015 -0.278917 1.47399 1.34166 0.12413 0.500187 2.50998 2.63854 -0.656254 -2.72811 -1.63202 0.268005 0.497312 1.46688 2.16681 -1.53504 -3.84902 -2.21087 0.203904 -1.37724 3.99966 0.0670088 3.38602 -0.0639847 </weights>
                </Neuron>
                <Neuron id="2">
                    <weights>0.921832 -1.10131 -3.18658 0.794054 -1.97983 -3.49497 -0.669921 1.32612 0.126116 -1.01751 -0.584184 1.88758 -1.40571 -0.737501 -2.23005 -0.291913 2.51399 0.171284 -0.000740674 -3.91825 -1.03278 -0.75724 0.975749 0.667645 -1.08593 -1.12871 -0.84111 1.24575 -1.93418 -3.54151 1.39565 1.34688 -0.653772 0.211066 -1.02817 -0.26359 </weights>
                </Neuron>
            </NeuronLayer>
            <NeuronLayer id="2">
                <Neuron id="0">
                    <weights>-0.499814 3.18075 -1.4211 1.72294 </weights>
                </Neuron>
                <Neuron id="1">
                    <weights>-0.693686 -1.64181 -0.151606 -0.45415 </weights>
                </Neuron>
                <Neuron id="2">
                    <weights>0.291267 0.764917 1.3132 -1.31684 </weights>
                </Neuron>
            </NeuronLayer>
        </NeuralNetwork>
    </Entity>
    <Entity type="Herbivore">
        <x>209.733</x>
        <y>275.01</y>
        <radius>7</radius>
        <angle>0.891375</angle>
        <maxSpeed>50</maxSpeed>
        <attack>0</attack>
        <energy>78</energy>
        <sex>true</sex>
        <mating>26</mating>
        <age>26</age>
        <hunger>26</hunger>
        <thirst>26</thirst>
        <health>3000</health>
        <NeuralNetwork>
            <NeuronLayer id="0">
                <inputsNum>35</inputsNum>
            </NeuronLayer>
            <NeuronLayer id="1">
                <Neuron id="0">
                    <weights>2.76712 1.89918 1.57769 -2.69487 0.257604 -1.91821 -1.80461 -2.36834 1.1572 -0.28212 -0.0145847 0.334032 -0.120988 -1.73919 -1.29248 -0.39191 0.0719812 1.027 1.64141 -0.126798 -1.83203 0.967007 -1.01698 -0.00546185 -1.14536 1.77566 2.0722 1.95213 0.0686612 -0.744681 -0.84079 0.199524 -0.879641 0.303195 -1.02279 2.51388 </weights>
                </Neuron>
                <Neuron id="1">
                    <weights>1.4165 -2.62572 -1.17441 -1.00442 1.93741 1.37897 -0.0343574 1.02751 -2.54364 -2.37816 -0.736149 -0.118583 0.258642 -0.275273 1.48851 1.33451 0.130322 0.500187 2.51042 2.66812 -0.665257 -2.73694 -1.62748 0.26977 0.502409 1.49101 2.15272 -1.53648 -3.84962 -2.21056 0.1956 -1.38571 3.99966 0.062588 3.39126 -0.0707683 </weights>
                </Neuron>
                <Neuron id="2">
                    <weights>0.920391 -1.09835 -3.18801 0.791841 -1.97983 -3.49141 -0.668696 1.33442 0.135221 -1.01013 -0.58571 1.90365 -1.40571 -0.736463 -2.23732 -0.284413 2.50507 0.168332 0.00572094 -3.91134 -1.03606 -0.744534 0.962333 0.670376 -1.09147 -1.1206 -0.844216 1.23766 -1.92762 -3.53752 1.3771 1.33668 -0.635918 0.208521 -1.0376 -0.261385 </weights>
                </Neuron>
            </NeuronLayer>
            <NeuronLayer id="2">
                <Neuron id="0">
                    <weights>-0.50353 3.17074 -1.42577 1.73014 </weights>
                </Neuron>
                <Neuron id="1">
                    <weights>-0.6985 -1.63649 -0.148075 -0.44756 </weights>
                </Neuron>
                <Neuron id="2">
                    <weights>0.290784 0.772993 1.31564 -1.31564 </weights>
                </Neuron>
            </NeuronLayer>
        </NeuralNetwork>
    </Entity>
</World>
