<?xml version="1.0" encoding="UTF-8"?>
<World>
    <x>500</x>
    <y>500</y>
    <age>0</age>
    <Entity type="Vegetal">
        <x>350</x>
        <y>400</y>
        <radius>50</radius>
        <quantity>5000</quantity>
        <maxQuantity>5000</maxQuantity>
    </Entity>
    <Entity type="Vegetal">
        <x>200</x>
        <y>10</y>
        <radius>50</radius>
        <quantity>5000</quantity>
        <maxQuantity>5000</maxQuantity>
    </Entity>
    <Entity type="Vegetal">
        <x>380</x>
        <y>460</y>
        <radius>50</radius>
        <quantity>5000</quantity>
        <maxQuantity>5000</maxQuantity>
    </Entity>
    <Entity type="Water">
        <x>450</x>
        <y>25</y>
        <radius>20</radius>
        <quantity>4400</quantity>
        <maxQuantity>5000</maxQuantity>
    </Entity>
    <Entity type="Water">
        <x>70</x>
        <y>70</y>
        <radius>50</radius>
        <quantity>4660</quantity>
        <maxQuantity>5000</maxQuantity>
    </Entity>
    <Entity type="Water">
        <x>25</x>
        <y>370</y>
        <radius>20</radius>
        <quantity>5000</quantity>
        <maxQuantity>5000</maxQuantity>
    </Entity>
    <Entity type="Herbivore">
        <x>256</x>
        <y>345</y>
        <radius>8</radius>
        <angle>1</angle>
        <maxSpeed>50</maxSpeed>
        <attack>20</attack>
        <energy>75</energy>
        <sex>false</sex>
        <mating>2500</mating>
        <age>0</age>
        <hunger>0</hunger>
        <thirst>0</thirst>
        <health>5000</health>
        <NeuralNetwork>
            <NeuronLayer id="0">
                <inputsNum>16</inputsNum>
            </NeuronLayer>
            <NeuronLayer id="1">
                <Neuron id="0">
                    <weights>1.5462 1.17026 2.4561 0.27149 0.319161 0.466815 -0.497156 -1.52693 -1.43852 0.368316 2.32508 -0.19008 1.69885 -2.9101 -0.926525 2.94097 1.06577 </weights>
                </Neuron>
                <Neuron id="1">
                    <weights>-0.692165 -0.666559 -1.72155 -0.0321241 -1.7225 -0.119608 -1.5376 0.615451 -0.0905512 1.55779 0.194512 1.13924 -2.95698 -0.803447 -0.148487 -1.04989 -0.0311412 </weights>
                </Neuron>
                <Neuron id="2">
                    <weights>-0.211298 0.659498 0.270527 -0.953163 -0.0277475 0.0825859 -0.80241 -0.613228 -0.749765 -0.454762 -0.353615 0.727779 -1.54739 -1.92594 0.811332 0.5838 -0.690715 </weights>
                </Neuron>
                <Neuron id="3">
                    <weights>0.526014 -1.24222 -0.0181596 0.0150745 0.83588 -0.174241 0.614802 -0.440176 -0.340891 0.714615 0.0591563 -1.09903 -0.925985 -1.21333 -1.40101 0.478229 -0.0193169 </weights>
                </Neuron>
                <Neuron id="4">
                    <weights>1.00683 0.326463 0.166232 2.26112 0.854252 -0.896826 -0.876723 -1.25381 0.630878 -0.220964 -1.26534 1.42709 -0.993428 -0.935934 0.295089 2.19691 0.348481 </weights>
                </Neuron>
                <Neuron id="5">
                    <weights>0.981705 -0.463346 0.846299 -0.777215 0.360403 0.930007 0.044779 -0.961896 0.788221 -0.526195 2.30582 0.704004 1.23497 0.675027 -0.0286364 1.06229 0.393836 </weights>
                </Neuron>
                <Neuron id="6">
                    <weights>0.399677 -1.02402 0.344509 1.66927 0.96983 1.14318 0.654023 -0.434108 0.762437 -1.23164 -0.384902 0.0887531 -2.36472 -0.869143 -2.00452 0.523895 -0.547074 </weights>
                </Neuron>
                <Neuron id="7">
                    <weights>1.04669 0.589028 1.08658 2.07906 -0.463408 -0.480659 -0.515331 0.962217 -0.146912 -0.386759 -1.23858 0.358216 0.574484 1.24301 -0.935375 -1.0492 -2.3479 </weights>
                </Neuron>
                <Neuron id="8">
                    <weights>-0.0563308 -1.52108 0.764179 -0.816075 -0.583408 -0.838722 2.36887 0.0292935 0.974639 -0.354227 1.00012 -1.39467 -0.693692 -1.553 0.354159 -0.394917 -0.243131 </weights>
                </Neuron>
                <Neuron id="9">
                    <weights>-0.795682 2.13398 -1.54377 0.30915 1.14639 1.06396 -0.335704 0.362498 -0.522382 0.575679 -0.984557 -1.88112 0.248021 -1.61874 -0.33352 -0.311125 -1.24352 </weights>
                </Neuron>
                <Neuron id="10">
                    <weights>-0.681461 -0.527741 0.416183 0.801257 1.6471 1.1237 -0.0620093 -0.587957 0.904613 0.920113 0.0488407 0.733587 -0.150141 0.301419 -0.439924 -0.615083 1.06957 </weights>
                </Neuron>
                <Neuron id="11">
                    <weights>1.30869 0.321028 0.204469 0.538078 0.360216 2.83769 0.089626 0.0681387 -0.739521 0.237129 0.288809 0.483455 1.05137 0.856249 -0.0259159 0.311894 -1.77411 </weights>
                </Neuron>
            </NeuronLayer>
            <NeuronLayer id="2">
                <Neuron id="0">
                    <weights>0.344025 -1.4789 1.12994 1.2463 0.645019 -0.41451 0.819365 0.610287 -0.105072 -0.843242 -0.563798 0.910242 1.31162 </weights>
                </Neuron>
                <Neuron id="1">
                    <weights>2.16198 -0.622848 -0.805356 -1.3761 0.940074 -0.58149 -0.526758 1.8784 1.29546 0.0478815 1.16256 -1.67605 0.472056 </weights>
                </Neuron>
                <Neuron id="2">
                    <weights>-0.319938 -0.95606 0.621874 2.11719 -0.167696 -0.522053 1.17038 0.199004 0.290591 1.41405 -0.498372 -0.365197 -1.16529 </weights>
                </Neuron>
            </NeuronLayer>
        </NeuralNetwork>
    </Entity>
    <Entity type="Herbivore">
        <x>57</x>
        <y>137</y>
        <radius>8</radius>
        <angle>1</angle>
        <maxSpeed>50</maxSpeed>
        <attack>20</attack>
        <energy>75</energy>
        <sex>false</sex>
        <mating>2500</mating>
        <age>0</age>
        <hunger>0</hunger>
        <thirst>0</thirst>
        <health>5000</health>
        <NeuralNetwork>
            <NeuronLayer id="0">
                <inputsNum>16</inputsNum>
            </NeuronLayer>
            <NeuronLayer id="1">
                <Neuron id="0">
                    <weights>1.5462 1.17026 2.4561 0.27149 0.319161 0.466815 -0.497156 -1.52693 -1.43852 0.368316 2.32508 -0.19008 1.69885 -2.9101 -0.926525 2.94097 1.06577 </weights>
                </Neuron>
                <Neuron id="1">
                    <weights>-0.692165 -0.666559 -1.72155 -0.0321241 -1.7225 -0.119608 -1.5376 0.615451 -0.0905512 1.55779 0.194512 1.13924 -2.95698 -0.803447 -0.148487 -1.04989 -0.0311412 </weights>
                </Neuron>
                <Neuron id="2">
                    <weights>-0.211298 0.659498 0.270527 -0.953163 -0.0277475 0.0825859 -0.80241 -0.613228 -0.749765 -0.454762 -0.353615 0.727779 -1.54739 -1.92594 0.811332 0.5838 -0.690715 </weights>
                </Neuron>
                <Neuron id="3">
                    <weights>0.526014 -1.24222 -0.0181596 0.0150745 0.83588 -0.174241 0.614802 -0.440176 -0.340891 0.714615 0.0591563 -1.09903 -0.925985 -1.21333 -1.40101 0.478229 -0.0193169 </weights>
                </Neuron>
                <Neuron id="4">
                    <weights>1.00683 0.326463 0.166232 2.26112 0.854252 -0.896826 -0.876723 -1.25381 0.630878 -0.220964 -1.26534 1.42709 -0.993428 -0.935934 0.295089 2.19691 0.348481 </weights>
                </Neuron>
                <Neuron id="5">
                    <weights>0.981705 -0.463346 0.846299 -0.777215 0.360403 0.930007 0.044779 -0.961896 0.788221 -0.526195 2.30582 0.704004 1.23497 0.675027 -0.0286364 1.06229 0.393836 </weights>
                </Neuron>
                <Neuron id="6">
                    <weights>0.399677 -1.02402 0.344509 1.66927 0.96983 1.14318 0.654023 -0.434108 0.762437 -1.23164 -0.384902 0.0887531 -2.36472 -0.869143 -2.00452 0.523895 -0.547074 </weights>
                </Neuron>
                <Neuron id="7">
                    <weights>1.04669 0.589028 1.08658 2.07906 -0.463408 -0.480659 -0.515331 0.962217 -0.146912 -0.386759 -1.23858 0.358216 0.574484 1.24301 -0.935375 -1.0492 -2.3479 </weights>
                </Neuron>
                <Neuron id="8">
                    <weights>-0.0563308 -1.52108 0.764179 -0.816075 -0.583408 -0.838722 2.36887 0.0292935 0.974639 -0.354227 1.00012 -1.39467 -0.693692 -1.553 0.354159 -0.394917 -0.243131 </weights>
                </Neuron>
                <Neuron id="9">
                    <weights>-0.795682 2.13398 -1.54377 0.30915 1.14639 1.06396 -0.335704 0.362498 -0.522382 0.575679 -0.984557 -1.88112 0.248021 -1.61874 -0.33352 -0.311125 -1.24352 </weights>
                </Neuron>
                <Neuron id="10">
                    <weights>-0.681461 -0.527741 0.416183 0.801257 1.6471 1.1237 -0.0620093 -0.587957 0.904613 0.920113 0.0488407 0.733587 -0.150141 0.301419 -0.439924 -0.615083 1.06957 </weights>
                </Neuron>
                <Neuron id="11">
                    <weights>1.30869 0.321028 0.204469 0.538078 0.360216 2.83769 0.089626 0.0681387 -0.739521 0.237129 0.288809 0.483455 1.05137 0.856249 -0.0259159 0.311894 -1.77411 </weights>
                </Neuron>
            </NeuronLayer>
            <NeuronLayer id="2">
                <Neuron id="0">
                    <weights>0.344025 -1.4789 1.12994 1.2463 0.645019 -0.41451 0.819365 0.610287 -0.105072 -0.843242 -0.563798 0.910242 1.31162 </weights>
                </Neuron>
                <Neuron id="1">
                    <weights>2.16198 -0.622848 -0.805356 -1.3761 0.940074 -0.58149 -0.526758 1.8784 1.29546 0.0478815 1.16256 -1.67605 0.472056 </weights>
                </Neuron>
                <Neuron id="2">
                    <weights>-0.319938 -0.95606 0.621874 2.11719 -0.167696 -0.522053 1.17038 0.199004 0.290591 1.41405 -0.498372 -0.365197 -1.16529 </weights>
                </Neuron>
            </NeuronLayer>
        </NeuralNetwork>
    </Entity>
    <Entity type="Herbivore">
        <x>288</x>
        <y>401</y>
        <radius>8</radius>
        <angle>1.02</angle>
        <maxSpeed>50</maxSpeed>
        <attack>20</attack>
        <energy>74</energy>
        <sex>false</sex>
        <mating>2500</mating>
        <age>0</age>
        <hunger>0</hunger>
        <thirst>0</thirst>
        <health>5000</health>
        <NeuralNetwork>
            <NeuronLayer id="0">
                <inputsNum>16</inputsNum>
            </NeuronLayer>
            <NeuronLayer id="1">
                <Neuron id="0">
                    <weights>1.5462 1.17026 2.4561 0.27149 0.319161 0.466815 -0.497156 -1.52693 -1.43852 0.368316 2.32508 -0.19008 1.69885 -2.9101 -0.926525 2.94097 1.06577 </weights>
                </Neuron>
                <Neuron id="1">
                    <weights>-0.692165 -0.666559 -1.72155 -0.0321241 -1.7225 -0.119608 -1.5376 0.615451 -0.0905512 1.55779 0.194512 1.13924 -2.95698 -0.803447 -0.148487 -1.04989 -0.0311412 </weights>
                </Neuron>
                <Neuron id="2">
                    <weights>-0.211298 0.659498 0.270527 -0.953163 -0.0277475 0.0825859 -0.80241 -0.613228 -0.749765 -0.454762 -0.353615 0.727779 -1.54739 -1.92594 0.811332 0.5838 -0.690715 </weights>
                </Neuron>
                <Neuron id="3">
                    <weights>0.526014 -1.24222 -0.0181596 0.0150745 0.83588 -0.174241 0.614802 -0.440176 -0.340891 0.714615 0.0591563 -1.09903 -0.925985 -1.21333 -1.40101 0.478229 -0.0193169 </weights>
                </Neuron>
                <Neuron id="4">
                    <weights>1.00683 0.326463 0.166232 2.26112 0.854252 -0.896826 -0.876723 -1.25381 0.630878 -0.220964 -1.26534 1.42709 -0.993428 -0.935934 0.295089 2.19691 0.348481 </weights>
                </Neuron>
                <Neuron id="5">
                    <weights>0.981705 -0.463346 0.846299 -0.777215 0.360403 0.930007 0.044779 -0.961896 0.788221 -0.526195 2.30582 0.704004 1.23497 0.675027 -0.0286364 1.06229 0.393836 </weights>
                </Neuron>
                <Neuron id="6">
                    <weights>0.399677 -1.02402 0.344509 1.66927 0.96983 1.14318 0.654023 -0.434108 0.762437 -1.23164 -0.384902 0.0887531 -2.36472 -0.869143 -2.00452 0.523895 -0.547074 </weights>
                </Neuron>
                <Neuron id="7">
                    <weights>1.04669 0.589028 1.08658 2.07906 -0.463408 -0.480659 -0.515331 0.962217 -0.146912 -0.386759 -1.23858 0.358216 0.574484 1.24301 -0.935375 -1.0492 -2.3479 </weights>
                </Neuron>
                <Neuron id="8">
                    <weights>-0.0563308 -1.52108 0.764179 -0.816075 -0.583408 -0.838722 2.36887 0.0292935 0.974639 -0.354227 1.00012 -1.39467 -0.693692 -1.553 0.354159 -0.394917 -0.243131 </weights>
                </Neuron>
                <Neuron id="9">
                    <weights>-0.795682 2.13398 -1.54377 0.30915 1.14639 1.06396 -0.335704 0.362498 -0.522382 0.575679 -0.984557 -1.88112 0.248021 -1.61874 -0.33352 -0.311125 -1.24352 </weights>
                </Neuron>
                <Neuron id="10">
                    <weights>-0.681461 -0.527741 0.416183 0.801257 1.6471 1.1237 -0.0620093 -0.587957 0.904613 0.920113 0.0488407 0.733587 -0.150141 0.301419 -0.439924 -0.615083 1.06957 </weights>
                </Neuron>
                <Neuron id="11">
                    <weights>1.30869 0.321028 0.204469 0.538078 0.360216 2.83769 0.089626 0.0681387 -0.739521 0.237129 0.288809 0.483455 1.05137 0.856249 -0.0259159 0.311894 -1.77411 </weights>
                </Neuron>
            </NeuronLayer>
            <NeuronLayer id="2">
                <Neuron id="0">
                    <weights>0.344025 -1.4789 1.12994 1.2463 0.645019 -0.41451 0.819365 0.610287 -0.105072 -0.843242 -0.563798 0.910242 1.31162 </weights>
                </Neuron>
                <Neuron id="1">
                    <weights>2.16198 -0.622848 -0.805356 -1.3761 0.940074 -0.58149 -0.526758 1.8784 1.29546 0.0478815 1.16256 -1.67605 0.472056 </weights>
                </Neuron>
                <Neuron id="2">
                    <weights>-0.319938 -0.95606 0.621874 2.11719 -0.167696 -0.522053 1.17038 0.199004 0.290591 1.41405 -0.498372 -0.365197 -1.16529 </weights>
                </Neuron>
            </NeuronLayer>
        </NeuralNetwork>
    </Entity>
    <Entity type="Herbivore">
        <x>110</x>
        <y>219</y>
        <radius>8</radius>
        <angle>1</angle>
        <maxSpeed>50</maxSpeed>
        <attack>20</attack>
        <energy>75</energy>
        <sex>true</sex>
        <mating>2500</mating>
        <age>0</age>
        <hunger>0</hunger>
        <thirst>0</thirst>
        <health>5000</health>
        <NeuralNetwork>
            <NeuronLayer id="0">
                <inputsNum>16</inputsNum>
            </NeuronLayer>
            <NeuronLayer id="1">
                <Neuron id="0">
                    <weights>1.5462 1.17026 2.4561 0.27149 0.319161 0.466815 -0.497156 -1.52693 -1.43852 0.368316 2.32508 -0.19008 1.69885 -2.9101 -0.926525 2.94097 1.06577 </weights>
                </Neuron>
                <Neuron id="1">
                    <weights>-0.692165 -0.666559 -1.72155 -0.0321241 -1.7225 -0.119608 -1.5376 0.615451 -0.0905512 1.55779 0.194512 1.13924 -2.95698 -0.803447 -0.148487 -1.04989 -0.0311412 </weights>
                </Neuron>
                <Neuron id="2">
                    <weights>-0.211298 0.659498 0.270527 -0.953163 -0.0277475 0.0825859 -0.80241 -0.613228 -0.749765 -0.454762 -0.353615 0.727779 -1.54739 -1.92594 0.811332 0.5838 -0.690715 </weights>
                </Neuron>
                <Neuron id="3">
                    <weights>0.526014 -1.24222 -0.0181596 0.0150745 0.83588 -0.174241 0.614802 -0.440176 -0.340891 0.714615 0.0591563 -1.09903 -0.925985 -1.21333 -1.40101 0.478229 -0.0193169 </weights>
                </Neuron>
                <Neuron id="4">
                    <weights>1.00683 0.326463 0.166232 2.26112 0.854252 -0.896826 -0.876723 -1.25381 0.630878 -0.220964 -1.26534 1.42709 -0.993428 -0.935934 0.295089 2.19691 0.348481 </weights>
                </Neuron>
                <Neuron id="5">
                    <weights>0.981705 -0.463346 0.846299 -0.777215 0.360403 0.930007 0.044779 -0.961896 0.788221 -0.526195 2.30582 0.704004 1.23497 0.675027 -0.0286364 1.06229 0.393836 </weights>
                </Neuron>
                <Neuron id="6">
                    <weights>0.399677 -1.02402 0.344509 1.66927 0.96983 1.14318 0.654023 -0.434108 0.762437 -1.23164 -0.384902 0.0887531 -2.36472 -0.869143 -2.00452 0.523895 -0.547074 </weights>
                </Neuron>
                <Neuron id="7">
                    <weights>1.04669 0.589028 1.08658 2.07906 -0.463408 -0.480659 -0.515331 0.962217 -0.146912 -0.386759 -1.23858 0.358216 0.574484 1.24301 -0.935375 -1.0492 -2.3479 </weights>
                </Neuron>
                <Neuron id="8">
                    <weights>-0.0563308 -1.52108 0.764179 -0.816075 -0.583408 -0.838722 2.36887 0.0292935 0.974639 -0.354227 1.00012 -1.39467 -0.693692 -1.553 0.354159 -0.394917 -0.243131 </weights>
                </Neuron>
                <Neuron id="9">
                    <weights>-0.795682 2.13398 -1.54377 0.30915 1.14639 1.06396 -0.335704 0.362498 -0.522382 0.575679 -0.984557 -1.88112 0.248021 -1.61874 -0.33352 -0.311125 -1.24352 </weights>
                </Neuron>
                <Neuron id="10">
                    <weights>-0.681461 -0.527741 0.416183 0.801257 1.6471 1.1237 -0.0620093 -0.587957 0.904613 0.920113 0.0488407 0.733587 -0.150141 0.301419 -0.439924 -0.615083 1.06957 </weights>
                </Neuron>
                <Neuron id="11">
                    <weights>1.30869 0.321028 0.204469 0.538078 0.360216 2.83769 0.089626 0.0681387 -0.739521 0.237129 0.288809 0.483455 1.05137 0.856249 -0.0259159 0.311894 -1.77411 </weights>
                </Neuron>
            </NeuronLayer>
            <NeuronLayer id="2">
                <Neuron id="0">
                    <weights>0.344025 -1.4789 1.12994 1.2463 0.645019 -0.41451 0.819365 0.610287 -0.105072 -0.843242 -0.563798 0.910242 1.31162 </weights>
                </Neuron>
                <Neuron id="1">
                    <weights>2.16198 -0.622848 -0.805356 -1.3761 0.940074 -0.58149 -0.526758 1.8784 1.29546 0.0478815 1.16256 -1.67605 0.472056 </weights>
                </Neuron>
                <Neuron id="2">
                    <weights>-0.319938 -0.95606 0.621874 2.11719 -0.167696 -0.522053 1.17038 0.199004 0.290591 1.41405 -0.498372 -0.365197 -1.16529 </weights>
                </Neuron>
            </NeuronLayer>
        </NeuralNetwork>
    </Entity>
    <Entity type="Herbivore">
        <x>206</x>
        <y>405</y>
        <radius>8</radius>
        <angle>1</angle>
        <maxSpeed>50</maxSpeed>
        <attack>20</attack>
        <energy>75</energy>
        <sex>true</sex>
        <mating>2500</mating>
        <age>0</age>
        <hunger>0</hunger>
        <thirst>0</thirst>
        <health>5000</health>
        <NeuralNetwork>
            <NeuronLayer id="0">
                <inputsNum>16</inputsNum>
            </NeuronLayer>
            <NeuronLayer id="1">
                <Neuron id="0">
                    <weights>1.5462 1.17026 2.4561 0.27149 0.319161 0.466815 -0.497156 -1.52693 -1.43852 0.368316 2.32508 -0.19008 1.69885 -2.9101 -0.926525 2.94097 1.06577 </weights>
                </Neuron>
                <Neuron id="1">
                    <weights>-0.692165 -0.666559 -1.72155 -0.0321241 -1.7225 -0.119608 -1.5376 0.615451 -0.0905512 1.55779 0.194512 1.13924 -2.95698 -0.803447 -0.148487 -1.04989 -0.0311412 </weights>
                </Neuron>
                <Neuron id="2">
                    <weights>-0.211298 0.659498 0.270527 -0.953163 -0.0277475 0.0825859 -0.80241 -0.613228 -0.749765 -0.454762 -0.353615 0.727779 -1.54739 -1.92594 0.811332 0.5838 -0.690715 </weights>
                </Neuron>
                <Neuron id="3">
                    <weights>0.526014 -1.24222 -0.0181596 0.0150745 0.83588 -0.174241 0.614802 -0.440176 -0.340891 0.714615 0.0591563 -1.09903 -0.925985 -1.21333 -1.40101 0.478229 -0.0193169 </weights>
                </Neuron>
                <Neuron id="4">
                    <weights>1.00683 0.326463 0.166232 2.26112 0.854252 -0.896826 -0.876723 -1.25381 0.630878 -0.220964 -1.26534 1.42709 -0.993428 -0.935934 0.295089 2.19691 0.348481 </weights>
                </Neuron>
                <Neuron id="5">
                    <weights>0.981705 -0.463346 0.846299 -0.777215 0.360403 0.930007 0.044779 -0.961896 0.788221 -0.526195 2.30582 0.704004 1.23497 0.675027 -0.0286364 1.06229 0.393836 </weights>
                </Neuron>
                <Neuron id="6">
                    <weights>0.399677 -1.02402 0.344509 1.66927 0.96983 1.14318 0.654023 -0.434108 0.762437 -1.23164 -0.384902 0.0887531 -2.36472 -0.869143 -2.00452 0.523895 -0.547074 </weights>
                </Neuron>
                <Neuron id="7">
                    <weights>1.04669 0.589028 1.08658 2.07906 -0.463408 -0.480659 -0.515331 0.962217 -0.146912 -0.386759 -1.23858 0.358216 0.574484 1.24301 -0.935375 -1.0492 -2.3479 </weights>
                </Neuron>
                <Neuron id="8">
                    <weights>-0.0563308 -1.52108 0.764179 -0.816075 -0.583408 -0.838722 2.36887 0.0292935 0.974639 -0.354227 1.00012 -1.39467 -0.693692 -1.553 0.354159 -0.394917 -0.243131 </weights>
                </Neuron>
                <Neuron id="9">
                    <weights>-0.795682 2.13398 -1.54377 0.30915 1.14639 1.06396 -0.335704 0.362498 -0.522382 0.575679 -0.984557 -1.88112 0.248021 -1.61874 -0.33352 -0.311125 -1.24352 </weights>
                </Neuron>
                <Neuron id="10">
                    <weights>-0.681461 -0.527741 0.416183 0.801257 1.6471 1.1237 -0.0620093 -0.587957 0.904613 0.920113 0.0488407 0.733587 -0.150141 0.301419 -0.439924 -0.615083 1.06957 </weights>
                </Neuron>
                <Neuron id="11">
                    <weights>1.30869 0.321028 0.204469 0.538078 0.360216 2.83769 0.089626 0.0681387 -0.739521 0.237129 0.288809 0.483455 1.05137 0.856249 -0.0259159 0.311894 -1.77411 </weights>
                </Neuron>
            </NeuronLayer>
            <NeuronLayer id="2">
                <Neuron id="0">
                    <weights>0.344025 -1.4789 1.12994 1.2463 0.645019 -0.41451 0.819365 0.610287 -0.105072 -0.843242 -0.563798 0.910242 1.31162 </weights>
                </Neuron>
                <Neuron id="1">
                    <weights>2.16198 -0.622848 -0.805356 -1.3761 0.940074 -0.58149 -0.526758 1.8784 1.29546 0.0478815 1.16256 -1.67605 0.472056 </weights>
                </Neuron>
                <Neuron id="2">
                    <weights>-0.319938 -0.95606 0.621874 2.11719 -0.167696 -0.522053 1.17038 0.199004 0.290591 1.41405 -0.498372 -0.365197 -1.16529 </weights>
                </Neuron>
            </NeuronLayer>
        </NeuralNetwork>
    </Entity>
    <Entity type="Herbivore">
        <x>304</x>
        <y>155</y>
        <radius>8</radius>
        <angle>1</angle>
        <maxSpeed>50</maxSpeed>
        <attack>20</attack>
        <energy>75</energy>
        <sex>false</sex>
        <mating>2500</mating>
        <age>0</age>
        <hunger>0</hunger>
        <thirst>0</thirst>
        <health>5000</health>
        <NeuralNetwork>
            <NeuronLayer id="0">
                <inputsNum>16</inputsNum>
            </NeuronLayer>
            <NeuronLayer id="1">
                <Neuron id="0">
                    <weights>1.5462 1.17026 2.4561 0.27149 0.319161 0.466815 -0.497156 -1.52693 -1.43852 0.368316 2.32508 -0.19008 1.69885 -2.9101 -0.926525 2.94097 1.06577 </weights>
                </Neuron>
                <Neuron id="1">
                    <weights>-0.692165 -0.666559 -1.72155 -0.0321241 -1.7225 -0.119608 -1.5376 0.615451 -0.0905512 1.55779 0.194512 1.13924 -2.95698 -0.803447 -0.148487 -1.04989 -0.0311412 </weights>
                </Neuron>
                <Neuron id="2">
                    <weights>-0.211298 0.659498 0.270527 -0.953163 -0.0277475 0.0825859 -0.80241 -0.613228 -0.749765 -0.454762 -0.353615 0.727779 -1.54739 -1.92594 0.811332 0.5838 -0.690715 </weights>
                </Neuron>
                <Neuron id="3">
                    <weights>0.526014 -1.24222 -0.0181596 0.0150745 0.83588 -0.174241 0.614802 -0.440176 -0.340891 0.714615 0.0591563 -1.09903 -0.925985 -1.21333 -1.40101 0.478229 -0.0193169 </weights>
                </Neuron>
                <Neuron id="4">
                    <weights>1.00683 0.326463 0.166232 2.26112 0.854252 -0.896826 -0.876723 -1.25381 0.630878 -0.220964 -1.26534 1.42709 -0.993428 -0.935934 0.295089 2.19691 0.348481 </weights>
                </Neuron>
                <Neuron id="5">
                    <weights>0.981705 -0.463346 0.846299 -0.777215 0.360403 0.930007 0.044779 -0.961896 0.788221 -0.526195 2.30582 0.704004 1.23497 0.675027 -0.0286364 1.06229 0.393836 </weights>
                </Neuron>
                <Neuron id="6">
                    <weights>0.399677 -1.02402 0.344509 1.66927 0.96983 1.14318 0.654023 -0.434108 0.762437 -1.23164 -0.384902 0.0887531 -2.36472 -0.869143 -2.00452 0.523895 -0.547074 </weights>
                </Neuron>
                <Neuron id="7">
                    <weights>1.04669 0.589028 1.08658 2.07906 -0.463408 -0.480659 -0.515331 0.962217 -0.146912 -0.386759 -1.23858 0.358216 0.574484 1.24301 -0.935375 -1.0492 -2.3479 </weights>
                </Neuron>
                <Neuron id="8">
                    <weights>-0.0563308 -1.52108 0.764179 -0.816075 -0.583408 -0.838722 2.36887 0.0292935 0.974639 -0.354227 1.00012 -1.39467 -0.693692 -1.553 0.354159 -0.394917 -0.243131 </weights>
                </Neuron>
                <Neuron id="9">
                    <weights>-0.795682 2.13398 -1.54377 0.30915 1.14639 1.06396 -0.335704 0.362498 -0.522382 0.575679 -0.984557 -1.88112 0.248021 -1.61874 -0.33352 -0.311125 -1.24352 </weights>
                </Neuron>
                <Neuron id="10">
                    <weights>-0.681461 -0.527741 0.416183 0.801257 1.6471 1.1237 -0.0620093 -0.587957 0.904613 0.920113 0.0488407 0.733587 -0.150141 0.301419 -0.439924 -0.615083 1.06957 </weights>
                </Neuron>
                <Neuron id="11">
                    <weights>1.30869 0.321028 0.204469 0.538078 0.360216 2.83769 0.089626 0.0681387 -0.739521 0.237129 0.288809 0.483455 1.05137 0.856249 -0.0259159 0.311894 -1.77411 </weights>
                </Neuron>
            </NeuronLayer>
            <NeuronLayer id="2">
                <Neuron id="0">
                    <weights>0.344025 -1.4789 1.12994 1.2463 0.645019 -0.41451 0.819365 0.610287 -0.105072 -0.843242 -0.563798 0.910242 1.31162 </weights>
                </Neuron>
                <Neuron id="1">
                    <weights>2.16198 -0.622848 -0.805356 -1.3761 0.940074 -0.58149 -0.526758 1.8784 1.29546 0.0478815 1.16256 -1.67605 0.472056 </weights>
                </Neuron>
                <Neuron id="2">
                    <weights>-0.319938 -0.95606 0.621874 2.11719 -0.167696 -0.522053 1.17038 0.199004 0.290591 1.41405 -0.498372 -0.365197 -1.16529 </weights>
                </Neuron>
            </NeuronLayer>
        </NeuralNetwork>
    </Entity>
    <Entity type="Herbivore">
        <x>256</x>
        <y>331</y>
        <radius>8</radius>
        <angle>1</angle>
        <maxSpeed>50</maxSpeed>
        <attack>20</attack>
        <energy>75</energy>
        <sex>true</sex>
        <mating>2500</mating>
        <age>0</age>
        <hunger>0</hunger>
        <thirst>0</thirst>
        <health>5000</health>
        <NeuralNetwork>
            <NeuronLayer id="0">
                <inputsNum>16</inputsNum>
            </NeuronLayer>
            <NeuronLayer id="1">
                <Neuron id="0">
                    <weights>1.5462 1.17026 2.4561 0.27149 0.319161 0.466815 -0.497156 -1.52693 -1.43852 0.368316 2.32508 -0.19008 1.69885 -2.9101 -0.926525 2.94097 1.06577 </weights>
                </Neuron>
                <Neuron id="1">
                    <weights>-0.692165 -0.666559 -1.72155 -0.0321241 -1.7225 -0.119608 -1.5376 0.615451 -0.0905512 1.55779 0.194512 1.13924 -2.95698 -0.803447 -0.148487 -1.04989 -0.0311412 </weights>
                </Neuron>
                <Neuron id="2">
                    <weights>-0.211298 0.659498 0.270527 -0.953163 -0.0277475 0.0825859 -0.80241 -0.613228 -0.749765 -0.454762 -0.353615 0.727779 -1.54739 -1.92594 0.811332 0.5838 -0.690715 </weights>
                </Neuron>
                <Neuron id="3">
                    <weights>0.526014 -1.24222 -0.0181596 0.0150745 0.83588 -0.174241 0.614802 -0.440176 -0.340891 0.714615 0.0591563 -1.09903 -0.925985 -1.21333 -1.40101 0.478229 -0.0193169 </weights>
                </Neuron>
                <Neuron id="4">
                    <weights>1.00683 0.326463 0.166232 2.26112 0.854252 -0.896826 -0.876723 -1.25381 0.630878 -0.220964 -1.26534 1.42709 -0.993428 -0.935934 0.295089 2.19691 0.348481 </weights>
                </Neuron>
                <Neuron id="5">
                    <weights>0.981705 -0.463346 0.846299 -0.777215 0.360403 0.930007 0.044779 -0.961896 0.788221 -0.526195 2.30582 0.704004 1.23497 0.675027 -0.0286364 1.06229 0.393836 </weights>
                </Neuron>
                <Neuron id="6">
                    <weights>0.399677 -1.02402 0.344509 1.66927 0.96983 1.14318 0.654023 -0.434108 0.762437 -1.23164 -0.384902 0.0887531 -2.36472 -0.869143 -2.00452 0.523895 -0.547074 </weights>
                </Neuron>
                <Neuron id="7">
                    <weights>1.04669 0.589028 1.08658 2.07906 -0.463408 -0.480659 -0.515331 0.962217 -0.146912 -0.386759 -1.23858 0.358216 0.574484 1.24301 -0.935375 -1.0492 -2.3479 </weights>
                </Neuron>
                <Neuron id="8">
                    <weights>-0.0563308 -1.52108 0.764179 -0.816075 -0.583408 -0.838722 2.36887 0.0292935 0.974639 -0.354227 1.00012 -1.39467 -0.693692 -1.553 0.354159 -0.394917 -0.243131 </weights>
                </Neuron>
                <Neuron id="9">
                    <weights>-0.795682 2.13398 -1.54377 0.30915 1.14639 1.06396 -0.335704 0.362498 -0.522382 0.575679 -0.984557 -1.88112 0.248021 -1.61874 -0.33352 -0.311125 -1.24352 </weights>
                </Neuron>
                <Neuron id="10">
                    <weights>-0.681461 -0.527741 0.416183 0.801257 1.6471 1.1237 -0.0620093 -0.587957 0.904613 0.920113 0.0488407 0.733587 -0.150141 0.301419 -0.439924 -0.615083 1.06957 </weights>
                </Neuron>
                <Neuron id="11">
                    <weights>1.30869 0.321028 0.204469 0.538078 0.360216 2.83769 0.089626 0.0681387 -0.739521 0.237129 0.288809 0.483455 1.05137 0.856249 -0.0259159 0.311894 -1.77411 </weights>
                </Neuron>
            </NeuronLayer>
            <NeuronLayer id="2">
                <Neuron id="0">
                    <weights>0.344025 -1.4789 1.12994 1.2463 0.645019 -0.41451 0.819365 0.610287 -0.105072 -0.843242 -0.563798 0.910242 1.31162 </weights>
                </Neuron>
                <Neuron id="1">
                    <weights>2.16198 -0.622848 -0.805356 -1.3761 0.940074 -0.58149 -0.526758 1.8784 1.29546 0.0478815 1.16256 -1.67605 0.472056 </weights>
                </Neuron>
                <Neuron id="2">
                    <weights>-0.319938 -0.95606 0.621874 2.11719 -0.167696 -0.522053 1.17038 0.199004 0.290591 1.41405 -0.498372 -0.365197 -1.16529 </weights>
                </Neuron>
            </NeuronLayer>
        </NeuralNetwork>
    </Entity>
    <Entity type="Herbivore">
        <x>215</x>
        <y>3</y>
        <radius>8</radius>
        <angle>0.15</angle>
        <maxSpeed>50</maxSpeed>
        <attack>20</attack>
        <energy>96</energy>
        <sex>false</sex>
        <mating>2500</mating>
        <age>0</age>
        <hunger>0</hunger>
        <thirst>0</thirst>
        <health>5000</health>
        <NeuralNetwork>
            <NeuronLayer id="0">
                <inputsNum>16</inputsNum>
            </NeuronLayer>
            <NeuronLayer id="1">
                <Neuron id="0">
                    <weights>1.5462 1.17026 2.4561 0.27149 0.319161 0.466815 -0.497156 -1.52693 -1.43852 0.368316 2.32508 -0.19008 1.69885 -2.9101 -0.926525 2.94097 1.06577 </weights>
                </Neuron>
                <Neuron id="1">
                    <weights>-0.692165 -0.666559 -1.72155 -0.0321241 -1.7225 -0.119608 -1.5376 0.615451 -0.0905512 1.55779 0.194512 1.13924 -2.95698 -0.803447 -0.148487 -1.04989 -0.0311412 </weights>
                </Neuron>
                <Neuron id="2">
                    <weights>-0.211298 0.659498 0.270527 -0.953163 -0.0277475 0.0825859 -0.80241 -0.613228 -0.749765 -0.454762 -0.353615 0.727779 -1.54739 -1.92594 0.811332 0.5838 -0.690715 </weights>
                </Neuron>
                <Neuron id="3">
                    <weights>0.526014 -1.24222 -0.0181596 0.0150745 0.83588 -0.174241 0.614802 -0.440176 -0.340891 0.714615 0.0591563 -1.09903 -0.925985 -1.21333 -1.40101 0.478229 -0.0193169 </weights>
                </Neuron>
                <Neuron id="4">
                    <weights>1.00683 0.326463 0.166232 2.26112 0.854252 -0.896826 -0.876723 -1.25381 0.630878 -0.220964 -1.26534 1.42709 -0.993428 -0.935934 0.295089 2.19691 0.348481 </weights>
                </Neuron>
                <Neuron id="5">
                    <weights>0.981705 -0.463346 0.846299 -0.777215 0.360403 0.930007 0.044779 -0.961896 0.788221 -0.526195 2.30582 0.704004 1.23497 0.675027 -0.0286364 1.06229 0.393836 </weights>
                </Neuron>
                <Neuron id="6">
                    <weights>0.399677 -1.02402 0.344509 1.66927 0.96983 1.14318 0.654023 -0.434108 0.762437 -1.23164 -0.384902 0.0887531 -2.36472 -0.869143 -2.00452 0.523895 -0.547074 </weights>
                </Neuron>
                <Neuron id="7">
                    <weights>1.04669 0.589028 1.08658 2.07906 -0.463408 -0.480659 -0.515331 0.962217 -0.146912 -0.386759 -1.23858 0.358216 0.574484 1.24301 -0.935375 -1.0492 -2.3479 </weights>
                </Neuron>
                <Neuron id="8">
                    <weights>-0.0563308 -1.52108 0.764179 -0.816075 -0.583408 -0.838722 2.36887 0.0292935 0.974639 -0.354227 1.00012 -1.39467 -0.693692 -1.553 0.354159 -0.394917 -0.243131 </weights>
                </Neuron>
                <Neuron id="9">
                    <weights>-0.795682 2.13398 -1.54377 0.30915 1.14639 1.06396 -0.335704 0.362498 -0.522382 0.575679 -0.984557 -1.88112 0.248021 -1.61874 -0.33352 -0.311125 -1.24352 </weights>
                </Neuron>
                <Neuron id="10">
                    <weights>-0.681461 -0.527741 0.416183 0.801257 1.6471 1.1237 -0.0620093 -0.587957 0.904613 0.920113 0.0488407 0.733587 -0.150141 0.301419 -0.439924 -0.615083 1.06957 </weights>
                </Neuron>
                <Neuron id="11">
                    <weights>1.30869 0.321028 0.204469 0.538078 0.360216 2.83769 0.089626 0.0681387 -0.739521 0.237129 0.288809 0.483455 1.05137 0.856249 -0.0259159 0.311894 -1.77411 </weights>
                </Neuron>
            </NeuronLayer>
            <NeuronLayer id="2">
                <Neuron id="0">
                    <weights>0.344025 -1.4789 1.12994 1.2463 0.645019 -0.41451 0.819365 0.610287 -0.105072 -0.843242 -0.563798 0.910242 1.31162 </weights>
                </Neuron>
                <Neuron id="1">
                    <weights>2.16198 -0.622848 -0.805356 -1.3761 0.940074 -0.58149 -0.526758 1.8784 1.29546 0.0478815 1.16256 -1.67605 0.472056 </weights>
                </Neuron>
                <Neuron id="2">
                    <weights>-0.319938 -0.95606 0.621874 2.11719 -0.167696 -0.522053 1.17038 0.199004 0.290591 1.41405 -0.498372 -0.365197 -1.16529 </weights>
                </Neuron>
            </NeuronLayer>
        </NeuralNetwork>
    </Entity>
    <Entity type="Herbivore">
        <x>99</x>
        <y>308</y>
        <radius>8</radius>
        <angle>1</angle>
        <maxSpeed>50</maxSpeed>
        <attack>20</attack>
        <energy>75</energy>
        <sex>false</sex>
        <mating>2500</mating>
        <age>0</age>
        <hunger>0</hunger>
        <thirst>0</thirst>
        <health>5000</health>
        <NeuralNetwork>
            <NeuronLayer id="0">
                <inputsNum>16</inputsNum>
            </NeuronLayer>
            <NeuronLayer id="1">
                <Neuron id="0">
                    <weights>1.5462 1.17026 2.4561 0.27149 0.319161 0.466815 -0.497156 -1.52693 -1.43852 0.368316 2.32508 -0.19008 1.69885 -2.9101 -0.926525 2.94097 1.06577 </weights>
                </Neuron>
                <Neuron id="1">
                    <weights>-0.692165 -0.666559 -1.72155 -0.0321241 -1.7225 -0.119608 -1.5376 0.615451 -0.0905512 1.55779 0.194512 1.13924 -2.95698 -0.803447 -0.148487 -1.04989 -0.0311412 </weights>
                </Neuron>
                <Neuron id="2">
                    <weights>-0.211298 0.659498 0.270527 -0.953163 -0.0277475 0.0825859 -0.80241 -0.613228 -0.749765 -0.454762 -0.353615 0.727779 -1.54739 -1.92594 0.811332 0.5838 -0.690715 </weights>
                </Neuron>
                <Neuron id="3">
                    <weights>0.526014 -1.24222 -0.0181596 0.0150745 0.83588 -0.174241 0.614802 -0.440176 -0.340891 0.714615 0.0591563 -1.09903 -0.925985 -1.21333 -1.40101 0.478229 -0.0193169 </weights>
                </Neuron>
                <Neuron id="4">
                    <weights>1.00683 0.326463 0.166232 2.26112 0.854252 -0.896826 -0.876723 -1.25381 0.630878 -0.220964 -1.26534 1.42709 -0.993428 -0.935934 0.295089 2.19691 0.348481 </weights>
                </Neuron>
                <Neuron id="5">
                    <weights>0.981705 -0.463346 0.846299 -0.777215 0.360403 0.930007 0.044779 -0.961896 0.788221 -0.526195 2.30582 0.704004 1.23497 0.675027 -0.0286364 1.06229 0.393836 </weights>
                </Neuron>
                <Neuron id="6">
                    <weights>0.399677 -1.02402 0.344509 1.66927 0.96983 1.14318 0.654023 -0.434108 0.762437 -1.23164 -0.384902 0.0887531 -2.36472 -0.869143 -2.00452 0.523895 -0.547074 </weights>
                </Neuron>
                <Neuron id="7">
                    <weights>1.04669 0.589028 1.08658 2.07906 -0.463408 -0.480659 -0.515331 0.962217 -0.146912 -0.386759 -1.23858 0.358216 0.574484 1.24301 -0.935375 -1.0492 -2.3479 </weights>
                </Neuron>
                <Neuron id="8">
                    <weights>-0.0563308 -1.52108 0.764179 -0.816075 -0.583408 -0.838722 2.36887 0.0292935 0.974639 -0.354227 1.00012 -1.39467 -0.693692 -1.553 0.354159 -0.394917 -0.243131 </weights>
                </Neuron>
                <Neuron id="9">
                    <weights>-0.795682 2.13398 -1.54377 0.30915 1.14639 1.06396 -0.335704 0.362498 -0.522382 0.575679 -0.984557 -1.88112 0.248021 -1.61874 -0.33352 -0.311125 -1.24352 </weights>
                </Neuron>
                <Neuron id="10">
                    <weights>-0.681461 -0.527741 0.416183 0.801257 1.6471 1.1237 -0.0620093 -0.587957 0.904613 0.920113 0.0488407 0.733587 -0.150141 0.301419 -0.439924 -0.615083 1.06957 </weights>
                </Neuron>
                <Neuron id="11">
                    <weights>1.30869 0.321028 0.204469 0.538078 0.360216 2.83769 0.089626 0.0681387 -0.739521 0.237129 0.288809 0.483455 1.05137 0.856249 -0.0259159 0.311894 -1.77411 </weights>
                </Neuron>
            </NeuronLayer>
            <NeuronLayer id="2">
                <Neuron id="0">
                    <weights>0.344025 -1.4789 1.12994 1.2463 0.645019 -0.41451 0.819365 0.610287 -0.105072 -0.843242 -0.563798 0.910242 1.31162 </weights>
                </Neuron>
                <Neuron id="1">
                    <weights>2.16198 -0.622848 -0.805356 -1.3761 0.940074 -0.58149 -0.526758 1.8784 1.29546 0.0478815 1.16256 -1.67605 0.472056 </weights>
                </Neuron>
                <Neuron id="2">
                    <weights>-0.319938 -0.95606 0.621874 2.11719 -0.167696 -0.522053 1.17038 0.199004 0.290591 1.41405 -0.498372 -0.365197 -1.16529 </weights>
                </Neuron>
            </NeuronLayer>
        </NeuralNetwork>
    </Entity>
    <Entity type="Herbivore">
        <x>70</x>
        <y>189</y>
        <radius>8</radius>
        <angle>1</angle>
        <maxSpeed>50</maxSpeed>
        <attack>20</attack>
        <energy>75</energy>
        <sex>true</sex>
        <mating>2500</mating>
        <age>0</age>
        <hunger>0</hunger>
        <thirst>0</thirst>
        <health>5000</health>
        <NeuralNetwork>
            <NeuronLayer id="0">
                <inputsNum>16</inputsNum>
            </NeuronLayer>
            <NeuronLayer id="1">
                <Neuron id="0">
                    <weights>1.5462 1.17026 2.4561 0.27149 0.319161 0.466815 -0.497156 -1.52693 -1.43852 0.368316 2.32508 -0.19008 1.69885 -2.9101 -0.926525 2.94097 1.06577 </weights>
                </Neuron>
                <Neuron id="1">
                    <weights>-0.692165 -0.666559 -1.72155 -0.0321241 -1.7225 -0.119608 -1.5376 0.615451 -0.0905512 1.55779 0.194512 1.13924 -2.95698 -0.803447 -0.148487 -1.04989 -0.0311412 </weights>
                </Neuron>
                <Neuron id="2">
                    <weights>-0.211298 0.659498 0.270527 -0.953163 -0.0277475 0.0825859 -0.80241 -0.613228 -0.749765 -0.454762 -0.353615 0.727779 -1.54739 -1.92594 0.811332 0.5838 -0.690715 </weights>
                </Neuron>
                <Neuron id="3">
                    <weights>0.526014 -1.24222 -0.0181596 0.0150745 0.83588 -0.174241 0.614802 -0.440176 -0.340891 0.714615 0.0591563 -1.09903 -0.925985 -1.21333 -1.40101 0.478229 -0.0193169 </weights>
                </Neuron>
                <Neuron id="4">
                    <weights>1.00683 0.326463 0.166232 2.26112 0.854252 -0.896826 -0.876723 -1.25381 0.630878 -0.220964 -1.26534 1.42709 -0.993428 -0.935934 0.295089 2.19691 0.348481 </weights>
                </Neuron>
                <Neuron id="5">
                    <weights>0.981705 -0.463346 0.846299 -0.777215 0.360403 0.930007 0.044779 -0.961896 0.788221 -0.526195 2.30582 0.704004 1.23497 0.675027 -0.0286364 1.06229 0.393836 </weights>
                </Neuron>
                <Neuron id="6">
                    <weights>0.399677 -1.02402 0.344509 1.66927 0.96983 1.14318 0.654023 -0.434108 0.762437 -1.23164 -0.384902 0.0887531 -2.36472 -0.869143 -2.00452 0.523895 -0.547074 </weights>
                </Neuron>
                <Neuron id="7">
                    <weights>1.04669 0.589028 1.08658 2.07906 -0.463408 -0.480659 -0.515331 0.962217 -0.146912 -0.386759 -1.23858 0.358216 0.574484 1.24301 -0.935375 -1.0492 -2.3479 </weights>
                </Neuron>
                <Neuron id="8">
                    <weights>-0.0563308 -1.52108 0.764179 -0.816075 -0.583408 -0.838722 2.36887 0.0292935 0.974639 -0.354227 1.00012 -1.39467 -0.693692 -1.553 0.354159 -0.394917 -0.243131 </weights>
                </Neuron>
                <Neuron id="9">
                    <weights>-0.795682 2.13398 -1.54377 0.30915 1.14639 1.06396 -0.335704 0.362498 -0.522382 0.575679 -0.984557 -1.88112 0.248021 -1.61874 -0.33352 -0.311125 -1.24352 </weights>
                </Neuron>
                <Neuron id="10">
                    <weights>-0.681461 -0.527741 0.416183 0.801257 1.6471 1.1237 -0.0620093 -0.587957 0.904613 0.920113 0.0488407 0.733587 -0.150141 0.301419 -0.439924 -0.615083 1.06957 </weights>
                </Neuron>
                <Neuron id="11">
                    <weights>1.30869 0.321028 0.204469 0.538078 0.360216 2.83769 0.089626 0.0681387 -0.739521 0.237129 0.288809 0.483455 1.05137 0.856249 -0.0259159 0.311894 -1.77411 </weights>
                </Neuron>
            </NeuronLayer>
            <NeuronLayer id="2">
                <Neuron id="0">
                    <weights>0.344025 -1.4789 1.12994 1.2463 0.645019 -0.41451 0.819365 0.610287 -0.105072 -0.843242 -0.563798 0.910242 1.31162 </weights>
                </Neuron>
                <Neuron id="1">
                    <weights>2.16198 -0.622848 -0.805356 -1.3761 0.940074 -0.58149 -0.526758 1.8784 1.29546 0.0478815 1.16256 -1.67605 0.472056 </weights>
                </Neuron>
                <Neuron id="2">
                    <weights>-0.319938 -0.95606 0.621874 2.11719 -0.167696 -0.522053 1.17038 0.199004 0.290591 1.41405 -0.498372 -0.365197 -1.16529 </weights>
                </Neuron>
            </NeuronLayer>
        </NeuralNetwork>
    </Entity>
    <Entity type="Herbivore">
        <x>290</x>
        <y>445</y>
        <radius>8</radius>
        <angle>1</angle>
        <maxSpeed>50</maxSpeed>
        <attack>20</attack>
        <energy>75</energy>
        <sex>true</sex>
        <mating>2500</mating>
        <age>0</age>
        <hunger>0</hunger>
        <thirst>0</thirst>
        <health>5000</health>
        <NeuralNetwork>
            <NeuronLayer id="0">
                <inputsNum>16</inputsNum>
            </NeuronLayer>
            <NeuronLayer id="1">
                <Neuron id="0">
                    <weights>1.5462 1.17026 2.4561 0.27149 0.319161 0.466815 -0.497156 -1.52693 -1.43852 0.368316 2.32508 -0.19008 1.69885 -2.9101 -0.926525 2.94097 1.06577 </weights>
                </Neuron>
                <Neuron id="1">
                    <weights>-0.692165 -0.666559 -1.72155 -0.0321241 -1.7225 -0.119608 -1.5376 0.615451 -0.0905512 1.55779 0.194512 1.13924 -2.95698 -0.803447 -0.148487 -1.04989 -0.0311412 </weights>
                </Neuron>
                <Neuron id="2">
                    <weights>-0.211298 0.659498 0.270527 -0.953163 -0.0277475 0.0825859 -0.80241 -0.613228 -0.749765 -0.454762 -0.353615 0.727779 -1.54739 -1.92594 0.811332 0.5838 -0.690715 </weights>
                </Neuron>
                <Neuron id="3">
                    <weights>0.526014 -1.24222 -0.0181596 0.0150745 0.83588 -0.174241 0.614802 -0.440176 -0.340891 0.714615 0.0591563 -1.09903 -0.925985 -1.21333 -1.40101 0.478229 -0.0193169 </weights>
                </Neuron>
                <Neuron id="4">
                    <weights>1.00683 0.326463 0.166232 2.26112 0.854252 -0.896826 -0.876723 -1.25381 0.630878 -0.220964 -1.26534 1.42709 -0.993428 -0.935934 0.295089 2.19691 0.348481 </weights>
                </Neuron>
                <Neuron id="5">
                    <weights>0.981705 -0.463346 0.846299 -0.777215 0.360403 0.930007 0.044779 -0.961896 0.788221 -0.526195 2.30582 0.704004 1.23497 0.675027 -0.0286364 1.06229 0.393836 </weights>
                </Neuron>
                <Neuron id="6">
                    <weights>0.399677 -1.02402 0.344509 1.66927 0.96983 1.14318 0.654023 -0.434108 0.762437 -1.23164 -0.384902 0.0887531 -2.36472 -0.869143 -2.00452 0.523895 -0.547074 </weights>
                </Neuron>
                <Neuron id="7">
                    <weights>1.04669 0.589028 1.08658 2.07906 -0.463408 -0.480659 -0.515331 0.962217 -0.146912 -0.386759 -1.23858 0.358216 0.574484 1.24301 -0.935375 -1.0492 -2.3479 </weights>
                </Neuron>
                <Neuron id="8">
                    <weights>-0.0563308 -1.52108 0.764179 -0.816075 -0.583408 -0.838722 2.36887 0.0292935 0.974639 -0.354227 1.00012 -1.39467 -0.693692 -1.553 0.354159 -0.394917 -0.243131 </weights>
                </Neuron>
                <Neuron id="9">
                    <weights>-0.795682 2.13398 -1.54377 0.30915 1.14639 1.06396 -0.335704 0.362498 -0.522382 0.575679 -0.984557 -1.88112 0.248021 -1.61874 -0.33352 -0.311125 -1.24352 </weights>
                </Neuron>
                <Neuron id="10">
                    <weights>-0.681461 -0.527741 0.416183 0.801257 1.6471 1.1237 -0.0620093 -0.587957 0.904613 0.920113 0.0488407 0.733587 -0.150141 0.301419 -0.439924 -0.615083 1.06957 </weights>
                </Neuron>
                <Neuron id="11">
                    <weights>1.30869 0.321028 0.204469 0.538078 0.360216 2.83769 0.089626 0.0681387 -0.739521 0.237129 0.288809 0.483455 1.05137 0.856249 -0.0259159 0.311894 -1.77411 </weights>
                </Neuron>
            </NeuronLayer>
            <NeuronLayer id="2">
                <Neuron id="0">
                    <weights>0.344025 -1.4789 1.12994 1.2463 0.645019 -0.41451 0.819365 0.610287 -0.105072 -0.843242 -0.563798 0.910242 1.31162 </weights>
                </Neuron>
                <Neuron id="1">
                    <weights>2.16198 -0.622848 -0.805356 -1.3761 0.940074 -0.58149 -0.526758 1.8784 1.29546 0.0478815 1.16256 -1.67605 0.472056 </weights>
                </Neuron>
                <Neuron id="2">
                    <weights>-0.319938 -0.95606 0.621874 2.11719 -0.167696 -0.522053 1.17038 0.199004 0.290591 1.41405 -0.498372 -0.365197 -1.16529 </weights>
                </Neuron>
            </NeuronLayer>
        </NeuralNetwork>
    </Entity>
    <Entity type="Carnivore">
        <x>195</x>
        <y>3</y>
        <radius>8</radius>
        <angle>0.23</angle>
        <maxSpeed>50</maxSpeed>
        <attack>100</attack>
        <energy>94</energy>
        <sex>true</sex>
        <mating>2500</mating>
        <age>0</age>
        <hunger>0</hunger>
        <thirst>0</thirst>
        <health>5000</health>
        <NeuralNetwork>
            <NeuronLayer id="0">
                <inputsNum>16</inputsNum>
            </NeuronLayer>
            <NeuronLayer id="1">
                <Neuron id="0">
                    <weights>-0.172747 -0.515779 0.275922 2.09168 0.89963 -0.199761 0.612194 -0.761253 1.36688 1.10102 0.749915 0.0973324 -0.180189 0.0114318 -0.446476 0.0791394 0.818382 </weights>
                </Neuron>
                <Neuron id="1">
                    <weights>0.0800427 -0.066422 0.644884 0.645975 -1.44618 -0.328348 -0.270957 1.11503 0.93085 -1.71347 1.0668 0.0743339 -1.39506 -0.224106 -0.217615 0.846217 -0.659428 </weights>
                </Neuron>
                <Neuron id="2">
                    <weights>0.355652 0.129422 -1.81263 -0.691691 -1.38184 0.128568 1.25632 0.795411 1.18495 -0.678185 -0.610994 0.127718 0.210358 -0.491602 -0.464659 1.33418 0.242661 </weights>
                </Neuron>
                <Neuron id="3">
                    <weights>-2.73488 0.480038 0.112223 -0.595399 -1.46456 0.447839 -1.45098 2.07473 0.17957 -1.90588 0.205421 1.68318 -1.31363 -1.0755 0.40884 1.3575 -1.56337 </weights>
                </Neuron>
                <Neuron id="4">
                    <weights>0.242768 -0.64085 -2.52311 1.56071 0.0965669 -0.483228 1.11063 -0.761191 -0.580734 0.00627878 2.17177 -0.977052 1.85595 0.883985 -0.266085 -0.105185 -2.01658 </weights>
                </Neuron>
                <Neuron id="5">
                    <weights>-1.35751 0.410451 -1.40445 0.966955 -1.24074 0.560887 0.0432554 -0.422708 0.330943 0.690401 -0.800704 -2.26587 -0.997813 0.182332 0.315418 0.43268 0.517188 </weights>
                </Neuron>
                <Neuron id="6">
                    <weights>1.28981 1.41313 0.941744 -0.802205 -0.387767 -0.593859 1.69799 -1.04189 0.380742 -1.56942 0.849592 -0.926297 -0.935322 0.469785 -0.289464 -0.0021076 0.710421 </weights>
                </Neuron>
                <Neuron id="7">
                    <weights>-0.417262 0.334081 0.26264 0.524731 -0.927924 0.703716 0.758152 1.43498 -0.693086 0.984913 0.955275 0.385096 -0.596082 1.64343 -0.0125896 -0.249202 -0.159504 </weights>
                </Neuron>
                <Neuron id="8">
                    <weights>1.92668 1.82829 -0.198621 -1.15217 0.671376 -0.49859 -1.43363 -1.18173 -0.817706 0.173287 -0.29941 0.131843 -0.69144 -0.461963 1.88148 -0.55983 0.0949935 </weights>
                </Neuron>
                <Neuron id="9">
                    <weights>-2.10107 -1.44212 0.278987 -1.17514 -0.615457 -0.137832 -1.93114 -1.25804 0.238269 0.441404 -0.564978 0.0771561 0.466856 2.13503 1.39932 1.36325 -0.452138 </weights>
                </Neuron>
                <Neuron id="10">
                    <weights>-0.860912 -1.2758 1.09446 1.26736 -1.32247 -2.4296 -0.377858 -0.0774471 0.0969829 0.899709 0.256451 0.466858 -0.185126 -0.60667 0.811229 -0.783616 -0.0114538 </weights>
                </Neuron>
                <Neuron id="11">
                    <weights>-1.08658 -0.367301 0.146032 1.06115 -2.25852 -0.908381 -0.0379433 -0.35622 0.370789 0.73511 -0.773725 0.29731 0.837062 0.329738 -0.347538 0.099793 0.0314274 </weights>
                </Neuron>
            </NeuronLayer>
            <NeuronLayer id="2">
                <Neuron id="0">
                    <weights>-0.682005 1.00381 0.0943569 0.294964 0.494493 0.804584 -1.48349 0.657232 -0.672339 -0.855383 2.51575 0.708829 -0.580064 </weights>
                </Neuron>
                <Neuron id="1">
                    <weights>0.972178 1.59854 -0.271888 -1.01207 0.710043 0.488064 0.523736 -1.31191 0.50282 -0.801355 -0.698994 0.113246 1.10035 </weights>
                </Neuron>
                <Neuron id="2">
                    <weights>-0.868887 0.666804 -1.28405 1.12036 -0.927868 1.23562 -1.24637 -0.111995 -0.289916 -0.594955 -1.03272 -0.0527579 0.915556 </weights>
                </Neuron>
            </NeuronLayer>
        </NeuralNetwork>
    </Entity>
    <Entity type="Carnivore">
        <x>363</x>
        <y>143</y>
        <radius>8</radius>
        <angle>1</angle>
        <maxSpeed>50</maxSpeed>
        <attack>100</attack>
        <energy>75</energy>
        <sex>true</sex>
        <mating>2500</mating>
        <age>0</age>
        <hunger>0</hunger>
        <thirst>0</thirst>
        <health>5000</health>
        <NeuralNetwork>
            <NeuronLayer id="0">
                <inputsNum>16</inputsNum>
            </NeuronLayer>
            <NeuronLayer id="1">
                <Neuron id="0">
                    <weights>1.55123 0.370153 0.846197 -1.88705 0.505673 -0.951482 0.633155 -0.266106 0.904472 0.614555 -1.87447 -0.559377 0.452867 0.692734 -0.288383 0.694597 0.426916 </weights>
                </Neuron>
                <Neuron id="1">
                    <weights>0.28656 0.360884 -0.628976 2.05793 0.117461 0.550941 0.0751576 0.47848 -1.06717 -0.996596 -1.69441 -0.219953 1.42352 1.37 -1.11301 0.269559 0.590581 </weights>
                </Neuron>
                <Neuron id="2">
                    <weights>0.692766 0.0323965 -0.910159 1.74499 -1.40116 -1.50989 0.165364 -1.26931 0.6759 -0.057082 0.818635 0.648089 -1.02925 -1.81281 1.55445 2.07647 0.826477 </weights>
                </Neuron>
                <Neuron id="3">
                    <weights>0.382287 -0.463133 -0.40353 0.870097 0.490741 -0.283786 0.580713 -0.02543 1.42221 -0.593854 1.66906 1.16105 0.093212 0.927807 -0.288234 0.17921 -0.886848 </weights>
                </Neuron>
                <Neuron id="4">
                    <weights>1.65223 0.288056 0.303089 0.144602 1.55848 -0.0205184 -0.461036 0.440355 -1.61773 0.333708 -0.451652 0.412512 -0.994818 -0.30949 1.21975 0.0851186 -1.75476 </weights>
                </Neuron>
                <Neuron id="5">
                    <weights>-0.432204 0.381401 -0.767308 1.05284 0.927703 0.443629 0.641742 0.707469 -0.918418 -1.04318 0.794385 1.18846 -0.547338 -0.945527 -0.548975 -0.434492 1.55991 </weights>
                </Neuron>
                <Neuron id="6">
                    <weights>1.8654 2.48152 0.256722 0.0469765 3.06053 -0.0513303 0.320966 0.682359 0.771051 0.195272 -0.761112 0.891004 0.889607 2.44791 -0.022495 0.111049 -1.10006 </weights>
                </Neuron>
                <Neuron id="7">
                    <weights>0.798862 0.46539 -0.261214 1.90674 -0.338287 0.156708 0.719103 -0.234222 -0.822557 0.14407 -0.561256 -1.50047 -0.479511 1.9291 0.38172 0.626313 0.811372 </weights>
                </Neuron>
                <Neuron id="8">
                    <weights>1.51343 0.10487 0.584218 1.46856 -0.758994 -0.123355 -0.330365 -0.509354 2.41704 -0.356831 0.125671 -0.0854835 -0.593984 -0.0996391 1.51183 -0.0899047 1.15075 </weights>
                </Neuron>
                <Neuron id="9">
                    <weights>1.08904 0.861146 -0.561362 0.438073 0.310796 -1.15232 0.567953 0.679246 -0.397839 0.875034 0.00777961 -0.902544 1.08397 0.84301 -2.18672 -0.145554 -0.315978 </weights>
                </Neuron>
                <Neuron id="10">
                    <weights>-0.464192 1.31692 -1.79293 -0.29057 -2.71546 1.22641 1.30575 -0.433124 -0.716018 1.20578 -1.0417 -0.766866 0.769702 1.76033 -1.01323 -0.768322 0.33841 </weights>
                </Neuron>
                <Neuron id="11">
                    <weights>-0.647563 0.441794 0.822075 -1.29239 0.347533 0.686525 0.898031 0.104277 0.666418 -0.780331 1.04564 1.55063 -1.29834 -1.3372 -0.48494 -1.2647 1.65725 </weights>
                </Neuron>
            </NeuronLayer>
            <NeuronLayer id="2">
                <Neuron id="0">
                    <weights>0.132723 1.35402 1.04459 1.41018 0.346206 1.24869 -1.03656 -1.56438 0.880158 1.39968 -1.1021 1.11848 -1.09944 </weights>
                </Neuron>
                <Neuron id="1">
                    <weights>0.645554 0.203259 -0.288964 1.24728 0.24517 -0.825062 -0.760948 -0.677195 -0.361161 0.203837 1.55875 0.548987 -0.666399 </weights>
                </Neuron>
                <Neuron id="2">
                    <weights>1.07974 -0.158365 0.0710141 0.354188 -1.04672 0.603213 -2.19004 0.378431 -1.19295 -0.989006 0.448539 0.990411 -0.429423 </weights>
                </Neuron>
            </NeuronLayer>
        </NeuralNetwork>
    </Entity>
    <Entity type="Carnivore">
        <x>169</x>
        <y>253</y>
        <radius>8</radius>
        <angle>1</angle>
        <maxSpeed>50</maxSpeed>
        <attack>100</attack>
        <energy>75</energy>
        <sex>true</sex>
        <mating>2500</mating>
        <age>0</age>
        <hunger>0</hunger>
        <thirst>0</thirst>
        <health>5000</health>
        <NeuralNetwork>
            <NeuronLayer id="0">
                <inputsNum>16</inputsNum>
            </NeuronLayer>
            <NeuronLayer id="1">
                <Neuron id="0">
                    <weights>0.442534 -0.922478 -0.579904 1.53247 -0.293208 2.04174 0.745767 -0.20204 -0.123897 0.467586 0.315942 0.661103 0.644732 -0.163882 -0.528707 -0.415077 0.885375 </weights>
                </Neuron>
                <Neuron id="1">
                    <weights>-0.356479 1.32695 -0.904446 -0.816284 0.311288 1.94423 -0.908855 0.253174 -1.07944 -1.24557 1.61837 -0.610403 0.773049 1.64762 1.21202 -2.50215 -0.253035 </weights>
                </Neuron>
                <Neuron id="2">
                    <weights>-0.765378 0.646445 0.451136 -1.85425 0.756247 -0.109777 -0.141578 -0.203294 -1.36732 -0.765192 0.670991 0.467989 0.753396 -1.09887 0.259423 0.336589 1.30602 </weights>
                </Neuron>
                <Neuron id="3">
                    <weights>-0.156576 0.621881 0.880735 -1.37747 0.400921 0.50006 -0.335995 -1.16281 0.138835 0.211364 -1.93941 -0.74536 -1.77795 0.721488 0.0176839 -0.376506 1.08778 </weights>
                </Neuron>
                <Neuron id="4">
                    <weights>0.758686 0.0220817 -0.154697 0.0509118 1.15251 -0.623539 -1.72453 0.675509 1.62723 0.615875 0.642803 -0.676572 2.25831 -0.885843 -0.83866 -1.32847 1.0089 </weights>
                </Neuron>
                <Neuron id="5">
                    <weights>0.326514 0.938022 0.120346 1.52305 -1.11326 0.189721 -0.953195 0.783206 -0.172663 0.115727 -0.536178 -0.479322 0.133718 0.47765 -2.72406 0.65595 -0.179941 </weights>
                </Neuron>
                <Neuron id="6">
                    <weights>-1.00909 -1.05039 -1.86883 0.675653 1.72571 2.44429 0.316854 -1.08649 0.92517 0.774751 0.570536 0.0439002 -1.32669 -0.647836 -0.115239 -0.042768 0.60933 </weights>
                </Neuron>
                <Neuron id="7">
                    <weights>0.657029 0.388855 0.68026 -0.779663 -0.0537935 0.107626 -1.72565 0.958993 -0.634314 -0.00739911 -1.03948 0.671274 0.161688 -1.43468 -0.394106 0.0236855 -0.911471 </weights>
                </Neuron>
                <Neuron id="8">
                    <weights>-0.00672977 0.655557 -0.36663 0.737552 -0.0118486 -0.377801 0.128058 0.484488 -1.12669 0.27583 0.190858 1.0786 0.130683 -2.46816 0.779748 -1.2672 -1.50324 </weights>
                </Neuron>
                <Neuron id="9">
                    <weights>-0.573926 -1.21069 1.74099 0.530942 -0.420232 -1.0633 1.45725 -0.212748 -0.504636 -0.353483 1.1433 -1.20021 1.38426 -0.14029 0.28867 -0.578841 -1.15173 </weights>
                </Neuron>
                <Neuron id="10">
                    <weights>1.38387 -1.57314 0.416182 0.815763 -0.716772 0.00216236 -0.750351 1.46231 -1.58624 -0.528501 -0.87093 0.180174 0.296177 -1.03961 0.936475 0.588035 0.285843 </weights>
                </Neuron>
                <Neuron id="11">
                    <weights>-0.647294 -0.0579406 0.0849346 0.557592 0.839951 -1.37834 2.38129 1.56495 -0.283844 -0.40641 1.83467 0.740713 0.0130507 0.13071 -1.19446 1.04965 -0.570065 </weights>
                </Neuron>
            </NeuronLayer>
            <NeuronLayer id="2">
                <Neuron id="0">
                    <weights>1.31498 0.590044 1.32621 -1.93369 0.535124 0.135032 0.0287917 -0.10407 -0.133877 0.283253 -0.689429 2.09173 -0.126842 </weights>
                </Neuron>
                <Neuron id="1">
                    <weights>0.925762 -0.658148 1.0407 -1.0745 1.24822 0.201602 1.22654 -0.58866 0.904184 -0.0233418 1.05687 0.332846 -0.516603 </weights>
                </Neuron>
                <Neuron id="2">
                    <weights>-1.28608 -0.416078 1.58309 0.341323 -0.041094 0.472287 1.0683 0.781861 -2.11524 -0.684081 -0.424229 -0.989167 -1.22637 </weights>
                </Neuron>
            </NeuronLayer>
        </NeuralNetwork>
    </Entity>
    <Entity type="Carnivore">
        <x>303</x>
        <y>311</y>
        <radius>8</radius>
        <angle>1</angle>
        <maxSpeed>50</maxSpeed>
        <attack>100</attack>
        <energy>75</energy>
        <sex>true</sex>
        <mating>2500</mating>
        <age>0</age>
        <hunger>0</hunger>
        <thirst>0</thirst>
        <health>5000</health>
        <NeuralNetwork>
            <NeuronLayer id="0">
                <inputsNum>16</inputsNum>
            </NeuronLayer>
            <NeuronLayer id="1">
                <Neuron id="0">
                    <weights>-1.41355 0.0629409 0.059127 0.452106 1.42544 -0.185179 -1.25522 -0.0124859 -0.385794 -2.50554 -0.0313139 -1.36834 0.0584499 0.276704 1.5711 -0.609101 -0.457377 </weights>
                </Neuron>
                <Neuron id="1">
                    <weights>-1.76489 -1.13118 0.849348 0.679521 0.607658 -0.957334 0.461083 1.83703 -0.405006 -0.790216 1.08744 0.183601 -0.67593 0.988867 1.06275 0.501681 -0.860452 </weights>
                </Neuron>
                <Neuron id="2">
                    <weights>1.00231 0.72637 0.95818 -0.351489 0.464344 0.561166 -0.0785345 -0.170788 -2.12585 0.317333 -1.79353 0.2586 -2.30344 -0.652172 0.748125 0.816202 -1.78055 </weights>
                </Neuron>
                <Neuron id="3">
                    <weights>0.874524 0.449924 1.11927 0.538505 -0.0165555 -0.947519 -0.79366 1.43717 0.312471 0.513125 0.916325 -0.2235 -0.469929 -0.343586 -1.73285 0.392078 -0.259829 </weights>
                </Neuron>
                <Neuron id="4">
                    <weights>0.784087 0.0468368 -2.72502 -0.367301 -0.472244 -0.394675 -0.733729 -0.523472 -0.262642 -0.432033 -1.44493 -1.75388 0.704047 0.115353 0.833516 -0.5954 0.458274 </weights>
                </Neuron>
                <Neuron id="5">
                    <weights>1.64366 0.117772 0.989291 -0.770557 1.53801 -0.368576 -0.63846 -0.370651 1.38727 -2.38686 -2.19723 -0.367662 -0.242206 0.568621 -0.0374054 -0.207865 -0.212826 </weights>
                </Neuron>
                <Neuron id="6">
                    <weights>-1.12992 -0.473622 0.264193 0.195253 1.07199 -0.364415 -1.63864 -0.730603 1.79906 -0.895762 0.713813 -1.38488 0.160936 0.89043 0.937936 -0.27291 0.467566 </weights>
                </Neuron>
                <Neuron id="7">
                    <weights>0.84067 1.2221 -0.570383 -0.142491 -0.875669 -1.16989 -1.6097 -1.34399 -1.92835 -0.00617124 0.212291 0.702597 -0.926213 1.39998 -0.567834 0.406309 -0.240078 </weights>
                </Neuron>
                <Neuron id="8">
                    <weights>-2.01267 -0.143173 0.159677 0.0905849 -0.811216 0.940144 -0.861192 0.786587 -1.76356 0.834234 0.383449 -1.98688 -0.30616 -0.0665085 1.00732 0.24143 1.53722 </weights>
                </Neuron>
                <Neuron id="9">
                    <weights>-0.459356 0.862637 0.564611 0.10132 1.12125 0.472098 2.48523 -0.161027 -0.790427 -0.0965557 -1.3346 -0.911489 -1.64628 -0.10009 0.564125 -0.306246 0.663133 </weights>
                </Neuron>
                <Neuron id="10">
                    <weights>-1.48722 0.150898 -0.321856 -0.169276 -0.703321 -0.389824 -0.188222 0.759828 -0.5611 0.182356 -0.919015 -0.642692 -0.949795 -0.825873 -0.017249 0.0963048 -0.54662 </weights>
                </Neuron>
                <Neuron id="11">
                    <weights>0.219579 -0.855304 1.24192 -0.375805 0.25739 -0.478629 0.502325 -0.624349 0.53379 0.75042 -1.07809 -1.1219 0.118527 0.288401 0.841489 -0.599478 1.9792 </weights>
                </Neuron>
            </NeuronLayer>
            <NeuronLayer id="2">
                <Neuron id="0">
                    <weights>1.38601 0.511817 2.04651 -0.122983 1.67553 -1.95873 0.469333 1.18659 -1.61787 0.898044 1.86527 -2.59408 -0.264637 </weights>
                </Neuron>
                <Neuron id="1">
                    <weights>0.152099 0.237739 0.556712 -0.878424 0.175561 0.225265 -2.24395 -1.53582 -0.439255 1.41439 -0.123002 0.89194 2.18905 </weights>
                </Neuron>
                <Neuron id="2">
                    <weights>0.780203 0.693902 1.46806 0.327236 0.815015 0.661023 0.0140259 -0.23819 -0.0658373 0.454558 0.49346 0.447057 3.15672 </weights>
                </Neuron>
            </NeuronLayer>
        </NeuralNetwork>
    </Entity>
    <Entity type="Carnivore">
        <x>355</x>
        <y>467</y>
        <radius>8</radius>
        <angle>1.2</angle>
        <maxSpeed>50</maxSpeed>
        <attack>100</attack>
        <energy>70</energy>
        <sex>false</sex>
        <mating>2500</mating>
        <age>0</age>
        <hunger>0</hunger>
        <thirst>0</thirst>
        <health>5000</health>
        <NeuralNetwork>
            <NeuronLayer id="0">
                <inputsNum>16</inputsNum>
            </NeuronLayer>
            <NeuronLayer id="1">
                <Neuron id="0">
                    <weights>1.48989 1.25253 0.0500831 0.475537 -0.973766 0.909111 0.10014 -0.830194 -0.442386 2.63771 0.145307 -0.66259 -1.20246 -0.882643 0.462422 -1.49682 0.381999 </weights>
                </Neuron>
                <Neuron id="1">
                    <weights>0.281293 -0.192239 -1.26747 -2.04313 -0.739604 0.589216 0.00419241 0.331619 1.50449 0.579004 -1.40328 0.905081 -0.0459385 -0.144436 1.31412 0.499345 0.505111 </weights>
                </Neuron>
                <Neuron id="2">
                    <weights>-0.330294 -0.481644 -0.983244 1.09024 0.161016 -0.237591 -0.483841 0.899183 1.49264 -0.575951 -0.201525 2.17084 1.87203 -0.997139 -0.313797 0.896806 0.85184 </weights>
                </Neuron>
                <Neuron id="3">
                    <weights>-0.834514 -0.111197 0.153949 -1.54676 -0.812339 -0.59723 1.32802 1.17185 0.00855064 -0.60014 -1.09944 -0.434531 0.185147 -1.91496 -1.07136 0.812974 -0.565679 </weights>
                </Neuron>
                <Neuron id="4">
                    <weights>-0.00586263 -0.690014 1.12413 -0.557562 1.17316 1.49593 2.18796 -1.53267 0.954971 0.945701 -1.06934 0.825081 -1.30191 1.0489 0.750234 -0.406344 -0.73448 </weights>
                </Neuron>
                <Neuron id="5">
                    <weights>0.459116 0.136158 -0.735682 1.04746 -0.290449 -1.21376 1.96086 -0.465555 0.107787 -1.42762 0.402896 1.01536 -0.798998 0.628821 1.46637 1.54797 0.594932 </weights>
                </Neuron>
                <Neuron id="6">
                    <weights>0.308032 0.268907 -0.730483 -1.28313 1.39733 -2.49688 0.0428263 -0.64607 0.310725 -0.521354 0.332262 0.287025 -0.788296 0.159196 -0.498052 0.288376 1.56817 </weights>
                </Neuron>
                <Neuron id="7">
                    <weights>0.4223 0.311837 0.250911 1.49521 0.0246458 0.765889 -1.3749 -0.437252 -0.258496 0.102529 -3.21094 -0.0475347 -0.151378 0.951827 -0.383126 -0.427434 -0.274411 </weights>
                </Neuron>
                <Neuron id="8">
                    <weights>0.714223 -1.63723 -1.87401 -1.17381 2.2806 -2.27927 2.0882 -1.5392 0.147338 0.81989 0.324936 0.131662 1.74949 -2.19763 -0.272582 0.145617 -1.95609 </weights>
                </Neuron>
                <Neuron id="9">
                    <weights>0.563818 0.594105 0.0447412 -1.28099 -0.61073 1.95024 -0.229881 0.517864 -1.28464 0.661082 -0.206749 2.10921 1.40094 -2.94488 0.0454862 1.75751 -0.930214 </weights>
                </Neuron>
                <Neuron id="10">
                    <weights>-0.0917606 1.64973 -1.65116 -0.87778 -0.5291 -0.734733 -0.583276 -1.83299 0.0801722 -1.06689 -0.179453 0.761602 -0.889806 1.24726 1.20594 -1.31334 -0.15084 </weights>
                </Neuron>
                <Neuron id="11">
                    <weights>0.0543659 -0.37037 -0.320373 0.448452 1.72449 1.23716 -1.01447 -0.508903 0.858921 0.468226 0.946676 -0.686583 0.931344 0.211303 0.522389 -0.411115 1.98167 </weights>
                </Neuron>
            </NeuronLayer>
            <NeuronLayer id="2">
                <Neuron id="0">
                    <weights>0.487995 -0.920276 0.0840456 -0.627219 0.234621 -0.0659953 1.13565 -0.388982 -0.672435 -1.66267 -1.55275 0.301265 -1.08926 </weights>
                </Neuron>
                <Neuron id="1">
                    <weights>-0.0746935 -0.623526 -0.0514 1.61882 0.957539 0.203982 -1.03404 -1.06275 -0.43069 0.412566 -2.59826 -1.11645 -0.423932 </weights>
                </Neuron>
                <Neuron id="2">
                    <weights>-0.463194 -0.371502 0.934067 -0.327198 2.48796 -2.02387 2.78296 -0.531728 1.11731 0.956075 -0.347024 -0.286957 -1.14711 </weights>
                </Neuron>
            </NeuronLayer>
        </NeuralNetwork>
    </Entity>
    <Entity type="Carnivore">
        <x>407</x>
        <y>223</y>
        <radius>8</radius>
        <angle>1</angle>
        <maxSpeed>50</maxSpeed>
        <attack>100</attack>
        <energy>75</energy>
        <sex>true</sex>
        <mating>2500</mating>
        <age>0</age>
        <hunger>0</hunger>
        <thirst>0</thirst>
        <health>5000</health>
        <NeuralNetwork>
            <NeuronLayer id="0">
                <inputsNum>16</inputsNum>
            </NeuronLayer>
            <NeuronLayer id="1">
                <Neuron id="0">
                    <weights>-1.50653 -1.21364 -0.162584 0.0132819 -0.948218 -1.38552 1.04259 2.17278 0.598215 -0.552977 -0.227948 1.14701 -0.210404 0.37769 -0.717047 1.74035 3.04449 </weights>
                </Neuron>
                <Neuron id="1">
                    <weights>-1.78371 -0.481292 0.559037 0.190255 1.92813 0.355177 0.776887 -1.20308 -2.22524 0.620981 -2.45826 0.91559 -1.79416 -0.396027 -0.283001 1.85672 0.441102 </weights>
                </Neuron>
                <Neuron id="2">
                    <weights>0.614469 1.24777 1.72798 -0.393627 -0.593393 -0.0380821 0.63746 -0.723529 0.121914 -0.130385 -1.0698 1.10107 0.911047 -1.08801 -0.529431 -2.99738 -0.909864 </weights>
                </Neuron>
                <Neuron id="3">
                    <weights>1.49195 -0.921862 0.726663 -1.79995 -1.53932 0.733257 0.953892 1.58863 1.13284 1.15578 0.811476 0.161691 0.384959 -1.01781 1.09717 -0.156813 0.00579665 </weights>
                </Neuron>
                <Neuron id="4">
                    <weights>-0.646323 0.428841 1.29865 0.916232 -0.430299 -0.515055 0.133881 0.498523 0.058319 1.294 0.100258 -0.787377 -0.18566 0.361433 -0.258128 -1.44135 0.313494 </weights>
                </Neuron>
                <Neuron id="5">
                    <weights>0.463562 1.41274 -1.49145 -0.896866 1.35562 0.132764 -0.91086 1.4209 -0.75761 0.698049 0.49762 -1.14046 0.183743 0.74856 0.126307 0.184133 -1.43763 </weights>
                </Neuron>
                <Neuron id="6">
                    <weights>0.919015 -1.58515 -1.83201 -0.319945 -0.838218 -0.497308 0.335963 1.55312 0.0295037 1.23357 -0.507357 -0.340228 1.02551 1.3776 1.42811 0.142979 0.583853 </weights>
                </Neuron>
                <Neuron id="7">
                    <weights>-1.48513 2.25312 1.09973 -0.569105 0.0438608 -0.874608 1.67115 0.653227 0.678008 1.16026 0.875528 -0.292073 -0.638184 1.86627 -0.195746 1.034 0.788393 </weights>
                </Neuron>
                <Neuron id="8">
                    <weights>1.51613 -0.278868 -0.627621 0.839843 -0.886762 -1.02017 -0.590758 0.488819 0.907004 -0.347743 0.533802 -0.782747 -0.472844 0.583672 -0.271659 0.386307 0.745561 </weights>
                </Neuron>
                <Neuron id="9">
                    <weights>-0.766585 -0.570124 -0.188973 -2.22977 1.04995 -0.141401 0.937996 0.0966526 -0.69365 -0.846706 -1.85393 0.627097 0.261584 2.51096 0.24418 -0.989849 0.0879132 </weights>
                </Neuron>
                <Neuron id="10">
                    <weights>-0.280317 1.04251 2.58468 -0.485208 -0.81841 -1.11257 -0.959959 -0.196388 -0.353345 -1.31234 -0.753339 -1.20019 -0.808782 0.884866 1.06109 -0.35906 -0.763543 </weights>
                </Neuron>
                <Neuron id="11">
                    <weights>-1.14539 0.590008 0.818735 -0.934017 0.113881 1.28019 -0.728143 1.8297 -0.00716513 0.228014 0.65346 0.885201 -1.49578 -0.103764 0.987252 -2.12836 1.0362 </weights>
                </Neuron>
            </NeuronLayer>
            <NeuronLayer id="2">
                <Neuron id="0">
                    <weights>0.0601983 -0.899758 0.418483 -0.707959 -0.509705 -0.13232 -0.442128 -0.53761 -1.26117 0.0149874 -0.460731 0.2478 -0.987414 </weights>
                </Neuron>
                <Neuron id="1">
                    <weights>0.819051 -0.573003 2.11371 -0.366084 1.81548 -0.904986 1.06338 -1.06388 2.14967 1.53647 1.56089 -0.405677 -0.983687 </weights>
                </Neuron>
                <Neuron id="2">
                    <weights>-0.254002 -0.145617 -1.25584 -1.68201 0.814376 -0.449133 -1.47198 0.0264985 -0.169829 0.129713 -0.782617 0.227177 -0.271868 </weights>
                </Neuron>
            </NeuronLayer>
        </NeuralNetwork>
    </Entity>
    <Entity type="Carnivore">
        <x>280</x>
        <y>290</y>
        <radius>8</radius>
        <angle>1.9</angle>
        <maxSpeed>50</maxSpeed>
        <attack>100</attack>
        <energy>52</energy>
        <sex>true</sex>
        <mating>2500</mating>
        <age>0</age>
        <hunger>0</hunger>
        <thirst>0</thirst>
        <health>5000</health>
        <NeuralNetwork>
            <NeuronLayer id="0">
                <inputsNum>16</inputsNum>
            </NeuronLayer>
            <NeuronLayer id="1">
                <Neuron id="0">
                    <weights>1.22019 -1.50694 -0.814387 0.506611 -0.266701 0.791276 0.268889 0.347156 2.30154 -0.627358 -0.629676 -1.16899 -2.12553 -1.16652 -0.241384 0.0310396 -1.59408 </weights>
                </Neuron>
                <Neuron id="1">
                    <weights>-0.914201 1.57484 0.643814 1.61628 0.557132 1.08768 1.71608 -0.429446 -0.203014 1.18244 0.0505343 0.447416 1.4125 0.837777 0.537919 1.36148 0.0130674 </weights>
                </Neuron>
                <Neuron id="2">
                    <weights>-0.393755 2.41672 -0.557222 -1.48 -0.642712 0.667812 0.315419 0.0855819 0.572457 -0.478359 -2.39968 0.587566 0.0906927 0.49817 0.597374 -0.46648 -1.33079 </weights>
                </Neuron>
                <Neuron id="3">
                    <weights>-1.60992 2.06547 0.949901 0.428119 -1.59231 2.76518 -0.275721 0.221372 0.0526354 0.423244 0.101946 0.0744736 -0.994215 0.276175 -0.00709413 -0.394718 -0.392238 </weights>
                </Neuron>
                <Neuron id="4">
                    <weights>0.877398 0.983416 0.905956 -0.652432 -0.621304 -0.963715 -1.34832 1.1727 -1.04337 0.0796773 -0.247039 1.28372 -0.938052 -0.21434 0.674251 0.204959 -0.336047 </weights>
                </Neuron>
                <Neuron id="5">
                    <weights>-0.395437 0.744358 1.92106 0.924723 -0.307754 0.552812 0.483153 -0.341888 1.65901 -1.04074 -0.0170533 -0.449938 -0.0556125 0.0650673 0.0813184 0.668726 0.0788055 </weights>
                </Neuron>
                <Neuron id="6">
                    <weights>-0.458947 -1.3681 2.1858 -0.496854 -0.535404 -0.609056 0.760299 0.664871 0.0547256 0.307377 -0.0578537 0.694666 0.780264 0.0688597 -0.320428 -0.112959 -0.00766396 </weights>
                </Neuron>
                <Neuron id="7">
                    <weights>0.796341 -1.21439 1.48548 1.54538 1.35069 0.837255 -1.43903 1.12827 -1.13747 1.64655 -1.11732 -1.27342 0.257263 -0.0483475 1.96955 -1.29312 1.15344 </weights>
                </Neuron>
                <Neuron id="8">
                    <weights>-1.1208 2.91544 -0.471712 0.766464 1.00361 -0.548446 0.572875 -0.817547 0.986325 1.17903 -0.355648 -0.718196 -0.000952976 0.61601 0.0403327 1.0292 1.82077 </weights>
                </Neuron>
                <Neuron id="9">
                    <weights>1.69779 -0.384008 0.862047 1.31137 0.0885299 -0.561353 0.395833 0.206524 0.934305 -0.0127899 -1.59355 0.180527 0.778661 0.637004 2.1151 -0.640006 2.10476 </weights>
                </Neuron>
                <Neuron id="10">
                    <weights>-1.76827 -1.43435 -2.0757 1.20987 -0.824981 0.366235 -0.856429 -1.32344 1.82858 -0.607099 -0.0649488 -0.48099 0.339416 -1.49687 -1.11577 0.878732 -0.548362 </weights>
                </Neuron>
                <Neuron id="11">
                    <weights>-0.896348 0.744179 1.03272 -0.476762 1.4303 1.1439 1.04203 -0.111029 -0.232176 1.01339 1.52071 -0.853972 0.105275 0.473031 1.14363 -0.230008 -0.987773 </weights>
                </Neuron>
            </NeuronLayer>
            <NeuronLayer id="2">
                <Neuron id="0">
                    <weights>1.8191 0.0543273 0.158932 0.328044 -1.43414 -0.223381 1.01109 -0.114858 0.522565 -0.0626285 -1.09086 -0.180225 -0.791816 </weights>
                </Neuron>
                <Neuron id="1">
                    <weights>0.404655 0.606602 -0.57506 1.33101 0.796496 -1.15511 0.390166 0.387424 -1.66623 0.752832 -0.950974 0.514377 1.24319 </weights>
                </Neuron>
                <Neuron id="2">
                    <weights>1.27524 -0.0800051 -0.422476 0.291777 -1.26625 -2.18117 0.787207 0.0850936 0.119338 -0.566827 0.469529 1.20138 -0.39575 </weights>
                </Neuron>
            </NeuronLayer>
        </NeuralNetwork>
    </Entity>
    <Entity type="Carnivore">
        <x>15</x>
        <y>390</y>
        <radius>8</radius>
        <angle>1</angle>
        <maxSpeed>50</maxSpeed>
        <attack>100</attack>
        <energy>75</energy>
        <sex>true</sex>
        <mating>2500</mating>
        <age>0</age>
        <hunger>0</hunger>
        <thirst>0</thirst>
        <health>5000</health>
        <NeuralNetwork>
            <NeuronLayer id="0">
                <inputsNum>16</inputsNum>
            </NeuronLayer>
            <NeuronLayer id="1">
                <Neuron id="0">
                    <weights>-0.501681 0.293943 0.479875 -0.347114 -0.0191002 -0.250588 1.59436 -1.4076 -0.649203 -1.18203 0.181886 -0.741617 -0.00472051 -0.185479 0.794891 1.5732 -1.05417 </weights>
                </Neuron>
                <Neuron id="1">
                    <weights>-0.660626 0.363433 -0.888066 -0.434471 -0.862243 0.602713 0.209407 0.830027 -1.31444 -0.316608 0.639326 -0.276385 0.492921 -0.404039 0.352396 0.429953 -2.12284 </weights>
                </Neuron>
                <Neuron id="2">
                    <weights>0.64033 -2.20205 -0.813516 1.37141 -0.199509 1.3931 -0.713106 -1.73754 1.06447 -0.463816 0.794702 -0.219417 1.01078 0.977877 -0.294662 1.04334 1.92414 </weights>
                </Neuron>
                <Neuron id="3">
                    <weights>1.51541 -0.11745 -0.712758 0.263191 -1.00844 0.0265337 -1.13046 -1.0069 -1.86457 -1.17015 -1.91376 1.00967 -1.14408 -0.555155 0.0643656 0.399334 -0.463425 </weights>
                </Neuron>
                <Neuron id="4">
                    <weights>-0.827831 0.469792 0.570965 -0.852225 0.470607 2.12744 0.302745 -1.15117 0.761346 0.713589 0.55265 0.315689 0.110062 0.338711 -0.360931 1.18208 -1.42494 </weights>
                </Neuron>
                <Neuron id="5">
                    <weights>-1.38706 -0.0150764 0.783966 -0.726961 -0.384947 -1.54638 0.552897 1.31959 1.68237 -0.500461 -0.41418 -1.40688 -1.80318 -0.22845 -0.477754 0.429787 -0.418218 </weights>
                </Neuron>
                <Neuron id="6">
                    <weights>-0.734305 -0.110934 0.435489 0.721124 1.83866 -1.0079 1.03355 -0.769991 -0.470389 0.639477 -1.41215 -1.73119 -0.67643 0.159995 0.260799 -0.789403 1.09246 </weights>
                </Neuron>
                <Neuron id="7">
                    <weights>2.99754 0.784773 -1.02884 0.432811 0.671535 0.462272 1.28969 0.25322 -0.674137 1.21861 0.732086 -0.689751 0.008543 1.05215 -0.338088 -0.0167745 -0.588246 </weights>
                </Neuron>
                <Neuron id="8">
                    <weights>2.51603 0.550966 1.52077 -1.20974 0.140289 -0.207014 0.667593 0.223501 -1.21024 -0.472342 -0.325932 -1.45539 -0.125054 0.914765 -0.280964 -1.35919 -1.1847 </weights>
                </Neuron>
                <Neuron id="9">
                    <weights>-0.268366 -0.942103 -0.801215 0.471128 0.161036 0.88162 -0.209357 -0.879539 0.938957 1.23343 -0.315403 -1.10378 -0.942632 -1.59147 -1.06606 -0.155273 -0.770588 </weights>
                </Neuron>
                <Neuron id="10">
                    <weights>-1.69508 0.951463 0.348893 0.140005 -1.82106 -0.781696 0.420635 -1.37696 1.6872 0.333584 -0.241704 1.19507 -1.57368 0.198019 0.285292 2.0954 -0.0782096 </weights>
                </Neuron>
                <Neuron id="11">
                    <weights>0.514699 0.0942925 0.58007 -0.708059 -0.303048 -0.110341 0.296655 -0.311509 0.785141 0.496824 1.12918 2.20089 -0.572628 -0.556232 0.174425 -0.417428 -0.556392 </weights>
                </Neuron>
            </NeuronLayer>
            <NeuronLayer id="2">
                <Neuron id="0">
                    <weights>0.780078 0.800539 0.546292 0.277278 0.967432 -0.0181261 -0.186947 1.03312 -0.063055 1.6665 0.461281 0.482841 0.434135 </weights>
                </Neuron>
                <Neuron id="1">
                    <weights>-1.72375 -0.610873 0.33222 0.670165 -0.542581 -0.251814 -0.53101 0.543989 -0.249069 -0.548259 0.595335 -1.38532 -0.493765 </weights>
                </Neuron>
                <Neuron id="2">
                    <weights>-0.217244 0.0748053 -1.43288 0.847781 -1.47104 -1.04061 0.695941 -0.970752 -0.888469 0.785858 0.410697 -1.25834 0.844062 </weights>
                </Neuron>
            </NeuronLayer>
        </NeuralNetwork>
    </Entity>
    <Entity type="Carnivore">
        <x>250</x>
        <y>460</y>
        <radius>8</radius>
        <angle>0.4</angle>
        <maxSpeed>50</maxSpeed>
        <attack>100</attack>
        <energy>90</energy>
        <sex>true</sex>
        <mating>2500</mating>
        <age>0</age>
        <hunger>0</hunger>
        <thirst>0</thirst>
        <health>5000</health>
        <NeuralNetwork>
            <NeuronLayer id="0">
                <inputsNum>16</inputsNum>
            </NeuronLayer>
            <NeuronLayer id="1">
                <Neuron id="0">
                    <weights>-0.937016 0.874906 1.12439 -0.570458 0.4038 -3.03865 1.37319 -0.0636021 -0.277206 2.04998 -2.34863 -0.518957 -0.290846 -1.69544 0.187108 -1.08723 -0.426283 </weights>
                </Neuron>
                <Neuron id="1">
                    <weights>-1.73068 0.369831 -0.900046 -2.41199 -2.33967 1.56156 0.905363 1.02306 1.48892 -1.40257 2.18063 -1.07377 0.794551 0.210324 -1.61069 1.46865 -0.257472 </weights>
                </Neuron>
                <Neuron id="2">
                    <weights>-1.88613 0.60766 1.1722 1.09602 -0.0215696 -1.29645 0.716764 0.0753204 -0.37234 -1.79232 0.777507 -0.148125 2.6346 0.366957 -0.503583 0.51546 1.25996 </weights>
                </Neuron>
                <Neuron id="3">
                    <weights>0.355954 -0.642372 0.761402 -0.40754 0.213501 0.2217 0.501003 -1.03298 -0.0620733 0.416463 -1.54844 0.648732 0.632407 0.529636 0.845788 -0.110606 2.43142 </weights>
                </Neuron>
                <Neuron id="4">
                    <weights>0.63293 -0.00149037 -0.226616 1.17763 0.913924 0.723923 -0.283382 0.43373 -0.0263721 1.52607 -1.22616 -2.2195 0.372102 -0.559491 0.767766 -2.16243 0.644107 </weights>
                </Neuron>
                <Neuron id="5">
                    <weights>-1.47642 0.311196 1.30409 1.0448 0.736595 0.0683914 -0.555726 0.714284 0.631409 0.787764 -0.191133 1.39473 -0.603084 1.35862 1.03222 1.95912 0.997923 </weights>
                </Neuron>
                <Neuron id="6">
                    <weights>0.446972 -1.52272 -0.00693744 -0.353024 0.393314 -0.771047 -2.15993 -0.599058 1.06835 0.335132 1.2934 -0.671696 0.473786 -1.26252 -0.404198 -0.578687 -1.56843 </weights>
                </Neuron>
                <Neuron id="7">
                    <weights>-0.313931 -0.785123 -0.240321 1.52176 -1.37417 -0.677647 -0.356015 1.67019 1.06752 0.482664 0.644445 0.571338 -1.29057 1.08141 -0.198725 -1.68719 -1.19399 </weights>
                </Neuron>
                <Neuron id="8">
                    <weights>0.765596 -1.09229 0.129164 -0.244808 0.282831 1.72321 -0.790926 -1.04063 -1.04893 -1.68343 -1.91206 0.446308 -2.15391 0.029477 -1.51404 0.948198 -0.865631 </weights>
                </Neuron>
                <Neuron id="9">
                    <weights>1.60555 -0.663363 -0.118875 0.868875 0.275182 -1.48864 -1.37031 -0.482598 -0.123319 -1.60032 -1.41072 1.28069 1.13129 -0.670105 1.03828 -1.43622 -0.404377 </weights>
                </Neuron>
                <Neuron id="10">
                    <weights>-0.943404 -2.3955 -1.35428 -0.457202 -0.132364 -0.145646 -2.0249 -0.484884 -1.29594 2.4819 -0.970034 0.197619 0.593361 0.121365 -1.51516 0.672374 -1.02922 </weights>
                </Neuron>
                <Neuron id="11">
                    <weights>-1.53876 -0.375124 -1.11685 -0.0897704 0.0968657 0.327125 -0.195436 -1.2869 0.958998 -0.105996 0.0350701 0.0813886 -0.839991 -0.973852 -0.132757 0.172994 -0.256081 </weights>
                </Neuron>
            </NeuronLayer>
            <NeuronLayer id="2">
                <Neuron id="0">
                    <weights>-1.02137 1.60371 0.625618 1.40544 0.287704 0.190601 -0.482784 1.00141 0.186848 -1.35728 -1.32329 -0.627204 -0.884574 </weights>
                </Neuron>
                <Neuron id="1">
                    <weights>-1.01047 -1.17405 -0.461456 0.677608 1.2443 -0.101861 1.75039 -1.51542 -0.295372 -1.18511 0.534295 -1.73177 -0.782357 </weights>
                </Neuron>
                <Neuron id="2">
                    <weights>-1.48621 0.327381 1.61923 -0.372367 1.40076 1.9196 -0.0570523 1.03634 -0.575561 1.70179 -1.93582 1.44168 1.55425 </weights>
                </Neuron>
            </NeuronLayer>
        </NeuralNetwork>
    </Entity>
    <Entity type="Carnivore">
        <x>10</x>
        <y>102</y>
        <radius>8</radius>
        <angle>1</angle>
        <maxSpeed>50</maxSpeed>
        <attack>100</attack>
        <energy>75</energy>
        <sex>false</sex>
        <mating>2500</mating>
        <age>0</age>
        <hunger>0</hunger>
        <thirst>0</thirst>
        <health>5000</health>
        <NeuralNetwork>
            <NeuronLayer id="0">
                <inputsNum>16</inputsNum>
            </NeuronLayer>
            <NeuronLayer id="1">
                <Neuron id="0">
                    <weights>-1.82402 0.396098 0.449866 -0.821636 1.19363 1.4683 0.408005 -0.589926 1.87438 0.561939 -0.893078 -0.242467 1.35742 -1.27166 0.437138 0.158269 1.88356 </weights>
                </Neuron>
                <Neuron id="1">
                    <weights>0.340313 0.214249 -0.54109 0.191336 -0.499035 0.389368 -0.334254 0.122108 -1.003 -1.08534 -0.117055 1.09967 -0.54178 0.866731 1.38148 -0.391422 -2.71194 </weights>
                </Neuron>
                <Neuron id="2">
                    <weights>-0.641407 -1.47613 0.519002 0.610195 -0.805779 -0.928379 -0.529363 -0.455168 0.572653 0.447004 -0.133467 -0.574943 0.610501 1.06785 0.517221 -1.44177 -0.108229 </weights>
                </Neuron>
                <Neuron id="3">
                    <weights>1.96597 -0.260389 0.861652 0.544927 1.9376 1.43932 1.66802 -1.19563 -1.1657 2.05444 1.09385 -0.496612 0.679055 0.183106 0.791316 -0.417289 -0.0391631 </weights>
                </Neuron>
                <Neuron id="4">
                    <weights>0.664172 -0.0631372 -0.849079 -0.207656 -0.609257 1.02459 0.0148646 0.609325 0.289299 -0.727674 -0.787923 -0.387896 -0.770323 0.355874 1.33217 -1.60984 -0.688352 </weights>
                </Neuron>
                <Neuron id="5">
                    <weights>-1.32525 -1.26422 -0.504348 0.814671 -0.653289 -0.435132 -0.212568 1.57363 -1.99535 -2.92266 0.83511 -0.852797 0.600051 1.71909 -0.499687 1.09375 1.73018 </weights>
                </Neuron>
                <Neuron id="6">
                    <weights>-1.09252 0.0679266 -2.07225 1.04545 -0.142834 -1.23686 0.96932 -1.10619 0.164023 -1.44317 -1.11735 0.457596 0.502691 0.281758 -1.0682 0.23683 -0.370878 </weights>
                </Neuron>
                <Neuron id="7">
                    <weights>0.412204 -1.17401 0.540701 0.117811 -0.579298 -0.0950007 -0.128087 0.626133 -1.56621 -1.12834 1.47677 0.505711 0.427122 0.749311 0.251069 0.35641 -0.172837 </weights>
                </Neuron>
                <Neuron id="8">
                    <weights>1.31367 0.0643152 0.396217 -0.839395 0.68569 0.395456 -0.718863 0.481103 0.2972 -0.806609 1.06714 -0.668426 0.641621 -0.739222 -0.0612012 0.277255 0.155153 </weights>
                </Neuron>
                <Neuron id="9">
                    <weights>-0.955037 1.02624 0.52171 0.506912 0.987183 0.289328 2.15285 -0.145573 -0.403743 -0.694617 1.89415 0.1837 -0.252165 0.416072 -1.28376 0.679241 0.266192 </weights>
                </Neuron>
                <Neuron id="10">
                    <weights>-0.63651 -0.950076 1.19402 -1.15756 1.32395 1.13496 1.07345 -0.75731 0.929172 0.807802 0.909982 -0.0148948 0.372665 -1.55503 0.0856888 0.804693 0.295579 </weights>
                </Neuron>
                <Neuron id="11">
                    <weights>1.19374 1.40428 -1.08464 -1.35134 1.42231 0.540472 -0.34033 -0.187993 -1.57659 0.899773 -0.608876 0.999536 0.479375 -0.694219 1.73063 0.144061 0.621171 </weights>
                </Neuron>
            </NeuronLayer>
            <NeuronLayer id="2">
                <Neuron id="0">
                    <weights>-1.06931 1.51155 -0.00734346 0.821201 -0.871027 -0.586742 -1.28446 -0.0338442 1.02256 0.18458 1.16409 -2.1284 0.778419 </weights>
                </Neuron>
                <Neuron id="1">
                    <weights>1.24281 1.69141 0.731027 -0.341042 -0.924757 -1.60603 -0.515331 -0.588464 -1.61957 -1.25804 0.20754 0.0726681 0.91128 </weights>
                </Neuron>
                <Neuron id="2">
                    <weights>-0.0940252 -1.95943 0.326476 0.749202 -1.00739 -1.53589 -0.032795 1.85608 0.803434 0.681113 1.60279 1.72282 -0.00449891 </weights>
                </Neuron>
            </NeuronLayer>
        </NeuralNetwork>
    </Entity>
    <Entity type="Carnivore">
        <x>116</x>
        <y>150</y>
        <radius>8</radius>
        <angle>0.41</angle>
        <maxSpeed>50</maxSpeed>
        <attack>100</attack>
        <energy>89</energy>
        <sex>true</sex>
        <mating>2500</mating>
        <age>0</age>
        <hunger>0</hunger>
        <thirst>0</thirst>
        <health>5000</health>
        <NeuralNetwork>
            <NeuronLayer id="0">
                <inputsNum>16</inputsNum>
            </NeuronLayer>
            <NeuronLayer id="1">
                <Neuron id="0">
                    <weights>-0.258083 0.160872 -1.11427 -0.348639 2.22507 -0.483808 -0.552613 -0.572296 -1.54561 0.268469 0.37587 0.0430808 -1.25787 -0.717152 0.51424 0.863698 1.05742 </weights>
                </Neuron>
                <Neuron id="1">
                    <weights>0.511624 -0.912101 -0.327377 1.17494 1.08324 0.802295 -2.1936 1.41267 -0.826174 0.108304 -0.798327 -0.0997238 0.567784 0.829182 -0.793648 -0.337712 -0.833017 </weights>
                </Neuron>
                <Neuron id="2">
                    <weights>0.863165 1.99124 1.7506 0.114797 0.864912 0.845482 -0.722971 -0.242239 -1.21673 -1.25535 -0.333331 0.724207 -0.781456 -1.16975 0.407766 -0.410636 -1.45459 </weights>
                </Neuron>
                <Neuron id="3">
                    <weights>-0.0969658 -0.967242 -0.378735 -0.943253 -1.05361 0.595786 0.382116 -0.862851 0.533663 0.522618 -0.745841 0.17351 -1.58591 1.36185 0.136767 0.399588 -0.895291 </weights>
                </Neuron>
                <Neuron id="4">
                    <weights>-0.127726 0.83597 -1.07774 0.532002 1.22162 -0.271953 0.604116 -0.214394 0.87453 0.148827 2.21721 -0.333175 -0.358114 0.263139 -0.613945 0.133974 0.419325 </weights>
                </Neuron>
                <Neuron id="5">
                    <weights>-0.825353 0.18246 -0.198124 -0.586543 -0.859566 -0.79904 0.228987 1.66068 -0.687313 0.696877 0.686005 -0.243172 1.65004 -0.641551 0.098326 -1.59288 -1.63757 </weights>
                </Neuron>
                <Neuron id="6">
                    <weights>-0.843834 -0.199914 -0.153765 0.065866 -0.744317 -1.10311 -0.406406 -0.558069 -1.87202 -1.65816 -1.04071 -0.286035 -0.615295 -0.339945 -1.01519 -0.985991 0.228266 </weights>
                </Neuron>
                <Neuron id="7">
                    <weights>-1.1643 -1.63926 0.510267 -0.996896 0.772058 -0.69182 0.523942 -2.49918 1.17667 -1.59206 -0.702203 1.1064 -2.56952 -0.0813236 -1.55877 -0.329373 0.142922 </weights>
                </Neuron>
                <Neuron id="8">
                    <weights>-0.341137 1.37096 -0.734006 0.598448 0.431998 1.46269 0.636204 0.0414709 1.15703 -0.542128 0.178809 -0.442049 0.680335 -1.05065 -1.0884 -0.373412 -0.625945 </weights>
                </Neuron>
                <Neuron id="9">
                    <weights>1.00347 -0.124508 0.581053 -0.3752 -0.199296 -1.55191 -0.461297 0.548029 -1.11881 0.647109 -1.06243 -1.19833 -0.258957 -0.0893955 -0.838303 -0.48061 0.569636 </weights>
                </Neuron>
                <Neuron id="10">
                    <weights>-0.621028 -0.49706 0.740583 -0.598405 -0.760568 1.15452 -1.26921 1.02213 -0.435921 -1.46502 0.335492 0.037119 1.10458 -0.0680366 -0.615137 -1.01273 -0.637521 </weights>
                </Neuron>
                <Neuron id="11">
                    <weights>-0.264529 0.0774826 -0.0968377 2.02558 -0.480723 -0.13368 -1.09816 2.85649 -0.381322 1.18805 -0.579049 1.43329 0.660255 -1.41667 1.62473 0.0201238 -0.0265347 </weights>
                </Neuron>
            </NeuronLayer>
            <NeuronLayer id="2">
                <Neuron id="0">
                    <weights>-0.83933 -0.119083 0.552471 -0.865771 -1.93623 -0.231473 -0.729296 0.987546 -0.208678 -0.915217 -1.8669 -0.385667 -1.5335 </weights>
                </Neuron>
                <Neuron id="1">
                    <weights>-0.17372 0.782989 -0.342673 0.786788 -0.719633 1.4151 -2.0429 0.96206 0.199995 0.417839 0.0331342 -1.70463 0.0481662 </weights>
                </Neuron>
                <Neuron id="2">
                    <weights>-0.2911 -0.656323 -0.403487 0.268857 0.0963368 0.472248 -0.540219 0.423177 -0.947012 -0.375512 -0.669515 1.22097 -1.63387 </weights>
                </Neuron>
            </NeuronLayer>
        </NeuralNetwork>
    </Entity>
</World>
