<?xml version="1.0" encoding="utf-8"?>
<World>
	<x>500</x>
	<y>500</y>
	<Entity type="Vegetal">
		<x>350</x>
		<y>400</y>
		<radius>50</radius>
	</Entity>
	<Entity type="Vegetal">
		<x>400</x>
		<y>100</y>
		<radius>50</radius>
	</Entity>
	<Entity type="Vegetal">
		<x>200</x>
		<y>10</y>
		<radius>50</radius>
	</Entity>
	<Entity type="Vegetal">
		<x>380</x>
		<y>460</y>
		<radius>50</radius>
	</Entity>
	<Entity type="Vegetal">
		<x>100</x>
		<y>200</y>
		<radius>50</radius>
	</Entity>
	<Entity type="Vegetal">
		<x>220</x>
		<y>280</y>
		<radius>50</radius>
	</Entity>
	<Entity type="Vegetal">
		<x>250</x>
		<y>180</y>
		<radius>50</radius>
	</Entity>
	<Entity type="Water">
		<x>100</x>
		<y>300</y>
		<radius>20</radius>
	</Entity>
	<Entity type="Water">
		<x>400</x>
		<y>250</y>
		<radius>50</radius>
	</Entity>
	<Entity type="Water">
		<x>450</x>
		<y>25</y>
		<radius>20</radius>
	</Entity>
	<Entity type="Water">
		<x>100</x>
		<y>420</y>
		<radius>50</radius>
	</Entity>
	<Entity type="Water">
		<x>70</x>
		<y>70</y>
		<radius>50</radius>
	</Entity>
	<Entity type="Water">
		<x>25</x>
		<y>370</y>
		<radius>20</radius>
	</Entity>
	<Entity type="Water">
		<x>300</x>
		<y>70</y>
		<radius>30</radius>
	</Entity>
	<Entity type="Water">
		<x>200</x>
		<y>400</y>
		<radius>40</radius>
	</Entity>
	
	
	<Entity type="Herbivore">
		<x>250</x>
		<y>250</y>
		<radius>10</radius>
		<angle>3.14</angle>
		<maxSpeed>50</maxSpeed>
		<attack>20</attack>
		<energy>100</energy>
		<sex>fasle</sex>
		<mating>1200</mating>
		<NeuralNetwork>
		    <NeuronLayer id="0">
			<inputsNum>15</inputsNum>
		    </NeuronLayer>
		    <NeuronLayer id="1">
			<Neuron id="0">
			    <weights>-1.35798 -0.415777 2.03883 -0.559076 1.07002 1.59307 1.25854 0.921104 -0.531158 0.0358458 0.31937 0.946826 -1.2461 2.32257 0.46968 -0.495962 </weights>
			</Neuron>
			<Neuron id="1">
			    <weights>1.6934 1.48352 0.267984 0.476613 -0.605649 -0.147237 -0.0839781 0.181229 0.778229 -0.213005 0.00604931 1.57921 0.575349 -0.149029 0.34055 -1.3218 </weights>
			</Neuron>
			<Neuron id="2">
			    <weights>-0.367766 1.96026 -1.00944 0.145935 -0.245108 2.07437 -1.61903 -0.252798 -0.0322822 -0.277075 0.123027 -0.761375 -0.790678 0.144691 0.575372 -0.475994 </weights>
			</Neuron>
			<Neuron id="3">
			    <weights>-0.264253 -1.30419 -0.933699 0.598243 -0.191005 -0.412843 0.0405699 1.01642 -1.81315 -0.718644 0.237291 0.795889 1.22584 0.0410557 -0.408506 0.867397 </weights>
			</Neuron>
			<Neuron id="4">
			    <weights>0.338422 0.986187 1.08139 0.146441 0.619199 1.70995 -1.24569 1.25234 1.02947 -0.387199 0.431997 -0.961653 -0.25862 1.54171 -0.432324 -0.192175 </weights>
			</Neuron>
			<Neuron id="5">
			    <weights>1.67725 -1.07569 -0.381394 1.72069 0.490922 -3.77118 0.518335 -2.8999 1.76453 0.779159 0.609264 1.26822 -2.21037 -0.326969 -0.165945 0.695989 </weights>
			</Neuron>
			<Neuron id="6">
			    <weights>-0.103144 0.161757 -0.597199 0.980022 0.541215 -0.850802 0.879377 -1.4365 -0.53934 0.913229 -0.623937 -1.35475 0.271736 1.42015 0.00452806 0.785988 </weights>
			</Neuron>
			<Neuron id="7">
			    <weights>0.687723 -0.421059 -1.14944 -0.583383 -0.370563 0.271782 -0.612576 0.212058 -0.281453 0.28041 -0.33892 0.82035 -0.131623 -1.75653 -0.108448 -0.227881 </weights>
			</Neuron>
			<Neuron id="8">
			    <weights>0.326754 -0.205961 -2.6732 -0.51847 0.954088 0.75712 0.858479 0.0967927 1.34484 0.207699 0.938215 1.67103 -0.247311 -0.0615821 -1.95383 0.653687 </weights>
			</Neuron>
			<Neuron id="9">
			    <weights>1.98505 0.871466 -1.00892 -0.839793 1.56144 1.05176 -0.448124 0.804492 -0.140502 -1.95537 1.39474 1.33449 1.37114 1.69139 -0.290984 0.293826 </weights>
			</Neuron>
			<Neuron id="10">
			    <weights>0.476396 0.528843 1.07609 0.478648 -1.3522 1.21087 1.7024 -0.825988 0.888928 1.28322 0.197863 -0.259033 1.64688 -0.323335 -0.816738 1.41194 </weights>
			</Neuron>
			<Neuron id="11">
			    <weights>0.978163 -2.57192 -0.318234 0.277647 -1.74928 -0.00881268 -0.137106 -1.06273 0.791908 -0.0198093 -0.715474 -0.654516 0.774359 0.214049 1.62836 -0.502263 </weights>
			</Neuron>
		    </NeuronLayer>
		    <NeuronLayer id="2">
			<Neuron id="0">
			    <weights>1.93386 0.639057 -0.476774 -0.583312 -0.280361 0.960282 0.858852 -0.278844 -0.468438 -0.414846 -0.339901 0.589059 0.0391419 </weights>
			</Neuron>
			<Neuron id="1">
			    <weights>0.0877272 2.68329 1.07114 1.88469 -0.715622 -0.0178617 0.973292 -0.232954 -0.213637 -0.0612961 0.21724 -0.651472 -2.07996 </weights>
			</Neuron>
			<Neuron id="2">
			    <weights>0.233136 0.516389 0.363537 -0.971716 0.840817 0.953207 0.803892 -1.10359 -0.361792 -0.227999 0.175081 1.72964 -0.536539 </weights>
			</Neuron>
		    </NeuronLayer>
		</NeuralNetwork>
	</Entity>
</World>
