<?xml version="1.0" encoding="UTF-8"?>
<NeuralNetwork>
    <NeuronLayer id="0">
        <inputsNum>15</inputsNum>
    </NeuronLayer>
    <NeuronLayer id="1">
        <Neuron id="0">
            <weights>0.347938 0.447224 0.0383162 -0.407643 -0.729785 0.0770589 -0.355526 -0.49899 0.35073 -0.754163 -0.391971 -0.582905 -0.896678 0.833476 1.03404 -1.17566 </weights>
        </Neuron>
        <Neuron id="1">
            <weights>0.776418 1.49647 1.64065 -0.204213 0.424534 0.903045 -0.678679 -1.51966 0.125651 0.11126 -1.79813 -0.211243 0.107433 -0.786737 -1.08856 -1.96004 </weights>
        </Neuron>
        <Neuron id="2">
            <weights>-0.00114476 -0.0663994 1.21774 -0.461953 1.7976 -1.12834 -0.299859 0.726312 -0.797873 -0.870112 -0.570859 -0.420542 -0.156082 -0.285745 -0.527102 -0.987842 </weights>
        </Neuron>
        <Neuron id="3">
            <weights>-0.0839684 1.21832 0.719644 -0.922168 -1.51059 -1.74953 1.24381 2.34528 0.304578 -0.417992 1.08443 -0.355025 0.961316 -0.555567 -1.26378 0.10845 </weights>
        </Neuron>
        <Neuron id="4">
            <weights>0.663625 1.15882 -0.719016 -2.16348 -0.791976 0.37856 0.0227443 0.149967 0.307413 0.0156041 -0.282366 0.185695 0.203352 -1.30969 -0.173518 -1.18671 </weights>
        </Neuron>
        <Neuron id="5">
            <weights>1.72615 0.476331 -0.470295 -0.661684 -0.72237 -0.271084 0.540899 1.69447 -1.00251 -0.358135 1.28487 0.102003 -1.29397 0.224513 -1.57817 -1.36972 </weights>
        </Neuron>
        <Neuron id="6">
            <weights>0.179807 -1.10288 -0.536903 -0.0782806 0.128738 -0.218989 -0.843705 -0.0847741 -2.2472 1.39735 0.146367 0.109839 0.933334 -0.242483 0.133207 0.445168 </weights>
        </Neuron>
        <Neuron id="7">
            <weights>-0.339539 -1.40726 -1.18208 -0.506528 -1.03517 -0.990286 0.575444 0.909367 0.0229408 0.163155 0.444256 0.189149 0.434327 0.891734 -1.6519 2.1698 </weights>
        </Neuron>
        <Neuron id="8">
            <weights>0.320417 1.31811 1.36113 0.762819 0.629601 -0.490372 -2.65759 1.89421 -0.738751 -0.694621 -1.17985 -1.78325 1.00348 0.550659 0.317156 -0.854845 </weights>
        </Neuron>
        <Neuron id="9">
            <weights>0.436545 0.190711 -0.380731 -0.0949128 -0.213179 -0.822847 -0.137917 -2.36642 -0.698029 0.583666 1.37659 -0.657392 0.909424 -1.31516 1.74974 -2.02767 </weights>
        </Neuron>
        <Neuron id="10">
            <weights>1.03563 0.313257 0.868274 -0.0502469 1.04053 0.905346 -0.668632 0.516203 -1.01015 -0.805559 -0.691754 -0.756618 -0.698568 1.09953 -0.544664 -0.0124597 </weights>
        </Neuron>
        <Neuron id="11">
            <weights>0.175076 0.404641 1.63582 0.713877 -0.69748 -0.832396 0.883464 0.672382 0.0574295 1.37592 0.915444 0.259895 -1.37105 0.845153 2.12119 -0.164558 </weights>
        </Neuron>
    </NeuronLayer>
    <NeuronLayer id="2">
        <Neuron id="0">
            <weights>-0.317646 -0.952279 -2.1311 -0.20455 1.57666 -0.650163 -0.17671 -0.221251 -1.48475 -0.182237 1.19312 1.05219 -0.49432 </weights>
        </Neuron>
        <Neuron id="1">
            <weights>1.08114 -0.0805438 0.688406 -1.50873 -1.33844 0.567574 -0.989423 0.428561 -0.429229 0.137024 0.286006 -0.448961 0.887751 </weights>
        </Neuron>
        <Neuron id="2">
            <weights>-0.107024 0.394695 0.927816 -2.33536 -0.281792 1.29783 -1.11174 -0.968627 1.75424 0.0844964 -0.0332142 0.212856 -1.09054 </weights>
        </Neuron>
    </NeuronLayer>
</NeuralNetwork>
